	{
		{
			{0.329000, 0.287693, 0.356577, -0.200643, -0.415872, },
			{0.226726, 0.329813, -0.013384, -0.559313, -0.530657, },
			{0.140787, 0.355077, -0.132867, -0.461242, -0.275081, },
			{0.170512, 0.100728, -0.145938, -0.352352, 0.075152, },
			{0.078166, -0.143995, -0.297354, 0.033595, 0.245668, },
		},
	},

	{
		{
			{0.319868, 0.093876, -0.341310, -0.358509, -0.246427, },
			{0.249072, 0.033580, -1.029869, -0.765882, 0.014654, },
			{0.212841, -0.666800, -1.428949, -0.302993, 0.117781, },
			{-0.258101, -0.913076, -0.657105, 0.157757, 0.259402, },
			{-0.599717, -0.744069, -0.067224, 0.076990, 0.526119, },
		},
	},

	{
		{
			{-0.033239, -0.085171, -0.471463, -0.396107, -0.459667, },
			{0.011041, -0.246804, -0.069313, -0.211959, -0.245783, },
			{0.052566, 0.263364, 0.252063, 0.352506, 0.271455, },
			{0.058332, 0.438804, 1.035555, 1.078348, 0.636061, },
			{-0.167511, 0.059467, 0.227229, 0.053597, 0.121983, },
		},
	},

	{
		{
			{-0.085206, 0.224963, 0.239967, 0.412534, 0.553692, },
			{0.148346, 0.423337, 0.213766, 0.117930, 0.193248, },
			{0.503270, 0.532635, -0.306850, -0.609040, -0.466747, },
			{0.191151, -0.001383, -0.795954, -0.916394, -0.589157, },
			{0.381560, -0.039362, -0.115401, -0.092268, 0.208339, },
		},
	},

	{
		{
			{0.126212, 0.104441, 0.409612, 0.063991, 0.135156, },
			{0.031987, 0.789617, 0.862067, 0.431922, -0.069864, },
			{-0.009556, 0.293768, 0.446736, 0.197031, -0.334381, },
			{-0.189998, -0.118209, -0.153528, -0.439271, -0.260265, },
			{-0.553629, -0.500147, -0.259000, -0.159602, 0.008027, },
		},
	},

	{
		{
			{0.128165, -0.423010, -0.302409, -0.015086, 0.299620, },
			{-0.417129, -1.021265, -0.597271, 0.022138, 0.257082, },
			{0.041603, -0.261089, 0.125633, 0.168149, -0.006121, },
			{0.235221, 0.218512, 0.208866, -0.016934, -0.142430, },
			{0.261098, 0.459883, 0.344922, -0.073314, -0.201026, },
		},
	},

