	{
		{
			{-0.210515, 0.100704, 0.138590, -0.024551, -0.059722, },
			{-0.000206, 0.043529, 0.065179, -0.255856, -0.041188, },
			{-0.084158, -0.251256, -0.316627, -0.112948, 0.267286, },
			{-0.000838, -0.182254, -0.041284, 0.341820, 0.168391, },
			{0.028235, -0.024946, 0.192773, -0.088357, -0.364918, },
		},
		{
			{-0.071634, -0.104210, 0.169543, 0.095418, 0.237474, },
			{0.058174, -0.016929, 0.140883, 0.106787, -0.285897, },
			{-0.148961, -0.088607, -0.172918, -0.238669, -0.000885, },
			{-0.079806, -0.021864, 0.238602, 0.097886, 0.184468, },
			{0.047821, 0.127610, 0.164115, 0.102895, 0.096591, },
		},
		{
			{-0.005909, -0.220356, -0.122816, -0.262108, -0.115311, },
			{-0.116006, 0.033451, 0.215436, 0.184556, -0.142287, },
			{0.141616, -0.010774, 0.172957, -0.171540, -0.292822, },
			{0.024346, -0.232879, -0.299627, -0.140484, 0.007670, },
			{0.050614, 0.083445, 0.079366, 0.108165, 0.209512, },
		},
		{
			{-0.135283, 0.121558, 0.055007, 0.067258, -0.157612, },
			{0.109980, -0.265005, -0.607608, -0.550487, -0.212561, },
			{0.016066, -0.224147, -0.202604, 0.325293, 0.569488, },
			{0.399750, 0.185121, 0.466459, 0.587141, -0.017629, },
			{-0.083662, 0.000365, 0.000838, -0.166966, -0.033023, },
		},
		{
			{-0.162967, 0.043321, -0.122953, -0.498070, -0.413001, },
			{0.083049, 0.000951, -0.277614, -0.478204, -0.342135, },
			{-0.076795, -0.025411, 0.044469, 0.289518, 0.456202, },
			{0.237428, 0.174580, 0.268417, 0.218914, -0.068705, },
			{0.364977, 0.205653, -0.048927, -0.132469, -0.110320, },
		},
		{
			{0.371987, 0.138358, 0.134822, 0.202280, 0.343194, },
			{0.113671, -0.048197, 0.181365, 0.318109, 0.413796, },
			{0.176848, 0.136842, -0.039972, -0.169367, -0.449152, },
			{-0.289148, -0.124716, -0.184696, -0.369969, -0.145199, },
			{-0.281816, -0.076499, -0.144300, 0.089421, 0.189106, },
		},
	},

	{
		{
			{0.218835, -0.008153, -0.092917, -0.169532, 0.314186, },
			{-0.295244, 0.188359, -0.104299, -0.256953, 0.131736, },
			{-0.065508, 0.364805, -0.186959, -0.410256, 0.269218, },
			{-0.011758, -0.004736, -0.306393, 0.096918, 0.527720, },
			{-0.024274, -0.061957, -0.046512, 0.359174, -0.296492, },
		},
		{
			{0.046201, -0.026272, 0.034198, -0.144711, -0.145510, },
			{0.013384, -0.111520, -0.143916, -0.212310, -0.278031, },
			{0.006052, 0.140482, 0.164699, -0.156351, -0.206675, },
			{-0.030409, -0.086037, -0.133853, -0.023736, 0.287928, },
			{-0.071893, -0.135244, 0.042254, 0.213724, 0.010770, },
		},
		{
			{0.135988, 0.156181, 0.293919, 0.234609, 0.170870, },
			{-0.093145, -0.125471, 0.058459, 0.440775, 0.324935, },
			{-0.061350, -0.093064, 0.012351, 0.212462, -0.038845, },
			{-0.081776, 0.108420, -0.050293, -0.199572, 0.115027, },
			{-0.239317, 0.003898, -0.131846, 0.010467, 0.206274, },
		},
		{
			{0.058346, 0.031579, -0.312444, -0.539131, -0.068960, },
			{-0.030200, 0.284832, -0.118093, -0.466800, 0.085935, },
			{0.127511, 0.253371, -0.245353, 0.043707, 0.775760, },
			{0.145228, 0.013311, 0.058314, 0.403145, 0.180956, },
			{0.080322, -0.083614, 0.294727, -0.034105, -0.214094, },
		},
		{
			{0.075757, -0.185753, -0.197378, -0.043151, -0.164290, },
			{0.114931, -0.027684, -0.102442, 0.323351, 0.250981, },
			{0.203938, -0.123996, -0.148684, 0.196615, 0.497267, },
			{-0.020764, -0.247674, -0.317377, 0.272018, 0.036602, },
			{0.079572, -0.101222, 0.118150, -0.009541, -0.280925, },
		},
		{
			{-0.035586, 0.324549, 0.113511, 0.210843, 0.099702, },
			{0.053969, -0.063556, -0.086370, -0.209006, -0.278887, },
			{0.043698, -0.032427, 0.297543, -0.051890, -0.442047, },
			{-0.052255, 0.082514, 0.311718, -0.097539, -0.379507, },
			{-0.194702, 0.093198, 0.105475, -0.207716, 0.251682, },
		},
	},

	{
		{
			{0.003238, -0.298235, 0.125135, -0.108425, -0.589957, },
			{-0.121853, -0.353653, -0.041394, -0.024495, -0.043696, },
			{-0.254153, -0.041097, 0.140209, 0.426651, 0.066958, },
			{0.109295, 0.489451, 0.244483, 0.020188, -0.301618, },
			{0.170624, 0.199922, -0.192789, -0.119996, -0.025930, },
		},
		{
			{-0.132205, -0.045939, -0.005001, 0.001712, -0.182828, },
			{0.190537, -0.134208, -0.142935, -0.144901, -0.336494, },
			{0.183754, -0.042023, -0.066441, 0.135079, 0.150000, },
			{0.328758, 0.154423, 0.209838, 0.216093, -0.041761, },
			{0.315777, 0.358075, 0.192980, 0.148916, 0.002333, },
		},
		{
			{-0.124555, 0.324381, 0.255180, 0.188621, 0.244688, },
			{-0.014872, 0.149344, 0.278576, 0.080264, -0.191064, },
			{-0.042909, -0.175389, -0.258264, -0.306423, 0.167826, },
			{-0.471426, -0.397424, -0.260671, -0.007196, -0.085707, },
			{-0.006822, 0.060111, 0.011698, -0.279124, -0.356019, },
		},
		{
			{0.138358, -0.282111, -0.169111, -0.277790, -0.419349, },
			{-0.231416, -0.220561, -0.238242, 0.139855, 0.578042, },
			{-0.024209, 0.244861, 0.474960, 0.481671, -0.149497, },
			{0.357973, 0.639055, 0.181870, -0.072473, -0.074985, },
			{-0.330107, -0.273238, -0.080315, 0.253029, 0.193969, },
		},
		{
			{-0.106867, 0.061285, 0.103391, 0.135667, -0.059565, },
			{-0.088473, 0.093616, 0.396785, 0.764132, 0.796107, },
			{0.085113, 0.449335, 0.636061, 0.567030, -0.022092, },
			{0.174802, 0.183307, -0.014329, -0.183342, -0.027645, },
			{-0.270201, -0.324009, -0.350907, -0.131875, 0.196080, },
		},
		{
			{-0.134926, -0.073167, -0.227337, -0.004209, 0.006957, },
			{0.176865, -0.049921, -0.347044, -0.148381, -0.403725, },
			{0.082372, -0.141806, -0.412039, -0.570765, -0.057555, },
			{-0.071627, -0.199004, -0.105563, -0.083172, 0.286829, },
			{0.129881, 0.178605, 0.411988, 0.133873, -0.071287, },
		},
	},

	{
		{
			{0.131838, 0.128503, -0.083174, -0.018605, 0.499394, },
			{0.100218, -0.165314, -0.125194, 0.200576, 0.521043, },
			{-0.155088, 0.098653, 0.205317, 0.182642, 0.145666, },
			{0.234498, 0.150803, 0.028166, 0.058843, 0.160057, },
			{0.223971, -0.023557, 0.051273, 0.215364, 0.246514, },
		},
		{
			{-0.100715, 0.004543, 0.000128, -0.074189, -0.148221, },
			{-0.038794, -0.243204, -0.211157, -0.312287, -0.228376, },
			{-0.130708, -0.157186, -0.173167, -0.151078, -0.164650, },
			{0.291035, 0.105747, 0.034378, -0.115074, -0.226607, },
			{0.371970, 0.247275, -0.035817, -0.136329, -0.102705, },
		},
		{
			{-0.176141, 0.077735, 0.331512, 0.096666, -0.181346, },
			{0.488563, 0.567479, 0.305889, 0.097424, -0.183822, },
			{0.063733, 0.122051, 0.106408, 0.257336, -0.055438, },
			{-0.294178, 0.025094, 0.163296, 0.188620, 0.015981, },
			{-0.010891, 0.110020, 0.099933, -0.225013, -0.266870, },
		},
		{
			{0.218997, -0.140566, -0.495175, -0.207731, 0.173634, },
			{-0.656463, -0.677122, -0.196248, 0.045962, 0.175536, },
			{-0.108627, 0.072942, 0.099308, 0.157450, 0.022301, },
			{0.397214, -0.112556, -0.275618, -0.005704, 0.184435, },
			{-0.388411, -0.322613, -0.142150, 0.142197, 0.101553, },
		},
		{
			{-0.128575, -0.212559, -0.183256, -0.106852, -0.223850, },
			{-0.360603, -0.301629, -0.104314, 0.045254, -0.127818, },
			{0.250367, 0.565895, 0.258619, 0.085435, -0.333875, },
			{0.078290, 0.083501, -0.049216, -0.176883, 0.034374, },
			{-0.309755, -0.421310, 0.043564, 0.049071, 0.172699, },
		},
		{
			{-0.057376, 0.005565, 0.053138, 0.202593, 0.031186, },
			{0.184337, 0.282598, 0.271870, -0.225046, -0.084385, },
			{0.034665, -0.516929, -0.421009, -0.205784, 0.050708, },
			{0.091104, -0.157125, -0.096702, 0.094451, 0.111573, },
			{0.137439, 0.342643, 0.115507, -0.034931, -0.062264, },
		},
	},

	{
		{
			{-0.174822, -0.077508, 0.065928, 0.182723, 0.153470, },
			{-0.268359, -0.075297, -0.044441, 0.193378, 0.100825, },
			{0.172515, 0.187722, 0.031118, -0.112037, 0.057316, },
			{0.246574, 0.178714, -0.037321, -0.366852, -0.257539, },
			{-0.179141, -0.085602, -0.125592, -0.077060, -0.155347, },
		},
		{
			{-0.082744, -0.209571, -0.095817, -0.058273, -0.033025, },
			{-0.103537, -0.030174, -0.091186, -0.213456, -0.026014, },
			{0.215189, 0.234292, 0.115984, -0.075232, -0.088006, },
			{0.413512, 0.277808, 0.167145, 0.088288, 0.070103, },
			{-0.043131, -0.027204, -0.034277, 0.060606, 0.158275, },
		},
		{
			{-0.029235, 0.149023, 0.268443, 0.032089, -0.123612, },
			{-0.038148, -0.036111, 0.030311, 0.006316, -0.004154, },
			{-0.495969, -0.561297, -0.403199, -0.304623, -0.174466, },
			{-0.139130, -0.079508, -0.181352, -0.303923, -0.137454, },
			{0.189365, -0.004448, -0.085714, -0.094769, -0.192492, },
		},
		{
			{-0.183529, -0.058433, 0.035843, 0.219912, 0.287397, },
			{-0.242000, 0.055629, -0.156041, -0.173804, 0.135534, },
			{0.567269, 0.797072, 0.483768, 0.222714, 0.080730, },
			{-0.287535, -0.191257, -0.014500, 0.006817, -0.043148, },
			{-0.448459, -0.171904, -0.088064, -0.070361, 0.067396, },
		},
		{
			{0.142445, 0.284012, 0.159539, 0.101242, -0.275128, },
			{0.324884, 0.451157, 0.256553, 0.162993, -0.245142, },
			{0.502650, 0.195091, 0.331259, 0.251228, 0.168614, },
			{-0.538057, -0.587674, -0.491730, -0.418074, -0.297494, },
			{-0.420631, -0.130604, -0.164865, -0.147442, -0.204185, },
		},
		{
			{-0.257764, -0.282502, -0.419035, -0.059859, 0.139383, },
			{0.011258, -0.295884, -0.291867, -0.216665, 0.110429, },
			{-0.587658, -0.370133, -0.110235, -0.269117, -0.191446, },
			{0.227544, 0.510277, 0.420061, 0.435063, 0.262017, },
			{0.290958, 0.171381, -0.057045, 0.027934, -0.039515, },
		},
	},

	{
		{
			{0.207476, 0.130872, 0.240271, 0.035907, 0.153212, },
			{0.483925, 0.074493, 0.163465, -0.044556, -0.395088, },
			{-0.016375, -0.313338, 0.025699, -0.208348, -0.465267, },
			{-0.285815, 0.175706, 0.029289, -0.448269, 0.139659, },
			{-0.084029, 0.009876, -0.043844, -0.568969, 0.360114, },
		},
		{
			{-0.179201, -0.046354, -0.061581, 0.066244, 0.124509, },
			{0.099846, -0.115885, -0.001364, 0.000442, -0.247155, },
			{0.060833, -0.308574, -0.222245, -0.074944, -0.326957, },
			{-0.001185, -0.040780, 0.152441, -0.008044, -0.166626, },
			{-0.052309, 0.018461, 0.196003, -0.046823, -0.100561, },
		},
		{
			{-0.398666, -0.307894, -0.335830, -0.321326, -0.013149, },
			{-0.152968, 0.078412, 0.081645, 0.116948, 0.277750, },
			{0.167911, 0.101527, 0.045256, 0.326307, -0.022305, },
			{-0.252801, -0.329699, -0.227499, 0.094111, -0.044539, },
			{-0.158382, -0.119609, 0.157393, 0.180908, 0.035914, },
		},
		{
			{0.416155, 0.158331, 0.465443, 0.355695, -0.043017, },
			{0.236636, -0.266996, -0.201556, -0.305948, -0.519682, },
			{-0.348650, -0.065533, 0.091630, -0.498532, -0.103519, },
			{-0.027471, 0.283970, 0.290941, -0.417036, 0.200634, },
			{0.084575, -0.240014, -0.343293, -0.279036, 0.151667, },
		},
		{
			{0.301612, 0.240303, 0.167412, 0.071827, -0.184636, },
			{0.023540, -0.156551, -0.112001, -0.232295, -0.440576, },
			{-0.253285, -0.115207, 0.330204, -0.011359, 0.249240, },
			{-0.174821, 0.218979, 0.095993, 0.023481, 0.396484, },
			{-0.272324, -0.257480, -0.213500, 0.008187, 0.314716, },
		},
		{
			{-0.185025, -0.333546, -0.190477, -0.112461, -0.173681, },
			{-0.410605, 0.139209, 0.183727, 0.259711, 0.332363, },
			{-0.010194, 0.337872, -0.193756, -0.178598, 0.263779, },
			{0.261765, -0.252543, -0.064750, -0.096388, -0.444183, },
			{0.275501, 0.190533, 0.197490, 0.227940, -0.297758, },
		},
	},

	{
		{
			{0.251541, 0.053204, 0.088175, -0.175908, -0.260603, },
			{0.142966, -0.175988, 0.157242, -0.048101, -0.136344, },
			{0.163483, -0.001252, 0.199077, 0.017140, -0.038919, },
			{0.120475, 0.032780, 0.002471, -0.373029, -0.221847, },
			{-0.063664, -0.248168, 0.002049, -0.181929, 0.038125, },
		},
		{
			{-0.003008, 0.007219, -0.153133, -0.090032, -0.071893, },
			{0.264572, 0.061039, -0.151444, -0.152087, 0.044517, },
			{0.274086, 0.030576, 0.065132, 0.090019, 0.303317, },
			{0.089358, -0.200563, -0.087744, 0.212347, 0.090945, },
			{-0.192013, -0.246261, -0.221683, -0.158423, 0.008971, },
		},
		{
			{0.037525, 0.292283, 0.098668, 0.104088, 0.156890, },
			{-0.167888, -0.066107, -0.346631, -0.164574, 0.018952, },
			{-0.224422, -0.439977, -0.645832, -0.474929, 0.031981, },
			{-0.036411, 0.244338, 0.146212, 0.107910, -0.045687, },
			{-0.129958, -0.172576, 0.093026, 0.008667, -0.307888, },
		},
		{
			{0.103166, -0.262540, -0.052178, -0.138852, -0.229113, },
			{0.103381, -0.053999, 0.190754, 0.108021, 0.166514, },
			{0.209399, 0.310507, 0.591788, 0.096440, -0.142124, },
			{-0.071748, -0.370453, -0.189007, -0.405526, -0.159098, },
			{0.364892, 0.219072, 0.001542, 0.176980, 0.226494, },
		},
		{
			{-0.154648, 0.096118, -0.010644, -0.024075, 0.055291, },
			{0.047482, 0.198065, 0.369017, 0.314948, 0.475069, },
			{-0.156717, 0.164978, 0.149274, -0.079065, -0.105269, },
			{-0.168030, -0.243951, -0.459887, -0.567108, -0.175427, },
			{-0.040793, -0.008186, 0.230319, -0.072396, 0.190747, },
		},
		{
			{-0.087637, -0.041931, -0.119805, 0.121625, 0.247224, },
			{-0.092555, -0.085470, -0.222920, -0.148149, -0.281812, },
			{0.242016, 0.031729, -0.130378, 0.017868, -0.017826, },
			{0.021071, 0.208263, 0.454099, 0.704306, 0.252430, },
			{0.065156, -0.240240, -0.300253, 0.100943, -0.061301, },
		},
	},

	{
		{
			{0.040786, 0.194042, -0.078393, -0.133416, -0.062047, },
			{-0.037938, 0.271778, -0.095757, 0.127060, 0.041202, },
			{0.289558, 0.321844, -0.263311, 0.071453, -0.105995, },
			{0.509792, -0.015339, -0.236476, 0.184111, 0.155796, },
			{0.673660, 0.012852, -0.167022, 0.234155, 0.039460, },
		},
		{
			{-0.086059, -0.052617, -0.111785, -0.348519, -0.025713, },
			{-0.064291, -0.143661, -0.130309, -0.037028, 0.144114, },
			{0.092857, 0.245289, 0.086845, 0.162962, 0.024815, },
			{0.311636, 0.417330, 0.130637, 0.006579, 0.108598, },
			{0.328483, 0.312875, 0.141401, -0.000450, -0.036466, },
		},
		{
			{0.355954, 0.002595, -0.228297, -0.319118, -0.210595, },
			{0.050334, -0.386919, -0.188151, -0.125159, 0.199257, },
			{-0.350258, -0.244435, 0.108294, 0.245413, 0.060266, },
			{-0.240421, 0.057822, 0.199483, -0.021423, -0.037342, },
			{-0.381143, -0.047448, 0.198051, 0.139262, 0.081587, },
		},
		{
			{-0.307043, 0.137706, 0.085458, 0.132495, 0.098564, },
			{-0.051152, 0.587616, 0.173510, -0.027962, -0.300951, },
			{0.700417, 0.207267, -0.307602, -0.066702, 0.068674, },
			{0.497560, -0.151284, -0.198678, 0.257814, 0.335818, },
			{0.513646, -0.270632, -0.187858, -0.046301, -0.066605, },
		},
		{
			{0.156119, 0.106049, -0.035880, -0.223435, -0.280181, },
			{0.400176, 0.464839, 0.146317, -0.102634, -0.412971, },
			{0.457797, 0.239066, -0.116958, -0.149453, 0.070864, },
			{0.360337, -0.186792, 0.017495, 0.202744, 0.104602, },
			{0.137326, -0.191586, 0.077907, 0.210024, -0.104868, },
		},
		{
			{-0.130379, -0.155272, 0.134200, 0.287552, 0.253596, },
			{-0.105417, -0.451044, -0.172476, 0.059724, 0.236389, },
			{-0.277828, -0.290965, 0.027203, -0.026659, -0.008286, },
			{-0.205610, -0.021018, -0.026512, -0.248716, -0.044258, },
			{-0.328405, 0.193846, -0.176064, -0.162008, 0.089831, },
		},
	},

	{
		{
			{0.146089, 0.036969, 0.085288, 0.100049, -0.115121, },
			{-0.169816, -0.363977, 0.128732, 0.199606, 0.048813, },
			{-0.060842, -0.161784, 0.240194, 0.205204, 0.294409, },
			{0.174309, 0.171227, -0.164254, -0.021191, 0.255710, },
			{0.062935, 0.196192, 0.057961, 0.229136, 0.304277, },
		},
		{
			{-0.199346, -0.025812, 0.048880, 0.135073, -0.044492, },
			{-0.036168, -0.026998, -0.188542, 0.116755, -0.033739, },
			{0.141569, -0.100598, 0.125562, 0.095542, 0.118115, },
			{0.167106, 0.250002, 0.183760, -0.099865, 0.034124, },
			{0.073541, 0.209823, 0.285058, -0.029363, 0.164528, },
		},
		{
			{-0.006168, 0.191343, 0.409688, 0.070132, -0.003006, },
			{0.366880, 0.501763, 0.331290, 0.189084, -0.128746, },
			{-0.004692, -0.259359, 0.035040, 0.302737, -0.013636, },
			{0.127316, 0.177593, 0.196099, 0.071149, -0.125152, },
			{0.345777, 0.070918, -0.037234, -0.006342, 0.036887, },
		},
		{
			{0.084334, -0.283851, -0.286241, 0.049150, -0.045420, },
			{-0.067469, -0.530367, -0.369562, -0.148118, 0.232158, },
			{0.261225, 0.332389, -0.025089, -0.264497, 0.350942, },
			{0.136884, 0.058742, -0.404456, -0.087829, 0.301696, },
			{-0.204237, 0.093501, -0.067434, 0.015153, 0.160926, },
		},
		{
			{-0.031331, -0.262833, -0.498765, -0.387017, -0.136859, },
			{-0.158647, 0.129592, 0.017177, 0.120346, -0.216964, },
			{-0.079310, 0.426964, 0.436876, 0.226315, -0.049794, },
			{-0.040302, -0.102623, -0.224192, 0.183221, 0.060976, },
			{0.114218, -0.203397, 0.026473, 0.299980, -0.039557, },
		},
		{
			{-0.086554, 0.066974, 0.379778, 0.502505, 0.065336, },
			{-0.018921, 0.021315, -0.072472, 0.075195, 0.454978, },
			{0.278003, -0.163114, -0.717165, -0.370846, -0.025127, },
			{0.226737, 0.190343, 0.068871, -0.207826, -0.099132, },
			{-0.026642, 0.143035, -0.058096, -0.246697, -0.108209, },
		},
	},

	{
		{
			{0.126090, 0.166299, 0.194259, 0.161217, 0.333194, },
			{0.147036, 0.115015, 0.015424, -0.201310, -0.159994, },
			{-0.117116, -0.248563, -0.198658, -0.117346, -0.119202, },
			{-0.037099, 0.118012, -0.005891, -0.155362, -0.327775, },
			{0.153107, 0.124946, 0.133575, -0.301295, -0.221305, },
		},
		{
			{0.030872, 0.047925, 0.140788, 0.296192, 0.288590, },
			{0.070753, 0.094800, 0.004191, -0.074073, 0.038348, },
			{0.073787, 0.048583, 0.033185, -0.026645, -0.170372, },
			{0.149592, 0.130706, 0.197078, 0.030168, 0.015936, },
			{0.172980, 0.026164, 0.043730, 0.160856, 0.202995, },
		},
		{
			{0.072173, 0.142116, 0.022789, -0.134100, -0.055140, },
			{0.152114, 0.136515, 0.234938, 0.278664, 0.156320, },
			{-0.142262, -0.017120, 0.010408, -0.061828, -0.123799, },
			{-0.277135, -0.692825, -0.962862, -0.621106, -0.251382, },
			{0.065255, 0.074485, 0.025826, -0.282467, -0.494880, },
		},
		{
			{0.023524, 0.080921, 0.404567, 0.145076, -0.021217, },
			{-0.191819, -0.400482, -0.304722, -0.268688, -0.282831, },
			{-0.211176, -0.132847, -0.196649, -0.038279, -0.021711, },
			{0.348953, 0.451294, 0.629956, 0.569017, 0.056335, },
			{0.059143, -0.193033, -0.082239, 0.161404, 0.377304, },
		},
		{
			{-0.085582, 0.047148, 0.048381, 0.083802, -0.086042, },
			{0.064993, -0.032552, -0.092465, -0.203548, -0.311465, },
			{0.040230, 0.170996, 0.166481, 0.309397, 0.057420, },
			{-0.008817, 0.367334, 0.208230, 0.256395, 0.146258, },
			{-0.109095, -0.368173, -0.684940, -0.615719, -0.358503, },
		},
		{
			{0.160427, 0.002479, -0.220611, -0.130707, 0.034552, },
			{0.059752, -0.023527, 0.203087, 0.314373, 0.215292, },
			{-0.171066, -0.208115, 0.010619, -0.093677, -0.071842, },
			{-0.008861, -0.260657, -0.265007, -0.277890, -0.407702, },
			{0.006268, 0.216819, 0.589665, 0.736201, 0.507920, },
		},
	},

	{
		{
			{0.362237, 0.183037, 0.192813, 0.080786, -0.108379, },
			{-0.018521, 0.072542, 0.056293, 0.178475, 0.087525, },
			{-0.072431, 0.267369, 0.064078, -0.254533, 0.166643, },
			{0.013458, 0.214141, -0.177714, -0.273283, -0.171827, },
			{-0.106606, 0.017827, -0.004353, 0.183528, -0.214931, },
		},
		{
			{0.171038, 0.146713, 0.261855, 0.201673, 0.181191, },
			{0.023304, 0.121981, 0.179425, -0.032151, 0.035082, },
			{0.016752, 0.110302, 0.219465, -0.144767, -0.011805, },
			{-0.107415, -0.040523, 0.028404, -0.006160, -0.227302, },
			{-0.213981, -0.112571, -0.091117, 0.145942, 0.049147, },
		},
		{
			{0.245360, 0.121012, 0.134125, -0.154030, -0.325905, },
			{0.477030, 0.215165, 0.221248, 0.424772, -0.005741, },
			{0.290668, 0.021261, 0.236535, 0.378382, 0.397643, },
			{-0.082277, 0.041408, 0.162989, 0.131465, 0.221377, },
			{-0.325105, -0.096089, -0.076996, -0.065878, 0.240370, },
		},
		{
			{-0.044130, 0.010259, 0.048944, 0.224264, 0.342574, },
			{-0.292284, 0.117127, -0.175520, -0.552816, -0.006953, },
			{-0.039932, 0.510275, 0.093948, -0.270439, -0.309094, },
			{0.247495, 0.238037, -0.206667, -0.003812, -0.101608, },
			{0.351191, 0.151917, 0.163761, 0.089188, -0.144345, },
		},
		{
			{0.164894, -0.176515, -0.128589, -0.058389, -0.018677, },
			{0.234066, 0.211645, 0.294282, 0.097902, -0.299219, },
			{0.206812, 0.119138, 0.161933, 0.301142, 0.297741, },
			{0.265823, -0.079099, -0.152021, 0.230210, 0.270507, },
			{0.158607, 0.073286, -0.050167, 0.164153, 0.131581, },
		},
		{
			{-0.183047, 0.157798, 0.199880, 0.349514, 0.308498, },
			{-0.204977, -0.055378, -0.206577, -0.106460, 0.322429, },
			{-0.116385, -0.099518, -0.142865, -0.087402, -0.264315, },
			{-0.261763, 0.001645, 0.225274, -0.113670, -0.455367, },
			{-0.170434, 0.106586, 0.040303, 0.060226, 0.025633, },
		},
	},

	{
		{
			{-0.101310, -0.503513, -0.266258, 0.034193, 0.025265, },
			{-0.090324, -0.444526, -0.247611, 0.056745, -0.015624, },
			{-0.046079, -0.166030, -0.347615, -0.091112, -0.012921, },
			{0.018149, 0.185472, -0.211213, -0.328406, -0.186712, },
			{0.064026, 0.292372, -0.026729, -0.344248, -0.066466, },
		},
		{
			{-0.190833, -0.273245, -0.408606, -0.311638, -0.017141, },
			{0.033851, -0.157331, -0.246645, -0.148930, -0.179825, },
			{0.161591, 0.079966, -0.008834, -0.052782, -0.050771, },
			{0.089030, 0.101230, 0.264387, 0.160531, -0.080440, },
			{0.091477, 0.202824, 0.409693, 0.239572, 0.113339, },
		},
		{
			{0.003859, 0.074885, 0.043450, 0.026899, -0.010110, },
			{-0.181923, -0.122108, 0.178120, 0.198781, -0.066486, },
			{-0.310341, -0.499029, -0.117696, 0.237119, 0.265915, },
			{-0.198854, -0.442580, -0.343724, -0.124572, 0.080047, },
			{-0.110432, -0.337322, -0.460491, -0.034026, 0.139842, },
		},
		{
			{-0.071975, -0.313968, -0.209484, 0.011451, 0.034373, },
			{-0.013794, -0.140503, -0.270087, 0.013573, 0.259512, },
			{0.327215, 0.383395, -0.063910, -0.176647, 0.081091, },
			{0.266669, 0.617173, 0.396581, -0.046345, 0.052606, },
			{0.080807, 0.167075, 0.284948, -0.292293, -0.029721, },
		},
		{
			{0.188586, 0.066808, 0.136303, 0.061777, -0.251958, },
			{-0.044922, 0.154274, 0.164837, 0.024863, -0.151496, },
			{-0.077592, 0.031444, 0.393520, 0.536118, 0.126564, },
			{-0.374136, -0.435886, -0.277655, 0.332807, 0.245575, },
			{-0.114784, -0.175431, -0.141326, 0.126323, 0.440493, },
		},
		{
			{0.034149, -0.105048, -0.127380, 0.062960, 0.086419, },
			{-0.159866, 0.015020, -0.327061, -0.131605, 0.207701, },
			{-0.021878, 0.048656, -0.410746, -0.546057, -0.146080, },
			{0.292588, 0.455632, 0.336013, -0.287694, -0.297862, },
			{0.065143, 0.288789, 0.221355, -0.032599, -0.323844, },
		},
	},

	{
		{
			{0.078389, -0.125542, 0.094572, -0.057725, -0.016861, },
			{0.180994, -0.023208, -0.013030, -0.243357, -0.286400, },
			{-0.054457, -0.518373, 0.001568, 0.087251, -0.016776, },
			{-0.576989, -0.088165, 0.332391, 0.065155, -0.202154, },
			{-0.556902, -0.072382, 0.329037, -0.241407, -0.245936, },
		},
		{
			{0.124743, 0.052921, -0.057494, 0.170422, 0.025608, },
			{0.062351, -0.079537, -0.364712, -0.191783, -0.374706, },
			{-0.197352, -0.338786, -0.377461, -0.531358, -0.539187, },
			{-0.282598, -0.275648, -0.327645, -0.298142, -0.118838, },
			{-0.219209, -0.130394, 0.035312, 0.009941, 0.037922, },
		},
		{
			{-0.113470, -0.206535, -0.245080, -0.084761, 0.283936, },
			{0.069129, 0.475031, 0.479292, 0.227391, 0.113261, },
			{0.167860, 0.257050, 0.261376, -0.160836, -0.255433, },
			{0.031222, -0.029251, -0.256064, 0.013786, -0.041389, },
			{-0.063028, -0.161781, -0.229561, -0.162468, -0.241920, },
		},
		{
			{0.074521, 0.112468, 0.322885, -0.071562, -0.206675, },
			{-0.144822, -0.813352, -0.612864, -0.380828, 0.195046, },
			{-0.578369, -0.539983, 0.060685, 0.343720, 0.331935, },
			{-0.416597, 0.128953, 0.383514, 0.072174, -0.171233, },
			{-0.242124, 0.249560, 0.330141, -0.026135, -0.079696, },
		},
		{
			{-0.077533, 0.207200, -0.072515, -0.072181, -0.298125, },
			{-0.164712, -0.246577, -0.418066, -0.122124, 0.048765, },
			{-0.295332, 0.005643, 0.427558, 0.416706, 0.028773, },
			{-0.305679, 0.351503, 0.202201, 0.106049, -0.235236, },
			{-0.197566, 0.081641, -0.286236, -0.344479, -0.369815, },
		},
		{
			{0.136751, -0.041848, -0.195150, -0.199848, -0.163664, },
			{0.094938, -0.123611, 0.460076, 0.313978, 0.012447, },
			{0.149610, 0.147472, -0.337673, -0.374816, -0.088089, },
			{0.404965, -0.087963, -0.368441, -0.117926, 0.189718, },
			{0.266417, -0.284500, 0.166188, 0.236261, 0.291267, },
		},
	},

	{
		{
			{-0.003225, -0.124014, -0.042403, 0.004193, 0.490274, },
			{-0.146798, 0.022106, 0.000028, -0.177444, 0.743085, },
			{0.011220, 0.115827, -0.253930, -0.158723, 0.682682, },
			{0.025247, 0.051886, -0.733375, 0.215364, 0.487134, },
			{-0.048136, -0.147943, -0.487164, 0.289120, -0.006253, },
		},
		{
			{0.164547, -0.086718, -0.256497, -0.343230, -0.048755, },
			{-0.013150, 0.035786, -0.131343, -0.360951, -0.302606, },
			{-0.249893, -0.040552, -0.230563, -0.533871, -0.307522, },
			{-0.216727, -0.279916, -0.384959, -0.473930, -0.160482, },
			{-0.266765, -0.319751, -0.364444, -0.210922, -0.031053, },
		},
		{
			{-0.061663, 0.010209, 0.159896, 0.345182, 0.002109, },
			{-0.296305, -0.319141, 0.182453, 0.442554, -0.220289, },
			{-0.309519, -0.188238, 0.266480, 0.113524, -0.249122, },
			{-0.133607, -0.030646, 0.045587, -0.138670, -0.051919, },
			{0.119419, 0.118169, 0.079466, 0.034695, 0.135947, },
		},
		{
			{-0.015385, -0.152375, -0.017306, -0.142030, 0.413615, },
			{-0.135368, 0.067834, -0.123327, -0.133630, 0.886542, },
			{0.035190, 0.084756, -0.523927, 0.123430, 0.635438, },
			{0.016544, -0.032624, -0.526889, 0.189081, 0.096459, },
			{-0.079449, -0.071398, -0.058848, 0.216101, -0.233800, },
		},
		{
			{0.057932, -0.040409, 0.075867, 0.045474, -0.024285, },
			{-0.154444, -0.027751, 0.029733, 0.138336, -0.018084, },
			{0.035903, -0.013303, -0.215702, 0.395352, 0.045863, },
			{0.085436, -0.168098, -0.115068, 0.362160, -0.151740, },
			{0.142500, -0.234351, 0.269678, 0.226216, -0.235283, },
		},
		{
			{-0.066747, 0.146307, -0.026195, -0.160386, 0.092311, },
			{0.081986, -0.010353, -0.124027, 0.042439, -0.058121, },
			{0.156491, -0.058069, 0.088453, -0.013965, -0.098403, },
			{0.073581, 0.090402, 0.175295, -0.454440, 0.183002, },
			{-0.119773, 0.056081, 0.139971, -0.589509, 0.206115, },
		},
	},

	{
		{
			{-0.294987, 0.046300, -0.100630, -0.092400, 0.169029, },
			{-0.010879, -0.043649, -0.007687, 0.170130, 0.107609, },
			{-0.084954, 0.169519, 0.200678, 0.089779, -0.166453, },
			{0.057036, 0.035904, 0.135702, 0.270009, 0.012186, },
			{0.256127, -0.061562, -0.078128, 0.229260, 0.136191, },
		},
		{
			{-0.165680, 0.115018, 0.195184, 0.034330, -0.072839, },
			{-0.096441, 0.083274, 0.146318, 0.140790, 0.051659, },
			{0.006786, -0.015533, 0.055719, 0.021735, -0.040771, },
			{0.154474, 0.140935, -0.045569, 0.096594, 0.056921, },
			{0.127234, 0.022631, -0.013793, -0.066182, -0.015460, },
		},
		{
			{-0.119802, -0.157320, -0.180433, -0.040254, 0.116801, },
			{0.089506, 0.110675, -0.080370, -0.047090, 0.240573, },
			{0.058367, 0.039150, 0.085638, -0.080395, -0.036958, },
			{0.195981, 0.156191, 0.107218, -0.018969, -0.163119, },
			{0.232917, 0.160400, -0.000163, 0.145488, 0.089015, },
		},
		{
			{0.003901, 0.166771, 0.118685, -0.032065, -0.074996, },
			{-0.319009, -0.139495, 0.104399, 0.282302, -0.246509, },
			{-0.014499, 0.145883, -0.069350, 0.231413, -0.183542, },
			{0.208386, 0.023687, -0.337009, 0.218931, 0.302890, },
			{-0.203991, 0.025890, -0.160349, -0.291665, -0.048428, },
		},
		{
			{0.027682, 0.094590, -0.037769, 0.019021, 0.190498, },
			{-0.297084, -0.346800, -0.160378, -0.111275, 0.142790, },
			{0.073805, 0.352110, 0.281963, -0.247030, 0.137496, },
			{-0.027069, 0.100063, 0.077990, 0.011682, -0.024663, },
			{-0.029779, -0.024494, -0.046175, 0.052308, -0.156195, },
		},
		{
			{0.112317, -0.224000, -0.119890, -0.073025, -0.315552, },
			{0.127022, 0.158222, 0.207429, -0.153852, -0.277960, },
			{0.051176, -0.302748, -0.339460, 0.070870, 0.035033, },
			{0.220222, -0.149950, -0.324478, -0.012997, 0.057251, },
			{0.028807, 0.099352, -0.141844, -0.074614, 0.265358, },
		},
	},

	{
		{
			{0.009633, 0.323010, 0.119564, -0.202102, -0.038401, },
			{0.145880, 0.108318, -0.146661, -0.074957, -0.046328, },
			{-0.179050, -0.213817, -0.258707, 0.017417, -0.100859, },
			{-0.120585, -0.019884, -0.182115, 0.029393, 0.063143, },
			{-0.168537, -0.367426, -0.199256, 0.177879, 0.113782, },
		},
		{
			{0.175326, 0.115347, -0.027098, -0.096055, -0.205814, },
			{0.165991, -0.012824, -0.195991, -0.368049, -0.218053, },
			{-0.129709, -0.401643, -0.352314, -0.161136, 0.072219, },
			{-0.280273, -0.052667, -0.025330, 0.200406, 0.146110, },
			{-0.101773, 0.053066, 0.087588, 0.164651, -0.032473, },
		},
		{
			{-0.062248, -0.245156, -0.205001, -0.038689, -0.119268, },
			{0.018952, -0.071818, -0.090620, -0.091179, 0.047651, },
			{0.015765, -0.251886, -0.414023, -0.263486, -0.149396, },
			{-0.169605, -0.045569, -0.023057, -0.127342, -0.175532, },
			{0.218991, 0.102106, 0.015973, 0.029039, -0.013449, },
		},
		{
			{0.053003, 0.426910, 0.131304, 0.064446, 0.074841, },
			{-0.059530, 0.126043, -0.159330, 0.013736, -0.109907, },
			{-0.216113, 0.211449, 0.215918, 0.160382, -0.034668, },
			{0.075473, -0.075754, -0.024441, 0.114664, 0.079294, },
			{-0.320605, -0.348300, -0.063701, -0.054260, 0.055320, },
		},
		{
			{0.166936, 0.125748, 0.026040, -0.200193, -0.003413, },
			{-0.027755, -0.237538, -0.254772, -0.204907, -0.093419, },
			{0.161588, -0.089729, 0.016344, -0.042635, -0.165066, },
			{-0.029231, 0.075845, -0.267691, -0.364546, -0.341641, },
			{-0.323013, -0.410180, -0.071708, -0.019437, -0.148585, },
		},
		{
			{0.051544, -0.329603, -0.009557, 0.309785, 0.143873, },
			{-0.179264, 0.016011, 0.279462, 0.229118, -0.034907, },
			{0.069848, 0.066833, -0.038881, -0.117738, 0.054830, },
			{-0.100395, -0.198841, -0.023778, 0.113926, 0.300927, },
			{0.265526, 0.347899, 0.182771, -0.066721, 0.077821, },
		},
	},

