
{0.061585,0.059484,-0.008575,-0.175802,-0.029261,-0.027211,-0.030438,-0.148256,-0.028736,0.005678,0.085170,0.138980,0.080519,-0.056778,-0.000774,-0.015599,-0.149945,0.067607,0.040294,0.148573,-0.054516,-0.045979,0.166244,-0.107056,-0.155955,0.126301,-0.021353,-0.153245,0.090790,0.065146,0.018640,0.034282,0.081522,-0.023105,0.216655,0.099787,0.016373,-0.056740,0.039973,-0.102118,0.080062,0.075462,-0.029260,0.055079,0.009098,-0.075790,-0.019959,0.023664,-0.040561,0.184998,-0.147195,0.060074,0.131294,0.020137,-0.078007,-0.075860,0.045583,-0.048020,-0.077910,0.134715,-0.265077,0.229869,-0.086470,0.205177,0.024454,-0.093496,-0.008620,0.261589,0.066123,-0.036401,0.046910,-0.157041,-0.176084,0.024747,0.024925,-0.037929,-0.018630,-0.038172,0.031405,-0.072194,0.025905,-0.028493,-0.126926,-0.048375,-0.010750,0.134278,-0.103330,0.099957,0.223476,-0.084500,-0.040335,0.046176,0.177840,0.115988,-0.231564,-0.038237,-0.144554,0.005671,-0.181745,0.012894,0.062107,0.129734,0.120871,0.129152,0.151218,-0.127547,-0.126780,0.093138,-0.021657,-0.014892,-0.024186,0.058516,-0.099839,0.086323,-0.015743,-0.183382,-0.141652,0.032030,-0.083537,0.196159,}