
{
	{0.127581,-0.041098,-0.225281,-0.059746,-0.100357,0.084573,-0.006976,-0.041793,-0.117751,0.144236,0.023852,0.178559,-0.063648,0.222746,0.127338,0.074969,-0.048715,-0.102191,-0.077693,0.083117,-0.188295,0.007016,-0.207077,-0.028338,0.081483,0.032707,0.118452,-0.005013,-0.190420,-0.063137,0.038866,-0.263866,0.094526,0.062408,0.114707,-0.219809,0.145986,0.168429,0.272988,0.186012,-0.070151,0.116030,-0.108114,-0.090445,-0.371409,-0.168597,-0.162407,-0.123499,-0.138617,0.037192,0.060189,-0.004626,-0.117746,-0.226938,-0.286470,0.023188,-0.128006,-0.381050,-0.130156,-0.290898,-0.139918,0.099340,0.205132,-0.030280,0.017928,0.287534,-0.296950,-0.031089,0.011739,-0.049500,-0.137135,-0.204929,-0.022120,-0.052613,-0.131443,0.092717,0.104180,0.106136,0.116068,0.140839,0.071882,0.236683,0.033028,-0.016140,0.163076,0.041968,-0.183448,0.278017,-0.032798,0.251270,0.169158,0.198851,-0.045612,0.152643,0.012241,0.072650,0.003787,-0.232616,0.084941,0.191564,-0.080446,0.006936,0.006052,-0.112200,-0.195024,0.287711,0.081291,-0.223349,-0.088224,-0.224812,-0.339776,-0.077426,-0.082077,0.089398,-0.144863,0.337131,0.265251,0.137452,-0.037598,-0.077402,0.315995,0.114158,0.046758,0.098586,0.165852,0.071398,0.117597,0.167797,-0.155369,-0.082193,-0.071662,-0.065638,0.190129,0.134252,-0.000997,-0.234108,-0.153488,0.451911,-0.009390,-0.113910,-0.207675,-0.195799,0.291627,0.027333,0.015520,0.035996,-0.036579,0.144333,-0.185721,-0.007533,-0.243542,-0.129169,0.155126,-0.029885,-0.030666,0.011170,-0.091349,0.035818,-0.320926,-0.432576,-0.017519,-0.200194,0.345583,-0.139529,-0.177635,0.007566,0.041153,0.219960,-0.058883,-0.068072,-0.039257,0.105264,0.033189,-0.226558,-0.183137,-0.033491,0.100802,-0.052819,-0.230460,-0.025920,0.126117,0.265540,-0.243701,0.023318,-0.118427,0.276534,-0.124765,0.074383,0.326547,-0.029801,-0.147321,0.177425,0.025963,0.060625,-0.064801,0.198452,0.363617,-0.056866,-0.311738,-0.135677,0.100114,-0.087357,-0.184309,0.009898,-0.053297,0.052484,0.228778,-0.225732,0.075737,0.047930,0.253089,-0.137452,0.067271,0.147166,0.263644,0.204366,0.014513,-0.420178,0.127782,-0.082155,-0.069203,-0.366896,-0.315101,-0.094383,0.201958,0.107266,0.039110,0.170978,-0.204614,-0.214240,-0.093247,0.217182,0.025600,-0.288048,-0.240488,0.090147,-0.019760,0.177464,-0.078219,-0.168579,0.275487,0.267541,0.016164,0.000341,0.002341,-0.250651,0.099758,-0.006196,0.331773,0.355198,0.021993,-0.016647,0.110146,0.022052,-0.069779,-0.204300,0.066247,0.040080,0.122976,0.139986,-0.138718,0.006542,0.035770,-0.131346,0.022098,-0.340477,-0.144841,-0.158660,-0.279285,-0.321171,-0.204331,-0.319252,0.012476,-0.036671,0.011841,0.122907,-0.135195,0.068309,0.043041,-0.199319,-0.264493,0.072938,-0.210956,-0.156662,-0.223732,-0.177170,0.143234,0.156142,0.298333,-0.010576,-0.060945,0.223646,0.128629,0.213047,-0.249219,-0.155939,-0.043327,0.140005,0.082195,-0.333959,0.171907,0.058156,0.138228,0.231492,0.115309,-0.049940,0.125748,0.424385,0.075034,0.312962,0.083814,0.332423,0.080066,-0.012008,0.073721,0.335961,0.105370,0.070875,0.079076,0.074826,-0.269503,-0.176586,-0.021554,-0.080479,0.019638,-0.036500,-0.088358,0.086125,0.052318,0.216084,-0.183650,0.212935,0.202844,0.074290,0.123009,-0.007202,-0.001375,0.115532,0.069007,-0.179764,-0.076374,0.044271,-0.072104,-0.120002,-0.642133,-0.055430,-0.083054,-0.311960,-0.342758,-0.421467,-0.202755,0.223198,-0.009511,0.326969,-0.018678,0.233400,-0.073841,0.001995,-0.155302,0.045855,0.197998,-0.025720,0.133496,-0.091188,0.017509,0.113954,0.229387,0.053083,0.083754,0.181144,-0.019114,0.156051,-0.155842,0.116662,0.129817,0.045997,-0.100372,-0.038037,-0.129050,0.120981,0.220762,-0.032939,0.008548,0.082352,0.155473,0.003293,0.198049,0.093681,0.033146,0.047657,0.293036,0.126105,0.294839,0.215921,0.209903,-0.107020,0.398661,-0.164522,-0.096782,-0.014671,},

	{0.106816,0.170753,0.327351,0.066326,-0.088892,0.065652,-0.213244,-0.075757,0.095118,0.119620,0.057425,0.053986,-0.056656,0.010199,0.276212,0.092167,0.193912,-0.117724,0.092465,-0.385805,0.073922,0.077543,0.122103,-0.294943,-0.036126,0.029964,0.294763,0.106201,0.093551,-0.047547,-0.041068,0.202195,-0.016896,-0.255424,-0.053839,-0.128757,-0.096295,0.032954,-0.008874,0.031627,-0.113430,-0.059022,0.025911,-0.189099,-0.023051,-0.032485,0.156066,0.268258,-0.331215,0.088432,0.341740,0.249981,0.196639,0.044012,-0.146304,0.178425,0.771044,-0.003749,-0.136818,-0.184947,0.076291,0.005011,0.237206,-0.108892,-0.029425,-0.136302,-0.185529,-0.201951,-0.083228,0.121535,-0.282731,-0.349562,0.050802,0.061957,-0.382221,-0.003204,0.034099,-0.161936,-0.075850,-0.072577,-0.007558,-0.107592,0.023151,-0.093696,0.065637,0.165886,-0.563625,-0.213965,-0.014498,-0.064649,0.275664,-0.184884,-0.058371,-0.099053,-0.005547,0.228149,0.103785,0.088706,0.131968,-0.130890,0.260960,0.007928,0.098085,-0.092688,0.154243,0.069013,0.320588,0.452675,-0.364004,-0.144616,0.037102,0.129881,0.396774,0.026254,-0.006050,-0.010622,-0.057566,-0.003560,0.127635,0.103160,-0.194947,-0.236521,0.043473,-0.005920,-0.019886,0.108603,0.246261,0.001760,-0.327336,-0.185609,-0.000131,-0.028379,0.109461,0.169948,0.085769,-0.168729,-0.157090,0.017120,-0.100967,0.047061,-0.067698,0.004065,-0.210892,0.093352,-0.068539,0.141551,-0.087567,0.075321,0.077591,-0.175087,0.187292,-0.123705,-0.077477,-0.111759,0.029369,-0.132805,0.367975,-0.011893,-0.253314,-0.007540,0.086244,0.222524,-0.019339,-0.035568,0.078791,-0.097873,0.195821,0.026739,-0.037922,0.377329,-0.262672,-0.200366,-0.044054,-0.072628,-0.042601,-0.058069,0.100013,-0.184899,-0.127593,0.031436,0.185408,-0.049488,0.497584,-0.311917,0.212834,-0.049677,0.031584,0.022155,0.151290,0.022365,-0.104439,0.000962,-0.199288,-0.208043,0.130765,0.094216,0.190122,-0.036349,0.001249,0.245552,0.026732,0.003811,-0.059057,0.132114,-0.091796,0.172334,-0.191716,0.143413,-0.166971,0.209389,-0.155052,-0.485572,-0.216675,0.179881,-0.092716,-0.138969,0.008843,-0.177654,0.084085,0.037784,0.068173,0.092211,0.144560,0.105213,-0.248934,0.067139,0.222468,0.261041,-0.077637,-0.040922,0.344672,0.551731,0.032769,-0.120193,0.077383,-0.011693,-0.052911,0.008990,-0.046233,0.168707,-0.116809,0.082108,-0.098912,-0.204051,0.094196,0.076911,0.249847,0.269738,0.023423,-0.138441,-0.042620,0.325515,-0.037609,0.189402,-0.164361,-0.108721,0.058694,0.169653,-0.217755,-0.123620,-0.103770,-0.483917,0.088575,0.023285,-0.073547,-0.081472,-0.200804,0.064780,-0.252130,0.013496,0.260154,0.095367,0.078757,0.027492,-0.063013,0.010929,0.071802,0.037106,0.053138,0.096702,0.226418,0.055845,0.669038,-0.025548,-0.002475,-0.134617,-0.348055,0.198150,-0.129345,-0.192649,-0.190909,-0.265726,0.100046,-0.083530,-0.115601,0.155312,0.100461,0.009752,-0.069484,-0.070681,0.036191,0.150218,0.360780,0.110364,0.103829,-0.197262,-0.097422,-0.179315,0.135557,-0.148607,0.032079,-0.176775,-0.147019,-0.281178,-0.258132,0.063715,-0.077280,-0.073815,0.095844,-0.238034,-0.114583,-0.099458,-0.018141,-0.125829,0.078642,-0.156362,0.227120,0.190225,0.119283,-0.240684,-0.186107,-0.107805,0.066011,-0.384697,-0.251061,0.031132,-0.114358,-0.098426,-0.320403,-0.460520,0.115227,0.051529,-0.124074,0.028626,-0.165511,0.134010,0.069924,-0.219205,-0.027760,0.140926,0.010971,-0.169060,-0.076095,0.029009,0.022373,0.223288,0.033482,0.113858,-0.027651,0.197170,-0.082257,0.451709,-0.465731,0.193795,-0.188979,0.104925,0.171339,-0.184328,-0.067027,-0.045055,0.013556,0.141409,-0.018969,0.322274,0.157289,-0.053422,-0.361718,0.105698,0.107601,0.210546,0.089692,0.373171,-0.049964,-0.037208,-0.108406,-0.077834,0.287129,0.114457,-0.160568,-0.132970,0.090290,0.178901,-0.229477,0.036906,-0.125373,0.081567,0.061530,0.183077,0.079004,0.101173,},

	{0.205298,-0.109250,-0.200298,0.034932,-0.095803,-0.160531,0.020582,0.133189,0.114523,0.154629,-0.186262,-0.046209,-0.213771,0.296377,-0.171804,0.289240,0.005708,-0.211036,-0.229357,-0.058923,-0.159244,0.049167,-0.294736,0.043763,-0.028785,0.134884,0.039452,-0.207514,0.230831,-0.102434,-0.061541,-0.107157,-0.046707,-0.077228,-0.069805,-0.324966,-0.053700,0.272184,-0.193382,-0.189570,-0.148576,0.032210,-0.095785,-0.039906,0.052178,-0.304755,-0.195136,-0.216745,-0.015551,0.190257,0.068875,-0.127519,0.040137,0.029446,0.020223,-0.029426,-0.043143,-0.128093,-0.048938,-0.091188,-0.008852,-0.123265,0.183907,-0.140558,0.045399,-0.028693,-0.161555,0.270447,0.048294,-0.186121,-0.180349,-0.059104,0.288111,0.259312,-0.047328,-0.110289,0.049351,-0.004035,-0.107096,-0.059175,-0.155780,-0.019484,-0.027705,0.006929,-0.128934,-0.066056,0.009783,-0.036233,-0.147083,-0.067341,-0.272859,0.220555,-0.031267,-0.182660,-0.452204,0.007238,-0.276875,0.005332,-0.019232,-0.039866,0.194088,-0.089297,-0.090471,-0.009468,0.230293,0.124731,-0.092424,-0.114762,-0.201777,-0.063359,-0.091871,-0.058998,-0.049082,0.060888,0.010574,-0.088297,-0.337104,-0.060504,0.291179,0.060888,-0.225913,-0.068390,0.268567,0.283056,-0.225529,-0.137361,0.050167,-0.015349,-0.208054,0.022615,0.096092,-0.197755,0.082096,-0.058730,0.003373,0.039541,0.036606,0.054961,-0.125688,0.168221,0.220820,0.137942,-0.172704,-0.081892,0.069463,-0.211404,-0.365679,-0.007145,0.323353,0.065648,-0.028285,0.011994,0.048956,0.180641,0.247480,0.115458,-0.012672,0.120850,-0.250786,0.149649,0.160511,-0.041546,-0.090850,-0.352218,0.185444,-0.142241,-0.169285,-0.094901,0.379376,-0.052826,0.089831,0.196670,0.220535,-0.077648,0.054174,-0.204420,0.147789,0.134692,0.023193,0.182111,-0.166474,0.185081,0.098396,-0.008561,0.126607,0.019045,0.036802,-0.007011,-0.043053,0.452894,0.247456,-0.132008,-0.043287,0.234500,0.064481,-0.036110,0.128671,0.201311,0.192986,-0.057781,0.023226,0.064602,-0.057900,0.015138,0.160024,-0.161675,0.174945,0.094804,0.116463,-0.131706,-0.139237,0.031807,0.161135,0.216423,0.018106,0.182964,0.218832,-0.032342,0.081525,-0.335641,0.087148,-0.056270,-0.004569,0.003801,-0.007714,0.120769,-0.061007,-0.084490,-0.075570,0.270746,-0.122439,-0.164721,0.044587,-0.405596,0.125704,-0.028180,-0.160843,-0.113898,0.137094,0.109619,0.235305,0.238927,0.083378,-0.068077,-0.171022,-0.201896,-0.095623,-0.004391,0.029736,-0.106038,-0.136535,0.216096,-0.192367,-0.091689,-0.121101,0.075199,0.015113,0.080849,-0.153550,-0.168570,0.015338,0.173898,0.135926,0.110777,0.213451,0.117766,0.181010,-0.043743,0.366577,0.140134,-0.147858,-0.347807,0.062109,-0.089297,0.029132,0.106419,-0.029672,0.026697,0.067047,0.127151,-0.130516,0.122691,0.129230,-0.252890,0.014499,-0.275486,-0.228059,0.128504,0.091099,-0.382611,-0.169071,0.053533,-0.119564,-0.032723,-0.246809,0.015812,-0.010264,0.011533,-0.202557,-0.122772,0.031955,-0.157474,-0.183555,0.080106,-0.090459,-0.109855,-0.191190,-0.089265,-0.134565,-0.328828,0.051985,-0.219767,-0.009882,-0.008006,-0.557053,0.359932,0.109266,0.015377,-0.433009,0.048487,-0.366159,-0.392987,-0.171631,0.036892,0.438363,-0.162311,-0.107895,-0.045909,-0.118856,-0.144033,-0.067959,-0.190357,-0.119097,-0.132471,-0.361700,-0.362215,-0.054087,-0.138027,-0.769741,-0.460568,-0.046787,-0.157640,-0.216779,-0.027031,-0.174138,-0.080015,-0.346450,-0.430799,0.024307,0.281515,0.067412,-0.002092,-0.083129,-0.037165,-0.105045,0.085299,0.002741,-0.229468,0.459631,-0.036500,0.080048,-0.063583,-0.103557,0.136616,0.253426,-0.084064,-0.151378,0.415682,0.003383,-0.401368,0.137159,0.229664,0.018299,-0.040318,0.058204,0.057278,-0.146430,0.114880,0.046890,0.016993,0.003893,0.025356,-0.218048,0.172945,-0.399843,0.076104,0.021051,-0.346639,0.091168,-0.170330,0.086699,0.252909,-0.061382,-0.303653,0.223606,-0.040125,-0.077511,-0.237027,0.313669,0.287874,},

	{0.017252,-0.081276,-0.025808,-0.190059,-0.158298,0.114693,-0.029372,-0.154175,-0.294668,-0.264364,-0.037064,0.348563,0.227012,0.395666,0.395711,0.051828,0.049623,0.034332,-0.029977,-0.323150,-0.074687,0.058680,-0.183800,-0.284197,-0.127003,0.238149,-0.056407,0.401231,0.059074,0.160755,0.152853,-0.203178,0.058743,-0.473494,-0.023889,0.144952,0.119907,0.208174,-0.009231,0.308849,0.063131,0.050821,0.172251,-0.012888,0.137666,0.012118,0.008457,-0.270620,-0.191416,-0.124213,0.142618,0.139729,0.154307,0.333339,0.172871,0.336589,0.151008,-0.388343,-0.376649,-0.226794,0.379046,-0.098221,-0.108903,0.111911,0.055044,0.136540,-0.038965,0.125866,0.141286,-0.089645,0.059177,0.131866,0.194206,-0.244387,-0.013259,0.202683,0.220777,-0.057484,0.157024,0.121927,-0.023766,-0.069938,-0.013271,-0.130881,-0.280618,0.248897,0.144230,0.048522,0.032983,0.139811,-0.073325,0.212358,0.087713,0.003594,-0.130527,-0.113610,-0.041935,-0.108456,0.070607,0.033637,0.047561,-0.277849,-0.138778,0.081324,0.024220,-0.271159,-0.407710,-0.135578,-0.157725,-0.076719,-0.064940,0.098041,-0.008548,-0.409653,-0.153117,-0.007123,0.065814,0.160111,0.126092,0.129911,-0.004505,-0.158006,0.115427,0.167563,-0.110014,0.055802,-0.057474,0.224821,0.085515,0.242001,-0.040190,-0.182530,-0.014309,0.205349,0.173351,-0.043726,0.158116,0.229309,-0.128128,-0.224435,-0.037076,0.080330,-0.075349,0.053589,-0.124035,0.116992,-0.212128,-0.076178,0.116830,0.219303,-0.178952,-0.076372,-0.163489,0.199435,-0.032676,-0.150994,-0.308067,0.206940,0.153168,0.244908,-0.010441,-0.016699,-0.221706,-0.126040,-0.256631,-0.112277,-0.122057,0.155069,0.141949,0.119621,0.042916,0.015821,0.112846,0.073164,-0.048197,0.182196,0.084036,0.144643,-0.133253,0.094383,-0.162206,-0.315443,0.028310,-0.071062,0.269196,-0.243311,-0.036678,-0.166863,-0.110396,-0.020495,-0.116074,0.183626,0.063193,-0.128527,0.133753,0.220102,0.019493,0.243176,-0.014936,-0.051911,0.316029,0.194875,0.172863,0.031356,0.107343,0.018620,0.116303,0.042575,-0.212302,-0.314019,0.231376,0.171386,0.126206,0.230306,0.171861,0.030187,0.157209,0.003617,-0.006245,-0.126908,-0.076125,-0.010360,-0.061393,0.143840,-0.005043,-0.131618,-0.250541,-0.008938,0.218116,0.229824,-0.179136,-0.104567,0.103735,-0.289714,-0.215565,0.079061,0.254837,0.286689,0.085638,0.220122,0.036288,0.081025,0.047888,0.062789,-0.106989,-0.049666,-0.022678,-0.023797,-0.269290,-0.070933,0.046537,0.008338,0.088739,-0.062213,0.472672,0.155661,-0.033165,0.034646,-0.380178,-0.146365,0.148716,0.374182,0.254748,0.252307,0.232006,0.137002,-0.036197,-0.221483,-0.114450,-0.016003,0.021106,-0.272411,-0.248793,-0.093642,-0.065597,0.199470,-0.129887,-0.144843,0.139321,0.156882,-0.306369,-0.405574,-0.258652,-0.216086,-0.119782,-0.078830,-0.089254,0.180295,0.012476,-0.040046,0.105013,0.046490,0.243657,0.214736,0.119118,-0.102262,-0.209877,-0.159172,0.069737,-0.093297,-0.224269,-0.335108,-0.172526,0.100550,-0.004546,0.137920,0.292377,-0.063348,0.159733,-0.254686,0.276433,0.381465,0.498575,0.144671,-0.054324,0.148744,0.003710,0.039232,0.076056,-0.206322,0.068234,0.113351,-0.252176,-0.025046,0.267154,0.003170,-0.141943,0.089039,0.089980,-0.092244,0.267964,0.121713,0.149076,-0.012955,0.348644,0.347013,0.148060,-0.105689,-0.302442,0.170861,0.035660,0.256626,-0.014677,-0.075914,0.042254,-0.002367,0.169365,-0.169682,-0.015374,0.199864,0.155724,-0.034393,0.163266,0.123424,-0.077149,-0.061128,-0.041933,0.010983,-0.127000,-0.229079,-0.075963,-0.196320,-0.326176,-0.024098,0.063039,-0.041330,0.080691,-0.260935,-0.124877,0.010163,0.059287,0.243246,0.289570,0.084903,-0.102747,-0.041521,-0.105589,-0.120893,0.347458,0.119098,-0.166421,-0.404030,0.069146,-0.110125,0.065537,0.204758,0.146730,0.185405,-0.054787,-0.149712,0.026101,0.076406,-0.057699,-0.207976,0.169378,-0.220905,0.184758,0.153896,-0.163028,0.239295,},

	{-0.084578,-0.147399,0.019708,0.072317,0.087184,0.083995,-0.018861,0.177377,0.057744,-0.084545,-0.010027,0.245428,-0.536705,0.039699,-0.108710,-0.273344,-0.177969,-0.318830,-0.249921,0.080286,-0.011092,0.007644,0.201069,-0.002574,0.139416,-0.167174,0.052783,0.194952,0.149906,0.054880,0.014932,-0.052222,0.106971,-0.036763,0.151861,0.276067,0.127258,0.025854,-0.155342,0.113652,-0.109949,-0.613251,-0.233443,-0.108257,-0.048963,-0.150193,-0.289872,-0.167143,-0.042903,0.183386,-0.118597,-0.076561,0.008986,0.003815,-0.121446,0.057806,-0.252054,0.355067,0.226217,-0.310826,0.129924,0.190668,0.536080,0.087611,0.037479,-0.102682,0.017635,-0.619308,-0.098900,-0.005720,-0.113352,-0.180064,-0.113921,-0.022155,0.053984,0.011663,-0.269265,0.061877,-0.047000,0.009617,0.185155,0.006374,-0.140991,0.028221,-0.210702,-0.071292,0.152542,0.032755,0.396915,0.141248,0.154926,-0.163982,-0.258239,0.024525,-0.090301,0.190629,-0.237693,0.025623,0.209581,-0.118334,-0.050133,0.107978,0.028736,0.128009,0.062213,-0.099517,-0.242576,-0.130938,0.047134,-0.239852,0.153728,0.190586,0.337199,0.575587,-0.013855,0.009468,0.279443,-0.090700,-0.281682,0.117388,-0.093415,0.022396,-0.461757,-0.170763,-0.192383,-0.098059,-0.040093,-0.024833,-0.058562,-0.002965,0.160420,-0.130000,-0.028957,0.189836,-0.072658,-0.048530,-0.358356,0.015021,0.032795,-0.027014,-0.291392,-0.012426,0.369641,-0.015422,0.021379,0.224272,0.059777,0.142998,-0.424575,-0.099631,0.002917,-0.059222,0.051637,0.063660,0.095494,-0.002883,-0.107554,-0.044235,0.001744,0.032301,0.108444,-0.131387,0.280084,0.037017,-0.081855,0.078089,0.196267,-0.050565,0.215935,-0.053070,-0.205056,-0.319172,-0.098635,0.148164,-0.054197,-0.005741,-0.078680,0.118572,0.141447,-0.101351,0.037774,0.006286,-0.164875,0.225759,0.109951,-0.128551,-0.055400,-0.045480,0.269291,0.115178,-0.113908,0.147461,0.219387,-0.157474,-0.096397,0.203616,-0.017023,-0.237072,-0.171055,-0.155986,0.053986,-0.143160,0.281772,0.050457,-0.032066,0.181272,0.127659,-0.160958,-0.093837,0.012352,0.072495,0.405038,-0.101480,0.248202,0.219021,-0.177231,-0.360803,-0.013977,0.021359,0.098287,0.061385,-0.125549,0.090603,0.139088,-0.153307,-0.062267,-0.154226,0.012064,0.018567,0.117424,0.018435,0.017218,-0.170376,-0.229148,-0.246867,0.453263,-0.021288,-0.217501,-0.039393,0.033333,-0.290719,-0.145239,-0.217333,0.107610,0.108944,-0.063976,0.243626,0.294832,-0.107681,-0.061204,0.012441,-0.220323,-0.002754,0.105365,0.131062,0.191877,0.092261,-0.057319,-0.003020,0.034773,-0.162129,-0.160201,0.213777,0.049491,0.005016,-0.389447,-0.130928,-0.017276,-0.127915,-0.109769,0.120759,0.044167,0.117869,-0.004001,0.117830,-0.259646,-0.007267,0.030521,0.071488,0.053815,0.109028,0.038724,0.274121,0.254216,0.024688,0.075204,0.441490,0.324493,0.221757,0.202981,0.019393,-0.009171,-0.358292,-0.202349,-0.091337,0.006858,-0.110678,-0.086735,-0.255187,-0.124400,-0.088855,-0.088742,-0.178827,0.014222,-0.060348,-0.071887,-0.128633,-0.108588,-0.095513,0.135730,0.200210,0.218103,-0.108991,-0.109756,-0.049341,-0.261328,-0.277036,-0.133311,-0.051475,-0.088296,-0.024679,-0.097769,-0.131580,-0.057065,0.104709,-0.027279,0.084261,-0.020187,0.064814,0.059118,-0.015718,-0.087605,0.079315,0.176221,0.116111,0.104232,0.080369,-0.418749,-0.304011,-0.086374,-0.109711,-0.266331,-0.358536,-0.125217,-0.144920,-0.144440,-0.174016,-0.047696,0.020536,0.124056,0.118831,0.124121,-0.184464,0.050899,-0.136258,-0.227448,0.095256,-0.249932,0.104207,-0.037108,-0.056636,0.096865,0.153214,0.170502,0.230941,0.203757,0.207403,-0.043883,0.010375,-0.028632,0.062217,-0.087742,-0.155937,0.082747,-0.192697,0.042169,0.122563,-0.118873,-0.208164,-0.079155,-0.106150,-0.312904,-0.506187,-0.052305,-0.008848,0.138904,0.275638,-0.198837,0.357098,-0.007729,0.076673,-0.084159,0.151443,-0.159377,0.141264,-0.068642,-0.033524,0.054441,-0.163599,-0.264731,},

	{-0.070679,-0.046343,-0.209732,-0.223148,-0.208070,0.022054,0.093828,-0.263030,-0.177934,-0.110333,0.125751,0.020371,0.194910,-0.073343,0.012483,0.058006,-0.048281,-0.238814,-0.068224,0.280777,0.058672,0.119135,0.215587,0.152362,-0.273018,0.015552,0.039224,-0.045220,-0.001577,0.173532,-0.046713,0.207622,-0.090780,0.229413,0.173641,0.238923,0.174400,0.185806,-0.114185,-0.279813,-0.073378,-0.225461,-0.006923,-0.004287,0.080785,0.093276,-0.110092,-0.050909,0.033975,-0.009570,0.026033,0.007263,0.094928,0.134117,0.137370,0.244372,0.006415,0.240190,0.151376,0.105431,0.081666,0.097684,0.097582,0.142951,-0.214535,0.150004,-0.344660,-0.196560,-0.122953,-0.102903,0.197097,-0.070490,-0.132615,-0.098880,0.102510,0.234498,-0.317501,-0.082295,0.283445,0.026917,0.180660,0.110384,0.069092,-0.165945,-0.133646,-0.028480,-0.178296,0.217553,-0.012533,-0.136532,0.291337,-0.158721,-0.120964,-0.165075,0.195189,0.054136,0.048868,-0.045062,-0.015610,0.187510,0.151423,-0.143599,0.044879,-0.020536,0.119801,-0.295160,-0.088628,-0.121442,0.142951,0.288867,-0.180787,-0.186892,0.261441,-0.034011,-0.075364,0.122698,-0.045940,0.099883,0.114322,-0.224901,0.397547,0.015804,0.140571,0.107279,0.082931,-0.121580,0.112395,0.212891,0.132115,-0.045899,-0.250148,0.225336,-0.183515,0.052033,0.037735,-0.211218,0.024339,0.254777,0.075235,0.145940,-0.051043,-0.049297,0.199976,0.075981,0.059321,-0.005522,0.086388,0.236653,-0.052837,-0.189235,-0.075589,0.164982,0.056189,-0.004411,0.107997,0.019060,0.027764,0.037776,0.144243,0.230980,-0.287458,0.078509,-0.047416,-0.103673,-0.015855,-0.253374,0.188939,0.249984,-0.224826,-0.309439,0.220984,0.044635,-0.196683,-0.141070,-0.140373,0.032221,-0.174085,-0.040907,-0.148649,-0.088851,-0.008855,0.004110,0.111782,-0.210266,0.136431,0.105749,0.091266,0.312309,0.218342,-0.092217,-0.089952,-0.019626,-0.098769,-0.109608,-0.141108,-0.325516,0.401097,-0.056961,-0.357576,-0.264844,0.066822,-0.265091,0.017805,0.087867,-0.098084,0.092894,-0.022045,-0.003891,-0.036225,-0.110199,0.353916,-0.213972,0.346303,-0.072040,-0.229572,0.105935,-0.266038,-0.322759,-0.008595,0.141674,-0.342272,-0.075766,-0.077247,0.041632,0.099643,-0.166080,0.127833,0.420634,0.436112,0.181220,-0.238070,-0.018723,-0.143306,0.313634,0.354504,-0.145284,0.271575,0.143297,-0.238755,-0.223617,0.162461,0.278158,-0.026930,-0.054717,-0.014121,-0.052752,-0.027200,-0.246507,-0.072039,0.167209,-0.041079,0.118566,0.153453,-0.087325,0.246429,-0.019567,0.338166,-0.102629,0.044853,0.090466,0.110515,0.000817,0.378390,-0.121096,-0.145914,0.044895,-0.148176,-0.127782,-0.169164,-0.062828,-0.056425,0.035426,-0.073265,-0.021320,-0.070134,-0.304875,0.035276,-0.065372,-0.128359,-0.130806,0.015064,-0.109706,0.004249,-0.230174,-0.048710,-0.054129,-0.200652,0.443021,0.031008,-0.139769,0.185892,-0.136963,0.473992,0.466569,-0.143700,-0.024977,0.011204,-0.125830,0.196642,-0.149070,-0.046962,-0.049333,-0.129873,0.021724,-0.004349,0.054200,0.112218,0.033422,-0.021451,-0.101093,0.206426,0.136247,0.104784,0.081113,0.082938,0.160109,0.053156,-0.013454,0.201017,0.174712,-0.055477,-0.299351,0.171837,-0.096990,0.122371,0.200616,-0.074024,0.084524,-0.032925,-0.037295,-0.058886,0.178945,0.302400,0.366343,0.023061,0.195852,-0.201020,0.273507,0.164384,0.200853,0.163851,-0.105346,-0.141641,-0.192114,-0.387270,-0.165462,-0.047031,-0.020815,-0.137891,-0.078309,0.305136,0.054985,-0.082822,0.267716,-0.156528,0.253839,-0.204423,0.097604,-0.126878,-0.067019,0.004812,0.194019,-0.223613,0.074883,0.069361,-0.081960,-0.035754,-0.113429,-0.020933,-0.029914,-0.054280,-0.177466,-0.205702,0.023711,0.068990,0.185193,-0.310656,-0.058898,0.119452,-0.158855,0.003233,-0.063785,-0.008166,-0.195481,0.109923,-0.253147,0.300299,-0.053037,0.113930,0.029589,-0.213485,-0.183532,0.232565,0.115222,-0.024231,0.177404,-0.215075,-0.060245,-0.353415,-0.050914,},

	{0.350362,0.082911,0.144999,0.099036,0.115306,-0.549142,-0.156809,-0.102521,-0.113755,-0.206650,0.150000,0.273333,0.115948,-0.009262,0.140788,0.204406,0.165585,0.255432,0.016074,-0.074983,0.024673,0.036908,-0.152570,-0.085749,0.349546,0.349951,0.112013,-0.012660,-0.118326,0.101957,-0.380000,-0.137394,-0.025701,0.169627,0.007331,0.051962,0.061188,-0.181215,-0.094434,-0.153339,-0.092436,-0.073036,0.153628,-0.166723,0.224125,0.126957,0.330997,0.017104,0.314651,0.144067,0.283702,0.609571,0.413030,0.168951,0.037494,-0.067884,-0.077880,-0.117869,-0.066442,-0.175846,-0.224398,-0.094301,-0.083618,-0.249763,-0.199142,0.030933,-0.089139,-0.104061,0.236816,-0.028222,0.300105,-0.249088,0.028537,0.247421,0.075129,-0.461627,0.072812,-0.037211,-0.140754,-0.326423,-0.144226,-0.071484,-0.173466,-0.158782,-0.122678,-0.156799,0.001253,0.029822,0.135586,0.038562,0.182121,0.052011,-0.221979,0.011127,-0.132552,0.113844,0.042435,-0.088236,0.067520,0.010862,0.289109,0.247758,0.333856,-0.033117,0.094209,0.033514,0.051261,-0.000636,-0.001045,0.155741,-0.357210,-0.035942,0.067896,-0.234400,-0.392918,-0.221995,-0.130676,-0.014928,-0.184796,-0.086147,0.098568,0.024766,0.067793,0.203548,-0.146311,-0.352948,0.044442,0.199602,-0.159946,0.066911,0.073192,0.111481,0.165617,0.067787,0.074476,-0.143087,-0.000744,-0.066391,-0.027553,0.111064,0.036118,0.023217,-0.042815,0.126894,-0.179908,-0.367366,-0.105441,-0.015584,-0.281958,0.065359,0.105914,0.227732,0.062060,-0.071770,-0.024777,0.390758,-0.084958,0.284361,-0.110915,0.234731,-0.056941,0.056035,-0.027289,-0.189344,-0.135106,-0.215474,0.078450,-0.400841,0.065923,0.046705,0.361446,0.235976,0.203844,-0.012487,-0.182055,-0.239045,0.245953,0.235156,-0.219406,-0.235395,-0.144857,0.186845,-0.148422,0.019253,-0.197716,0.192932,-0.312338,-0.111191,-0.035274,0.027183,-0.016599,-0.253238,-0.096651,-0.149957,0.096637,-0.171995,0.331058,0.003409,0.199968,-0.078155,0.021270,0.054322,0.120052,-0.180724,-0.192065,-0.259655,-0.206014,-0.171849,0.077845,-0.149755,-0.066967,0.175186,-0.001407,0.055918,-0.147834,0.014979,-0.129723,-0.294025,0.218116,-0.157350,-0.049011,0.227071,0.137234,-0.056924,-0.075132,0.153446,0.259204,0.214887,-0.029300,0.057387,-0.120242,-0.046094,0.364554,0.062182,-0.014088,0.174544,0.115027,0.269953,-0.165915,0.225475,0.229571,0.283262,-0.127978,-0.116515,-0.121196,-0.057348,-0.008766,0.049757,0.103675,-0.145975,-0.109309,-0.087053,0.227890,-0.112582,-0.066674,-0.057602,-0.077689,-0.113033,-0.027126,-0.041584,0.106834,0.148246,-0.052128,-0.221613,0.018627,0.094835,0.004875,0.094986,0.113003,0.026736,-0.026871,-0.148724,-0.016780,0.334955,0.262798,0.130798,0.124228,0.064381,0.061340,0.042923,-0.182393,-0.035914,-0.184299,0.064164,0.149198,-0.083028,-0.071650,-0.063537,-0.074143,-0.257247,0.075125,-0.149377,-0.094202,-0.053348,-0.284759,0.015206,0.057471,0.236744,0.211111,-0.030759,0.173175,-0.169141,-0.104446,0.059976,-0.009790,-0.448336,-0.165796,-0.030588,-0.084099,-0.032608,0.141076,0.298221,0.040798,0.016532,-0.158827,0.350037,0.265396,0.118839,0.034438,-0.031017,0.046584,-0.387554,-0.177910,-0.013671,0.388280,-0.108032,-0.144609,0.133377,-0.001708,-0.267897,-0.511854,0.046726,0.070871,0.227713,-0.313456,0.000683,0.273093,0.079801,-0.106514,-0.203039,-0.099831,0.214804,0.105731,-0.236768,0.046617,0.056624,0.279920,-0.166619,0.291761,0.141846,-0.017046,0.218346,0.004762,0.017533,-0.085917,0.219303,-0.012108,-0.091081,0.050275,-0.064651,0.035770,0.076661,0.077697,0.207571,0.022504,-0.118895,-0.157137,-0.012972,0.009480,0.005724,0.032730,0.093170,-0.034838,-0.124763,-0.330109,-0.005638,0.161636,0.063594,-0.000629,-0.140795,-0.091270,-0.052507,0.186488,0.085531,-0.162190,-0.039455,0.122225,0.135315,0.307872,-0.234899,-0.065754,-0.021831,-0.185274,-0.246199,0.138090,0.112210,-0.020692,0.191580,-0.226573,0.208356,},

	{-0.143319,-0.071751,0.044116,-0.215130,-0.205536,0.093205,0.248300,-0.214948,-0.126157,0.159736,0.274870,-0.047665,0.138094,-0.012119,0.273093,-0.207013,-0.056299,-0.106019,-0.263542,-0.030150,-0.083499,0.016694,-0.173377,-0.296150,-0.227457,-0.175497,0.176409,-0.145056,-0.033558,0.115514,-0.263397,0.168829,-0.032871,0.118363,-0.224067,0.018204,-0.126586,0.269500,0.084200,-0.091480,-0.202959,-0.256867,-0.208792,0.082874,-0.161025,0.118908,-0.180460,-0.092848,0.012808,-0.030635,-0.082273,-0.122846,0.025661,-0.039600,-0.003877,-0.007972,0.092025,0.410466,0.144757,-0.079572,0.100510,0.145977,-0.045093,0.148849,0.132956,0.294635,-0.341037,-0.067082,0.097405,0.232512,-0.150993,-0.095487,0.132985,0.193807,-0.057431,0.159471,-0.064419,-0.228582,-0.108602,-0.164259,0.146145,-0.022340,-0.088313,0.029812,-0.004063,0.226562,0.135032,-0.211773,0.118036,0.241349,0.261833,0.001377,-0.175035,0.008063,0.006634,0.090111,-0.012885,-0.091618,-0.056851,-0.071156,0.070511,0.144914,0.208163,0.306759,0.117468,-0.086629,0.114263,0.192192,0.167502,-0.018815,-0.541351,-0.087399,0.444982,-0.017683,0.041922,0.120321,-0.006957,-0.017910,0.086199,-0.069473,-0.344135,-0.107984,0.101763,0.263911,0.236812,-0.179351,-0.045727,0.047729,0.084338,-0.296532,-0.148109,-0.004820,0.079788,0.212308,-0.264881,-0.383447,-0.236174,0.050507,0.350551,-0.203812,-0.080662,-0.253473,0.120920,0.026840,0.040821,-0.001649,-0.241453,-0.090607,0.090173,-0.141889,0.130741,0.140049,0.134609,0.229342,0.323912,-0.184554,-0.107484,0.175390,0.126581,-0.198636,-0.237801,0.302203,0.308317,-0.008372,-0.276312,-0.180782,0.104483,0.182340,-0.029605,-0.188581,-0.087798,-0.191660,0.185454,0.137849,0.125406,-0.122817,-0.071445,-0.220322,0.063028,0.046390,-0.066560,0.007801,0.092751,0.173746,-0.062989,0.044698,0.049839,0.348242,-0.021895,0.049047,0.022228,0.213250,-0.041423,0.127591,-0.276956,0.203639,0.113226,0.316828,-0.064024,-0.125529,0.057247,-0.020537,-0.091495,-0.049088,-0.115188,0.098743,0.021620,-0.306014,-0.072164,0.021685,0.350773,-0.153831,0.060027,0.054267,0.233486,0.271783,0.017177,-0.195187,-0.018905,0.165791,0.032916,-0.061490,-0.072411,-0.083049,0.050947,-0.051637,0.259032,0.153773,0.009810,-0.095531,0.045074,0.176423,0.056007,0.223098,-0.156709,-0.210033,0.012483,0.332081,0.103608,-0.089423,0.058497,0.072768,-0.112810,0.236789,-0.075989,-0.349091,-0.164313,0.022302,0.044452,-0.047952,0.023908,0.087356,-0.125074,0.012468,-0.176484,-0.173641,-0.143515,-0.133548,0.077014,-0.097580,0.004735,0.016909,0.024616,0.169425,0.088367,0.177481,-0.067253,-0.001061,0.004634,0.070790,0.230947,-0.043501,0.254683,-0.312485,-0.098737,-0.025670,0.131379,0.271591,0.231215,0.205346,-0.362242,-0.063083,0.390172,0.333775,0.045633,-0.267305,-0.264239,0.267327,0.457155,0.028189,0.030899,-0.111800,0.017272,0.436558,0.233643,-0.318571,-0.363448,0.241969,0.123062,-0.018440,-0.003030,0.124007,0.123838,0.004781,-0.001537,0.251615,0.011280,-0.222724,-0.107003,0.183417,0.333200,-0.022299,-0.110384,0.095458,0.023913,0.162655,-0.083171,-0.316464,-0.130989,0.020089,-0.098018,-0.066411,-0.125870,-0.165154,0.076696,0.233193,0.168786,0.061339,0.233890,0.293831,0.126852,0.030718,-0.254132,-0.027562,0.064211,0.007884,-0.164632,-0.193420,-0.165376,-0.253601,-0.028145,-0.096862,-0.361454,-0.071206,-0.314046,0.172598,-0.471408,-0.423428,0.023949,0.051007,0.048460,-0.075078,-0.079801,0.078297,-0.109334,0.078483,-0.047922,-0.166845,-0.078647,0.072796,0.213680,0.267449,-0.212001,-0.020184,0.073299,-0.083921,0.054961,-0.298147,-0.078309,-0.003599,-0.075941,-0.130239,0.033787,0.103775,-0.006340,0.100063,-0.026449,-0.047426,-0.116095,0.140589,0.148363,-0.206724,-0.208065,-0.079760,-0.031067,-0.007618,-0.167445,-0.113912,-0.228485,-0.072087,-0.281256,0.439172,-0.216578,-0.096018,-0.126196,-0.255519,0.056386,-0.133477,0.201875,0.009537,},

	{0.219204,0.265132,0.195396,0.109466,0.056517,0.111659,0.054623,-0.189053,0.017113,0.334537,0.098894,-0.157941,0.221310,0.002769,-0.088471,-0.038660,0.351519,-0.115769,0.015615,-0.293609,-0.156002,-0.198293,-0.088865,0.057854,-0.090193,0.186604,0.091462,-0.123166,-0.035325,-0.250461,0.073853,-0.038535,-0.204483,0.149695,-0.213121,-0.029489,-0.293386,0.039889,0.120102,0.328508,-0.041998,0.117893,0.034449,-0.067970,-0.322770,-0.161095,0.196091,-0.097934,0.152770,-0.195407,0.319584,0.387687,0.331832,-0.115846,-0.358620,0.083842,0.096629,0.098585,-0.192868,-0.049796,0.092191,-0.054905,-0.052123,0.061030,0.449564,0.261272,0.213500,0.271681,0.073836,0.257252,0.037623,-0.039651,0.160738,-0.065159,0.103434,0.133310,-0.011444,-0.262655,-0.128888,-0.004289,0.033713,0.031965,-0.053109,-0.096345,0.265464,-0.026416,0.174938,-0.174995,0.163755,0.259124,-0.164281,0.124420,0.074013,-0.022561,-0.072591,-0.214842,0.111903,0.124611,-0.182742,-0.116146,0.019597,0.150048,0.186184,0.060677,-0.115097,0.091798,0.022259,0.110820,-0.031024,-0.413406,-0.164667,0.022761,-0.112830,-0.225002,0.062140,-0.190101,-0.094330,-0.025075,-0.222117,0.121911,-0.126599,-0.205142,-0.036206,0.164412,0.094704,-0.021342,0.132950,-0.202178,0.194261,-0.220691,-0.142609,-0.192834,0.354542,0.004463,-0.367280,0.013473,0.098332,0.011072,0.011724,-0.509350,-0.071251,-0.130023,0.108705,-0.005631,0.247060,0.145567,-0.080227,-0.129322,-0.059863,0.216522,-0.029334,0.101560,0.245464,-0.132700,-0.151385,-0.043892,-0.077053,0.133067,-0.046766,-0.587963,-0.189995,-0.068498,0.334056,-0.017919,-0.050060,-0.127641,-0.221126,0.086647,-0.010036,0.261930,0.122328,-0.156846,-0.021447,0.176388,0.510994,0.131962,-0.242775,-0.142393,0.059639,-0.037844,-0.154648,0.124015,-0.014192,-0.052711,-0.146859,-0.100367,0.387245,0.152406,-0.183853,-0.144960,0.088438,0.411279,-0.121850,-0.158218,0.386412,0.016989,-0.074440,-0.053041,0.086951,0.158517,0.188742,-0.002025,-0.396664,-0.145820,0.073952,0.031533,0.017925,-0.034198,-0.103555,0.596439,-0.131521,-0.179058,-0.087455,0.304975,0.173736,0.195237,0.044537,-0.076930,-0.147484,-0.025501,0.080138,0.081722,0.009638,-0.165113,-0.076354,0.008361,0.251581,0.283031,-0.084983,-0.669457,0.036515,0.073730,0.046827,-0.284962,0.004772,-0.190702,-0.255208,0.014967,0.108771,0.118087,0.050750,-0.056339,-0.171546,-0.071690,0.083720,0.010769,0.035827,0.089916,-0.096167,0.014386,-0.068277,-0.008542,-0.045684,0.221436,-0.401203,-0.255787,-0.089804,-0.171436,-0.199196,0.129450,-0.036814,-0.078560,-0.095614,0.061620,0.293327,0.165411,0.074771,-0.144562,0.037250,-0.011254,0.041641,0.079612,-0.134875,-0.004785,0.005675,-0.190821,0.067784,0.067966,0.147120,0.069697,0.083691,0.252255,0.065635,0.277422,0.003771,0.018444,-0.086597,-0.050008,0.032922,0.153549,-0.089740,-0.071136,0.012725,-0.110829,0.070206,-0.056787,0.178494,0.050854,-0.133943,0.169949,0.196254,0.127623,0.154727,0.186136,0.396921,-0.062857,-0.215779,-0.003527,0.064033,0.372385,-0.138010,-0.400583,0.020631,0.026698,0.012954,-0.005271,0.200203,0.094883,0.098149,-0.293040,0.146572,0.141073,0.234862,-0.074064,-0.119404,0.154181,0.249877,0.134369,0.276375,0.232295,0.046126,0.263282,-0.143366,-0.218706,-0.328116,-0.165490,0.007234,0.042124,-0.061019,-0.143303,-0.258344,0.333007,0.125595,0.156410,0.111195,-0.273257,0.133343,0.128482,-0.040146,-0.107190,0.060896,-0.035247,0.044020,-0.147416,0.000411,0.068792,0.072904,-0.067549,-0.277870,0.321972,0.021897,-0.014414,-0.086293,-0.010194,0.150927,0.031185,-0.075275,0.190642,-0.079626,0.180614,0.136154,-0.039236,0.018982,0.036157,-0.196214,-0.040865,0.250228,-0.143296,-0.143195,0.369374,0.207972,0.115215,0.194076,0.154266,-0.175732,-0.085738,-0.023051,0.129107,-0.191552,0.000197,-0.049328,0.111370,0.173069,-0.116159,-0.074327,-0.008959,0.080648,0.063082,0.059621,0.025049,},

	{-0.087080,-0.087316,0.123124,0.261351,0.131583,0.278218,0.050258,-0.114637,0.082126,0.063100,-0.066327,-0.107607,-0.195542,0.109729,0.159170,-0.162095,-0.267499,-0.066985,-0.160681,-0.253969,-0.055436,-0.062694,-0.138138,-0.282205,-0.116985,-0.192380,0.049836,0.205804,0.191538,0.039681,0.224305,-0.118275,-0.164248,-0.204364,-0.001139,0.028235,-0.192354,-0.041870,0.191916,0.301469,-0.003445,0.034041,0.172160,0.101583,0.071550,0.030312,0.075794,0.125038,-0.137990,-0.115554,0.075534,-0.179532,-0.041893,-0.156041,-0.198613,-0.079379,0.076461,-0.100413,-0.110452,-0.208389,0.300206,0.259273,0.092705,-0.227509,-0.002277,0.298031,-0.114696,0.078020,0.033700,0.216432,-0.132881,0.221042,0.282030,0.209244,0.052285,0.067066,0.051390,0.133897,0.120859,0.178684,-0.032152,0.232410,-0.050667,0.053569,-0.147973,0.097828,-0.089356,-0.043141,0.115286,-0.011220,0.203949,-0.043265,0.074517,0.025905,-0.263618,0.113919,-0.136686,0.170104,0.029394,-0.182056,0.194526,-0.146651,-0.313382,-0.156010,-0.023703,0.085554,-0.055663,-0.176164,-0.189958,-0.225092,-0.130903,-0.153435,0.039045,0.236563,0.000369,-0.210601,-0.118344,0.063725,0.198626,0.090862,0.054871,0.089752,0.353920,0.362395,-0.060462,0.004480,-0.082241,-0.208781,-0.210741,0.059020,0.057873,0.120010,0.062221,-0.077661,-0.228013,0.210187,0.013956,0.169003,-0.065207,-0.132781,-0.229764,0.117503,-0.022893,-0.207252,0.080791,-0.016621,0.045741,-0.076109,0.229664,0.115078,0.205542,-0.154813,-0.278986,-0.245986,-0.093488,-0.243499,-0.003935,0.027370,-0.186790,0.007984,-0.123457,-0.011398,0.081422,-0.273374,-0.228855,0.041327,0.109289,0.025796,0.128687,0.508678,-0.159444,-0.110794,0.025381,0.030280,0.120821,0.117382,-0.026743,-0.047802,0.147736,0.079973,0.236521,-0.228585,0.110427,0.142154,-0.232105,-0.149910,-0.363542,0.221135,-0.056726,0.050383,-0.383688,0.101173,0.124726,-0.102250,-0.022944,0.250432,0.107712,0.122278,0.443073,0.264619,-0.019866,0.071650,0.247921,0.285980,0.353401,0.000966,-0.003167,-0.012143,0.028486,0.116002,0.028224,-0.146680,-0.081935,0.142601,0.042606,0.072503,0.199868,0.037000,0.255510,-0.336017,0.283513,0.073793,0.169073,0.068346,-0.248624,-0.106003,-0.224451,-0.201300,-0.248982,0.003392,0.050655,-0.135863,-0.082533,-0.502058,-0.265555,-0.112336,-0.127089,-0.092541,0.020790,0.347385,-0.052489,0.023199,0.229004,0.092726,-0.004640,0.048041,0.024765,0.208499,-0.107813,-0.109800,-0.165805,0.112392,-0.104058,0.185251,0.055179,0.040103,-0.032297,-0.004403,-0.238800,-0.115645,0.283684,0.091765,-0.070204,0.087775,0.235341,0.231141,0.167475,-0.002992,0.297897,0.203327,-0.049961,-0.081176,0.212907,0.018313,0.028219,0.009794,0.247521,0.177221,0.157867,0.051698,-0.211183,-0.220622,0.306276,-0.092936,-0.178739,-0.410657,-0.328014,-0.046033,-0.076951,-0.243226,-0.052152,-0.299313,-0.113777,0.036372,0.189293,0.248084,0.337554,0.111612,0.174212,-0.032874,-0.144167,0.044934,0.191451,0.252810,0.013618,0.183306,0.170541,0.077865,0.166981,0.048395,0.113879,0.266991,-0.252501,0.089892,-0.087510,0.021926,-0.358644,0.013949,-0.028605,-0.037904,-0.094428,0.021531,-0.096352,0.223538,0.049054,-0.028693,0.049438,-0.168633,-0.036564,0.073690,-0.038839,-0.296955,-0.325955,-0.253267,-0.121353,0.171583,-0.028700,-0.363391,-0.430802,-0.242470,0.267892,-0.059788,-0.260262,0.158229,0.208309,0.245699,-0.180040,-0.051057,0.080025,0.134145,0.117387,-0.256824,-0.001882,0.165483,-0.033983,0.147864,0.227638,0.042073,0.199112,0.064290,-0.015257,-0.037345,-0.100029,-0.231898,0.066007,-0.102069,-0.153094,-0.197648,0.205276,-0.113025,0.273416,-0.052444,0.263269,-0.016776,0.107931,0.129711,-0.125288,0.012147,0.159967,0.017581,0.171032,0.116107,-0.302209,0.188653,0.116881,-0.112174,0.103835,0.136862,-0.160802,-0.225083,0.005345,-0.150279,0.141208,-0.262640,0.194110,0.044382,0.275074,0.091881,0.244243,0.232052,},

	{0.111905,-0.146572,0.025214,-0.168058,-0.258433,-0.334345,0.135003,0.277536,0.019544,0.194864,0.091111,-0.160801,-0.139366,0.090029,-0.159844,0.549239,0.130628,0.058375,-0.329462,-0.369531,-0.399796,-0.035262,-0.123268,-0.019172,0.181726,-0.082737,-0.249524,-0.228577,0.070215,0.013712,-0.281023,0.161981,0.189193,0.191896,-0.034037,-0.218710,-0.224989,0.068219,-0.012805,-0.073045,0.126189,-0.116572,-0.072609,-0.109841,-0.120732,-0.266017,-0.242319,-0.181390,0.040883,-0.117748,-0.110219,-0.217561,-0.151763,-0.245742,-0.229411,-0.183163,-0.106704,0.061801,-0.050110,0.109151,-0.151609,-0.044043,-0.155454,-0.166392,0.180625,-0.146971,0.001124,0.015787,0.133778,-0.031873,-0.184061,-0.050063,0.117122,0.095271,0.003347,-0.203045,0.302451,0.199128,-0.173333,-0.105742,-0.167405,0.142963,-0.012033,0.074299,0.153452,-0.154836,0.073435,-0.222001,-0.088761,0.032868,0.113340,0.022668,0.144536,-0.041793,-0.375742,0.117803,-0.123987,-0.190014,0.065099,0.194787,0.456603,0.077072,-0.029813,-0.048804,-0.136390,0.041605,0.009723,-0.001106,-0.002808,-0.238081,-0.126327,0.021589,0.070884,-0.053869,-0.168985,0.154709,0.144408,-0.072381,0.352310,0.090262,-0.060754,0.017261,0.191316,0.232710,-0.076123,-0.142416,0.311265,0.029080,0.115775,-0.037363,0.222045,-0.058726,0.346457,0.018809,-0.191354,0.180720,-0.126582,-0.136667,-0.113445,-0.151252,0.055341,0.086615,-0.327975,-0.280511,0.247111,-0.359414,-0.051640,0.065260,0.326180,0.052389,-0.282265,-0.020180,0.207733,0.072970,0.126653,0.354128,-0.061847,-0.121005,-0.060000,-0.334296,0.143430,0.300044,0.032251,-0.302849,0.216529,-0.276283,-0.027879,0.068791,0.497056,0.593221,0.154449,0.163622,-0.112503,-0.117656,-0.159798,-0.131683,0.200665,-0.049082,0.035684,-0.002560,0.167175,0.327281,-0.152726,0.056400,-0.054339,-0.081228,-0.459431,0.292499,-0.098477,0.254380,-0.106196,0.105386,0.034433,0.090001,0.208633,-0.035581,0.334606,0.064677,0.180118,0.068225,-0.265135,-0.028932,-0.050500,-0.273668,0.069056,-0.215626,-0.041646,0.054327,0.283085,0.204342,-0.120541,-0.104627,0.005598,0.025535,0.210679,0.231134,0.070569,0.045941,0.111852,-0.220368,-0.083700,-0.163670,-0.140469,-0.093937,0.081169,0.184117,-0.071834,-0.290680,-0.104933,-0.168336,0.027624,0.036350,0.147775,-0.225315,-0.064772,-0.073227,0.097319,-0.037368,0.138036,0.229076,0.243770,0.409197,0.091593,-0.216585,-0.200116,-0.272949,-0.240312,-0.030529,0.124048,0.038601,-0.155380,0.114940,-0.358201,-0.017205,-0.219711,-0.172697,-0.108317,-0.000079,0.270056,0.189082,0.092794,-0.054029,0.112995,-0.287552,0.027734,-0.050720,0.082588,-0.243186,-0.037914,-0.146266,-0.250685,-0.282799,-0.110681,0.084837,-0.125067,0.063516,0.058684,-0.083309,-0.117941,-0.097869,-0.093748,-0.053863,0.139736,0.009028,0.064435,-0.057133,-0.176016,-0.037242,0.086355,-0.185117,0.159093,0.225002,0.079981,0.185383,-0.211769,0.050008,0.107848,-0.011465,-0.215596,-0.162145,0.119981,-0.114637,-0.082049,-0.088817,-0.106256,-0.138351,0.066780,0.079570,0.067212,0.118122,-0.070489,-0.144039,-0.265894,0.017120,-0.361426,0.245404,-0.008019,0.060501,-0.122187,0.098964,-0.250289,-0.454382,-0.102079,0.132176,0.299744,-0.105976,-0.230351,0.112076,-0.132951,0.323386,-0.323302,-0.043661,-0.377818,0.065870,0.012842,-0.043766,-0.000173,-0.176582,-0.257576,-0.154133,0.002023,-0.159681,-0.211978,0.042337,-0.064918,-0.120064,-0.370453,-0.335217,-0.299468,-0.017517,0.113810,-0.085925,-0.066082,-0.012349,-0.158467,0.003007,0.225185,0.127902,0.050413,0.014439,-0.178824,0.004132,-0.188589,0.021427,0.235194,0.045350,-0.043750,0.360533,0.059849,-0.120002,0.177326,0.104693,0.026522,-0.275622,0.127832,0.044270,-0.053508,0.177680,-0.202600,-0.185625,-0.011029,0.097996,0.089079,0.162636,-0.230374,-0.002234,-0.312848,-0.354679,-0.044580,-0.028961,0.274113,0.208154,0.196596,-0.226195,0.114397,-0.006251,-0.138744,-0.249000,0.206769,0.261418,},

	{0.169593,-0.109363,-0.063875,0.106541,0.052892,-0.241270,0.075657,-0.067320,0.095337,0.163913,0.131258,-0.372338,-0.134906,-0.127634,-0.354290,0.004024,-0.014110,0.006350,0.098139,0.160286,-0.045414,0.217158,-0.003197,0.025898,-0.233919,-0.099669,-0.086657,-0.181347,-0.119208,-0.197273,-0.368860,0.194700,-0.000459,-0.017115,0.076139,-0.154743,0.147801,0.335288,-0.046523,0.272485,-0.199315,-0.272407,-0.003155,-0.052948,-0.184924,-0.230349,-0.324994,-0.164624,0.189503,-0.250122,0.100604,-0.031562,-0.226555,-0.216794,-0.208198,-0.233073,-0.194887,0.153412,0.157543,-0.015862,-0.262821,0.054816,0.181459,-0.007237,-0.189316,-0.376814,-0.282554,-0.288190,-0.406273,-0.144211,-0.434480,-0.169396,-0.117629,-0.216162,0.180357,0.002436,-0.151078,0.031748,-0.024445,0.125377,0.046184,-0.343062,0.145675,0.085369,-0.010996,-0.199443,-0.211174,0.022424,0.052124,0.036925,0.364272,-0.127614,-0.021551,0.035979,0.127153,0.073064,-0.058773,0.185485,0.153197,0.299989,0.313474,0.187929,-0.034893,0.067642,-0.149537,0.414048,0.154911,-0.243490,-0.033958,0.135542,0.169762,0.052727,-0.263964,0.160288,0.235633,0.232119,0.308724,0.237367,0.156433,-0.253456,0.240110,-0.201915,0.041745,-0.138400,0.092461,-0.139792,0.047404,-0.078339,-0.132730,0.090710,0.062034,0.348684,0.276072,-0.097716,0.109919,-0.048843,-0.050367,-0.016844,0.079159,-0.241635,-0.138180,-0.227807,-0.091305,0.051948,0.216121,0.182233,-0.086013,-0.104249,0.043667,-0.022089,-0.042116,0.130368,0.043714,0.104690,-0.208351,0.172302,-0.004997,-0.189576,-0.092286,-0.075507,0.046445,0.317008,0.041887,0.132298,0.076191,0.139444,0.250645,0.051890,0.076647,0.018498,-0.137897,-0.134295,-0.015770,-0.118840,0.322398,-0.214605,0.205900,-0.096100,-0.086064,0.015881,0.401706,0.235791,-0.305762,-0.307484,0.085278,0.287451,-0.355181,0.246148,-0.160991,0.334348,0.054776,0.075797,-0.194746,0.399557,0.081367,0.300075,0.168350,0.022520,-0.064557,0.117258,-0.062329,0.065067,0.016486,-0.111902,0.008919,0.068029,-0.557164,-0.019508,0.052904,0.022527,-0.253464,-0.327670,0.160184,-0.058827,-0.149150,-0.028941,-0.061074,-0.004150,0.118535,0.118500,-0.084624,-0.125084,-0.038706,0.064056,0.108986,0.344125,0.265602,0.047571,0.111740,-0.116990,0.023579,0.050439,-0.092095,-0.292635,0.255640,0.135697,0.246056,-0.158871,-0.034180,-0.298006,0.024267,0.104464,0.126184,0.045981,-0.001573,-0.115075,-0.084681,-0.229220,-0.129350,0.107486,-0.506579,0.067482,-0.072714,0.073438,-0.145988,-0.225441,-0.180870,0.023457,0.022896,0.300731,-0.237377,-0.197736,0.277278,-0.027561,0.121784,-0.376140,-0.174463,-0.041189,-0.055080,-0.045235,0.024887,-0.146128,0.116772,-0.130074,-0.150871,-0.208892,0.370918,0.153331,-0.164259,-0.138627,-0.014668,0.234616,0.276378,-0.236193,-0.217695,-0.081819,0.165071,0.303564,-0.046082,0.049378,0.078700,0.107089,0.073247,0.147167,0.147239,0.125169,0.011786,-0.044264,-0.151902,0.086622,0.234768,-0.006088,0.068887,0.071086,-0.183952,-0.328359,-0.096344,0.118336,0.180312,-0.161551,0.012359,0.042564,-0.094431,0.151819,-0.034617,-0.362491,-0.230704,0.016792,0.072089,0.129513,-0.400472,-0.077289,-0.129788,-0.024361,-0.253376,-0.128963,-0.105606,0.032176,-0.103482,0.165518,-0.312909,-0.267274,0.077314,0.042539,0.013400,-0.029201,-0.183538,0.092936,-0.077960,0.401095,-0.020891,-0.247776,-0.162509,0.129117,-0.112899,-0.102201,-0.144805,-0.109193,-0.246493,-0.478038,0.322667,-0.041198,0.078680,0.017094,-0.081385,0.128798,0.009250,0.018297,0.089873,-0.320760,0.068948,0.077220,-0.128085,0.024415,0.024755,-0.002002,0.383312,0.002492,0.041392,-0.047166,0.041143,0.055519,0.191931,0.041500,0.117546,0.461455,-0.162636,0.136389,-0.185625,0.045911,-0.001243,0.116432,-0.157795,0.215159,-0.092182,0.048912,0.168626,-0.095574,0.075804,0.131739,0.073068,0.176429,0.186627,0.026241,0.317467,-0.135074,0.097869,-0.134944,0.044928,-0.178824,},

	{-0.061481,0.004346,0.040638,0.373474,0.387870,0.184121,0.026558,0.263495,0.190988,-0.104352,-0.222439,0.273639,-0.269933,-0.137277,0.129877,0.168494,0.104188,-0.136066,-0.010162,0.006731,0.121286,0.176720,-0.135959,0.065441,-0.079717,0.035285,0.079849,-0.171889,0.177554,-0.204859,-0.142223,0.175654,0.054951,0.300498,-0.158909,-0.194363,0.050631,-0.108254,-0.154775,0.017766,0.046974,-0.089266,0.032692,0.279307,0.034086,-0.047515,-0.134468,-0.148899,-0.031305,0.025839,0.327968,0.144114,0.109765,-0.382425,-0.235756,-0.198907,0.044022,0.144505,0.281790,0.191533,-0.046570,-0.318018,-0.004131,-0.196133,-0.231137,0.001170,-0.160773,0.017373,-0.134629,-0.136675,-0.183422,-0.163398,0.152289,0.045560,0.280910,-0.093502,-0.421672,0.009470,0.074987,-0.128029,-0.236533,-0.216615,0.084516,0.001579,0.267243,0.044422,-0.165942,-0.245880,-0.167506,-0.046743,0.224164,-0.050501,-0.097454,0.190706,0.113593,0.322098,-0.110029,0.088882,0.041895,0.151003,0.109878,0.185111,0.052483,-0.210404,-0.233761,-0.008872,0.098440,-0.025711,0.083632,0.027266,-0.111399,-0.091676,-0.197198,0.096630,-0.062132,0.064845,0.010240,0.224601,0.191170,0.005466,0.205247,0.110362,0.417512,0.083721,-0.027099,0.070627,0.433700,0.222873,-0.283054,-0.225150,-0.063876,0.128662,-0.010615,-0.149126,-0.158243,-0.008285,-0.336840,0.128864,0.269484,-0.089064,-0.061529,-0.233940,0.055707,-0.087702,-0.184040,-0.130141,-0.226107,0.135405,-0.274297,-0.112011,0.205241,0.012869,0.018044,-0.378754,-0.170184,-0.154541,-0.178576,-0.286403,-0.256873,-0.172347,0.009703,-0.284917,0.143620,-0.200289,-0.279356,-0.015353,0.148224,0.021158,0.184632,-0.110712,-0.157570,0.075336,0.306268,-0.073992,0.281624,0.026917,0.276677,-0.217511,-0.241406,-0.211696,0.197579,0.138986,-0.055897,-0.074766,0.027451,0.149494,-0.248562,-0.263627,0.026685,0.065004,-0.074782,-0.184340,-0.136398,-0.053579,-0.132688,-0.082559,0.254025,0.031036,-0.164493,-0.022425,-0.176439,-0.241497,-0.040519,0.058551,-0.108582,-0.131015,-0.053258,0.134109,0.105302,0.320644,0.115431,-0.374253,-0.106061,0.016113,-0.232798,0.122993,0.023180,-0.129103,0.341896,0.100091,0.151209,-0.340306,-0.125751,-0.045754,0.282673,0.102534,0.069431,-0.039429,-0.027801,-0.016870,-0.065673,0.207890,-0.096083,-0.157329,0.080249,0.034315,0.300856,0.249054,-0.128420,-0.098652,0.120123,0.391020,0.037501,-0.037608,-0.070584,-0.559862,-0.380778,-0.152934,0.198790,0.223157,-0.122870,0.253233,0.055074,-0.011578,-0.312281,-0.135508,0.271043,-0.192576,0.310399,0.130266,0.047061,-0.150679,0.156026,0.121599,0.090263,-0.123062,-0.029995,0.129247,0.015801,0.069555,0.042364,-0.180246,0.126085,-0.195856,0.126027,-0.308900,0.063903,0.107366,-0.037138,-0.066165,-0.232272,0.123583,0.221821,0.164254,0.041426,0.027897,0.041730,0.189515,-0.023503,-0.115941,0.033885,-0.088520,0.221322,0.236809,-0.039805,0.055006,-0.051910,0.204870,0.203423,0.174478,-0.062836,0.037109,0.185278,0.349729,0.284683,0.020618,-0.276525,0.215018,-0.117249,-0.123688,-0.117327,0.069833,0.178622,-0.041077,-0.037139,0.381268,0.219122,-0.048187,-0.100738,0.072679,-0.280647,-0.138262,0.021797,-0.206136,-0.099683,-0.109616,-0.140391,0.236094,0.293190,-0.033712,-0.306015,-0.093654,-0.056671,-0.114839,-0.219566,-0.043290,0.354333,0.116818,-0.162002,0.071548,0.363433,0.073591,0.203668,-0.010812,0.245335,0.128326,-0.202547,-0.032278,0.061024,-0.030110,0.143717,-0.262601,0.013663,-0.029543,-0.046147,0.178005,-0.392350,0.241378,0.184613,0.195571,-0.064373,0.034402,-0.151751,-0.164787,0.133455,-0.143607,0.016839,-0.129891,-0.196416,-0.179391,0.237675,0.162190,-0.049035,0.318338,0.021416,0.198235,-0.185123,0.183461,-0.101875,0.006026,0.264195,0.213354,-0.041142,-0.028352,0.030401,-0.167475,-0.080491,-0.313749,-0.019230,0.233736,-0.065044,0.081486,-0.240175,0.090256,-0.156485,0.082849,0.320720,0.071776,0.201789,-0.132846,},

	{-0.036710,0.124885,-0.142652,0.123760,0.494887,0.081133,-0.167506,0.014717,0.269538,0.048919,0.025198,-0.125657,0.293244,-0.105162,0.207613,0.096296,0.327501,0.213850,-0.075610,0.062057,-0.021012,-0.289847,-0.414643,-0.079753,-0.270867,-0.081914,0.067565,-0.006389,-0.024605,-0.092643,0.087521,-0.088915,0.008181,-0.086424,0.214467,0.150918,-0.041682,0.251600,-0.233469,0.028603,0.077704,0.153918,0.093966,-0.111856,0.227471,0.178493,0.064443,-0.137381,-0.053506,-0.191469,0.218859,0.245173,0.250903,-0.150709,-0.137694,0.094628,0.219776,-0.348665,-0.048263,0.160825,0.146655,0.248241,0.007478,0.243270,-0.030025,0.031068,-0.034455,0.491547,0.316087,-0.147197,0.276269,0.353767,0.061953,-0.140584,-0.075589,-0.111273,-0.057917,-0.242411,0.060058,-0.248040,-0.013875,-0.050925,-0.028948,0.103413,0.153730,0.011551,0.119969,0.025143,-0.238846,0.169034,-0.130191,0.196903,0.006887,-0.130217,-0.086064,0.029793,0.124351,0.054988,-0.381791,-0.236489,-0.056096,0.013575,0.199656,0.003972,-0.393963,-0.148112,0.026704,0.080966,-0.034696,0.245186,0.045376,0.093414,0.075931,-0.111893,0.056796,-0.317763,-0.314076,0.017017,0.129777,0.106551,0.010015,0.155286,0.156332,0.073496,-0.022484,-0.083392,0.294523,0.258772,-0.125670,0.001858,0.009125,0.047514,-0.233757,-0.190415,-0.130476,0.045410,-0.035140,-0.229756,-0.310568,0.156019,0.127216,0.042450,-0.117894,0.485228,0.057789,-0.399325,-0.068718,0.048917,0.257495,0.058233,0.134950,-0.002145,0.145498,-0.102856,-0.128370,-0.103041,0.150530,-0.007799,-0.072131,0.065043,0.067164,0.125775,-0.154294,-0.049311,-0.075083,-0.247660,-0.446817,-0.127532,0.056149,-0.155095,0.210314,0.328130,0.083130,-0.058324,0.234143,0.031677,0.112750,-0.210769,-0.061894,-0.306486,-0.225258,-0.156458,0.105224,-0.172269,0.199505,0.024800,0.270031,-0.145150,-0.045722,0.137011,0.083050,-0.067296,-0.076578,0.286075,0.065144,-0.198092,0.017064,0.358746,-0.066311,-0.160741,0.047323,-0.004070,-0.063005,-0.086401,-0.060512,-0.072764,-0.124926,0.169886,0.142240,0.015467,-0.204114,0.020756,0.205345,-0.153022,-0.188363,0.237396,0.083855,-0.262321,0.049039,0.149467,0.200019,0.099550,-0.085651,-0.174671,0.013655,-0.114395,-0.034211,0.147050,0.016853,-0.082613,0.111848,-0.168875,-0.036656,0.381444,0.342789,-0.207629,0.110658,0.133610,-0.059586,0.000593,0.114091,0.059784,0.089802,0.040657,0.154194,-0.158994,-0.206807,-0.394091,-0.425864,-0.169125,0.086243,0.071686,0.136624,0.011056,0.043464,0.137295,0.115110,-0.163637,-0.163104,0.228982,-0.027457,0.013405,0.026544,0.022268,0.132924,0.179559,-0.083672,-0.171952,0.093595,-0.091910,-0.132638,0.107634,-0.063794,-0.196615,-0.214155,-0.142977,-0.300359,-0.116283,0.004653,0.032079,0.223050,0.049800,0.069219,-0.053884,0.028905,-0.236227,0.038226,0.363525,-0.164128,-0.213643,-0.033935,0.033543,0.353360,0.173881,0.100425,-0.002788,0.109845,-0.002538,-0.145624,-0.137765,-0.114146,0.160285,0.162914,0.219120,0.410436,0.006806,0.100626,0.033406,0.107079,-0.301698,0.070117,-0.126332,0.131244,-0.126127,-0.112295,0.231522,0.251699,0.075445,-0.269804,-0.084215,-0.013951,0.029694,-0.098592,-0.026203,0.114445,-0.006994,0.355488,0.157240,0.344076,-0.132309,0.103056,0.284781,0.093807,-0.132259,-0.234379,-0.185131,0.004279,0.441308,0.240568,-0.068344,-0.206774,-0.057813,0.344407,-0.112507,0.123225,-0.103655,0.128995,-0.129985,0.314584,-0.017399,0.101782,-0.195684,-0.134550,0.102830,-0.199053,-0.191871,-0.034328,-0.090672,0.017652,0.054077,0.193735,0.015267,-0.199626,-0.011826,0.046721,0.039057,-0.040812,0.147569,0.072074,-0.151200,-0.097340,-0.041428,0.089607,-0.223005,0.074516,-0.012139,-0.090867,0.161743,0.348154,-0.093297,-0.173052,-0.031023,-0.069800,0.227065,-0.352458,-0.020925,0.041453,0.014213,-0.512002,0.004643,0.078067,0.039934,0.027292,0.096791,0.185157,0.018238,-0.129401,-0.306266,0.099533,0.070901,},

	{-0.163068,0.217236,0.190868,0.018017,0.174179,-0.021803,-0.087617,-0.250930,-0.229343,0.136709,-0.211744,-0.167828,-0.105324,0.008776,-0.102443,0.131592,0.263380,0.071118,-0.296448,-0.128728,-0.039700,0.264676,0.086486,0.179001,0.185627,0.080815,0.274402,0.218876,-0.303253,0.331006,-0.156515,0.001409,0.525605,-0.093960,0.351568,-0.227101,-0.207950,0.154058,-0.003246,0.080617,-0.051154,-0.095983,-0.146641,-0.071263,-0.008382,0.024683,-0.122998,0.305463,0.169533,0.286336,0.159256,0.268350,0.421218,0.231654,-0.021381,0.214574,0.040142,0.152661,0.221793,-0.297781,-0.098889,-0.011023,-0.163451,-0.106782,0.124992,-0.121619,0.143050,-0.208464,-0.019223,-0.200866,-0.235028,-0.351050,-0.085519,0.120819,0.240175,0.035210,-0.137501,0.049618,0.197729,0.003270,-0.019196,-0.010557,-0.164885,-0.088714,0.022286,0.172376,-0.140567,-0.181086,-0.131782,0.211597,0.213563,0.086727,0.163021,0.161028,-0.195461,0.055040,-0.043218,-0.003905,0.110997,0.223989,-0.070182,0.006160,0.077796,0.023632,-0.140152,0.018642,0.121614,0.366628,0.199821,0.149624,-0.033602,0.146251,-0.009103,0.022867,0.128071,-0.008382,0.308114,0.058316,-0.080206,0.091442,-0.490507,-0.258952,-0.341190,-0.188541,-0.031909,0.122754,0.256899,0.550182,0.149382,-0.064716,-0.176976,-0.319755,-0.117466,0.128728,0.078072,0.081707,-0.023055,0.050810,0.065552,-0.162669,0.131103,-0.011734,-0.059513,-0.126890,-0.193068,0.301369,0.121987,0.329577,0.356079,-0.162806,-0.028825,-0.010286,-0.073221,-0.100867,-0.136563,0.022814,0.140693,0.187889,0.071942,-0.293097,0.055131,0.244289,-0.147716,0.089194,0.063128,-0.054333,0.037353,-0.081912,0.036200,0.191530,-0.499371,-0.423846,-0.017694,-0.005149,0.010179,0.193070,0.216310,-0.143664,-0.324980,-0.000466,-0.133312,-0.082491,-0.013463,-0.075197,0.202195,0.104227,-0.048708,-0.130717,-0.239306,0.067855,-0.162346,-0.031568,-0.077278,0.017363,-0.044113,0.218854,-0.224184,-0.335166,0.082952,-0.101987,0.100401,-0.011104,0.189547,0.012820,-0.016346,-0.016630,-0.160386,-0.229391,0.046840,0.013446,0.120183,-0.053170,-0.197398,-0.062421,0.193848,0.010932,-0.016695,0.111881,-0.017411,-0.070521,0.119477,0.059050,-0.220263,0.112447,0.039733,0.145528,0.458611,0.269945,-0.050760,0.073110,0.174024,0.267449,0.004366,-0.233111,-0.253923,0.062765,0.003321,-0.229440,-0.044372,0.247685,-0.171645,0.055150,0.057098,-0.083868,-0.165000,0.097956,0.089985,0.367227,0.310101,0.150937,0.000648,0.162491,0.404075,0.031578,0.172257,-0.208832,-0.313974,-0.060850,-0.067497,0.261540,-0.082968,0.003192,0.016606,-0.169465,0.028290,-0.065030,-0.163349,-0.010731,-0.059287,0.111645,0.394522,0.077137,-0.175335,0.034919,0.068479,0.262706,0.154986,0.292007,0.025233,0.012573,0.034813,-0.042782,0.340135,0.136961,-0.091432,-0.088786,0.143161,0.003027,-0.258178,0.008211,-0.278013,-0.128568,0.095024,-0.169392,-0.034716,0.045385,-0.084265,0.072853,0.120630,0.165641,-0.021862,0.112155,0.271334,0.339083,0.147645,-0.148675,-0.134477,-0.136438,0.222511,0.028754,-0.029761,0.219420,0.071238,0.111041,-0.135871,-0.086451,-0.140145,0.068301,-0.040253,-0.217919,0.214088,0.058594,0.055106,0.101394,0.288872,0.040350,0.189026,0.341631,0.227634,0.358543,-0.003092,0.165566,0.296806,-0.246133,0.119685,-0.087826,-0.032006,0.022400,-0.171978,-0.182686,-0.010081,0.009818,0.074395,0.086847,0.340936,0.239178,0.393433,0.317722,0.369252,0.101441,-0.054898,0.038657,-0.189008,-0.067554,0.195494,0.228597,0.127242,-0.238145,-0.056164,-0.026149,-0.028657,-0.298654,0.042754,0.135957,0.165430,0.248712,0.129194,-0.118989,0.015120,-0.201111,0.058353,-0.084134,-0.108627,0.057773,-0.085808,0.046697,-0.019750,-0.085946,-0.052712,0.023537,0.081759,-0.016055,0.085437,-0.130216,0.062047,0.088155,0.065607,-0.005124,-0.289801,0.007552,0.151763,0.399276,-0.108732,-0.032711,-0.209865,-0.174405,-0.199377,0.118435,0.214260,0.254171,},

	{-0.092507,0.124951,0.064196,0.179181,0.144650,0.078367,-0.070461,0.239846,0.027022,-0.013791,0.108736,0.216569,-0.023546,-0.035665,0.060786,-0.303282,0.129109,-0.095100,-0.372478,-0.204909,0.063798,-0.079386,-0.089856,-0.139762,-0.075613,-0.051054,-0.139933,-0.341410,-0.118628,-0.045577,0.271424,-0.174926,0.277514,0.209665,-0.026239,0.172554,-0.064598,0.028447,-0.140209,0.298202,-0.005998,0.108187,0.182412,0.089528,-0.109229,0.154850,-0.087244,-0.111314,0.017154,-0.179307,0.013896,0.163731,0.056051,-0.097015,-0.089789,-0.054958,0.176894,0.043389,0.507194,-0.035808,0.124011,-0.070397,-0.049745,0.169856,0.076336,0.291818,-0.161036,0.413123,0.217324,0.101324,0.051280,-0.293334,-0.166916,0.000954,0.158094,0.265819,-0.235062,-0.245699,-0.041464,-0.112455,0.254692,-0.193697,-0.327795,-0.093382,0.061514,0.414710,0.176906,-0.064748,-0.024371,0.195862,0.074152,-0.123094,-0.157898,-0.133239,-0.092179,0.036828,0.040093,-0.126148,-0.086454,-0.146394,0.050038,0.168370,0.188304,0.096708,0.043121,-0.256067,0.058117,0.297372,0.030397,0.157796,-0.097620,-0.033314,-0.114888,-0.202082,-0.023468,-0.173215,-0.355602,0.410228,0.387028,-0.044799,0.019150,-0.066126,-0.031368,0.293036,0.063377,0.031696,-0.029672,0.245045,0.192874,-0.011336,-0.144833,-0.166067,0.020208,0.055383,-0.126304,-0.209532,0.184149,0.110454,0.144191,0.138920,-0.124855,-0.122415,-0.040195,0.059352,-0.268511,-0.048055,-0.065081,0.186443,0.235128,-0.023596,0.000113,0.079988,0.156741,-0.100280,0.225772,-0.489191,0.215207,0.002148,0.073450,-0.139446,-0.033983,-0.129818,-0.105026,-0.089607,-0.345093,0.042801,-0.062929,0.109013,0.283616,-0.021564,0.042576,-0.151999,0.033186,0.102256,0.053909,0.230147,-0.124988,-0.078108,-0.103290,-0.225352,0.216658,-0.279736,0.316962,-0.041532,0.061845,-0.086195,0.219814,-0.119252,-0.003413,0.266561,-0.084502,0.196265,0.231694,0.250971,-0.016824,0.045588,0.082412,0.132541,0.084394,-0.028206,0.161849,-0.255593,-0.154684,-0.041035,-0.088056,0.295835,-0.089091,0.124520,-0.126212,-0.131879,0.290515,0.105133,-0.008594,-0.184522,0.124186,0.082098,0.019027,-0.102941,0.139890,-0.008399,-0.010477,0.244238,-0.316402,-0.189606,0.114056,-0.054574,0.150972,0.021270,0.135524,0.068347,-0.305361,0.012409,0.029535,-0.281164,-0.082315,-0.258266,0.138466,-0.069765,-0.135076,0.032524,-0.168850,-0.157273,0.017952,0.191834,-0.019124,0.012553,-0.284911,-0.022870,-0.042582,-0.260923,-0.151224,0.016997,0.066884,-0.269226,-0.197475,-0.201932,-0.255966,-0.066467,-0.171962,-0.090802,0.153340,0.242580,-0.131585,0.152104,0.112613,0.217861,-0.329707,0.124840,0.038828,-0.093568,-0.027174,0.145625,0.012067,-0.266738,-0.222606,-0.240631,-0.219667,0.154259,0.056604,0.087482,-0.242147,-0.430755,0.115102,0.379922,0.063398,-0.057607,-0.339794,0.065801,0.127950,0.077091,0.104994,-0.481497,0.113215,0.270838,0.269296,0.073285,-0.108912,-0.319423,0.043182,0.258128,-0.014686,0.025558,-0.298156,-0.035191,0.396433,-0.040681,-0.194156,-0.341827,-0.144674,0.239045,0.020560,-0.074719,0.287623,0.039151,-0.181626,0.129200,-0.165305,-0.145981,-0.190726,0.068453,0.066671,-0.222185,-0.059215,-0.039032,0.068364,0.106088,-0.093128,0.041148,0.292913,0.317159,0.151358,-0.017372,0.117519,-0.097766,-0.043142,-0.086716,0.128558,-0.113318,-0.314658,-0.018958,0.017140,0.007451,-0.080758,-0.035293,0.384478,0.077348,-0.025536,-0.160313,0.140834,0.315678,0.142364,-0.158019,-0.072298,-0.143568,0.062887,0.186101,0.278007,-0.253330,0.015314,0.120016,-0.054356,0.109944,0.054206,0.092703,-0.114073,-0.134778,0.374814,-0.375585,-0.113997,-0.033179,-0.116422,-0.015015,0.145567,0.206978,-0.011438,0.068021,-0.049580,-0.186101,0.033433,-0.063980,0.032641,0.145100,0.017605,-0.003598,-0.025840,-0.062521,-0.108027,0.146211,-0.123559,-0.005724,-0.407108,0.499970,-0.136335,0.010698,0.056750,-0.058408,-0.193431,0.203815,0.325123,0.086500,},

	{-0.384811,-0.030531,0.123371,-0.064884,-0.222268,0.008387,-0.011477,-0.112476,0.050098,0.072530,-0.195291,0.010326,0.130953,0.069592,0.042634,0.261504,0.036162,-0.105176,0.083514,0.046241,-0.011789,0.016303,0.355446,-0.079368,0.044730,-0.289738,0.164373,-0.183741,0.237736,0.117322,-0.116384,0.106322,-0.195660,-0.073593,0.194585,-0.089700,0.144342,-0.084713,0.012000,0.120347,0.011546,0.086379,-0.099016,-0.159041,-0.161070,0.114803,-0.109548,0.163164,-0.368373,0.144766,-0.162346,-0.429237,-0.014973,0.167811,0.295341,0.059235,0.047570,0.169329,-0.030864,0.049173,-0.160022,-0.057522,0.032269,-0.139707,0.024322,-0.080526,-0.026066,0.155312,-0.027973,-0.196755,-0.305024,-0.235445,-0.204785,0.058398,-0.094951,0.032754,-0.377204,0.265854,0.395203,-0.097753,-0.473619,-0.160568,-0.093540,-0.175694,-0.081100,-0.274913,-0.112577,0.449460,-0.120014,-0.140956,-0.214460,-0.095764,-0.063871,-0.016446,-0.033606,-0.203552,0.047789,-0.034236,-0.114083,0.005723,0.182818,-0.148010,-0.273587,-0.050644,0.105254,-0.086067,-0.051587,-0.050892,-0.044157,0.078160,-0.065158,-0.121897,-0.119341,-0.103483,-0.010519,0.079868,-0.070177,-0.254082,0.212047,0.181326,0.007432,-0.031962,-0.171185,-0.055247,-0.014763,-0.142725,-0.049168,0.007451,-0.029323,0.043612,-0.083112,0.160743,0.017163,0.138085,0.256883,-0.097958,-0.037161,0.082413,-0.096585,-0.017610,0.139417,0.160736,0.009406,-0.274113,0.116277,0.072610,0.011500,-0.304768,0.222340,0.146531,-0.118930,-0.144964,-0.027923,0.152099,0.300888,0.231975,0.222939,-0.221494,0.031182,-0.042764,0.177840,0.002409,-0.128670,-0.224783,-0.017751,-0.019939,0.035097,-0.069297,-0.280503,-0.022761,-0.137646,-0.099854,-0.214507,0.037438,-0.047216,-0.091775,0.347574,0.057816,0.282440,0.068420,-0.224930,0.075862,0.103355,0.262095,-0.068357,0.158891,0.066415,-0.055757,0.253262,-0.217529,0.051565,-0.072099,0.075765,-0.073183,-0.130358,0.121950,0.041593,-0.112882,0.165526,-0.025853,0.035251,-0.077157,0.323920,0.325964,0.027566,-0.040955,-0.055482,0.242442,-0.053649,-0.296074,-0.096378,-0.076051,0.310988,0.062246,-0.035096,-0.181437,0.036545,0.039158,0.071792,0.091586,-0.108315,0.096891,-0.045279,-0.002985,-0.124625,0.326355,-0.032450,-0.170541,-0.056851,0.155786,0.009174,-0.193365,-0.115893,0.205258,-0.018482,0.078334,-0.099592,-0.196251,-0.015364,0.000692,-0.086187,-0.070772,0.146121,0.067640,0.445841,0.008508,-0.038955,0.050665,0.276480,0.112024,-0.028102,0.229690,-0.193609,0.276027,0.231238,-0.169892,0.201401,0.183327,0.285823,0.083691,0.121516,-0.015027,-0.057476,-0.010888,-0.062246,0.154382,0.169693,-0.004977,-0.082959,0.061108,0.113011,0.043942,0.230708,0.067357,-0.065308,0.016054,0.396283,-0.178516,-0.030236,0.197961,-0.175366,0.082290,-0.108406,-0.225160,0.312046,-0.085978,0.134547,-0.050750,0.095344,0.033516,-0.092759,-0.038037,0.070591,0.173432,-0.190289,0.124420,0.027391,-0.015088,-0.105494,-0.150224,0.011213,-0.280601,-0.126819,-0.263163,-0.213077,0.190646,-0.175033,-0.113805,-0.112819,0.177688,-0.119610,-0.121760,0.023830,-0.091188,-0.022413,0.096828,-0.120589,-0.100129,0.132243,-0.266714,-0.094049,0.057550,-0.065333,-0.191248,-0.267421,-0.211506,-0.219508,-0.233648,-0.177699,0.138706,-0.238717,-0.317699,0.141002,0.230597,0.160877,-0.049842,-0.365496,0.106945,0.118665,-0.504761,-0.175177,-0.084884,-0.170053,-0.471016,-0.481812,0.067983,-0.048113,-0.207351,-0.493448,-0.074071,0.211594,-0.164722,0.402354,0.320161,-0.082754,-0.151249,-0.240630,-0.022511,-0.146452,-0.222462,-0.121090,0.037706,0.227710,-0.032886,-0.165844,-0.110673,-0.004275,0.060707,0.059939,0.221974,-0.166329,0.110834,0.188020,-0.031405,-0.012355,0.077001,-0.360713,0.311749,0.019633,-0.176821,0.054998,-0.175134,-0.457900,0.195805,-0.078386,-0.121344,-0.097216,-0.297482,0.118283,-0.208696,-0.138923,-0.059921,0.119330,-0.029022,-0.249988,-0.198039,-0.172865,0.039106,-0.157893,0.218323,},

	{-0.054603,0.063137,0.001183,-0.002524,0.121605,-0.051897,0.047260,-0.072490,0.085793,-0.117162,-0.275341,0.085655,0.038582,0.134866,0.087741,-0.058668,-0.156423,0.025360,0.334894,0.364452,-0.095366,-0.020077,0.010488,0.017359,0.087496,0.027165,0.049731,0.103543,0.258013,-0.004419,0.071017,0.150917,-0.139449,-0.155041,-0.194277,-0.075659,-0.240499,-0.088026,-0.131227,-0.039219,0.075021,0.244853,0.182725,-0.084479,0.333689,-0.061693,-0.087439,0.105440,-0.043982,0.097507,-0.132994,-0.067859,-0.151446,-0.239543,-0.038745,0.155704,-0.118732,-0.116985,-0.122959,0.112122,-0.373200,-0.301630,0.083575,-0.107289,-0.518935,-0.109765,0.356780,0.059240,-0.039545,0.186496,0.037658,0.292595,-0.031987,0.077771,0.155324,0.116338,0.056337,-0.038088,0.359956,-0.083278,0.323489,0.006587,0.012342,0.138868,-0.126463,-0.035035,-0.096258,-0.147588,0.066994,-0.258944,-0.039683,0.002164,-0.003054,0.210759,0.305411,-0.187936,0.104074,0.105017,-0.000484,-0.151043,-0.271403,0.084358,-0.143167,-0.159008,-0.001420,0.239881,0.374118,0.215224,-0.113018,0.189916,-0.035221,-0.070028,-0.102832,-0.032022,-0.213163,0.091193,0.128175,-0.079599,-0.003606,-0.102207,0.274975,0.287115,0.210192,-0.208805,-0.084295,0.138770,-0.049166,-0.382482,-0.394658,-0.106950,-0.068304,-0.064982,0.087840,-0.596432,-0.109788,-0.185126,0.164841,-0.284121,-0.246682,0.123163,0.192627,0.207077,-0.114138,-0.122927,0.012914,0.101304,0.170478,-0.063303,-0.003991,0.190265,-0.044094,-0.108226,-0.053245,-0.405324,-0.031982,-0.033118,0.422949,0.088139,-0.087368,0.432299,0.056990,-0.130347,-0.192379,-0.083219,-0.097711,0.149256,0.069579,-0.052106,-0.235669,-0.246234,0.261919,0.143701,0.043410,0.031528,-0.143709,0.205667,-0.144590,-0.155808,0.242506,0.103664,-0.003584,-0.069744,-0.113614,-0.155497,0.066596,0.160356,0.159661,-0.246294,0.142361,-0.034758,-0.258153,-0.183826,-0.176344,0.032693,-0.114399,-0.041858,-0.096500,0.054737,-0.011933,0.070621,-0.084911,0.000519,0.127018,0.363293,-0.157107,0.197156,-0.436881,0.038989,0.086053,-0.131286,-0.214136,-0.254053,-0.291880,-0.047096,-0.392034,-0.152781,0.094662,0.138506,0.212029,0.270535,-0.370892,0.068355,0.212160,-0.076121,-0.149931,0.153881,0.134774,-0.214871,0.090832,0.306207,0.070790,0.109020,-0.073117,0.064243,0.280768,-0.124098,-0.158070,-0.165926,-0.137511,-0.326832,0.223805,0.014830,-0.095745,0.005128,0.150882,0.170014,0.138973,0.207686,0.044229,0.151168,0.147983,0.197008,0.357276,0.182310,-0.041889,-0.109820,-0.370726,0.267822,-0.053816,-0.082599,0.031891,-0.138121,0.162974,-0.120419,0.122306,-0.100085,0.226677,0.108177,0.227944,0.352990,-0.224970,-0.191780,0.015048,-0.125337,0.302042,0.050071,0.282738,0.197658,-0.107005,-0.024565,0.120755,0.330303,0.318481,-0.250844,-0.215357,0.143775,0.062528,-0.081073,-0.116598,-0.281994,0.190857,0.370125,-0.091936,0.172888,-0.171670,-0.068227,-0.069829,0.274042,0.337103,-0.019316,0.099974,0.481400,0.245641,-0.018723,-0.069990,0.075438,0.004854,-0.015468,0.140267,-0.235932,-0.186203,-0.083427,-0.015412,0.097535,0.292434,0.154950,-0.000333,-0.032368,0.158150,0.095962,0.026840,0.019497,-0.047943,0.155089,-0.211826,0.053956,0.026971,-0.117218,-0.035646,-0.487141,-0.008095,-0.168751,-0.058374,0.125478,-0.328252,0.084755,-0.212343,0.201951,0.473019,0.115800,-0.120782,0.112365,0.042601,0.133643,0.178782,-0.076590,0.096227,0.421728,0.160251,-0.032501,-0.036246,-0.204212,-0.022128,0.017906,-0.023185,-0.070622,-0.028205,-0.280406,0.180239,0.140119,-0.115405,-0.058617,0.038904,0.012980,-0.206463,-0.245127,0.027949,-0.008383,-0.155569,0.150682,0.241973,-0.111165,-0.151234,0.037220,-0.164344,-0.081570,-0.001110,0.055011,0.164466,-0.231985,0.203825,0.136476,-0.109896,0.052445,-0.092290,-0.029733,-0.153577,-0.054887,-0.022939,0.153414,-0.164666,-0.221676,-0.105168,0.052151,0.201366,0.268746,0.150744,-0.079203,-0.088007,-0.240445,},

	{-0.226743,-0.030229,-0.163528,0.257883,0.150553,0.247808,0.060059,0.255425,0.045609,-0.139973,-0.182788,-0.106089,-0.337524,-0.070022,-0.149216,-0.285367,-0.328399,0.176169,-0.023360,0.029261,0.059923,0.113273,0.014382,-0.149484,0.133571,-0.159132,-0.207238,-0.019839,0.207118,0.199154,0.177260,0.136778,-0.003011,0.183165,-0.078064,0.087448,-0.047788,-0.183065,-0.152829,-0.151037,0.008379,0.018776,-0.096936,0.146705,0.022223,0.068203,-0.106625,-0.054549,0.021560,0.048225,-0.249018,-0.399276,-0.392322,-0.047713,0.058559,0.068899,-0.137849,0.017169,-0.086776,-0.209363,0.312373,0.177674,0.124619,-0.186541,-0.226880,0.105964,-0.042150,-0.057261,-0.040844,-0.056325,-0.369957,0.024894,0.152608,-0.120524,-0.031192,-0.107795,-0.131759,0.240229,0.007146,0.216386,-0.190675,0.106546,0.112818,0.400913,-0.004105,0.065644,0.161696,0.016971,-0.089561,0.032199,-0.098593,0.196135,0.061780,-0.013593,-0.071229,-0.132032,-0.140003,0.099004,-0.075570,0.010029,-0.195486,-0.008211,-0.331274,-0.254034,-0.190555,0.054591,-0.280427,-0.357377,-0.141544,-0.103217,0.098446,-0.060170,-0.169990,0.120463,-0.114860,-0.133102,-0.130201,-0.018776,0.025295,-0.005991,0.099584,-0.201828,-0.120154,0.052174,-0.078841,0.088400,-0.155244,0.007442,-0.050597,0.171618,0.111181,0.035979,-0.163887,-0.217496,-0.021094,0.217880,-0.289246,0.192260,0.245878,-0.099421,0.320102,0.089934,-0.023518,-0.236418,-0.203705,0.265915,0.097985,0.208924,0.239495,-0.023207,-0.028116,-0.180114,-0.158616,-0.069523,-0.352296,0.010259,-0.252596,-0.404972,-0.184106,-0.011501,0.229226,-0.177622,0.189721,-0.045783,-0.044755,0.076601,-0.020076,0.171060,0.362887,-0.064936,-0.371505,-0.326927,-0.058399,0.064419,-0.228406,0.165509,-0.098489,0.121751,0.130793,0.080714,-0.162174,-0.011412,-0.130406,0.208052,0.096180,-0.137554,-0.035663,0.183030,-0.143933,-0.040071,0.205225,0.259064,0.352395,-0.085484,-0.097667,0.389820,-0.507711,0.009041,0.084624,-0.215816,-0.057217,0.043714,0.177704,0.086858,0.066976,0.084176,0.401458,0.188135,0.161716,-0.047363,-0.050810,0.118998,0.051637,0.039731,0.117014,0.077179,0.044427,0.081335,-0.107574,-0.103591,0.078668,0.156141,-0.004463,-0.162010,0.088745,-0.104207,-0.284536,-0.490844,-0.145562,0.062260,-0.006649,-0.079018,-0.064013,-0.372329,-0.455233,-0.033280,-0.215215,-0.059680,-0.047161,-0.076883,-0.407154,-0.300093,0.053481,0.272418,-0.030562,0.437671,0.392641,0.315451,-0.108188,-0.203673,-0.107101,-0.032193,-0.154583,0.116165,0.084309,0.104558,-0.049779,0.111671,0.169202,-0.125251,0.074150,-0.228495,0.105622,0.056306,0.045750,0.241623,-0.008464,0.017433,0.102286,-0.060329,0.308513,0.064580,0.183601,-0.098229,-0.050004,-0.046117,-0.039480,-0.020217,-0.141710,0.029952,-0.127866,0.018482,-0.095160,-0.062701,-0.042515,-0.077846,-0.165813,-0.159848,-0.068174,-0.029814,0.136460,-0.286747,-0.096228,-0.102873,0.074219,0.207993,0.166972,0.062018,-0.027144,0.191702,-0.090661,-0.030696,0.065472,0.025787,-0.081217,0.313086,0.300949,0.203764,-0.096401,0.008490,0.148889,0.191324,-0.027577,0.124601,0.041684,-0.314914,-0.305436,0.090789,-0.017731,0.118926,0.107513,0.478389,0.247976,0.089841,0.261755,0.068389,-0.045490,-0.238797,-0.086803,0.014046,0.102772,0.097162,-0.170165,-0.057999,0.013325,0.102327,0.156016,-0.284010,-0.092680,0.012724,-0.163729,-0.136136,-0.037312,-0.033298,0.421057,0.170751,0.084728,-0.044872,0.121940,0.409244,-0.118848,-0.076473,0.211532,-0.076490,-0.144972,-0.006251,0.335174,0.016182,0.230072,0.130916,-0.042672,-0.020675,0.074579,-0.326907,0.261205,0.041334,0.136985,0.003102,0.006540,-0.053595,-0.313519,0.110574,-0.048708,0.043068,-0.140994,0.028290,0.099107,0.177735,-0.231939,-0.062183,0.067244,-0.091193,-0.283869,0.287379,0.344785,-0.047525,0.034815,-0.022385,0.041032,0.155140,-0.006310,0.282843,0.232571,-0.175793,0.175551,-0.098917,-0.009470,0.202549,0.123908,-0.093398,},

	{-0.091611,-0.007588,0.204174,0.196894,0.242373,0.096360,-0.155189,0.096893,0.065294,0.248505,0.211195,-0.160777,-0.125637,0.003836,0.202908,0.069847,0.038445,-0.087829,0.085355,-0.002981,0.029010,-0.131172,-0.218571,-0.257424,0.094057,-0.285237,0.027904,-0.274742,-0.308639,0.195601,0.051549,-0.089978,0.042335,-0.069904,-0.272200,-0.164298,-0.137165,-0.070080,-0.053410,0.015977,-0.203804,-0.039133,-0.043453,0.075759,0.138462,-0.159818,-0.185616,-0.095675,-0.192171,0.030032,0.234203,-0.092923,-0.101522,-0.376642,-0.248206,-0.114075,0.140898,-0.042267,-0.207361,-0.224694,-0.090075,0.005658,0.012051,-0.025946,-0.127772,-0.240680,-0.035805,0.020955,0.217971,0.257283,-0.223972,-0.020229,0.055282,0.184111,0.010406,0.093157,-0.073049,-0.190086,-0.066013,-0.122941,-0.025645,-0.009572,-0.006222,0.063631,-0.003996,0.138704,-0.055701,-0.111058,0.205064,0.120344,-0.063677,-0.238153,-0.135996,0.351366,0.241464,0.292345,0.042111,-0.016060,0.045606,0.035430,0.207230,0.125698,-0.033254,-0.166633,-0.094517,0.109297,0.300546,0.104421,-0.163887,-0.122461,0.158698,0.336752,0.047884,0.039082,0.051702,-0.153022,0.082438,0.215325,0.199654,-0.024045,-0.214877,0.053903,-0.006279,0.155225,0.076150,0.360026,0.082255,0.009501,-0.131515,-0.325192,0.091259,-0.005146,-0.249158,-0.208050,-0.194587,-0.089252,-0.133765,-0.276323,-0.212774,0.143620,-0.042438,-0.182633,0.074268,-0.079415,0.038125,-0.016547,-0.077024,0.327354,0.122424,-0.101705,0.169551,-0.089973,-0.235098,-0.082591,0.035764,-0.093761,0.299267,-0.131164,-0.045474,-0.253493,0.231499,0.265326,-0.216247,-0.090620,-0.071563,-0.086896,0.031383,0.244091,-0.305236,0.082432,-0.193054,-0.151552,-0.005023,0.048949,-0.225459,-0.167257,0.106286,-0.227875,-0.107637,-0.047135,0.083814,-0.213922,-0.087318,-0.187912,-0.028363,-0.055928,0.156363,0.020657,0.037539,0.025678,0.232668,-0.146461,0.075377,0.601697,0.031347,-0.034304,-0.085671,-0.047905,0.053799,0.306857,-0.262656,-0.016254,-0.279646,0.059485,-0.147000,-0.022968,-0.272103,0.011805,0.201985,0.124612,-0.144622,-0.200795,0.009115,0.009467,-0.039365,-0.051480,-0.147009,-0.118056,0.087174,0.234997,0.072047,0.069471,-0.187136,0.091069,-0.196919,0.057760,0.122116,-0.079116,-0.230780,-0.134556,0.246693,0.069507,-0.090727,-0.192844,0.016084,-0.011906,0.042574,-0.101940,-0.024561,0.047878,-0.225313,-0.076511,-0.080046,-0.218756,-0.056327,0.054456,-0.322118,-0.068428,-0.268836,-0.197686,-0.107085,0.338717,-0.111587,-0.552740,-0.321036,-0.024394,-0.173463,-0.057991,0.031714,-0.053225,-0.246122,-0.217272,-0.064746,0.221680,0.167648,-0.092827,-0.343516,0.143298,-0.003749,0.207383,-0.136983,-0.041838,0.168694,-0.231394,0.045325,-0.258892,-0.088586,0.141231,-0.046286,-0.132715,0.146070,0.343299,0.482321,0.086655,-0.410742,0.168397,0.034582,0.326842,-0.198664,-0.268854,-0.033800,0.013042,0.151576,0.035534,-0.148108,0.076952,-0.080858,-0.087975,-0.081464,-0.184201,0.141108,0.121631,0.361519,0.288262,0.076151,-0.056889,-0.085165,0.118614,0.093161,-0.175961,-0.220859,-0.294168,-0.118058,-0.216075,-0.047078,-0.215349,-0.105299,-0.202988,-0.057721,0.187433,-0.174671,-0.249234,-0.116441,0.009460,-0.010936,0.010588,0.347885,0.051895,0.176885,-0.114618,-0.020534,0.063353,-0.194596,-0.282444,-0.495382,-0.113177,-0.142906,-0.195989,-0.058226,-0.313682,-0.274784,-0.265960,-0.125155,0.463470,0.114050,-0.080783,-0.283714,-0.306467,-0.086613,-0.034422,0.146055,-0.120263,-0.211574,0.193410,-0.022652,-0.082072,-0.038168,-0.100025,0.064150,0.181762,0.134731,-0.139353,0.007144,0.047767,-0.177541,-0.019301,0.229118,0.033778,0.039585,0.201789,-0.059149,0.083691,-0.123427,-0.071027,0.133402,0.081047,0.012921,0.093850,0.309975,0.032500,-0.001885,-0.120482,-0.051206,-0.013241,-0.003975,0.123889,0.029017,-0.057944,-0.294453,-0.088340,0.016519,0.194562,-0.100183,0.082904,0.157630,-0.032897,-0.294649,-0.159021,-0.113827,-0.043759,},

	{0.002797,-0.201580,-0.097890,0.242605,-0.078316,-0.131554,0.294435,0.019461,-0.203394,-0.189615,-0.040113,0.018943,-0.279877,0.050352,0.108508,-0.162399,-0.301001,0.022594,0.135765,0.336160,0.324334,0.584814,0.190395,0.028011,-0.374271,0.055823,-0.000043,0.033404,0.143717,0.049092,0.116483,0.084624,-0.002676,0.017610,0.193893,0.023501,0.121307,-0.203190,-0.172262,-0.320833,-0.250596,-0.053849,0.315874,0.426050,0.128017,0.166599,-0.038608,0.041009,0.109231,-0.089703,0.118625,0.037579,0.015908,0.308750,0.210271,0.037772,-0.183380,0.164092,0.156108,0.031394,-0.017779,-0.188682,-0.010781,-0.148259,-0.406400,-0.219112,-0.247226,-0.230109,0.179218,0.150777,-0.075784,-0.191568,-0.299848,-0.159352,0.186185,0.272266,-0.147667,-0.174758,-0.115337,0.013248,-0.055932,-0.136117,-0.071380,0.011370,-0.094712,0.057399,-0.187125,0.117004,-0.158432,-0.030691,0.244696,-0.126805,-0.178439,-0.138972,0.321400,0.242876,0.121185,-0.232758,-0.192879,0.165961,-0.095513,0.181204,0.121339,0.064483,0.123293,0.098837,0.254241,-0.022675,0.185466,0.269428,0.078229,0.166945,-0.037379,0.063527,-0.435604,0.058153,0.117003,-0.046934,-0.080396,0.006916,0.237783,-0.229282,-0.177976,-0.188116,-0.008949,0.100964,-0.000997,0.140101,0.017205,-0.004846,-0.077719,0.071053,-0.162320,0.064405,0.125795,-0.071624,0.165205,0.035492,0.400576,0.028243,0.017593,-0.051915,-0.300984,-0.057466,-0.318785,0.114375,0.095591,-0.053293,-0.188108,0.034679,0.097905,0.209823,0.016242,-0.068414,0.022884,0.004058,-0.061918,-0.033009,0.220854,0.361279,0.000598,0.209216,-0.015206,-0.285491,-0.157421,0.068421,0.396429,-0.040772,-0.221414,-0.234035,-0.058068,-0.194848,0.022871,0.004313,0.196499,0.157610,-0.024200,-0.008564,0.065029,-0.093573,0.143017,-0.057396,-0.268802,0.111809,0.196203,0.012276,-0.275176,-0.117896,-0.193928,-0.029887,-0.076652,-0.286940,-0.416646,-0.094920,-0.008243,0.120731,-0.030953,-0.171232,-0.033797,-0.164466,0.040749,-0.027529,0.168946,0.179967,-0.239616,0.040200,0.025241,0.016075,0.004307,-0.157710,-0.175563,-0.310688,-0.039410,-0.098743,-0.209272,-0.255691,-0.226429,-0.126605,0.182390,0.397032,0.044871,-0.025480,-0.056648,-0.014308,0.032601,-0.061104,0.029235,0.164845,0.264818,-0.000242,0.287178,0.246403,0.141842,0.107348,0.003689,0.076590,0.416458,0.231377,-0.084211,-0.316749,-0.004717,-0.053124,0.093537,0.185797,0.170249,0.061086,0.106831,0.019661,0.053233,-0.054316,0.287829,0.076338,0.149234,0.057948,0.293239,0.021184,0.111181,0.201155,0.079470,0.018653,-0.319490,0.079702,0.326542,0.137902,-0.252945,-0.142383,-0.278376,-0.143713,0.145158,0.112527,0.387096,0.069023,0.008749,0.083768,-0.007791,0.118898,-0.022304,0.158198,0.236921,0.086414,0.181388,0.226254,0.133742,-0.074723,0.091746,-0.147393,0.430704,0.118055,0.106830,-0.079533,-0.331828,-0.249707,0.207825,0.297153,0.114271,0.193730,-0.264586,-0.159360,0.214857,0.399889,-0.028818,-0.064209,-0.147580,0.002774,-0.054674,-0.007595,0.018602,-0.127619,-0.186543,-0.026953,0.055972,0.203116,0.082973,0.140440,0.111223,0.011149,-0.102291,-0.000864,-0.025602,0.083447,0.089335,-0.110774,-0.161273,-0.201505,-0.041941,-0.000983,0.070489,0.074108,0.164119,0.143205,0.002859,0.038824,0.016551,0.160209,0.123181,-0.019498,-0.051282,-0.059462,-0.038772,0.257141,0.302454,0.205887,-0.017513,-0.324708,0.274089,0.535719,0.329374,0.025278,0.123068,0.107441,-0.137450,-0.022161,-0.139164,-0.106645,-0.234296,-0.061968,-0.169417,0.303152,0.239858,-0.150040,0.094595,-0.079855,-0.042066,-0.389082,0.291342,-0.248884,0.106894,-0.212283,-0.022711,0.017803,-0.214765,-0.149520,0.186133,0.261508,-0.108679,-0.199076,-0.017377,-0.195928,-0.202561,-0.314290,0.151387,-0.135465,0.130757,0.049103,0.073042,-0.002054,0.028872,0.023086,-0.086094,0.146081,-0.244517,-0.106889,-0.124108,-0.294256,-0.142240,-0.057827,0.049637,0.182696,-0.045152,-0.222757,},

	{0.150729,0.063272,-0.014743,-0.054628,-0.249693,-0.093467,0.059270,-0.102954,0.272391,-0.093959,-0.262960,0.153262,0.130451,0.055666,-0.125019,0.163932,-0.001433,0.150837,0.014956,0.140619,0.209490,0.222355,0.015032,0.072717,0.182950,0.066187,0.195505,0.158479,-0.042063,0.248836,0.278020,-0.007025,-0.172351,0.095621,-0.218032,-0.127210,0.204721,0.018619,0.090145,-0.024949,0.060447,-0.020940,-0.073563,-0.142968,0.080878,0.092972,-0.061182,0.084730,-0.021186,0.015301,-0.067348,-0.080021,-0.168175,0.011861,0.263248,-0.002765,-0.067237,-0.358247,-0.395262,-0.022413,-0.072281,-0.072293,0.143547,0.028374,-0.007916,-0.293983,-0.071797,-0.045382,-0.147637,-0.219225,0.175601,-0.018691,-0.235496,-0.091930,-0.174379,-0.004579,0.262285,0.393436,0.361392,0.157477,-0.179860,-0.082234,0.439974,-0.009939,-0.018146,-0.163670,-0.099446,0.269951,-0.001070,-0.032940,-0.102774,0.127633,-0.059386,-0.390493,-0.145989,0.251284,0.150181,0.127832,0.038397,-0.214152,-0.038321,-0.114232,-0.397691,-0.130489,0.127458,0.256236,-0.081948,-0.446274,-0.374972,-0.039588,0.046180,-0.121135,-0.103151,-0.103093,0.174511,-0.170233,-0.187063,-0.034141,0.026936,0.066350,0.140942,0.223784,-0.023327,-0.120129,-0.192598,-0.049542,-0.199188,-0.175974,-0.144440,-0.171401,-0.060501,0.244680,0.160213,-0.079771,0.275685,0.052184,0.172626,0.091355,-0.034616,-0.020835,0.187850,-0.044239,-0.081310,0.090050,0.119313,-0.061850,-0.034075,-0.000329,-0.006988,0.102820,-0.044442,0.010315,-0.123033,0.144340,0.222020,0.084110,-0.139844,-0.283195,-0.144375,0.118041,0.150748,-0.096085,-0.102597,0.255168,0.278515,-0.106567,-0.104220,0.145077,0.119185,0.005219,-0.024881,0.141424,-0.042958,0.014401,-0.288709,0.120151,0.207385,0.353058,0.066268,0.214828,0.079650,0.097995,0.021890,0.077297,0.106088,0.153711,-0.128842,0.247194,-0.107058,0.188958,-0.004911,-0.423164,-0.103123,-0.242238,0.013501,-0.022781,-0.124831,0.279168,-0.215760,-0.192775,0.214503,0.251923,0.317187,0.206822,0.061910,0.128781,0.006277,0.378066,-0.040802,-0.141666,0.042383,0.049049,0.335751,0.064353,0.037757,-0.123318,-0.205283,-0.061351,-0.308482,-0.192875,0.236607,0.059145,0.299092,0.208291,0.079285,0.070540,-0.280174,-0.348872,-0.023227,0.203141,-0.117749,-0.256329,-0.246280,0.175323,0.286529,0.003378,0.191446,0.256552,0.139886,0.099420,0.000040,-0.017990,0.072667,-0.161673,0.026323,0.096777,0.093546,0.025788,-0.250048,-0.126003,-0.034939,0.077792,-0.106213,0.104861,0.245643,0.034401,0.092313,0.200092,0.059016,-0.157772,-0.167704,0.100476,-0.040059,-0.140172,-0.169324,0.140086,-0.127164,-0.001006,-0.116700,-0.271225,0.181932,-0.006663,0.142378,-0.190431,0.008572,0.349060,0.194435,-0.075951,-0.036944,0.169520,0.192721,0.005846,-0.288476,-0.312124,0.057741,-0.008875,0.009182,-0.097349,0.027639,0.150245,-0.227629,-0.203203,-0.084441,-0.265637,-0.182319,0.095318,-0.140433,0.320895,0.019595,-0.188909,0.086702,0.118221,0.054492,-0.110824,-0.183612,-0.083774,0.199323,-0.037234,-0.014283,-0.095767,-0.180426,0.163436,-0.006112,-0.131467,-0.254403,0.113645,0.334902,-0.080402,0.103266,0.040295,0.204769,0.174576,0.039977,0.224939,0.005406,0.046717,-0.293076,-0.283183,-0.090979,-0.065406,0.012482,-0.157331,0.137894,0.158567,-0.221836,-0.178366,0.024620,0.137987,-0.005774,-0.017836,-0.001437,0.011738,0.277464,-0.127505,-0.151391,0.243549,0.323415,0.378004,0.155671,0.035332,-0.057351,0.186185,0.247337,0.048131,-0.036594,0.012037,-0.026639,0.088599,-0.009114,0.140459,0.191981,0.167490,0.133754,-0.109482,-0.163583,-0.055815,0.177773,-0.142901,-0.084731,-0.042549,-0.131805,0.181796,-0.063887,0.290174,0.014823,-0.078938,0.020304,-0.064146,0.130736,0.080556,0.008673,-0.098362,-0.141442,-0.228408,0.190866,0.139240,0.082086,-0.065449,0.219434,-0.120198,-0.163014,-0.117808,0.092929,0.057748,0.363690,0.160716,0.209457,0.243394,-0.209095,-0.304071,},

	{-0.277171,-0.051489,0.027294,-0.007761,-0.001368,0.167518,-0.122645,-0.031614,-0.030145,-0.078448,-0.371029,0.002459,-0.191145,-0.046051,0.049749,0.006687,-0.157017,0.060277,-0.094819,-0.066834,-0.172094,-0.023102,-0.073488,-0.007346,0.204120,-0.186060,-0.056341,0.172156,-0.138557,0.123442,0.264053,0.015111,-0.189146,0.002111,-0.093167,0.106619,-0.207267,-0.032307,0.182883,-0.219964,0.059198,0.170290,0.073607,0.325997,-0.196218,-0.179893,0.043781,0.057339,0.375098,-0.187565,-0.280095,-0.314740,-0.311526,-0.138875,-0.148758,0.090128,-0.133409,-0.025299,-0.025121,0.137785,0.055451,-0.163856,0.032232,-0.321268,-0.135417,0.120349,0.174566,0.164712,0.117196,0.155157,-0.388797,0.145421,0.282499,0.045890,0.052421,0.264683,0.056623,0.211387,0.034179,0.131363,0.163442,0.360466,0.016240,0.222601,0.033998,0.237335,0.061027,-0.005433,0.349050,-0.135906,-0.090548,0.176029,0.072469,-0.026114,0.233882,-0.037268,-0.057956,0.175438,0.129776,-0.017250,-0.235143,-0.119671,-0.192330,-0.162846,-0.028056,0.031738,0.004429,0.056264,-0.081061,0.071162,0.182705,0.117467,0.104001,0.251852,-0.070366,0.252996,0.054031,0.003855,0.191382,0.107053,-0.010761,0.083490,0.268634,0.152873,-0.098569,0.488077,-0.083933,-0.582773,-0.038596,-0.011659,0.049269,-0.367460,-0.004435,-0.264288,-0.151657,0.167221,0.014601,-0.059054,-0.012016,-0.149107,-0.042190,0.090906,-0.054894,0.075895,0.132915,0.073786,-0.030947,0.037350,0.109558,0.109481,0.158591,-0.161490,-0.412904,-0.125139,0.023028,-0.075451,0.147398,-0.001342,0.123769,0.204472,0.071397,-0.022625,-0.085445,-0.000559,-0.089465,0.164081,0.172260,0.157247,-0.017985,0.014464,-0.192750,-0.104174,0.074808,-0.209348,-0.079646,0.282195,-0.262830,-0.066307,0.345383,0.234572,-0.224326,-0.139283,0.064725,0.290151,-0.033861,0.067659,0.127536,0.233306,-0.190172,-0.047809,-0.227154,0.032769,-0.032158,0.021448,-0.100071,0.271914,0.158847,0.176090,0.246074,-0.086898,0.070533,-0.033407,0.092001,0.101595,-0.080868,0.126287,0.128740,-0.001210,0.154085,-0.027954,-0.179633,-0.032632,-0.122400,0.036608,-0.039648,-0.121743,0.165114,-0.028038,-0.166959,0.086628,-0.202357,-0.049256,0.272388,-0.175168,-0.095040,-0.078825,0.176371,-0.238566,-0.036848,0.051093,0.116214,-0.042746,-0.098214,-0.186346,0.095819,-0.113462,-0.103752,0.073563,0.172874,-0.228435,-0.070272,-0.035799,0.123342,0.016637,-0.075736,-0.211153,-0.203513,-0.066490,-0.102312,-0.139898,0.263031,0.228439,0.062445,-0.088255,-0.185234,0.164944,-0.291462,-0.016079,0.023159,-0.301747,0.118689,0.001886,0.304245,0.322498,0.135917,-0.163887,0.079248,-0.105800,0.320228,0.005902,-0.196216,-0.305326,0.108930,-0.161470,0.056797,0.062101,0.084695,-0.001809,-0.196131,-0.186186,0.281352,0.263469,0.295518,-0.377516,-0.281975,0.182748,0.175928,-0.232603,-0.133995,-0.202712,0.178090,0.183813,-0.095768,0.039251,-0.053870,0.030412,0.231004,0.240535,0.107359,0.035264,-0.086811,0.310728,0.378489,-0.224333,-0.337299,0.458523,-0.091722,-0.150523,-0.121571,-0.132107,-0.127649,-0.158772,-0.185003,0.140308,0.301322,-0.009759,-0.087335,0.039628,-0.105328,0.302570,-0.285544,0.163897,0.213639,0.119748,0.179417,0.097330,0.220159,-0.085056,-0.622701,-0.478398,0.221272,-0.182569,-0.486423,0.001911,-0.174209,0.158338,-0.084369,0.008421,0.305204,-0.008503,0.064028,-0.074885,-0.085031,0.528048,-0.002238,-0.072506,-0.167931,-0.111397,0.392771,0.001834,-0.343859,-0.188940,-0.098901,0.305038,0.126572,-0.353476,0.087261,-0.161841,0.219396,0.057709,-0.029588,-0.038198,0.013995,-0.139971,0.169362,-0.037311,-0.096630,0.047859,-0.194946,0.065908,0.047465,0.100987,-0.112110,-0.207995,0.081176,-0.216115,-0.130147,0.125153,-0.005947,-0.052108,0.144771,0.100054,-0.268193,-0.030109,0.038731,-0.079562,-0.194204,0.034968,0.150374,0.206615,0.247600,0.122806,0.117032,-0.012677,0.151033,0.031709,0.179095,0.030269,0.117672,-0.083330,},

	{0.071631,0.046798,-0.122721,-0.076617,-0.039287,0.029345,-0.094514,-0.128417,0.002036,-0.062424,-0.116840,0.172134,0.164187,0.194051,0.044779,0.094380,-0.224931,-0.147832,-0.128072,-0.052294,0.195840,0.149540,0.060574,0.174239,-0.124045,0.078529,0.229783,-0.064838,0.459866,-0.054404,-0.121446,0.110179,0.030130,0.002083,0.321656,0.096028,0.059599,0.237651,0.161558,0.160879,0.063563,-0.008392,-0.191336,-0.151096,-0.086217,-0.039799,-0.145418,-0.132993,-0.219243,0.115085,0.117575,0.015120,-0.011399,0.143267,0.307578,-0.090210,0.040122,-0.239287,-0.117623,0.014113,0.210380,-0.172326,-0.026561,0.319893,0.105210,-0.029408,0.024098,-0.009763,-0.083462,-0.222638,-0.228005,-0.196546,-0.004599,-0.143671,-0.202046,0.042167,-0.131437,-0.018950,0.362995,0.197696,-0.432972,0.058992,-0.175904,-0.154281,-0.072164,-0.022856,0.243537,0.280489,-0.421357,-0.151765,-0.266348,0.106634,0.114723,-0.249259,-0.439596,0.070565,-0.082371,0.057118,-0.079208,0.046229,0.229723,0.054421,0.172986,0.018794,-0.013214,-0.007728,0.011443,-0.098895,-0.174625,-0.125891,0.000507,-0.142801,-0.408967,0.034332,0.212331,-0.052311,0.156138,0.362655,0.149387,-0.009155,0.127411,-0.227274,-0.160110,0.123069,-0.096130,-0.131030,0.130553,0.350930,-0.107519,0.263351,0.006028,0.015540,-0.022587,0.085188,0.211695,0.373956,0.078633,0.013483,-0.258281,0.090448,-0.010514,-0.087645,-0.248512,-0.013763,0.456479,-0.022693,0.048373,0.022134,0.229006,-0.104362,0.015556,-0.244267,-0.012701,0.077482,-0.057558,0.161405,0.177540,-0.203124,-0.235178,0.125822,-0.113560,-0.216752,0.024554,-0.066607,0.211114,0.083035,0.330576,0.024087,-0.054259,0.265569,-0.238936,-0.469542,-0.178309,-0.083659,0.175437,-0.193620,0.217711,-0.035546,0.011387,-0.044756,-0.155144,0.094549,0.021049,-0.144760,0.083582,0.194747,-0.129732,0.005766,0.018691,0.226072,-0.066490,-0.123546,0.210754,-0.138181,-0.126813,0.230773,0.057706,-0.399990,0.090374,0.043229,0.036367,0.007990,-0.019326,0.446714,0.137974,-0.369686,-0.073194,-0.012549,-0.023973,-0.171804,0.065252,0.226423,0.354656,-0.116106,-0.076240,-0.121857,-0.037502,0.235204,-0.072536,-0.099251,-0.038164,0.033445,-0.081361,0.043364,0.063629,0.114337,-0.025459,-0.127881,-0.054886,0.250853,-0.217727,-0.145837,0.079526,0.112637,0.127191,0.403531,0.301629,0.020926,-0.020488,0.345184,-0.318562,-0.143284,-0.035764,0.061526,0.172344,-0.023687,0.158288,0.137158,0.139574,-0.089416,-0.097514,-0.125835,-0.043040,0.310925,0.129444,-0.104471,0.001653,0.012946,-0.098153,0.224440,0.360498,0.209829,-0.020505,0.038713,0.114877,-0.181624,-0.196699,-0.052555,-0.160078,-0.331132,0.327317,0.035801,0.127841,0.011060,-0.203774,0.005845,-0.050402,-0.070914,-0.066202,0.162450,-0.017729,-0.386503,-0.195208,-0.076203,0.148543,0.051116,0.096085,-0.001922,-0.018923,0.087709,-0.149767,0.099640,0.357969,0.148780,0.041148,0.052913,0.043088,-0.037056,-0.310816,-0.224151,-0.014033,-0.188206,-0.014776,-0.211867,0.132368,0.120156,-0.096416,0.108476,0.156365,-0.134119,0.213574,0.263320,0.078426,-0.075845,-0.257229,-0.138442,-0.117624,-0.056775,-0.026677,-0.186375,0.037314,0.133355,0.114477,-0.115120,-0.219068,-0.127416,-0.058239,-0.163728,0.031074,-0.110406,-0.255346,0.141161,0.235821,0.160085,0.118657,-0.108633,0.174944,0.086350,-0.120724,-0.223668,0.003156,-0.188110,-0.091725,-0.229171,-0.329456,0.100066,0.136222,-0.108401,-0.483639,-0.063077,0.164756,-0.000468,0.251865,0.185866,-0.006539,0.050591,-0.112899,-0.134034,-0.162502,-0.074844,-0.193885,-0.319342,0.212804,-0.088316,-0.100565,-0.052866,-0.150264,-0.010049,0.238656,-0.106538,0.004235,0.120461,0.304520,0.248757,0.207803,0.051247,-0.081898,0.189149,0.176606,-0.125659,-0.273821,0.151232,-0.159462,-0.049160,-0.217714,-0.068455,-0.024489,0.201965,-0.174188,0.358358,0.150635,0.160197,-0.088563,0.086067,0.032613,0.208792,-0.083513,-0.022728,0.121869,0.140020,},

	{0.163421,0.032139,-0.098203,0.051605,-0.044371,0.040513,0.102949,-0.137944,-0.060127,0.003588,0.059164,0.075795,0.222218,0.030415,-0.135892,0.080883,0.130860,-0.039082,-0.127052,0.237058,-0.255315,-0.138194,0.176218,0.160191,0.069597,0.137435,0.057158,0.142305,0.206585,-0.237537,0.191514,-0.095536,-0.027462,-0.087809,-0.017544,-0.001352,-0.096215,0.026583,-0.035880,0.233380,0.180224,0.199733,0.002235,-0.286454,0.089338,-0.177020,0.095846,0.273567,-0.138899,0.438156,0.244608,0.240690,0.067787,0.114994,-0.015493,-0.164764,0.060358,0.143852,-0.198232,0.029872,0.029546,-0.069002,-0.224208,0.095854,-0.075912,0.286839,0.392876,0.110416,-0.057192,-0.403866,0.012563,-0.283869,-0.542192,-0.307307,0.016643,0.012374,-0.203267,0.181323,0.056184,-0.066224,0.083105,-0.152993,0.064110,0.040018,-0.224374,0.000419,0.107270,-0.042602,0.044213,0.104329,0.018010,-0.011362,0.069052,-0.031220,-0.253749,-0.269066,-0.184821,-0.367839,0.178440,-0.005077,-0.033578,0.088509,0.101154,0.004909,0.034665,-0.085097,0.088309,0.302212,0.118814,0.161887,-0.021577,-0.134750,-0.221847,-0.050985,0.025799,0.027408,0.272474,-0.045010,-0.010068,-0.104697,-0.375911,-0.100356,-0.489436,-0.633892,-0.358327,-0.096741,-0.110467,0.094575,-0.218865,0.099685,0.012437,-0.252586,-0.189580,0.078351,0.235905,-0.115862,0.073322,-0.046058,0.191722,0.041443,-0.084560,0.056170,0.197003,0.297410,0.278452,0.359547,0.406837,0.212084,0.019086,-0.315294,0.270347,0.116610,-0.058553,-0.101704,0.192495,-0.252845,0.095487,0.010551,-0.161367,0.005992,-0.210669,-0.395375,-0.014210,0.199924,0.239193,0.302497,-0.075645,0.088587,0.000808,-0.275613,-0.115487,0.007861,-0.175546,0.097277,-0.056332,-0.001785,0.045456,0.267825,-0.059049,-0.163734,0.067631,-0.037636,-0.057734,0.112485,-0.240597,-0.213002,0.071818,-0.046435,0.193846,-0.067013,-0.059906,0.084420,-0.034089,-0.141590,-0.142779,-0.019190,-0.403156,-0.425199,-0.254553,-0.355718,0.166504,0.034119,0.227409,0.066684,-0.009229,0.264374,-0.033036,0.219478,-0.065955,-0.336619,0.052168,0.128568,-0.370380,0.131545,-0.128222,-0.069202,-0.132036,-0.188105,-0.018636,-0.325426,-0.040243,-0.466537,-0.162928,0.070123,0.199524,-0.119616,0.138176,0.042245,0.195927,0.081202,-0.063097,0.069277,0.117074,-0.105376,0.170988,0.047647,-0.132858,0.023279,-0.192615,0.036435,0.165086,0.019238,-0.087285,-0.245988,-0.215482,-0.126165,0.036465,-0.063543,0.274037,-0.165969,-0.016981,-0.034545,0.200484,0.071170,0.076681,0.041230,-0.169961,0.095511,-0.083946,0.225649,0.144132,-0.212109,-0.172885,-0.121444,-0.207551,-0.163137,0.132512,-0.093792,-0.152824,-0.178968,0.106800,0.099941,-0.285318,0.292493,0.279174,0.004978,0.106492,0.232253,0.080750,0.248022,0.192248,-0.110581,0.208482,0.004794,0.133052,0.031992,-0.015901,-0.118693,0.016251,0.191891,-0.207199,0.066097,-0.120800,-0.259179,-0.230232,-0.281597,-0.415781,-0.239583,0.091029,-0.017775,-0.150128,0.037877,-0.178421,0.080492,0.111946,-0.230541,-0.055456,-0.027903,-0.136321,0.072833,-0.086849,-0.020689,0.031321,-0.014923,0.167714,0.112994,0.159868,0.091762,0.161568,0.016359,0.027546,-0.008233,0.146768,0.141329,0.215014,0.082029,-0.129229,0.156536,0.290097,-0.179299,-0.004792,0.058028,0.178930,0.049066,-0.074847,-0.002368,0.072393,0.066999,0.258325,0.125759,-0.072250,0.154694,0.156933,0.236088,0.150678,-0.022338,0.522838,0.545464,0.333784,0.203421,-0.060393,-0.280804,0.045912,0.043297,-0.018161,-0.030829,0.122870,-0.170544,0.120055,-0.328437,-0.305330,0.231403,0.172504,-0.106507,0.128169,0.119577,0.067096,0.122078,0.002545,-0.067758,0.029533,-0.243190,-0.395926,-0.064754,-0.120255,-0.055047,-0.198666,-0.189075,-0.030364,-0.085496,0.054129,0.150375,-0.131357,0.037100,0.035255,-0.181094,0.050322,0.032159,0.181488,0.304269,0.238015,-0.143575,0.427709,-0.022192,0.046315,-0.394444,-0.284993,-0.005324,-0.039639,-0.315122,},

	{-0.144892,0.117071,0.057609,-0.017019,0.007585,-0.013861,-0.165429,0.033205,-0.167013,-0.015665,-0.538640,0.166239,0.215613,-0.121416,-0.321775,0.394776,-0.031755,0.033490,0.001621,0.124925,0.116530,0.433396,-0.045144,0.163085,-0.111092,-0.365492,-0.013156,0.125600,0.149993,-0.017421,0.334004,-0.108933,0.152203,-0.054236,0.093255,-0.442307,0.172509,-0.159031,-0.001553,-0.123184,0.235264,-0.165107,0.159228,-0.241757,0.055776,0.230077,-0.076120,-0.241069,0.071550,-0.002683,-0.128299,-0.155804,0.012334,0.104392,0.280448,0.284489,-0.069440,-0.124611,0.146830,0.165501,-0.429831,-0.396285,0.220485,-0.014654,-0.068405,-0.325080,0.174187,-0.203402,0.075321,-0.357316,0.080630,0.040817,-0.308874,-0.304512,0.173807,0.024445,0.176110,-0.350931,-0.024967,0.139456,-0.236022,-0.022703,0.119617,-0.026445,0.082513,-0.039252,-0.119227,0.099052,0.203648,0.023060,-0.035367,0.288377,-0.280192,0.027180,0.108591,0.419597,0.163690,-0.182814,0.069596,0.054783,0.002758,0.018969,0.092308,0.123715,0.042989,0.377098,0.433129,0.170113,0.034558,0.204914,0.018581,-0.064122,-0.178188,0.098160,-0.014467,-0.268640,-0.072228,0.289604,-0.189556,-0.120354,-0.019745,0.054990,-0.242164,-0.161989,0.120787,0.392333,-0.093223,0.028647,0.324936,-0.150002,0.131611,-0.023521,-0.140156,0.168750,0.407468,0.404125,-0.089059,-0.029623,-0.173024,0.191790,0.121442,-0.267390,-0.313174,0.346648,-0.115473,-0.059676,-0.019650,0.109867,-0.125803,0.159939,0.011377,-0.083477,0.245858,0.020412,0.013514,0.037796,0.180198,-0.048071,0.009803,0.049442,0.210719,-0.198959,-0.159823,-0.021832,0.272023,-0.324696,0.078827,0.019930,0.005137,-0.258680,-0.047840,-0.319581,-0.061568,-0.143917,0.162584,-0.061183,0.035472,-0.214415,-0.081609,-0.121640,0.175734,0.100560,-0.109705,-0.118145,0.035871,0.184111,-0.115613,-0.617372,0.113904,0.220655,-0.337343,-0.335191,0.224907,0.175552,0.124256,-0.215460,-0.114452,0.058328,0.018172,-0.097998,-0.194014,0.087580,-0.287458,0.105722,0.148350,-0.081039,0.036929,-0.043282,0.047789,-0.000478,-0.327512,-0.008061,-0.109218,-0.051199,-0.163305,-0.158427,0.123010,0.016847,0.151956,0.148474,-0.007321,0.077380,-0.052022,-0.155660,0.243997,0.251319,0.238803,0.172854,0.213690,0.249918,0.171516,0.049455,0.160695,0.448656,0.321439,-0.188032,0.231331,0.079040,-0.152576,-0.049108,-0.113645,-0.074205,0.004126,-0.090287,0.023666,-0.017290,0.094237,-0.082918,0.214392,0.197398,0.257621,0.025526,0.000122,0.119107,0.188768,-0.129382,0.032089,0.161686,0.077478,0.193464,-0.069929,-0.290739,0.019782,-0.220018,-0.209225,-0.036705,-0.471659,0.005603,0.250694,-0.032176,0.244697,0.179147,0.022238,-0.197322,-0.058690,0.301449,0.067129,0.109998,-0.021893,-0.094300,0.250988,0.371502,0.118506,0.167884,0.087261,0.040616,0.232454,-0.017985,0.138390,0.142785,0.090420,0.083379,-0.124574,-0.097844,-0.203050,0.379127,-0.167088,-0.145933,-0.128539,0.088633,-0.026759,0.019244,0.135977,0.126909,-0.105436,0.037019,-0.207268,0.080291,0.081400,-0.063043,-0.376648,0.225488,0.178555,-0.154949,-0.299874,0.233316,0.049071,-0.076373,-0.190364,-0.252930,0.047264,0.027743,-0.235349,-0.173539,-0.079472,-0.163588,0.389274,0.114531,-0.002426,-0.000471,-0.116972,-0.002368,0.318520,0.261510,0.058556,-0.018574,0.300100,0.109097,0.086877,0.366500,0.402908,0.217543,-0.100205,-0.240341,0.090698,0.244616,0.184794,-0.197975,-0.158129,-0.078068,-0.396190,0.176615,-0.268137,-0.043096,0.264940,0.014045,-0.195015,0.167318,-0.124616,-0.098537,-0.009965,0.040936,0.188638,-0.005596,0.120226,-0.089312,0.482188,0.040307,-0.076942,-0.063559,-0.053061,-0.118428,0.130854,0.054457,0.008000,-0.196146,-0.034258,-0.139809,0.024465,-0.176278,0.039433,0.127141,0.134812,-0.096415,0.255806,0.055978,-0.234424,0.028108,-0.196277,-0.029908,0.060909,-0.015716,-0.376960,-0.083977,-0.091226,-0.127205,0.002442,0.062326,-0.118796,-0.029748,},

