
{
	{-0.158866,-0.260282,-0.164525,0.086620,0.041810,-0.053465,-0.001998,-0.206555,-0.275605,-0.173222,-0.036306,-0.128730,-0.271871,-0.288113,0.133144,0.160709,-0.331296,0.070109,-0.097320,-0.037390,0.200675,0.088354,-0.116872,-0.320870,0.371513,0.225328,-0.025474,0.051785,0.307214,0.302724,-0.047272,-0.239965,-0.070825,-0.233698,-0.049404,-0.173433,0.140006,-0.107296,-0.018474,-0.170327,-0.306326,-0.031121,0.002129,0.156137,-0.040761,0.030916,0.177851,-0.040540,0.213905,0.048794,-0.396501,0.236685,0.148504,-0.195586,-0.154106,-0.038559,-0.064268,0.063264,-0.081450,-0.052724,-0.389606,0.563582,-0.351898,0.080299,-0.028215,0.144780,0.113481,0.219406,0.153939,-0.045332,-0.247866,0.002724,-0.026104,0.193455,0.169218,0.032486,0.173556,-0.118650,0.214223,0.243144,-0.329164,-0.113551,0.175505,0.055019,-0.144263,0.108738,0.329110,-0.252452,0.276440,0.009672,0.146122,-0.195259,0.252772,0.292556,-0.140943,-0.278902,-0.199237,0.323777,0.165562,0.064825,0.481320,0.233192,0.080331,-0.174229,0.222831,0.015409,-0.291725,0.095076,-0.070435,-0.434934,0.091018,0.321113,0.146801,0.060728,-0.047334,-0.286382,-0.094629,0.009698,-0.225401,0.073809,},

	{0.076995,0.200616,0.037690,0.148838,-0.335707,0.298335,-0.084363,0.349789,0.021545,-0.126721,0.283936,-0.122584,0.235077,0.176751,-0.326470,0.149737,0.034154,0.141213,-0.307026,0.208793,0.026950,0.113313,-0.080681,0.227376,-0.369425,0.054768,-0.017353,-0.078468,-0.184989,-0.039169,-0.368052,-0.208272,-0.067340,-0.058396,-0.296206,0.314360,-0.141317,0.155629,-0.066877,0.219899,0.367729,-0.279412,0.153067,-0.211952,-0.059632,-0.142400,-0.388352,0.278024,-0.408697,-0.022296,0.152077,0.051297,0.046899,-0.079500,0.186684,-0.011987,0.188649,-0.072153,-0.347062,-0.189018,-0.041576,0.172215,0.021074,0.059448,-0.005421,-0.171117,0.050775,0.098193,0.181206,0.001987,0.305809,-0.219986,0.106110,0.136770,-0.196429,0.116588,-0.204495,0.009385,-0.116346,-0.085628,0.313671,-0.145714,-0.114164,-0.077516,0.474322,0.025423,-0.578714,0.223107,0.255498,-0.194240,0.201770,0.118364,0.065905,0.423002,0.239918,0.176630,-0.160341,-0.276051,-0.147724,0.334916,-0.388671,-0.035237,-0.568383,0.113652,-0.249922,0.096975,0.280618,0.101402,0.065318,0.079342,-0.053511,-0.126757,0.099367,-0.117392,0.042426,0.047414,0.359696,0.176665,0.215237,-0.083423,},

	{0.191817,0.348302,0.168848,0.105274,0.269386,0.004887,-0.127213,0.197387,0.125471,0.531645,0.085618,-0.084958,0.279872,-0.157975,0.030887,0.209395,0.023328,-0.112701,0.160302,-0.027497,-0.244318,-0.213865,-0.109321,0.029715,0.107110,-0.340293,-0.068329,-0.062549,-0.185225,0.067830,0.181888,0.190189,0.030121,0.185773,-0.177632,-0.356578,-0.089637,-0.243787,0.247427,0.161054,0.473827,0.154707,0.180883,0.231350,-0.035671,0.108641,0.258439,0.097795,-0.112126,-0.058013,0.137524,0.119242,-0.012277,-0.368417,0.166355,0.066734,-0.256293,0.283373,0.032706,0.036095,0.304628,-0.207035,-0.082678,-0.120725,0.163641,-0.244265,0.234447,-0.183648,-0.005365,-0.041897,-0.088326,0.328905,0.124551,-0.149913,-0.199941,-0.022555,0.017972,-0.210577,0.121126,0.015168,-0.292772,-0.190512,0.199963,0.288575,0.234773,-0.024912,-0.202391,0.000215,-0.213029,0.313223,-0.264443,0.146212,-0.169850,0.223581,0.285252,-0.262377,0.321563,0.297193,0.167249,0.013232,-0.094927,-0.216526,0.226587,-0.457250,-0.115232,-0.053115,0.013214,0.423771,0.003029,0.183201,0.138430,-0.088019,0.272845,-0.090428,-0.171907,0.235555,0.037537,-0.066906,0.316460,-0.087877,},

	{-0.138566,0.484270,0.199544,-0.003256,0.205630,-0.033257,0.146867,0.041361,0.181211,-0.021717,-0.036744,-0.170121,0.218383,0.146201,0.210260,0.294296,0.118627,-0.319495,-0.248763,-0.170407,-0.049700,-0.188096,-0.400482,0.238067,0.042995,-0.244897,-0.203398,-0.136926,0.097861,0.103813,0.183826,0.216427,0.185265,-0.051144,-0.125541,0.164695,-0.209591,-0.259312,0.401976,0.004361,0.174954,0.132237,0.013838,0.376951,-0.230768,-0.039426,-0.079122,0.217411,-0.011041,0.030915,-0.026765,0.243897,0.111653,-0.235531,0.475963,0.080329,0.085593,0.150227,-0.043760,0.143347,0.143720,-0.222101,-0.150362,0.087263,0.029323,-0.536129,0.056683,-0.010636,-0.039196,-0.059087,-0.157259,0.267173,0.229531,-0.012639,0.310444,0.089580,-0.025320,0.024023,0.172720,0.163203,0.096060,0.081989,0.312491,-0.102330,0.472229,-0.085572,0.197772,0.256411,-0.164268,0.131305,-0.015728,0.055422,0.069025,-0.142452,0.108054,-0.006847,0.427019,-0.007712,0.360923,0.010031,-0.260400,-0.446964,0.036086,0.086757,0.142999,-0.239007,-0.051529,0.179982,-0.258859,0.199113,0.243358,0.123081,0.064726,0.268622,0.114531,-0.023938,-0.198918,-0.568122,-0.075584,-0.113768,},

	{0.057926,-0.035439,-0.323582,-0.115160,-0.099029,0.308634,0.275701,-0.336792,0.088898,-0.194556,-0.396450,-0.133387,0.075539,-0.070430,-0.037592,-0.125656,-0.262649,0.147396,0.043765,-0.165977,0.182923,0.055930,-0.279205,-0.125999,0.310921,0.339885,-0.040692,-0.237344,0.053939,-0.413296,0.436908,0.086206,-0.347210,-0.218196,0.379331,-0.113526,0.323993,-0.167056,0.012131,-0.349363,-0.075558,0.222798,0.052642,0.052138,-0.046783,-0.432166,0.291770,-0.205358,0.042530,-0.027572,-0.339795,0.093480,-0.246626,0.009567,-0.071622,0.135985,-0.252743,-0.236537,0.183686,-0.084185,0.096841,-0.068301,-0.389619,0.005382,-0.148037,-0.154113,0.165267,0.120014,-0.256517,0.262246,-0.026398,-0.133331,-0.030026,-0.174471,0.043314,-0.296789,-0.123565,0.015037,-0.046851,0.417699,0.030169,-0.100717,0.053846,-0.222544,-0.233029,-0.105742,0.237608,0.028948,-0.231051,-0.283556,-0.077685,-0.337139,0.207319,-0.304058,-0.058837,-0.308486,-0.282787,0.196541,-0.125176,-0.163540,0.017246,0.137847,0.434941,0.095016,0.240444,0.105858,-0.176270,0.012708,-0.130664,-0.052678,-0.017464,0.330000,0.173461,-0.161855,0.017895,-0.067620,-0.131562,-0.356507,-0.248162,0.108775,},

	{0.267768,-0.157343,-0.110025,0.009315,0.123751,-0.159258,-0.024676,0.186686,-0.107223,-0.116377,-0.412697,-0.145618,0.102435,-0.096950,-0.079630,0.345766,-0.110489,0.146952,-0.000471,-0.265559,0.287827,-0.034071,-0.129737,-0.219065,0.356763,0.479661,0.062956,-0.313212,0.267522,-0.043562,0.109676,-0.260792,0.061864,0.393006,0.010327,-0.006368,0.324983,0.181579,-0.299367,-0.353822,0.504443,-0.319633,0.260218,-0.077705,-0.025933,-0.245873,0.316441,0.027281,0.354413,-0.003235,0.009226,0.024463,0.046843,0.425457,0.078405,-0.147067,-0.086016,0.156138,0.268619,-0.191864,0.229333,-0.044077,0.174277,0.030594,-0.156801,0.108986,0.086354,-0.107086,-0.001809,0.342218,0.011657,-0.075444,0.314649,-0.149833,0.236147,-0.197795,-0.155554,-0.122954,0.185096,-0.096771,-0.203724,0.185421,-0.010086,-0.076095,-0.289289,-0.267936,0.041192,-0.366548,-0.434188,-0.007831,-0.196935,-0.050060,0.376592,-0.089737,0.011777,-0.337603,-0.389551,0.099968,-0.052275,0.312975,0.109126,-0.043256,0.154504,0.049783,0.161428,0.436206,0.168228,-0.093254,0.181236,-0.072476,-0.070650,0.270772,0.347363,0.005548,-0.198356,0.228900,0.048011,0.106580,-0.112583,0.145862,},

	{-0.035416,0.144138,0.193845,-0.066022,-0.087793,-0.052471,0.184483,0.013556,0.342835,0.036004,0.074508,-0.154290,-0.049331,0.305343,0.295040,0.199918,-0.256673,-0.299625,-0.447162,-0.174093,-0.292155,-0.142479,-0.300798,0.165411,0.091814,-0.385956,-0.178884,0.361732,-0.032926,-0.330032,-0.164493,0.257925,-0.139409,-0.262784,-0.320641,0.133348,-0.070008,-0.141877,-0.210170,0.065328,0.090322,0.039998,-0.078503,0.027771,-0.363272,0.105607,0.205525,0.063941,-0.298869,-0.165791,-0.058136,0.092799,0.357077,0.127884,-0.196321,-0.210760,0.259543,-0.291830,0.012741,0.012228,0.382951,0.168976,0.040253,0.054312,0.035191,-0.374639,0.577600,0.186805,0.059649,-0.296224,0.361022,0.131287,-0.023158,-0.308044,-0.036032,0.475069,0.107632,0.307464,-0.169360,-0.236583,0.390001,0.185712,0.223100,0.274583,-0.070163,0.136724,0.047814,0.223945,-0.276796,-0.413901,-0.097806,0.007785,-0.074186,-0.255726,0.204721,0.042060,0.105319,-0.230785,0.067972,-0.036684,-0.178889,0.025013,-0.044163,0.014807,0.145172,0.319623,0.101084,0.197674,0.384896,0.360080,0.266336,-0.209337,0.059434,-0.041255,0.197439,0.345253,-0.126102,-0.056708,0.110169,0.234435,},

	{0.118890,0.283626,-0.301925,0.016377,0.248101,0.157216,-0.091154,-0.394602,0.179840,-0.038828,-0.070924,-0.087551,-0.038376,0.135718,0.221003,-0.319049,-0.050126,-0.065272,0.399263,-0.394085,0.354057,0.249938,-0.228159,-0.014335,0.495205,-0.037750,0.006691,0.157610,0.292709,-0.242627,0.375429,0.505961,-0.356952,-0.286192,0.152511,-0.124579,0.165333,0.098242,0.135288,-0.093124,-0.309135,0.245088,0.345651,0.240501,0.017238,-0.269706,0.006981,0.041467,0.097820,-0.324236,-0.302795,-0.064715,-0.350750,-0.023177,0.157621,0.152320,0.097720,-0.254178,0.083742,0.099450,0.019435,0.152848,-0.265027,0.062772,-0.308484,0.366850,0.023053,-0.030758,-0.240181,0.183569,0.095292,-0.020225,0.196577,-0.053945,0.018481,-0.235345,-0.084337,-0.023929,-0.191341,0.239428,0.098506,-0.099664,0.060393,0.005657,-0.112974,0.318729,-0.216435,0.066079,-0.045748,-0.009478,0.280387,-0.190066,0.064706,-0.500613,-0.178229,-0.104224,0.055923,-0.013348,-0.125128,-0.218652,0.195629,-0.159806,0.157417,0.442907,-0.009997,0.141857,-0.122571,0.119982,0.003553,0.032772,-0.156739,0.194898,0.171895,-0.219237,0.003882,0.013497,-0.299962,-0.223023,-0.224592,0.218279,},

	{0.015890,-0.106325,-0.110435,-0.015460,0.048990,-0.159335,-0.177486,0.492159,0.146786,-0.171997,-0.198672,0.037047,-0.302029,0.253440,-0.005274,0.022614,0.214284,-0.279745,-0.074057,-0.323746,-0.533635,-0.157049,-0.306550,0.030015,-0.027570,0.092193,0.410611,0.358396,-0.275758,-0.133899,-0.133351,-0.137856,-0.052993,0.186532,-0.195434,-0.093327,-0.092987,-0.574232,0.051473,0.227750,-0.136881,-0.085605,0.006932,0.051539,-0.009739,-0.097981,0.189721,-0.155046,-0.162558,-0.147463,-0.182537,0.172992,0.384885,0.068159,0.244046,0.221365,-0.136655,0.124336,0.248167,0.175041,-0.055198,-0.320667,0.206981,-0.221211,0.229870,0.322662,0.248671,-0.434218,-0.161540,-0.212787,-0.079123,0.192383,-0.120830,-0.146554,0.089605,-0.005569,0.470491,-0.084420,0.039977,-0.124560,-0.121317,-0.047522,0.171012,0.189126,0.209931,-0.156311,0.116718,-0.065383,-0.551643,0.241925,0.136088,0.301804,0.093588,-0.005296,0.090833,-0.281553,0.042039,-0.019452,-0.087910,0.109592,-0.032069,-0.141927,-0.234400,0.260143,0.300635,0.169534,0.273477,0.097774,-0.295000,-0.198579,0.226210,-0.043219,-0.087760,0.263096,-0.046375,-0.199341,-0.133213,-0.016661,0.131935,-0.151578,},

	{0.005985,0.383450,0.145305,0.298162,0.402263,-0.039340,0.307670,0.100016,0.099941,0.472742,0.171004,0.161349,0.006472,-0.204802,0.231282,0.171974,-0.052166,-0.014287,0.022342,0.265631,-0.223154,-0.151532,-0.071670,-0.175425,-0.219100,-0.259047,0.008620,-0.099114,0.055532,0.137282,-0.081115,-0.197389,0.139819,0.453064,-0.057676,-0.150304,-0.009445,-0.101276,0.006224,-0.137052,0.349198,0.303870,0.079645,-0.157030,-0.171495,0.107062,-0.099204,-0.158243,-0.262742,0.044859,-0.392592,-0.214558,-0.141313,-0.105024,-0.217674,0.259013,-0.124746,-0.105687,-0.032243,-0.092163,-0.013474,-0.396046,-0.196613,0.006987,0.127278,-0.347099,0.023650,0.217588,0.143497,-0.106825,0.156243,0.130190,-0.225660,-0.079727,-0.228696,0.122414,-0.204480,-0.185424,-0.177368,-0.023949,-0.162147,-0.109574,0.282035,0.434074,-0.047828,-0.130822,0.016470,-0.077561,0.160555,0.012692,-0.337075,0.253938,0.090163,0.212091,0.186720,0.096497,-0.333327,0.130491,-0.310157,0.175732,0.027727,-0.013289,0.532062,-0.350710,-0.017102,0.387906,0.083821,0.400528,-0.081077,0.117588,-0.040885,-0.146843,0.298918,0.321221,-0.003111,0.287820,0.368014,0.021776,-0.260678,0.005046,},

	{0.076645,0.028475,0.235935,-0.420979,-0.037799,0.059228,-0.006452,0.290534,0.162704,0.018689,0.236379,0.385696,0.198537,-0.044752,-0.114312,0.030461,0.041413,0.133200,0.038733,0.069461,-0.106704,0.084927,-0.000570,0.053380,-0.294730,-0.284211,-0.217563,-0.235624,0.208258,-0.078010,-0.194644,0.050942,0.339785,-0.078524,-0.006220,-0.055167,-0.258402,0.330342,-0.156535,0.129214,0.242742,-0.169871,0.225541,0.104595,0.205205,-0.096640,0.063447,0.300811,-0.091913,-0.489131,-0.220695,0.198950,0.132471,0.072353,0.037707,0.366657,-0.154623,0.218380,0.150275,0.123751,0.113925,0.031905,-0.065266,0.341532,0.060079,-0.023530,-0.171900,0.256214,-0.029600,0.115654,0.284485,0.107141,-0.148328,0.020659,-0.022384,-0.121270,-0.017735,0.347860,0.248634,-0.311699,0.279441,0.092802,-0.081456,0.374848,-0.197011,0.431032,-0.283539,0.035995,0.121263,-0.174532,-0.336265,-0.003020,0.260728,0.170574,0.058412,0.095129,0.024437,-0.245169,-0.157947,0.261275,-0.067316,0.115900,0.049191,0.130876,0.192384,0.211453,-0.019887,0.216671,-0.100958,0.163453,0.266451,-0.274707,-0.140022,-0.009076,-0.291648,0.062093,0.266520,0.334455,0.057597,0.300823,},

	{0.101793,-0.202060,-0.300378,-0.163451,0.263354,0.180040,-0.404245,-0.084843,0.050380,0.109901,0.287306,0.369035,0.148465,0.002711,-0.104066,-0.564966,0.101273,0.088249,-0.248828,0.098385,-0.068184,0.151083,0.066516,0.134081,-0.451139,0.020679,-0.027696,0.108797,-0.103227,0.158209,0.052210,-0.126998,0.135329,-0.119611,0.020944,0.209200,0.183643,-0.045207,0.370205,-0.280494,-0.142795,0.355810,0.026112,0.082135,0.074312,-0.143993,-0.192231,-0.038050,-0.057213,0.051494,0.011163,-0.011866,-0.299687,0.089649,0.003433,-0.018659,0.212272,0.043052,-0.262122,0.090719,-0.175989,-0.261518,-0.159556,0.315591,-0.063894,0.302116,-0.341415,0.026840,0.232573,0.280054,0.112116,-0.181363,-0.097876,0.010901,0.001412,-0.178239,-0.190335,0.132822,-0.057763,-0.087848,0.435310,-0.168025,-0.043878,-0.075509,-0.169919,0.497285,-0.018966,0.047821,0.015815,0.294839,0.062880,0.074001,0.111065,0.190197,-0.513951,0.073891,0.263367,-0.004206,-0.187132,-0.128077,-0.222012,0.044644,0.154354,0.284028,0.004525,-0.042691,0.006428,-0.197632,-0.162770,-0.262904,-0.324532,-0.201202,-0.271931,0.311528,0.021603,-0.514030,0.076592,-0.008735,0.471461,0.068949,},

	{0.458628,0.240987,-0.202729,0.194718,-0.605545,0.248371,0.158095,-0.043243,0.167049,0.037388,0.180435,0.018768,-0.086918,0.289137,-0.164435,-0.148114,-0.186759,0.172351,-0.032574,0.062920,-0.023043,-0.166460,0.013880,0.158434,-0.015288,-0.341659,-0.189884,0.349190,0.054713,-0.261827,0.074364,-0.038524,-0.032146,-0.115099,-0.109526,-0.155383,-0.276018,0.025019,-0.019842,-0.290333,0.050998,0.174455,0.049926,-0.213309,-0.100433,-0.144075,-0.252763,-0.029345,-0.217293,-0.067576,0.097091,0.015994,-0.119792,0.282361,0.083501,-0.127543,0.181980,0.008205,0.128715,0.058344,0.275485,-0.217267,0.395168,-0.455995,-0.029851,-0.249269,-0.023864,-0.298617,0.052327,-0.004627,-0.121303,0.027272,0.200929,-0.088744,0.146247,0.373186,0.009903,0.091154,-0.114350,0.095990,0.120655,0.261910,0.198872,0.023402,-0.250975,-0.003536,0.007666,0.115790,0.125907,-0.515883,0.004116,-0.375910,0.027598,-0.133439,0.164322,0.317653,0.047452,0.128733,0.255231,-0.159596,-0.578401,0.091880,-0.267950,0.148427,-0.159382,0.191214,-0.474482,0.041215,0.012008,0.147957,-0.043595,-0.087881,-0.009940,-0.196983,-0.210937,0.275649,0.027042,0.178712,0.349342,-0.163986,},

	{-0.303169,0.712359,-0.095440,-0.123653,0.033187,-0.019163,-0.201751,-0.038719,0.427610,0.023053,-0.260876,-0.002042,0.041811,0.012131,0.350050,-0.290093,-0.246663,0.136406,-0.138362,0.331263,0.239320,-0.282646,0.197550,-0.200357,0.388142,0.098483,0.161775,0.089392,0.094105,0.124625,0.157047,0.207951,-0.362703,-0.065157,0.108436,0.295931,0.064344,0.041609,0.467066,-0.129045,-0.183081,0.029872,0.531396,-0.154899,-0.111206,-0.167522,-0.257022,-0.249313,0.149754,0.288897,0.051471,-0.063954,-0.251533,-0.472986,0.372293,-0.176055,0.345608,-0.219741,-0.054220,-0.030359,-0.142130,0.164244,0.047269,0.037959,0.148542,-0.051841,0.048716,0.137482,-0.243640,-0.243965,0.168026,0.130248,-0.090362,-0.098841,-0.083191,0.108991,-0.340299,0.232641,0.018275,-0.086905,0.129863,0.136588,0.041936,0.101633,0.136376,-0.040234,-0.049439,0.251282,0.162145,0.071739,0.080870,-0.079662,0.091039,0.081499,-0.213627,0.047909,0.027324,0.085278,-0.099581,-0.108210,-0.243254,-0.106985,-0.087061,0.409892,-0.103064,0.152704,0.030079,0.146437,-0.020201,0.142199,-0.594405,0.049465,0.323842,-0.251339,-0.208188,-0.042691,0.037338,-0.386011,0.132453,0.156612,},

	{0.060818,-0.011370,0.170309,-0.022212,0.378833,0.127918,0.310314,0.313373,-0.335803,-0.310010,-0.351185,-0.272614,-0.235430,0.252899,-0.118623,-0.056106,0.225216,0.035996,0.013910,-0.081890,-0.083907,0.048829,0.063347,-0.044336,0.142875,-0.081145,0.299553,-0.199715,-0.138777,0.297193,-0.110924,0.191376,0.317845,0.046398,0.178451,0.030216,0.164352,0.008504,0.117346,0.247206,0.182196,-0.121963,-0.453752,0.030056,-0.007022,0.040528,-0.048377,-0.329223,-0.118909,0.050980,-0.152804,0.003414,0.067151,-0.420636,0.065486,-0.013917,-0.221024,-0.130589,-0.035019,-0.368831,0.098395,-0.139623,0.091115,0.139713,-0.032209,0.392727,-0.043718,-0.075868,-0.084590,0.106575,0.112880,-0.127810,-0.267197,-0.140819,-0.017677,-0.362075,0.017004,-0.578451,-0.021992,0.242174,-0.328346,-0.289793,-0.182356,0.107747,0.144682,-0.132095,0.111057,-0.158904,0.144438,0.351104,0.205024,0.098333,0.140813,-0.142220,-0.179338,-0.085669,-0.195542,0.018370,-0.090134,-0.002960,0.277510,0.054919,-0.103681,0.073455,0.075217,0.230519,0.108154,-0.239842,-0.049873,-0.295529,0.255555,0.548032,-0.334643,-0.379717,0.097269,0.158729,0.225900,-0.004601,-0.359223,0.032523,},

	{-0.136674,0.015497,-0.179961,0.248936,0.035388,-0.196196,0.045731,0.150710,0.178960,0.085079,-0.260587,-0.148884,-0.401048,0.270050,0.139409,-0.149586,0.207819,0.086671,-0.224643,-0.340794,0.075946,0.001744,-0.397070,0.002375,0.440840,0.051071,0.055695,0.274179,0.019922,0.153044,-0.081151,-0.057506,-0.139195,0.006139,-0.309863,0.298186,0.384093,-0.218874,-0.181861,-0.055151,0.056552,-0.197268,-0.105930,-0.052303,-0.007542,-0.007649,0.375202,-0.077052,0.033410,0.343859,0.023707,0.108048,-0.028822,0.128491,-0.157705,0.110670,-0.233848,-0.071824,0.192843,-0.125204,0.068362,-0.036902,-0.222535,-0.035324,-0.246467,-0.196019,-0.093453,-0.316942,0.189330,0.353077,0.231262,0.085446,0.337885,-0.238005,0.318735,0.005497,0.043184,0.081745,-0.096076,0.238814,0.147564,-0.045422,0.027135,-0.431637,-0.102736,-0.212093,0.341829,-0.583590,-0.315402,0.354866,0.173580,0.238997,0.176108,-0.343800,0.014337,-0.438906,-0.071918,-0.231186,0.123265,0.177003,0.041624,0.088085,-0.167015,-0.021447,0.047841,0.202712,0.358666,-0.061997,0.005556,-0.166791,-0.046637,-0.029554,0.180424,-0.165082,0.304995,0.113795,-0.217606,-0.065208,-0.293950,0.053796,},

	{-0.208986,-0.342749,-0.095948,0.036819,0.038912,-0.068570,-0.042050,0.020667,0.018266,-0.277879,-0.277017,-0.348551,-0.368536,0.017076,0.277329,0.108083,0.208667,0.019421,-0.139974,-0.073044,-0.109694,0.018626,-0.112636,0.395299,0.143359,0.182592,0.026319,0.359273,-0.005989,-0.087737,0.036668,0.124799,-0.094122,-0.224692,0.186282,0.028572,-0.077015,-0.313983,-0.032358,-0.121449,-0.311155,0.065241,-0.118551,-0.019976,-0.123106,0.049057,0.355754,-0.148043,0.168421,0.128303,0.548024,0.160631,0.078903,0.378625,0.175857,-0.107824,-0.150613,-0.093168,0.290226,-0.033113,0.051558,-0.052032,0.299594,-0.125559,-0.276953,0.128855,0.275527,-0.350747,0.105534,0.101331,-0.366225,0.228164,-0.048054,0.176078,0.359243,0.075455,0.299286,0.117465,0.247109,0.177819,-0.136194,-0.123236,0.086484,-0.106450,-0.179713,-0.090805,0.360140,0.010860,-0.519605,0.282550,-0.005158,-0.108898,-0.339107,-0.542801,-0.100302,0.071053,0.187956,0.011677,0.449751,-0.175934,-0.108144,0.104742,-0.065051,0.140974,0.394169,-0.057729,0.241655,-0.319356,-0.051068,-0.079697,0.148740,0.041974,-0.051188,0.107563,-0.022945,-0.152079,-0.383738,-0.189552,-0.068290,-0.252699,},

	{-0.004266,0.083930,-0.026853,0.015189,0.253696,0.096815,0.111695,0.182726,0.154498,-0.402749,-0.039961,-0.103845,0.348693,0.293811,0.390112,-0.097102,-0.177469,-0.328384,-0.224736,-0.013796,0.112215,-0.275960,-0.541671,-0.216159,0.282314,0.131562,0.133779,0.059766,-0.111750,-0.015051,0.341341,0.045938,-0.018262,-0.210477,-0.274338,0.171695,-0.095385,-0.237407,0.114713,-0.008913,-0.034232,-0.029229,0.332814,0.098300,0.067924,-0.293118,0.044375,0.199509,-0.149258,0.072783,-0.039245,0.218107,0.143975,-0.421701,0.149359,0.078207,0.384433,0.031905,-0.109259,0.013745,-0.266651,-0.036513,0.141855,0.169899,0.323607,-0.013149,0.147466,-0.109384,-0.233360,-0.015391,0.088816,0.261035,-0.126001,-0.214291,-0.156561,0.030198,-0.222947,-0.165755,-0.093411,0.070392,0.022952,-0.072453,0.078901,-0.044218,0.034070,-0.186851,-0.150581,0.083477,-0.038095,0.093225,0.357268,0.256055,0.127549,-0.249723,-0.073749,-0.052275,-0.214467,0.150631,0.125685,0.214821,-0.224720,-0.335985,-0.026168,0.102105,0.029708,-0.097518,0.051354,0.337636,-0.486074,0.160548,-0.473177,0.445324,-0.140966,-0.000343,-0.173065,-0.354465,-0.247937,-0.353698,-0.263149,0.157635,},

	{-0.125559,0.034560,0.116764,-0.280841,-0.081393,-0.390353,0.072349,-0.012203,0.289253,-0.322498,0.039320,0.051261,-0.054604,0.180012,0.296367,0.084545,-0.097822,-0.303608,-0.127914,0.127158,-0.410345,-0.412923,-0.094718,-0.142582,-0.116939,0.187055,0.097099,0.120317,-0.011428,0.079429,0.044827,-0.134279,0.233826,0.090891,-0.321940,0.072682,-0.145091,-0.397143,-0.197498,0.115898,-0.308123,0.178298,0.248065,0.436373,-0.068581,-0.187271,-0.189621,0.085649,-0.129519,0.229227,0.046308,0.088534,0.249114,0.130605,0.108821,0.101078,0.190481,0.224566,0.241093,-0.083473,0.172975,-0.074382,0.063522,0.083565,-0.042760,-0.214617,-0.346459,0.061652,-0.076038,-0.210644,0.095313,0.396611,-0.052569,0.402636,-0.382827,0.018053,0.190071,0.156438,0.141894,0.061696,-0.040413,0.510981,0.085329,0.198682,0.257875,-0.126245,-0.110305,0.213049,-0.165910,0.115016,0.182390,0.236632,0.038303,0.266295,-0.205268,-0.442943,-0.115335,0.053228,0.073723,0.156852,-0.171968,0.071010,0.038573,0.261514,0.037568,0.052190,-0.092959,0.219295,-0.457989,-0.174719,-0.233038,0.230238,-0.180435,0.018988,0.286139,-0.023659,-0.164642,-0.168275,-0.166678,0.022303,},

	{-0.163370,-0.365594,-0.271216,0.005179,0.165064,-0.004501,-0.023398,-0.171740,0.139704,0.063902,-0.258675,0.059059,-0.037327,0.103644,0.023780,0.176081,-0.330770,0.390843,0.020203,-0.275615,0.011767,0.214749,0.021712,-0.292525,0.415825,0.158294,-0.187908,-0.100997,-0.142279,-0.335812,0.159902,0.014834,-0.096878,-0.038164,-0.084633,0.005629,0.342134,-0.596828,-0.355957,-0.250283,-0.185580,0.031987,0.222876,0.029343,-0.028312,-0.110470,0.487050,-0.252326,0.082093,0.102129,0.093882,0.219851,-0.152756,0.102104,-0.078152,-0.061752,-0.121205,0.105025,-0.054277,0.157036,0.227400,-0.018739,-0.169816,0.072123,0.029556,-0.107439,0.122017,0.089222,-0.065620,0.056653,-0.093426,0.188707,0.438399,-0.222108,-0.060426,-0.238422,-0.109067,0.215187,-0.236640,0.187532,0.314371,0.172246,-0.139758,0.194154,-0.057647,-0.106906,0.242698,-0.346298,-0.443786,-0.187116,-0.081353,-0.216889,0.238026,-0.312317,0.144597,-0.198694,0.112411,0.000361,-0.040099,0.195640,0.195933,-0.326448,0.140690,-0.318674,0.209542,0.043740,-0.161277,-0.125239,-0.112762,0.105641,-0.293009,0.027834,0.139251,-0.142190,-0.057259,0.040275,-0.239965,0.039020,0.203163,-0.271073,},

	{-0.218976,0.154500,0.300322,0.017910,0.256100,-0.098375,0.032603,0.015889,-0.238030,0.247333,0.180136,-0.075471,0.029462,-0.021449,-0.165684,-0.051527,-0.189425,0.039560,-0.184374,0.497706,-0.213881,0.120327,0.389659,-0.050696,-0.332559,0.153108,-0.154155,-0.068204,-0.247854,0.061100,-0.508433,-0.239800,0.231682,0.301471,-0.006041,-0.079750,-0.152340,-0.013557,-0.178754,0.189391,-0.062583,0.148741,-0.138660,0.367322,0.134046,0.236914,-0.203387,-0.113861,-0.050555,-0.013141,0.053789,0.209240,0.170690,0.187650,0.083609,-0.123764,0.065400,0.075705,-0.248404,0.127340,-0.188024,0.385994,-0.417299,0.560829,-0.091480,0.027658,-0.288486,0.004150,-0.081999,-0.329041,-0.082996,-0.135342,-0.198914,0.185023,-0.265768,0.202704,0.186633,-0.096372,0.119142,-0.239861,0.037739,0.056484,-0.086532,0.484572,0.219916,0.001217,-0.192631,0.069035,0.247104,0.117175,0.063780,-0.216559,-0.120348,0.153334,0.221413,0.004634,0.064396,-0.144526,-0.150051,-0.246435,0.264201,-0.124389,0.161469,-0.220092,-0.051098,-0.376351,-0.420222,0.016743,0.103431,-0.075000,0.120192,0.058346,0.092539,0.106436,0.232047,-0.184807,-0.021091,0.080898,-0.129167,0.154469,},

	{-0.175403,-0.054950,0.165882,-0.045919,0.002280,0.035897,-0.085326,-0.145058,-0.275334,0.060783,0.122525,0.092556,0.172873,-0.310281,0.110376,-0.047202,0.372375,0.147328,0.210174,-0.127344,0.428173,0.177703,-0.085419,0.349686,0.382327,0.002678,-0.072645,-0.045978,0.162085,0.163291,-0.215059,-0.014993,-0.215161,0.001497,0.147619,-0.104551,0.060610,0.477405,-0.168693,-0.316535,0.170779,-0.357831,-0.295377,-0.335874,-0.140656,0.529274,-0.062002,0.276361,0.175203,-0.123307,-0.101465,0.145370,0.014092,-0.223619,0.071355,-0.181218,0.157972,-0.290591,-0.077262,-0.327780,-0.086467,0.365390,0.158453,-0.027121,0.081135,0.204925,-0.188317,0.217615,0.162965,-0.016382,-0.184509,0.132385,0.296714,-0.055372,-0.017502,-0.181964,-0.291639,-0.156476,0.113263,-0.128652,0.200467,-0.161603,-0.211914,-0.167758,-0.039631,0.140857,-0.283796,0.168773,0.238415,-0.181798,-0.207173,0.023749,0.002330,0.061987,-0.168257,0.128019,0.073108,-0.164676,0.128115,-0.014317,0.197966,-0.171030,-0.362650,-0.124259,-0.453198,-0.121338,0.103522,-0.261411,-0.144379,-0.320115,0.149151,-0.028239,-0.125849,0.065891,-0.125495,0.085267,0.390362,-0.189059,0.325366,-0.145088,},

	{-0.025685,0.419559,0.222638,0.066562,0.209357,-0.128715,0.303991,-0.120880,0.096043,-0.115641,-0.174150,0.043499,0.187122,0.260562,0.275243,0.336788,-0.033732,-0.154788,-0.043608,-0.064836,0.162688,0.091901,-0.135465,0.003745,0.104194,0.463899,-0.089625,-0.286366,0.158339,0.327770,0.246374,-0.128627,-0.109746,0.070748,0.053253,0.013924,0.043929,-0.105295,0.129257,0.096649,0.401036,-0.169077,0.150233,0.023834,0.134345,0.148854,0.070631,-0.305566,-0.242389,-0.003081,-0.357723,-0.077151,-0.187224,-0.260153,0.011192,0.273206,0.043595,-0.425586,0.375774,-0.279215,-0.276383,0.123251,-0.235136,-0.010759,-0.017695,-0.147743,0.208768,0.165427,0.104571,0.165484,-0.090899,0.232060,0.058717,0.049627,0.082974,-0.135965,0.251838,-0.289464,0.121266,-0.051333,-0.050981,-0.008945,0.228262,0.041248,-0.218613,0.249882,-0.096136,-0.016699,0.173589,0.114532,0.149152,0.055924,0.050283,0.178812,-0.052810,-0.038944,0.077810,0.480463,0.020073,0.330760,0.276253,0.314297,0.371628,0.070544,-0.098684,-0.120432,-0.296566,0.169603,-0.279683,0.137962,0.175345,0.196798,0.065826,-0.210724,-0.038401,-0.012973,0.377352,-0.395835,-0.135901,0.107208,},

	{0.354939,-0.306091,-0.121461,-0.064120,-0.098072,0.129895,-0.104624,0.115604,-0.219453,-0.104286,-0.017326,0.173387,0.112496,0.050479,-0.188086,-0.220364,0.383681,-0.156009,0.417489,-0.331850,-0.096501,0.635412,-0.145746,0.085796,0.140308,0.008655,0.184756,-0.000916,0.152908,0.031386,0.049385,0.404072,-0.252954,-0.004640,0.014929,-0.004192,-0.038082,0.185118,-0.010688,0.208595,0.119044,-0.011347,-0.188930,-0.131995,0.093034,0.018248,-0.232702,-0.059296,-0.194393,-0.189954,-0.208784,0.228650,-0.403820,0.141603,-0.168111,0.088549,0.037588,-0.227048,-0.211697,0.147462,0.016241,-0.189301,0.085438,0.283146,-0.048561,0.142255,0.175610,0.045932,-0.465724,0.449502,0.179750,-0.274835,0.219097,-0.503286,-0.000594,-0.240781,-0.083701,-0.296311,-0.290099,-0.063755,0.144857,-0.180808,-0.043983,-0.035462,-0.295968,0.301702,-0.333349,0.305325,0.075620,-0.296896,0.185067,-0.053824,-0.114498,-0.169954,-0.043489,-0.014156,0.239771,0.114381,-0.159794,0.061296,-0.128911,-0.064859,0.185433,0.205716,-0.083700,0.039799,0.132629,0.056765,0.238057,0.316937,0.123090,-0.043560,-0.044663,-0.038765,-0.575288,0.108065,-0.008548,0.046475,0.255864,-0.090572,},

	{-0.185187,-0.035647,-0.120095,0.429218,-0.208929,0.097962,-0.050765,-0.243336,-0.108378,-0.309989,-0.008469,-0.061484,-0.361590,0.304800,-0.160039,-0.239579,-0.037045,0.041240,0.037360,0.080831,-0.248228,0.361645,0.199484,0.154626,-0.193555,0.162037,-0.037275,-0.161204,0.118975,-0.067470,0.168728,-0.311039,-0.054010,0.247145,0.093090,-0.316024,-0.278687,0.186170,-0.408503,0.139455,0.017472,0.349655,-0.135190,-0.080112,0.281696,-0.166505,0.086257,-0.286926,0.045483,-0.215293,0.012369,-0.021044,-0.136674,0.021293,-0.092104,-0.141674,0.037022,-0.150792,0.337562,0.071201,0.024716,-0.102047,0.191209,-0.116614,-0.203724,0.189214,0.114129,-0.035376,0.272668,-0.134243,-0.298149,-0.221650,0.031837,0.073343,0.126301,-0.219130,-0.031924,0.193909,0.025096,0.151641,-0.014426,0.245066,-0.016221,-0.019330,-0.161936,0.089754,0.072757,-0.214625,0.104307,-0.143637,0.104567,-0.116717,0.103685,-0.189847,0.085911,0.481087,0.252240,-0.084379,0.062145,-0.537915,0.129703,-0.115121,0.088704,-0.087876,-0.188839,0.032581,-0.298884,-0.090941,0.233314,0.226200,0.099614,-0.405241,-0.158842,0.046897,0.050878,0.031442,-0.060281,0.565985,0.147690,0.007022,},

	{0.197184,0.304697,0.075280,-0.221324,-0.089766,0.055839,0.199288,-0.066470,-0.119739,0.204639,-0.158566,-0.014564,0.103456,0.105189,0.166875,-0.138042,-0.292910,0.116546,-0.112484,0.196139,0.188904,-0.200129,-0.243696,-0.052829,-0.304716,-0.241873,-0.252833,0.348926,0.435687,0.048299,0.353978,0.071113,0.126545,0.163198,-0.165183,-0.039055,0.079573,-0.117265,0.090937,-0.417716,0.142179,-0.288857,0.040042,0.129606,0.105451,-0.083422,0.117464,0.276535,0.014891,0.479898,-0.136414,0.024269,0.030793,0.107210,0.270680,-0.007853,0.255314,0.302693,-0.174084,0.129632,0.016532,-0.171398,-0.175976,0.109117,0.036526,-0.522234,-0.033825,0.236842,0.164280,0.176835,-0.100105,0.406953,0.236330,0.217362,0.350809,0.314182,-0.235001,-0.127110,-0.143259,0.153983,0.132718,-0.216770,0.254280,-0.200279,0.300025,-0.063199,-0.020807,0.200009,0.101553,-0.262462,-0.196544,-0.151402,-0.141864,-0.002117,-0.023428,-0.164560,-0.225057,-0.016678,0.298408,-0.060570,-0.119590,-0.207585,0.027822,-0.079102,-0.026174,0.166350,-0.047067,0.210950,-0.338123,0.036038,0.070738,-0.417111,0.110502,0.104356,-0.184638,0.164392,-0.224206,-0.478891,-0.156918,0.246524,},

	{-0.163076,0.057190,-0.025511,-0.213196,-0.163641,-0.013496,-0.074095,-0.397640,0.108682,-0.368270,-0.298814,-0.159846,-0.256647,0.230817,-0.256995,-0.383896,0.168225,0.558484,0.037437,-0.266082,0.310092,0.189737,0.211043,-0.066782,0.151795,-0.130961,-0.092452,0.347085,-0.056547,-0.094481,-0.185998,0.158941,-0.054124,-0.227444,0.035207,0.317276,0.340812,0.268670,-0.028892,-0.361378,-0.046644,-0.082280,-0.104769,0.163961,-0.141150,-0.117702,0.223172,0.182060,0.313546,-0.026743,-0.015299,0.111475,0.095567,0.015847,0.003178,-0.119443,-0.033064,0.347662,0.068005,0.008701,-0.135166,0.315886,0.017050,0.179739,0.062950,-0.003767,-0.073650,0.027998,0.396505,0.222625,0.205667,-0.237007,0.349187,0.063188,0.510771,0.049900,-0.144337,0.213117,0.225145,0.112855,-0.062452,0.018136,-0.268590,-0.470195,0.255335,-0.087146,0.206392,-0.028417,-0.133269,0.136441,-0.124506,0.110844,-0.223581,-0.338425,-0.154680,-0.108809,-0.011712,0.192502,0.222668,0.024008,0.079062,0.016374,-0.353798,0.100635,0.148565,-0.140991,-0.101805,-0.317347,0.440218,-0.531436,0.061086,0.094678,0.422879,-0.073487,0.317718,0.062353,-0.195051,-0.022104,-0.053728,0.047069,},

	{0.083505,-0.260582,-0.221831,-0.056348,0.126393,-0.132176,-0.067385,0.219155,-0.243148,-0.381680,-0.312889,-0.109920,-0.115433,-0.024343,0.073890,0.068780,0.314478,-0.085928,-0.006546,-0.280804,-0.077713,-0.056431,-0.207598,-0.037685,0.147738,0.156110,-0.089110,-0.153370,0.016664,0.542618,-0.110587,-0.279637,0.199627,0.125625,0.089145,-0.055117,0.346289,0.254554,0.051986,0.061180,0.012359,-0.239014,-0.342535,0.074642,0.131412,-0.143384,-0.006313,0.012126,0.101067,0.161626,-0.049858,-0.164331,-0.230420,-0.080992,-0.060878,-0.001544,-0.244660,0.048951,0.337593,-0.275705,0.076280,-0.052376,0.018333,0.038538,-0.089199,0.117446,-0.202854,-0.259550,0.361152,0.380736,-0.091795,-0.103147,-0.063773,-0.082387,0.187344,-0.463234,-0.017184,-0.290209,0.125460,0.224562,-0.373014,0.065620,-0.021792,-0.391349,-0.422278,0.186053,-0.018937,-0.435775,-0.203192,0.075109,-0.079952,0.198998,0.312117,0.148461,-0.135652,-0.374098,-0.202563,0.368089,0.120094,-0.024955,0.303781,0.329495,0.164111,0.090849,0.023813,0.140886,0.116822,-0.047587,-0.240143,0.005887,0.300218,0.312308,-0.301392,-0.349779,0.079697,0.183553,0.236724,0.284609,-0.337096,0.041510,},

	{0.155567,0.058768,-0.204365,-0.174016,-0.341270,0.158120,0.258790,0.094393,-0.103366,-0.003075,-0.239586,-0.077560,0.012179,-0.016749,-0.222528,0.111976,-0.005062,-0.039397,-0.141364,-0.038511,-0.072847,0.268664,-0.157839,-0.094195,0.061948,-0.317119,-0.322146,0.274065,0.325359,-0.008174,0.047028,0.079083,-0.032157,-0.011203,-0.086499,0.125591,-0.075990,0.139387,0.054790,-0.159403,0.429494,-0.076694,-0.215105,-0.132415,-0.139068,0.379474,0.251877,-0.148682,-0.158497,0.147752,0.099240,0.152312,-0.275966,0.042273,0.095103,-0.132676,-0.058438,0.179553,0.197309,0.065037,0.016823,-0.053069,0.202285,-0.320103,-0.089776,-0.162608,0.032610,-0.019881,0.123519,0.218114,-0.185040,0.148539,0.445926,-0.238815,0.029364,0.112454,-0.051254,-0.120316,0.274119,0.307974,-0.268383,0.111967,0.096550,-0.400744,0.182377,-0.092848,-0.209995,0.016656,0.128672,-0.479957,-0.186362,-0.156048,-0.172200,-0.072621,-0.006170,0.032227,0.234777,0.293057,0.412905,0.023947,-0.259615,0.166615,-0.030619,-0.308743,-0.160437,0.171341,0.162045,0.086903,-0.153342,0.053789,0.323532,-0.223575,0.107423,0.147191,-0.060746,0.428147,0.182004,-0.091919,0.082665,-0.083716,},

	{-0.150753,0.048047,-0.345986,0.146168,-0.010433,0.251514,0.010685,-0.336402,0.034411,0.128721,0.032247,0.070865,-0.128245,-0.060007,-0.332287,-0.376029,-0.306077,0.051617,0.058667,-0.020820,0.218295,0.368457,0.139847,-0.019453,0.105326,0.208026,-0.196912,0.166758,-0.006861,-0.178206,0.177479,0.183191,-0.377495,-0.197569,0.039611,-0.133250,-0.088948,0.200633,-0.337929,-0.039588,-0.166516,0.249007,0.037121,-0.289115,0.020993,0.114950,-0.146179,-0.100445,-0.013157,0.086463,0.117016,0.305973,-0.221975,-0.134363,-0.165747,-0.404894,0.353087,-0.261151,-0.189195,-0.186592,-0.211221,0.291240,-0.185584,0.046287,-0.149958,0.036693,-0.048978,0.146356,0.099043,-0.126769,0.033888,-0.309512,0.172354,-0.207131,-0.083700,0.311691,-0.334636,0.335767,-0.210713,-0.121137,0.401322,-0.060386,-0.132286,-0.014356,-0.452975,0.078944,0.181047,-0.013960,0.010636,-0.074647,0.033083,-0.510648,-0.140117,-0.197808,-0.088141,0.467100,0.262319,-0.193665,0.020743,-0.351613,0.178216,0.005315,0.324773,-0.001841,-0.004426,-0.291858,-0.362554,0.036904,0.165986,0.241981,-0.264256,0.185901,-0.059244,0.244945,0.069038,-0.027042,-0.117671,0.082450,-0.052875,0.149084,},

	{-0.245579,0.087919,0.093935,0.178098,-0.081894,-0.098671,0.379615,-0.102344,-0.300535,-0.174816,0.121897,-0.066252,0.198921,-0.106700,-0.060964,-0.245540,0.205173,0.339883,-0.408570,-0.166639,0.249106,-0.183967,-0.069916,-0.069504,-0.013699,0.245924,-0.134019,-0.269539,0.302965,0.029345,0.255124,0.065958,0.156284,0.137835,0.161945,0.147277,0.102581,0.406492,-0.147533,-0.249584,0.037502,-0.042091,0.310463,-0.078531,0.071086,0.154730,-0.459781,-0.039527,0.386704,0.568821,-0.429065,0.039402,-0.091064,0.164455,0.024292,-0.174660,0.244589,0.138091,0.229792,-0.244236,0.183951,0.385610,-0.104356,-0.010704,-0.219238,-0.212299,-0.396445,0.078230,0.070517,0.256754,-0.029400,-0.329516,-0.038792,0.116453,-0.183909,-0.073042,-0.333528,0.210353,0.185117,0.021858,0.175394,0.163748,-0.124754,0.018034,-0.266842,0.196092,-0.123496,-0.141755,0.252001,-0.160694,-0.200500,-0.207979,0.121653,0.291605,-0.032313,0.135537,-0.369502,-0.070805,-0.007899,-0.178259,0.075084,-0.085239,0.110531,0.134863,-0.180048,0.019383,-0.209659,-0.380981,0.034969,-0.054618,0.087663,-0.196815,-0.159701,-0.199752,0.083809,0.016043,-0.096252,0.283696,-0.033514,0.352479,},

	{0.018837,-0.197173,-0.137488,-0.122691,0.081653,-0.022782,-0.072245,-0.274166,0.164913,-0.148832,-0.139747,0.062151,0.084679,-0.108405,-0.043986,0.108006,-0.070244,0.351502,-0.270596,0.065673,0.118795,-0.058363,0.148638,-0.062936,0.382810,-0.011824,-0.215489,0.170067,0.251743,-0.182046,0.001417,-0.326292,0.043633,-0.041451,-0.085939,0.148739,0.070963,-0.289655,-0.082734,-0.048945,-0.201728,-0.004404,0.122048,0.088869,-0.156855,-0.050024,0.151275,0.077619,0.184306,0.044753,-0.179118,0.233469,0.503062,0.529196,0.017634,-0.086101,-0.089500,0.283867,-0.054821,0.415708,0.237583,0.059498,0.160765,0.523340,-0.336693,-0.224253,0.031563,0.271137,0.115135,0.003125,0.094690,0.234477,0.080605,0.022470,-0.017667,0.124539,0.285846,0.517458,0.088193,-0.246471,0.147013,0.152446,0.046460,-0.077635,-0.075495,0.147573,0.180917,0.058379,-0.045650,0.020085,-0.408259,-0.101524,0.153650,0.171974,0.026965,0.114362,-0.098169,-0.093141,0.129677,-0.141005,0.181170,-0.029202,0.060794,-0.192232,0.473317,0.188829,0.054488,0.133751,0.047146,-0.048872,0.404084,-0.433114,-0.065374,0.374511,-0.063974,-0.029455,-0.165486,0.010479,-0.158431,-0.024505,},

	{0.073675,0.083934,-0.250404,0.023042,0.128226,0.249168,-0.111306,-0.143748,-0.163744,0.034239,-0.102294,0.056440,0.127624,-0.116146,0.041463,-0.187403,0.191119,0.185504,-0.165687,-0.016312,0.316073,0.210726,-0.309763,0.195882,0.197589,-0.170476,-0.024335,0.131293,0.155034,0.245771,0.314744,-0.118421,-0.423889,-0.290238,-0.085432,-0.045607,0.076178,0.122204,-0.101673,-0.045589,-0.058184,-0.291536,-0.135390,-0.319501,-0.053162,0.022757,0.123082,0.042573,0.017869,0.041933,0.058778,0.147362,-0.471538,-0.353756,0.193477,0.054836,-0.017112,-0.006632,-0.210619,-0.141025,-0.207521,-0.019985,0.233358,-0.353737,0.372507,0.254786,-0.023127,-0.021513,-0.357685,0.079222,-0.044267,-0.096208,0.583437,-0.357564,0.100714,-0.236340,-0.345300,-0.077885,-0.173708,0.114404,0.177592,-0.147524,-0.120909,-0.194471,-0.196597,0.110441,0.072970,-0.139200,-0.228592,-0.416341,-0.012810,-0.306650,0.200184,0.244027,-0.098756,0.147228,0.347116,0.145446,0.035310,-0.141769,-0.075781,-0.113457,-0.229413,-0.106954,-0.379489,-0.016125,0.237148,-0.191451,-0.071710,-0.147104,-0.115847,-0.106575,0.247479,-0.054008,-0.610215,0.256803,0.176266,-0.175097,0.420685,0.157631,},

	{0.167934,-0.006771,-0.182113,-0.319599,0.123597,0.077540,-0.056819,0.133945,0.012503,-0.345101,-0.084656,0.161835,0.189427,-0.000206,-0.154969,-0.071076,-0.059186,0.166055,-0.386520,0.183800,-0.023876,-0.199267,0.166794,-0.170466,-0.266250,0.363013,-0.078476,-0.138112,-0.228700,-0.071625,-0.364912,-0.019319,-0.009330,-0.137289,-0.064714,0.070585,0.110301,0.211475,0.001718,-0.253818,0.157372,-0.296381,0.231749,0.158350,0.179041,-0.342146,-0.352327,0.238018,0.345622,0.245649,0.315507,-0.207440,-0.026724,0.271501,0.224495,-0.168599,0.274967,0.238164,0.313219,-0.033003,0.206659,0.040358,0.035805,0.284648,-0.082185,-0.235668,-0.471805,0.333018,0.107423,0.202659,0.180623,-0.086899,0.058719,0.310234,-0.013866,-0.072868,-0.009015,0.257970,0.191224,-0.146826,0.313881,0.176110,-0.060954,-0.114327,0.091236,0.014136,-0.089685,0.129621,-0.093876,-0.159042,0.277411,0.067489,-0.243344,0.098854,-0.108982,-0.382680,-0.167507,-0.233844,-0.059862,0.102172,-0.039369,0.090019,0.249978,0.488067,-0.116937,0.015516,0.040519,0.187799,-0.010593,-0.155364,-0.059453,-0.344900,-0.309115,-0.059031,0.141190,0.121614,-0.161534,0.030313,-0.156793,0.245773,},

	{0.480501,-0.103466,-0.241566,0.094010,0.078835,0.093751,0.096710,0.004802,-0.042783,0.079277,0.262290,0.255318,0.106651,0.214883,-0.091359,-0.187319,0.110326,-0.131018,0.101618,-0.288378,0.055015,0.276034,0.009789,0.151974,0.226189,-0.087049,-0.305425,0.146310,-0.001633,0.014077,0.471587,0.168647,0.057928,-0.217697,-0.062586,0.165597,0.220329,0.277124,0.040029,0.208109,0.034860,0.134942,0.199048,-0.393096,0.359728,-0.220168,-0.110643,0.148155,-0.102479,-0.149603,-0.412067,-0.248504,-0.337012,-0.059166,-0.151815,0.265574,0.151904,-0.350327,0.056275,-0.043404,-0.094822,-0.194322,0.115179,-0.012363,0.117309,-0.075578,-0.035463,-0.084393,-0.187963,0.373769,0.209639,-0.073027,0.019595,-0.244763,-0.279673,-0.404978,0.016088,0.170178,-0.244665,0.204847,0.341800,0.058977,0.294079,-0.318715,-0.215410,0.078202,-0.360248,0.223183,0.195033,-0.109581,0.169124,0.112517,0.061198,0.029419,-0.141489,0.099896,0.076072,0.174907,-0.106517,0.014340,-0.282297,0.004727,0.053451,0.144984,-0.151831,0.391835,0.098742,0.055891,-0.252224,0.115244,-0.092751,0.286747,-0.059293,-0.486000,-0.213200,0.141483,0.204876,0.172027,0.019645,0.036130,},

	{0.152111,0.143941,-0.112812,0.032623,-0.391586,0.123481,-0.136097,-0.152306,0.029784,-0.193993,-0.082178,0.106910,0.274990,0.351880,0.137422,0.123040,0.214874,-0.086398,-0.054162,-0.001580,0.439464,0.262857,-0.415740,-0.024219,0.493870,0.005657,-0.272793,0.073561,0.392574,-0.269871,0.131672,0.361780,-0.317259,-0.201680,-0.149928,0.117446,0.163523,0.149223,0.165580,-0.214849,-0.107201,-0.133458,-0.198129,-0.223806,-0.340771,0.112493,-0.122158,-0.009048,-0.007676,-0.172481,-0.340816,0.175638,-0.050601,0.176927,0.148994,-0.008314,-0.154320,-0.203933,-0.229906,-0.026020,0.034247,-0.059690,-0.102576,-0.071754,0.211077,0.304404,0.144810,0.070512,-0.327852,0.395026,0.000774,0.156742,0.125800,-0.326396,0.286970,-0.262822,0.213873,0.074148,-0.162339,0.231635,0.130989,-0.232833,0.088903,-0.436747,-0.086205,-0.012141,0.072781,0.038690,-0.019324,0.213500,-0.036644,-0.017104,0.170001,-0.174764,-0.238456,-0.161894,0.329095,0.256742,0.329488,0.151928,0.009924,0.074667,-0.464212,-0.058680,-0.051549,-0.229220,0.215344,0.124522,-0.002081,-0.142352,0.022583,0.011878,0.264878,-0.092097,-0.313823,0.104857,-0.190187,-0.311636,-0.020676,-0.013575,},

	{0.075786,-0.246440,0.456206,-0.019161,-0.520120,-0.212521,0.341614,0.088415,0.109993,-0.356547,-0.080008,-0.494861,0.084180,0.017224,-0.006801,0.237277,0.137368,-0.091966,0.257289,-0.492685,-0.016146,0.212829,-0.293733,-0.095528,0.100734,-0.084496,0.024896,0.162905,0.015097,-0.184502,-0.045388,0.200492,-0.047481,0.086163,0.188741,-0.107442,-0.095251,0.249791,-0.207928,-0.077401,0.105071,-0.087422,-0.235401,0.227209,-0.150616,0.208711,0.321088,0.042418,0.102018,0.165745,0.224979,0.039291,0.196859,-0.015276,-0.202114,0.007827,-0.283416,-0.059099,-0.027546,-0.382255,-0.069430,0.282688,-0.246152,-0.301026,0.041481,0.338948,0.170097,-0.045908,-0.076246,-0.300745,-0.159523,-0.005456,-0.055222,-0.092435,0.040083,-0.182745,-0.014796,-0.255671,-0.208941,0.387198,-0.434375,-0.129332,0.040092,-0.053591,-0.080562,-0.230276,0.159124,-0.065193,-0.092174,0.056177,0.128507,-0.156165,-0.329441,-0.100012,0.194202,0.093347,0.096995,0.414370,0.394588,-0.213336,0.014472,-0.230019,-0.110541,-0.244826,-0.056538,-0.210446,0.141350,-0.033279,0.085844,-0.056557,0.066891,0.278154,0.344945,-0.232145,0.067950,-0.049560,-0.115070,-0.030377,-0.110754,-0.251654,},

	{0.092368,-0.286144,-0.168778,0.085892,-0.009006,0.061193,-0.151339,-0.001920,-0.034135,-0.224097,-0.017126,0.023105,-0.357169,0.254486,-0.262687,0.091969,0.029723,-0.140831,0.020261,0.147553,-0.139074,0.234705,-0.099287,0.066513,0.299563,0.041119,-0.222944,0.327443,-0.149234,-0.206029,-0.086415,0.104293,0.087907,-0.103423,-0.109186,-0.261308,0.133266,0.016297,-0.350925,0.040517,0.017821,0.047878,0.093658,-0.105470,0.058091,-0.111595,0.196831,-0.259037,0.014381,-0.314881,0.104366,0.148297,0.072346,0.324274,0.145135,-0.356143,0.052190,0.176194,0.114312,0.273719,0.314206,-0.219883,0.149577,-0.370880,-0.313975,0.339808,-0.135568,-0.104268,-0.210653,0.044062,-0.082421,-0.283762,0.256845,-0.016747,-0.002145,0.355795,0.430808,0.210164,0.240784,-0.167971,-0.259391,0.164419,-0.024435,-0.084316,-0.130203,-0.153953,0.092237,-0.021275,-0.342427,-0.167439,0.055298,-0.453706,-0.098565,0.075736,0.030963,0.098214,0.075594,-0.147399,0.140237,-0.184147,-0.099371,0.276682,-0.001016,0.089945,0.222243,0.334134,-0.151821,-0.096776,0.299360,-0.007174,0.316903,-0.109470,0.088735,0.252156,0.264053,0.112400,0.115700,0.359391,0.266064,0.148933,},

	{-0.051407,-0.231545,-0.243478,-0.008162,-0.459913,-0.206124,0.140767,-0.264843,0.051145,-0.407158,0.048423,0.092504,0.080678,0.178237,-0.372640,-0.204354,-0.066301,0.461467,-0.373925,-0.147072,0.209327,0.232189,-0.066550,-0.257596,-0.015385,0.324805,0.293447,-0.265917,0.221134,-0.257406,-0.051195,-0.167644,0.053054,0.066465,-0.062206,0.338133,0.288363,0.239008,-0.323627,-0.115633,-0.238014,-0.197539,0.262441,-0.330305,0.127414,0.169384,-0.117179,0.034983,0.369069,0.276914,0.022475,0.120065,0.142687,0.089561,0.303243,-0.363592,-0.135786,-0.055068,0.352812,-0.035112,0.109985,0.382988,0.066459,0.336545,0.028895,0.363191,-0.193859,0.034758,0.056759,-0.116463,0.089531,-0.147038,0.105058,0.219175,0.275926,0.119725,-0.185499,0.435463,0.066113,0.235069,0.117231,0.162223,-0.324571,-0.313903,0.139258,-0.080864,0.236251,-0.304408,0.070453,-0.054701,0.099379,-0.089044,0.215584,0.068784,-0.149645,0.153659,0.085865,-0.203602,0.144816,0.013514,0.197102,-0.047279,-0.391364,0.541593,0.002381,-0.102728,0.128876,-0.354079,0.162459,-0.259339,-0.047602,0.162579,-0.043993,-0.091707,0.134330,-0.100187,0.098103,0.210518,0.104350,0.157787,},

	{-0.413192,0.092766,0.197414,0.104207,0.089590,-0.330362,0.046169,0.017471,0.103124,0.242379,0.074493,0.003609,-0.185683,-0.107095,0.181406,0.206646,0.196430,-0.260261,0.271014,0.335522,0.085463,0.127734,-0.148457,-0.122161,-0.277177,0.180212,-0.017303,0.175753,-0.084715,0.203993,0.254998,-0.107099,-0.008185,0.146753,0.264359,-0.153752,0.156615,-0.450261,-0.009037,-0.323428,-0.157814,-0.134927,0.100143,0.109146,-0.305505,0.126229,0.189405,0.080546,0.019168,-0.330601,-0.087157,0.101730,0.009945,0.173809,-0.205331,-0.075955,-0.162750,-0.127777,-0.670902,0.015764,-0.072954,-0.015813,-0.078917,0.281428,-0.090886,0.005696,0.309383,-0.034995,-0.073249,-0.139381,-0.092293,-0.071801,-0.016155,-0.075208,-0.065117,0.016602,-0.054521,-0.019425,-0.039728,-0.002520,-0.097619,-0.408157,0.222693,-0.152610,0.060815,-0.194908,0.391906,0.111594,-0.101501,0.014688,0.021495,-0.138447,-0.074386,0.104481,0.041652,-0.034602,0.236437,-0.146557,-0.052215,-0.112612,0.291162,-0.070371,-0.025139,-0.556311,0.291010,-0.255152,0.015502,-0.080525,0.007713,0.219904,-0.021002,0.141892,0.192877,0.652142,0.118224,-0.258070,-0.175008,0.169923,0.033305,0.104414,},

	{0.118178,-0.201307,-0.285206,0.255132,-0.314192,0.132104,0.062556,-0.304740,-0.113342,-0.182381,0.079026,-0.094164,-0.093718,0.144639,-0.248058,-0.378703,0.187277,-0.039953,0.019514,-0.339593,0.097323,0.309165,-0.120141,-0.082303,0.482349,0.040431,0.165846,0.553626,0.197634,-0.161832,0.389200,-0.043339,-0.250844,-0.099108,0.164681,0.202513,0.176832,0.422508,0.100218,0.008625,0.122071,-0.127329,-0.080518,0.062573,0.151739,0.058335,-0.119904,-0.017695,0.000588,0.062130,-0.197739,-0.142608,-0.514245,-0.153532,-0.109452,0.061098,0.235809,-0.004345,0.155183,-0.052490,-0.160576,0.024699,0.308717,-0.314088,0.181881,0.278415,-0.036815,-0.191622,-0.326200,-0.135403,-0.111562,-0.283403,0.307194,-0.215774,0.030436,-0.145567,0.161086,-0.103676,-0.266899,0.089903,0.205286,-0.102556,0.166697,-0.388812,-0.259407,0.226466,0.021289,-0.010316,-0.259443,0.068854,-0.046106,-0.259614,0.150713,-0.212889,-0.078441,-0.008633,0.159416,0.503371,0.231913,0.010810,-0.003846,-0.137038,-0.397216,0.358163,-0.150797,0.006172,-0.032212,0.022874,-0.004239,-0.118421,-0.161370,0.193953,-0.198018,-0.069714,-0.071831,-0.046205,-0.203736,-0.068948,0.204955,0.223326,},

	{-0.162827,-0.199376,-0.352147,-0.032256,0.068626,0.048108,-0.255981,-0.158077,0.229716,-0.133545,-0.033319,-0.157789,-0.197905,0.239269,0.290908,0.177473,0.119283,-0.019915,0.259732,-0.087059,-0.042666,-0.254523,0.095127,0.001275,0.292508,0.136454,0.402863,0.080091,-0.080264,-0.136631,0.225391,0.210407,-0.263921,-0.019092,-0.173353,-0.191144,0.337641,-0.287097,0.005236,0.095397,-0.325508,0.021924,0.188309,0.172958,-0.023395,-0.005546,0.370896,-0.304468,0.094998,-0.261633,0.032758,-0.120426,0.084156,0.075669,0.108749,-0.012425,0.022996,-0.323501,-0.067296,0.066829,-0.089046,-0.192989,0.128775,-0.171203,-0.027906,0.403247,0.162566,-0.553817,-0.050065,0.003953,-0.148877,0.050433,-0.074340,0.132822,0.285565,-0.117174,0.272935,0.084595,-0.101358,0.182842,0.010566,0.091209,-0.102714,0.071601,-0.102932,-0.012611,0.101402,-0.255540,-0.453252,0.274284,0.310345,-0.010704,-0.162688,-0.393794,0.141018,-0.112685,-0.132489,-0.183618,-0.019681,0.011652,-0.155000,0.036744,0.075217,0.192187,0.242210,-0.191525,0.022029,-0.047221,0.022243,0.102201,-0.183644,0.370615,0.086389,-0.247423,0.316344,-0.391933,-0.190861,-0.287252,-0.108231,-0.235175,},

	{-0.167658,0.306182,-0.012033,0.113516,-0.334438,0.101119,0.168647,-0.549220,0.193719,0.045166,0.131208,-0.066504,0.319196,-0.175189,0.216968,-0.055024,-0.197945,-0.112148,-0.318872,0.275965,-0.272723,0.077715,-0.098804,0.019053,-0.243551,-0.006095,0.035396,0.041064,0.005443,-0.408751,0.208955,0.174045,-0.090135,0.014840,0.044086,-0.238696,-0.146643,0.200751,0.172006,-0.255486,0.067346,0.073805,0.034861,0.064041,0.199387,-0.000304,-0.139984,0.201899,-0.198551,0.065794,0.131309,0.267274,0.076553,0.038072,0.036486,-0.055562,0.404240,-0.375851,-0.167444,-0.265922,-0.385384,0.154701,-0.041381,-0.093393,0.300311,-0.320563,0.382602,0.067658,0.204572,-0.234400,-0.123928,-0.050817,-0.047634,0.290281,0.137123,0.044523,-0.188209,0.247581,0.046091,-0.110365,0.268004,0.050286,-0.090108,-0.103787,0.037667,0.125803,-0.233841,0.156885,0.278261,-0.431241,-0.218652,-0.165669,0.041948,-0.149063,-0.003264,0.135911,-0.059143,0.130468,0.074177,-0.194234,0.025931,-0.150837,0.094539,-0.027162,-0.420900,-0.223227,0.009075,0.106103,-0.169161,0.421743,-0.359528,0.307942,-0.027442,-0.020379,-0.065178,-0.072722,0.128991,-0.004887,0.221725,0.216104,},

	{-0.206234,-0.461216,0.122575,-0.080595,0.212124,0.070783,-0.243996,-0.031261,-0.232073,0.156034,-0.080678,0.096260,-0.084503,-0.265611,-0.341900,0.135284,0.191442,0.188016,0.357611,-0.153742,-0.115369,0.127601,0.471791,-0.158396,0.175249,-0.299337,-0.063311,0.107829,0.185324,0.189043,-0.373263,-0.019961,0.315244,0.094871,0.045519,-0.077200,-0.070808,-0.178625,-0.259070,-0.019684,-0.105355,-0.215938,-0.050802,-0.207383,0.094074,0.232288,0.047707,0.187708,0.024809,-0.299973,0.252071,0.034237,-0.029040,-0.000831,0.083900,-0.072973,-0.195783,0.232318,-0.001231,0.113187,0.215853,0.026669,-0.069993,0.201807,-0.360759,0.118844,-0.264463,-0.076397,-0.057395,0.142045,-0.100447,0.287439,0.037040,0.067926,0.259541,0.015390,0.102945,-0.048437,0.237702,-0.348259,-0.195527,0.137466,-0.247779,-0.127856,-0.149197,-0.006583,-0.224180,-0.195276,-0.185992,0.134420,0.049434,0.013434,0.011698,0.292365,0.087744,0.481016,-0.042776,-0.248990,-0.041162,-0.014477,0.196121,0.102737,-0.021329,0.034573,0.230141,0.055253,-0.108499,-0.085690,0.209527,-0.355095,0.580031,-0.374671,0.061831,0.165727,0.098834,0.180618,-0.009536,0.082455,-0.086792,-0.171166,},

	{0.072852,-0.315115,0.305745,0.078834,-0.114352,-0.306578,-0.205460,0.058460,0.314616,0.074856,-0.061615,-0.211394,-0.138536,0.002860,-0.036800,0.071730,0.131964,0.030822,0.382094,0.127914,-0.305165,0.201927,-0.159858,-0.142176,-0.109835,-0.323486,0.028837,0.286317,-0.169407,-0.374011,0.232162,-0.138582,-0.034334,0.253759,-0.319479,-0.056423,-0.080262,-0.210724,-0.040270,-0.134138,-0.018118,0.244089,-0.052787,0.421875,-0.145422,-0.057611,0.212370,-0.071194,-0.220924,0.147466,0.107092,-0.031719,0.322357,0.187274,-0.370269,0.022378,0.139208,0.172947,0.050766,0.421622,0.245721,-0.282678,0.098891,-0.027776,-0.035782,-0.171196,0.069276,-0.325466,-0.039312,-0.062148,-0.000032,0.125755,0.272868,-0.202792,-0.122398,0.328837,0.430047,0.127248,-0.018159,0.289881,-0.273490,-0.010383,0.416073,0.120333,-0.137992,-0.273978,0.297165,-0.098262,-0.129287,0.226961,-0.224213,-0.112505,-0.053605,-0.034880,0.195315,0.052972,0.126972,0.046776,0.386917,-0.082469,-0.218621,0.134845,0.140361,-0.032958,0.269358,-0.234697,-0.317747,0.210349,0.455291,0.279708,-0.178242,-0.026799,0.257727,-0.004170,-0.005700,-0.277039,-0.219346,-0.069885,-0.090236,0.273498,},

	{0.195233,0.151127,0.141126,-0.364368,0.022060,0.177082,0.071428,0.070350,-0.173252,0.039778,-0.062128,0.291471,0.114746,0.085586,-0.127750,-0.174910,-0.181772,0.113405,-0.086315,0.232431,-0.274575,0.272993,0.067300,0.001309,-0.007515,-0.302042,-0.336343,0.203197,0.158923,-0.193598,-0.176761,0.121006,-0.110574,0.332662,-0.056486,-0.103013,-0.397957,-0.097619,0.140154,0.029192,0.205479,-0.320833,0.082465,-0.006875,-0.235607,0.221350,-0.001893,0.285763,0.052570,0.182690,0.171518,0.206419,0.046331,0.131059,0.208454,0.164519,-0.113114,0.588366,-0.111197,0.247104,0.168121,-0.064846,0.054411,0.080173,-0.058011,-0.210636,-0.128426,0.116768,-0.191332,-0.117648,-0.162763,0.204487,0.134573,-0.234662,0.104411,0.266954,0.067445,0.349790,-0.027811,0.151590,0.307458,0.054856,0.023635,0.116986,0.338069,0.282935,0.010672,0.263067,-0.011186,-0.429097,-0.227588,-0.361542,-0.057293,0.175288,0.173539,0.237338,0.505411,0.066978,0.164360,-0.079057,-0.304101,-0.358013,-0.235101,0.159457,0.106752,-0.017197,-0.092988,0.341273,-0.139861,-0.260234,0.124068,-0.416056,0.119590,0.268921,-0.173515,-0.011113,0.001664,-0.290901,-0.125186,-0.012986,},

	{0.008164,-0.040029,-0.066424,-0.374049,0.148805,-0.185638,-0.021018,0.133939,0.159793,0.273274,0.024021,0.407917,0.194413,0.206294,0.068958,-0.007378,0.034619,-0.021384,-0.090792,0.387008,0.110327,-0.044153,0.161471,-0.256359,-0.048004,0.213917,-0.552051,0.060195,0.052146,0.435992,0.062380,-0.024677,-0.121007,0.178096,-0.154017,0.163188,-0.191940,-0.339700,-0.026594,-0.369513,-0.006887,-0.093610,0.272835,0.032532,-0.145352,-0.026650,0.060223,0.221799,-0.062454,0.099582,-0.167994,0.100011,0.228429,0.325381,0.093592,-0.027628,-0.034719,0.402293,0.094126,0.420204,0.190759,-0.066899,-0.060534,0.541286,0.151561,-0.355299,0.280761,0.644187,-0.217972,0.075039,0.089833,0.172702,0.084701,0.091394,0.018864,0.043810,-0.058518,0.289406,0.296203,-0.164330,-0.021310,0.276820,0.106036,0.247978,0.220458,0.158628,0.219327,0.062565,-0.111310,-0.076370,-0.164444,-0.315186,0.360480,-0.009248,-0.140975,-0.146740,-0.182364,-0.043180,-0.053128,0.263122,-0.129567,0.050700,0.192542,-0.020255,0.402686,-0.040722,0.000074,0.139672,0.037389,-0.297148,-0.055261,-0.366650,0.222080,0.302462,0.163406,-0.387020,-0.072789,-0.105064,-0.013104,0.188248,},

	{0.068728,0.096379,0.335451,0.195287,-0.312449,-0.051387,0.578487,-0.195355,0.100692,-0.053118,0.220500,-0.077659,0.078818,0.161299,-0.118712,0.151289,-0.099667,-0.221721,0.045389,-0.094804,-0.048797,0.235620,-0.036223,-0.138523,-0.104107,-0.379891,-0.123270,0.015576,-0.225312,-0.037073,0.075283,-0.196372,-0.183380,0.077848,-0.171468,-0.257659,-0.180146,-0.054763,-0.221550,0.133180,0.143010,-0.175873,-0.361305,-0.315281,-0.382784,0.264183,0.153549,-0.000790,-0.174276,0.054581,-0.015435,-0.044139,-0.235832,-0.187879,-0.056332,-0.191624,0.136930,-0.231575,0.091117,-0.480207,0.225392,-0.020389,-0.316721,-0.346081,0.172511,-0.214638,0.220370,-0.042665,0.050149,-0.322023,0.123479,-0.190580,0.097626,-0.089427,-0.065388,0.217201,-0.023388,-0.093542,-0.268101,-0.050704,-0.253572,0.072258,0.303257,-0.072637,-0.144529,-0.001199,0.004480,-0.205984,0.220073,-0.225483,0.064326,-0.326094,0.008362,0.003432,0.425323,0.302643,-0.088407,0.061231,0.193906,-0.272271,0.173482,-0.218224,0.148582,-0.039380,-0.460276,0.150865,-0.296857,0.037981,0.018153,0.561239,0.277816,-0.058182,0.217576,0.038575,0.059635,0.326233,0.326152,0.016257,-0.084355,0.098370,},

	{0.054119,0.040170,-0.212842,0.126780,-0.156265,0.507069,-0.199772,0.385875,0.017154,-0.056911,0.090944,0.319217,-0.045206,0.283482,0.090071,-0.197839,0.154191,-0.350688,-0.044433,-0.008549,0.076366,-0.063572,-0.129560,0.028453,-0.381059,0.035026,0.154966,0.329695,0.044699,0.002958,0.100631,-0.100016,-0.321661,-0.168616,-0.072839,0.292513,-0.031589,-0.252369,0.365156,-0.225311,0.131407,0.053595,0.358726,-0.184479,0.111453,-0.338903,-0.128480,0.080044,0.031925,0.055979,0.357283,0.047018,-0.148034,0.075122,-0.050002,0.139186,0.345706,-0.145678,0.107786,0.153693,-0.042847,-0.284040,0.451418,-0.393225,0.254411,0.360447,0.108379,-0.108813,-0.216633,0.039789,0.093072,-0.056571,0.031013,-0.142155,-0.184717,0.240429,0.022667,-0.112715,0.036307,0.284493,0.244496,0.027021,-0.130118,-0.143058,0.108536,0.116907,-0.296347,0.070569,-0.099530,0.149678,0.137846,-0.092802,0.164558,0.139476,0.036325,-0.169718,0.029913,0.230580,-0.116871,0.079921,-0.414224,-0.259579,-0.291195,0.077284,-0.293228,0.123589,0.440068,-0.014706,-0.515137,0.016323,-0.461450,0.072276,-0.173519,-0.037781,-0.017695,-0.002110,0.036974,-0.345445,0.441546,0.021963,},

	{-0.277070,0.308599,0.163652,0.229293,0.217750,-0.313799,0.186222,0.043857,0.074339,0.029674,-0.157079,-0.489507,-0.346533,-0.288364,0.480716,0.294318,-0.151600,0.122192,-0.069014,-0.129994,-0.030471,0.089802,-0.133788,-0.248058,0.379280,0.147692,0.130497,-0.068949,-0.179684,0.044951,0.222451,-0.088794,-0.144453,0.081441,-0.256904,-0.239798,0.107888,-0.317874,0.080487,0.019688,-0.209655,0.045810,-0.091218,0.240418,-0.191767,-0.033746,0.217461,0.022422,0.261282,-0.057026,0.031093,0.003397,0.005244,-0.207027,0.071293,-0.060948,-0.283246,-0.160924,0.060611,-0.075832,0.058919,0.095645,-0.315070,0.305041,-0.346728,-0.088304,-0.172283,-0.088790,-0.166007,-0.216767,0.011473,0.237994,0.228132,-0.163699,0.441739,0.081009,-0.187456,-0.159696,-0.315194,0.277612,-0.391886,0.076784,0.217857,0.051714,0.123143,-0.232255,0.409444,-0.101612,-0.130730,0.091935,-0.003516,0.114617,-0.127089,-0.264555,0.126392,-0.232403,-0.160927,-0.040497,0.171539,0.066539,0.281806,0.046839,0.134850,-0.177251,0.124991,0.298827,-0.126450,-0.137533,0.056355,-0.190333,-0.013004,0.016428,0.537027,-0.054466,0.066052,-0.108552,-0.337089,-0.037345,-0.194451,-0.036949,},

	{-0.031574,0.067693,0.070634,-0.231432,0.141773,-0.312601,-0.256746,-0.063146,-0.002980,0.007130,0.250177,0.046790,-0.136951,-0.129633,0.285644,-0.199137,0.152688,-0.032014,0.140695,-0.020645,-0.227812,0.186571,0.466916,-0.044579,0.044305,0.187818,-0.234182,-0.217862,-0.224104,-0.039649,-0.273686,0.154231,0.045891,0.093447,-0.119078,-0.127608,-0.068584,-0.045168,-0.017427,-0.068099,-0.142255,0.036948,0.234265,0.222755,0.166262,-0.257370,0.031421,-0.186550,-0.281802,-0.373245,-0.018164,0.130467,0.566376,0.197893,-0.135008,-0.177967,0.119801,-0.232534,-0.216209,0.399680,0.000159,0.020125,-0.108062,0.122439,-0.231423,-0.000531,-0.126953,0.014182,0.009123,-0.076654,-0.049416,0.006881,-0.417859,0.189133,0.084083,0.306123,0.122946,0.250121,0.436443,-0.445639,-0.171350,0.107941,0.016927,-0.021776,-0.176682,0.219759,0.104654,0.049321,0.091853,0.308652,-0.057511,-0.041194,-0.028023,-0.070759,-0.061688,0.435364,-0.181830,-0.303055,-0.021932,-0.355230,-0.104473,0.207882,0.174609,0.040584,0.407821,-0.182615,-0.220548,-0.302193,0.313540,0.330154,-0.004314,-0.050923,-0.201754,0.146712,0.216550,-0.040690,-0.176371,0.227994,0.147712,0.171257,},

	{0.114133,-0.069991,-0.044519,-0.072704,0.035935,0.225533,-0.130263,0.068776,-0.099000,0.317373,-0.136146,0.042334,0.384367,-0.216815,-0.482602,-0.176153,0.102814,-0.072739,-0.031517,-0.036388,-0.157106,0.077248,0.379264,0.254821,-0.003158,-0.114493,-0.054449,-0.286333,-0.140315,0.192811,-0.479413,0.053248,0.481563,-0.083695,-0.016045,0.148177,-0.221431,-0.114841,0.078939,-0.047005,0.435263,-0.175267,-0.052212,-0.200338,0.235123,0.359084,0.077219,-0.153423,0.031886,-0.154486,0.448215,0.037240,-0.097704,-0.547889,-0.096333,0.067523,-0.083882,0.465131,-0.109932,-0.177049,-0.030474,-0.067895,0.233604,-0.191877,-0.018890,0.065957,-0.448280,0.118861,-0.208471,-0.005568,0.031074,0.063239,-0.032790,-0.202541,0.029833,0.135813,0.302595,-0.061020,-0.340609,-0.019768,-0.093698,-0.052049,-0.116095,-0.135554,0.298453,-0.030909,-0.287623,0.058864,0.256842,0.367898,-0.008677,0.135004,-0.104232,0.109814,0.292110,0.392216,-0.067092,0.020590,0.072276,-0.227108,0.267176,-0.429561,-0.216535,0.116494,0.120886,-0.071977,0.019322,-0.136107,0.040170,-0.414437,0.195633,-0.006149,-0.008516,-0.113369,-0.096889,0.354307,0.141491,0.015222,-0.278362,-0.222001,},

	{-0.221172,-0.053144,0.431915,-0.218117,-0.066022,0.164467,-0.237186,0.338885,-0.253502,-0.087109,0.267435,0.175932,-0.150274,-0.086864,0.005043,0.254478,0.442044,-0.458923,0.155797,0.099913,0.012747,-0.001592,-0.288656,0.051395,-0.247758,-0.082546,-0.017052,0.141945,-0.080017,0.287612,-0.002410,-0.137921,-0.021115,0.231591,0.106097,-0.118178,-0.047334,0.010060,0.088647,0.106760,0.216997,-0.400920,-0.252369,0.160222,0.148021,0.025028,-0.087149,-0.069349,-0.186819,-0.482885,-0.040197,0.057217,0.083044,-0.186264,0.215790,0.279298,-0.294148,0.376573,-0.013754,0.062867,0.244141,0.035513,0.166203,0.035597,0.101269,0.391591,0.034998,-0.285630,0.305587,0.185858,0.163566,-0.099725,-0.173982,0.080877,-0.064740,-0.345995,0.565537,-0.068693,0.119129,-0.189609,-0.117185,-0.364938,0.125030,-0.176481,0.152435,0.259418,0.170418,0.354649,-0.131190,0.416157,0.255366,0.335509,-0.201001,0.319798,0.042153,-0.436637,0.206207,0.024474,0.022273,0.397474,0.163158,-0.023560,-0.016233,-0.222372,0.012287,0.158754,0.203830,-0.341532,0.117358,-0.031086,0.166882,-0.123253,-0.089574,0.065332,-0.032000,-0.203790,0.073989,0.134192,-0.015020,-0.174207,},

	{-0.055795,-0.139891,-0.224842,0.147210,-0.004684,-0.028214,0.004536,-0.250900,0.039385,0.157391,-0.087678,0.223188,-0.056346,0.091081,-0.034474,-0.234633,0.128427,0.171666,0.120637,0.242064,-0.163744,0.027088,0.354290,0.047225,0.009309,-0.138486,-0.398579,-0.062201,-0.073803,0.005076,-0.135976,-0.139030,-0.037255,0.186852,-0.197268,0.016374,-0.081940,-0.073328,-0.578918,-0.147686,0.191062,0.053163,0.059473,-0.130121,0.200878,0.200702,0.095283,-0.085282,0.328144,0.080466,0.238314,0.026297,-0.453124,0.525123,0.090735,-0.003460,0.079073,0.056124,-0.140489,0.220426,0.180809,0.051580,-0.051293,0.101562,-0.358484,-0.119441,-0.064970,0.240652,0.244182,0.276829,-0.157304,-0.174403,0.195165,0.044883,0.166012,0.117687,-0.070120,0.039732,0.047736,-0.221578,0.006281,0.377051,-0.214778,0.205226,-0.024401,0.208265,0.108384,-0.191301,-0.068653,-0.035795,-0.204579,-0.364030,0.023318,-0.049373,0.139233,0.423186,-0.099177,-0.146400,-0.099900,-0.391870,-0.176932,0.054941,0.025757,0.042575,-0.300161,0.071394,-0.085712,-0.309782,0.234935,0.041339,0.198976,-0.311575,0.061286,0.058397,0.205586,0.095750,0.271724,0.562024,-0.046102,0.177301,},

	{-0.064610,-0.172891,-0.060900,0.171635,-0.345921,0.058704,0.037878,-0.001551,-0.024756,-0.204791,-0.268627,-0.067836,-0.308244,0.396575,-0.209120,0.118407,-0.116542,0.226971,-0.122617,0.257862,-0.229529,0.145279,0.092444,0.167097,-0.158781,0.063953,-0.017679,0.219324,0.257773,-0.202214,0.111701,0.033824,0.175440,-0.127888,0.133773,-0.206378,0.050272,0.141177,-0.229369,-0.178671,-0.219561,0.172801,0.136716,-0.322319,0.020415,-0.037740,0.341001,-0.042077,-0.130949,-0.221370,-0.027448,0.302850,0.159782,0.553227,-0.178666,-0.347263,0.184824,0.065820,0.009578,0.344509,0.162005,-0.193180,-0.042387,-0.015581,-0.180882,-0.053230,-0.028715,-0.343530,0.123834,-0.066165,-0.209909,-0.212748,0.163841,0.020930,0.048271,0.246937,0.245306,0.540765,-0.020255,0.024719,0.042403,0.203745,0.039893,-0.057655,-0.267682,0.206909,0.098422,-0.066656,-0.286739,-0.056820,0.007053,-0.409112,0.019666,-0.182446,0.085661,0.087759,0.180982,-0.152424,-0.097337,-0.070694,-0.240958,0.250069,0.081781,0.011819,-0.000085,0.172151,-0.080339,-0.117258,0.253291,0.187805,0.168489,-0.527747,-0.038144,0.085913,0.077114,0.040595,0.129121,0.308596,0.273480,0.186603,},

	{0.192016,0.057656,0.069586,0.166589,-0.003420,0.069373,0.420116,-0.067028,-0.092112,-0.169491,-0.040536,0.101635,-0.044005,-0.243993,-0.016972,-0.095241,-0.112179,-0.120006,-0.199587,0.210234,-0.091093,0.142288,-0.324465,-0.179495,-0.118387,-0.088322,0.143230,-0.083832,-0.178031,0.451280,0.026085,-0.130294,0.289260,0.257040,-0.035546,-0.212032,0.159903,-0.064574,-0.219125,0.104897,0.300853,0.209242,-0.261322,-0.506875,0.163806,0.194678,-0.127571,0.060114,-0.049484,0.272024,0.003943,-0.250833,-0.356576,-0.405295,-0.051576,-0.074086,0.192206,-0.080400,0.013375,-0.566929,-0.003307,0.177332,0.104128,-0.287939,-0.030185,-0.155538,-0.008887,-0.107272,0.387689,-0.168180,0.005747,-0.166689,-0.022266,-0.088748,-0.165455,0.073925,-0.089691,-0.455215,-0.124002,-0.131674,-0.264860,0.007024,-0.090948,-0.057234,-0.292101,0.031821,-0.042441,-0.347233,0.166859,-0.194845,-0.051822,0.024209,0.034414,0.376051,0.003872,0.048876,-0.330360,0.370889,-0.290770,-0.122897,0.089295,0.028190,-0.171425,0.035669,-0.560458,0.273937,-0.250727,-0.273320,0.047988,0.026958,0.057839,0.204923,0.039169,-0.242636,0.018056,0.465853,0.357100,0.155613,-0.045281,0.013842,},

	{0.038827,-0.038665,-0.112565,-0.090071,0.503712,-0.061362,-0.206171,-0.096761,0.261807,-0.015574,-0.267156,-0.070454,-0.033114,-0.239692,0.329411,-0.106588,-0.283599,-0.231013,0.200961,0.020723,0.578861,0.039051,0.008293,0.077064,0.567194,-0.176133,-0.146455,-0.169512,0.111973,0.258089,0.108847,-0.007157,-0.286361,0.120622,0.072276,-0.018032,0.154594,0.158901,0.239360,-0.030989,0.132311,0.198024,0.259433,0.331822,-0.016927,-0.126551,0.354395,0.287833,-0.045926,-0.310662,-0.038883,-0.204851,-0.294229,-0.235313,0.062503,-0.056986,-0.104758,0.059161,0.066330,-0.139356,0.350102,-0.021997,-0.188839,0.314998,-0.236756,-0.190897,0.058906,0.026343,-0.042041,0.089051,0.019599,0.238841,0.482081,0.176998,-0.199696,-0.245033,-0.054983,0.138860,0.184706,-0.217323,-0.251794,0.283233,0.085547,0.163575,0.140149,-0.074262,-0.151134,-0.085890,-0.080537,-0.017933,-0.132122,0.059561,0.142452,0.029719,0.176933,-0.013031,-0.095990,-0.188039,-0.232501,-0.093439,0.426795,-0.192864,0.287732,-0.116594,0.041643,0.281102,-0.180248,0.078330,0.387904,-0.293221,-0.067750,-0.478726,0.290156,0.023808,0.001992,-0.189725,0.309213,-0.072337,0.052959,0.235962,},

	{0.163048,0.186281,0.145167,0.160053,0.032581,-0.057296,0.353412,-0.250436,-0.254669,0.075790,-0.241817,-0.413310,0.341025,-0.039813,0.068860,0.058644,-0.166027,-0.238533,-0.036234,-0.232712,0.312011,0.146110,-0.334504,-0.046095,0.290146,0.186228,-0.189777,-0.217656,0.273027,0.233332,-0.024472,0.055245,-0.109108,-0.073681,0.167091,-0.041868,0.156139,-0.269242,0.069765,-0.050907,0.222968,-0.210190,0.056275,-0.090901,-0.039902,0.104156,-0.014114,-0.074594,0.152860,-0.115405,-0.342725,-0.099584,-0.168122,-0.269899,-0.124425,0.260912,-0.201098,0.024264,-0.031130,-0.062169,0.032187,0.153863,0.061860,-0.156298,0.460000,-0.122097,0.247753,-0.010116,-0.202730,-0.050520,-0.200866,0.169527,-0.005098,-0.154033,-0.088393,-0.445979,0.195501,-0.115049,-0.355483,0.022761,-0.179147,-0.223729,0.367551,-0.048443,-0.057622,-0.180494,0.199962,-0.119765,-0.054532,-0.319470,0.168286,-0.058917,0.232621,0.049295,0.080399,-0.571103,-0.082181,0.317440,0.382077,0.257029,0.143417,-0.087299,-0.140968,-0.221227,-0.052746,-0.132380,-0.044586,0.125206,-0.284268,0.242014,-0.040760,0.306830,0.337842,-0.001998,-0.487753,-0.046743,-0.197627,-0.300448,-0.220153,0.187140,},

	{-0.229162,0.113270,0.026604,-0.072844,0.102878,-0.015454,-0.096535,0.389754,0.140906,0.204648,0.328661,0.034221,0.119501,-0.348046,-0.195889,0.023748,0.089938,-0.203108,0.120195,-0.189494,0.247082,-0.138598,-0.089946,0.486694,-0.108822,-0.317905,-0.163210,0.124972,0.079325,0.284830,-0.342639,-0.028304,0.254032,0.130905,0.295743,0.186293,-0.325016,-0.076402,-0.104904,-0.077234,0.374326,-0.120024,-0.085387,0.193562,0.025323,-0.093701,0.144196,0.215253,-0.165191,-0.291102,0.188624,-0.140851,-0.281947,-0.049593,-0.135739,-0.078704,0.105851,0.180403,-0.351005,-0.049791,0.177928,0.070780,-0.061982,-0.196413,-0.062082,-0.053922,0.007432,0.215429,-0.121260,0.225593,-0.280626,-0.156538,0.312477,-0.015065,-0.280652,0.463053,-0.079095,-0.196035,-0.031436,-0.361050,0.151363,-0.042305,-0.104814,-0.140341,0.358469,-0.003338,-0.138064,0.126981,0.015598,0.031470,-0.023499,0.070959,-0.348616,0.255456,-0.013691,0.151609,0.540736,-0.176124,-0.107639,0.006523,0.027019,-0.497057,-0.322683,0.077166,-0.047668,-0.303590,0.224544,-0.135242,0.242316,-0.040539,-0.247750,-0.388938,-0.448330,0.178691,0.044296,0.229165,0.323841,0.267926,0.318137,-0.245365,},

	{-0.400757,-0.058948,-0.186731,-0.136967,0.292679,-0.392182,0.067682,-0.043482,-0.136177,0.161529,-0.090353,-0.232055,0.038689,0.065341,0.101037,0.287250,-0.094888,0.214199,0.228432,-0.051950,-0.156215,-0.013914,0.457083,-0.223547,-0.103918,-0.100033,0.133438,-0.358437,-0.281401,-0.003631,-0.387098,-0.215373,0.284777,0.258590,-0.345017,-0.248786,-0.036085,-0.146200,-0.009499,-0.125415,-0.074236,-0.193026,0.188977,0.480267,0.111406,0.019255,-0.127354,0.183127,-0.116638,-0.196489,-0.030727,-0.198518,0.368654,-0.007615,-0.046682,-0.164574,-0.207161,0.359579,0.203388,-0.066160,0.397753,0.209979,-0.199005,0.435403,0.012457,-0.254628,0.070773,-0.059502,0.209096,-0.331597,0.191348,-0.025365,0.135467,0.242365,-0.006239,0.069705,0.204846,0.160418,-0.060449,-0.232428,-0.264077,0.170538,0.109700,0.168861,-0.045883,-0.296833,-0.129732,-0.274085,-0.015086,0.097818,0.163753,0.004118,0.192418,-0.179779,0.323606,0.225301,-0.169632,-0.182336,-0.024013,-0.042575,0.147019,0.030904,-0.084317,0.010993,0.281741,-0.241338,0.239879,-0.054523,0.410194,0.052175,0.147881,0.071972,0.152450,0.004565,-0.048359,0.004061,-0.321642,0.148019,-0.354675,0.016110,},

	{0.187183,0.033653,0.510744,0.094669,-0.218192,0.028205,0.021613,0.052311,-0.120796,-0.137138,-0.081130,-0.132849,0.044858,-0.033709,-0.414453,0.021191,0.025811,-0.049273,0.161316,0.041416,0.046464,0.058546,-0.027424,0.069276,-0.313486,-0.357394,0.210756,-0.329344,0.102107,0.283930,0.035961,0.111136,0.155485,-0.109404,0.053762,0.141086,-0.021869,0.319129,0.099981,0.370783,0.490993,-0.198869,-0.275437,-0.036444,0.002708,0.177183,-0.193128,0.107217,0.001932,-0.179764,-0.171383,0.030255,-0.226584,-0.433840,-0.078677,-0.089736,-0.155228,0.113940,0.038690,-0.369127,-0.034476,-0.034223,-0.080481,0.135239,0.173300,0.145004,0.101713,0.030994,0.056004,0.036971,0.216865,-0.352315,0.117102,-0.255920,-0.026063,-0.376655,0.051944,-0.275128,-0.273523,0.176492,-0.006034,-0.313432,-0.106673,-0.026159,0.043203,0.202846,-0.137653,-0.338092,0.395862,0.145263,0.067026,0.195752,0.293130,0.199116,0.044088,-0.145014,0.049055,0.407208,0.111492,0.139986,0.122212,0.211085,-0.089873,0.018720,-0.461765,-0.070806,0.125676,0.271858,0.158426,-0.214447,0.135020,0.065626,0.197054,-0.239505,0.054581,0.229290,0.431990,0.342326,0.007485,-0.075524,},

	{0.077604,0.109856,0.014992,0.057378,-0.180574,0.132451,0.062297,0.259308,0.109792,-0.180983,-0.136538,-0.537541,0.236051,0.229081,0.029548,0.187405,0.048731,-0.001269,-0.173244,-0.242888,-0.090528,-0.130134,-0.140757,-0.023770,0.083260,-0.244845,0.068223,0.122778,0.107396,-0.146337,-0.038624,-0.085962,0.124235,0.119562,-0.002132,0.191354,0.062466,-0.295954,0.116764,0.110577,0.071461,-0.313098,-0.326884,-0.152075,-0.198303,0.197027,0.366499,0.166410,0.014721,-0.135639,0.018255,0.194682,0.378242,-0.057376,0.084073,0.168490,-0.297594,0.283840,0.158381,-0.053658,0.375780,-0.279158,0.221480,-0.370455,0.297442,-0.062211,-0.019835,-0.255842,-0.039413,0.055806,0.183521,0.197207,0.116298,-0.045418,0.345598,0.334074,0.298097,-0.166227,-0.033980,0.369771,-0.157994,-0.133275,0.168980,-0.171712,0.218388,-0.292645,-0.060536,-0.146442,-0.456883,0.166779,0.270141,0.103801,-0.121735,-0.164021,0.117908,-0.147182,0.054016,0.333858,0.374900,0.022845,-0.128412,-0.047105,-0.457820,-0.215346,0.138916,0.254649,0.113841,-0.008522,-0.047390,-0.165886,0.233296,0.150032,0.448376,-0.237886,-0.019589,0.159749,-0.103035,-0.173929,0.021598,-0.175510,},

	{0.126980,-0.123126,-0.001923,-0.141277,0.117048,-0.033695,-0.038217,0.111416,-0.204208,-0.075758,-0.179331,-0.147307,0.120059,-0.167950,-0.359491,-0.002153,0.143465,0.002207,0.449734,-0.113836,-0.351971,0.137970,0.327232,0.046615,-0.125874,-0.138583,-0.255760,-0.308011,-0.255189,-0.023450,-0.189409,0.086909,0.506310,-0.024872,0.019184,0.063085,-0.120418,0.010464,-0.221106,0.178173,0.566177,0.239418,0.168931,0.291035,0.523937,0.004528,0.021019,0.249024,-0.086062,-0.331799,0.234742,0.044006,0.063894,0.192184,0.110780,0.158514,-0.224113,0.316843,-0.086146,-0.205665,0.288902,-0.243356,0.144137,0.093848,-0.004597,-0.244803,-0.363520,-0.282881,-0.021410,-0.012572,-0.035345,-0.219078,0.439035,-0.113926,-0.026835,-0.316715,0.063913,0.172301,-0.087189,-0.300516,-0.017722,0.005451,-0.089776,0.258604,-0.017236,-0.020643,-0.069068,-0.108420,0.224330,0.143000,-0.126031,0.246372,0.107140,0.403435,-0.084078,-0.022718,0.001718,-0.045478,-0.052831,-0.254874,0.253354,-0.015790,0.149611,-0.066393,-0.204086,0.370247,-0.145196,0.019297,0.288872,0.149739,0.204321,-0.268640,0.090587,-0.174920,-0.086119,0.131940,0.348698,-0.031628,-0.162775,-0.186116,},

	{0.306209,-0.224332,-0.110622,0.031420,-0.134597,0.247730,0.123411,-0.181484,-0.170612,-0.332590,-0.127129,0.123136,0.352100,-0.031885,0.119318,-0.179857,-0.019765,0.333660,-0.258562,-0.297591,0.324246,0.025154,-0.172604,0.023917,0.409749,0.266040,0.114124,-0.223793,0.205618,-0.310550,0.090668,0.285455,-0.273858,-0.234424,0.243410,-0.173597,0.117491,0.231112,-0.065251,-0.211144,0.121998,0.036277,0.119586,-0.019436,0.056698,-0.086049,-0.178401,-0.252389,0.351126,0.305949,-0.028470,-0.072263,-0.091826,0.203573,-0.149091,-0.164611,-0.183030,-0.375461,0.098074,0.015471,0.218286,0.099381,0.488461,-0.191901,-0.050396,-0.140735,0.044374,-0.081901,-0.217026,0.273999,-0.022499,-0.248439,0.202738,-0.198253,-0.167231,-0.047411,-0.196809,0.001146,-0.177390,0.121080,-0.305610,0.039280,0.320744,-0.476117,-0.372205,0.142479,0.081768,0.148418,-0.284194,-0.132936,0.059212,-0.355967,0.059896,-0.066992,0.093892,-0.029912,-0.314246,0.326769,0.418136,0.079213,-0.041108,0.260887,-0.225117,0.301969,0.244488,-0.086941,0.411629,-0.103719,0.166736,0.173200,0.095329,0.303535,-0.214045,-0.402172,-0.302056,0.201944,-0.343488,-0.264648,-0.151348,-0.071037,},

	{-0.102654,0.087231,0.165434,0.233889,0.113511,-0.094468,0.055927,-0.075829,-0.354528,0.152671,0.233398,0.222870,-0.131115,-0.073258,0.046309,0.113111,0.332193,0.106253,0.213243,0.070329,-0.015452,0.033041,0.110404,0.328066,-0.325396,0.487299,0.059543,-0.214142,-0.171053,0.303813,0.058450,0.023068,0.043507,-0.164609,0.221412,0.088315,-0.276421,0.235723,-0.196551,0.007548,0.341102,-0.086975,-0.080274,-0.143887,0.307743,0.189041,-0.220648,0.176078,-0.302669,-0.002263,0.002611,-0.036652,-0.140952,-0.150857,0.021385,-0.000905,-0.156603,-0.380752,0.123554,-0.339374,-0.233271,0.162759,-0.011724,0.021860,0.201232,-0.033017,-0.175775,0.089020,-0.026767,0.011769,-0.233848,-0.091628,-0.200568,0.244180,-0.192777,-0.273193,-0.039541,-0.158066,0.046411,-0.175676,-0.103604,-0.080620,-0.087274,0.071593,-0.011142,0.030466,0.073709,0.060892,0.570606,0.112586,-0.064497,0.093658,-0.139370,0.170685,-0.249189,0.117286,-0.160421,-0.284756,-0.104256,0.019047,-0.054514,0.112434,0.009949,0.139218,-0.364254,-0.368811,0.172292,-0.112358,0.153350,-0.020175,-0.018352,0.469110,-0.289885,0.399331,-0.111000,0.232458,0.220577,0.322429,0.289075,-0.252325,},

	{0.048556,-0.140997,0.118083,0.362121,0.195217,0.070031,0.101879,0.211201,0.105108,0.008014,-0.070574,-0.198880,-0.232121,0.058520,-0.004424,0.199850,-0.190017,-0.308240,0.047234,0.071625,0.262474,-0.063580,-0.029240,-0.064899,-0.245486,0.166358,0.420421,-0.116297,-0.027105,0.003616,0.269912,-0.177178,0.303907,0.155044,0.026916,0.165472,-0.117459,-0.108290,-0.155689,0.315141,0.366408,0.214217,-0.091831,-0.337449,0.047120,-0.033607,-0.195763,-0.299375,-0.109537,-0.398530,-0.039934,-0.315326,-0.402373,-0.258419,0.241050,0.085687,0.125512,-0.011418,0.063190,-0.125397,-0.074763,-0.291951,0.161569,0.033630,0.210785,0.033633,0.112412,-0.390165,-0.053991,-0.354173,0.082716,-0.188706,0.041901,-0.189251,-0.097831,0.055120,0.107187,-0.238711,0.016158,0.202107,-0.296397,-0.153058,-0.120941,-0.042476,0.090115,-0.026348,0.040142,-0.220913,0.081939,0.047152,-0.063136,0.380580,0.218222,0.240907,0.245618,-0.005644,-0.088041,0.301004,-0.310952,0.081410,0.074234,0.177403,0.135484,-0.046385,-0.171205,0.572260,0.030369,0.069744,0.031590,0.127837,-0.211662,0.292411,0.238451,-0.279980,-0.104092,0.181777,0.142716,0.237377,0.087711,-0.089095,},

	{0.014388,0.245825,0.126494,0.291345,-0.080348,-0.238347,-0.082119,-0.026534,0.228198,0.252701,-0.239918,-0.364728,0.013156,0.013615,-0.026989,-0.041647,-0.057983,-0.169608,0.248175,-0.098696,-0.090669,0.082854,-0.020423,0.107070,-0.100504,-0.496326,-0.123901,0.104157,0.028109,-0.061566,0.045339,0.038193,-0.184504,0.234572,-0.135818,-0.295598,-0.148400,-0.273896,-0.058539,0.173591,0.128329,0.029177,-0.139521,-0.074756,-0.085312,0.053312,0.353134,0.045813,-0.223979,-0.469974,-0.122882,0.069090,0.033796,-0.066478,-0.032873,-0.139499,-0.176506,-0.051118,-0.283877,0.004502,0.175218,-0.244010,-0.060007,-0.262132,-0.189056,0.067464,0.259369,-0.206352,-0.090352,-0.289152,-0.035039,-0.076150,0.295426,-0.322763,-0.085015,0.107129,0.173814,-0.182470,-0.161382,-0.123903,-0.049739,-0.075019,0.070101,-0.031480,0.151414,-0.299521,0.162559,-0.273562,-0.102842,-0.131971,-0.243495,-0.132860,0.090024,-0.061549,0.443104,0.261921,0.188810,0.076537,0.216324,-0.214470,-0.172939,-0.139949,-0.208635,-0.318439,-0.091028,0.124810,-0.038219,0.225348,0.199629,0.284842,0.180583,-0.441273,0.639880,0.306300,0.097879,0.231212,0.077356,-0.035074,0.185780,-0.265875,},

	{-0.200308,0.118996,-0.322539,-0.042907,-0.155896,0.034221,0.240142,0.306996,0.088432,0.046145,-0.185277,-0.126092,0.196605,0.220364,-0.084218,-0.005985,0.109286,0.128048,-0.006540,-0.017807,0.099219,-0.008096,0.028900,0.199184,-0.249489,0.127411,0.205125,-0.034665,-0.326836,-0.366445,-0.213954,-0.126599,-0.086543,0.169956,-0.041912,0.127319,0.019340,-0.117862,0.415481,0.088790,-0.030207,-0.026202,-0.093557,-0.303240,-0.100180,0.006528,-0.205078,0.000020,0.066985,0.143337,0.651159,0.223591,0.106633,0.091492,0.353463,-0.213648,0.018551,0.218265,-0.225732,-0.196240,-0.077947,-0.215827,0.344868,-0.300977,0.220399,0.403944,-0.031317,-0.205239,0.089831,-0.165495,-0.006824,0.036948,-0.102120,-0.026542,0.106054,0.405781,-0.105874,0.067829,0.154100,-0.048960,-0.132054,-0.035474,-0.016324,-0.154875,0.066491,-0.104576,-0.029962,0.208250,-0.135433,0.323655,0.032011,-0.194251,-0.464103,-0.176865,0.050820,0.499316,0.153021,-0.013174,0.022381,-0.235820,-0.180379,-0.040254,-0.348686,0.078723,0.207101,-0.342211,0.231852,-0.250085,-0.290705,-0.380330,0.275638,0.064440,-0.107674,0.148817,0.067570,-0.171160,-0.096486,-0.019028,0.089070,-0.003391,},

	{-0.273641,-0.295113,-0.355623,0.238482,-0.129734,-0.077142,-0.278317,-0.175958,-0.193902,0.012286,-0.036273,-0.092943,-0.267368,-0.006079,0.241200,-0.042953,-0.081459,-0.187577,0.062698,-0.086610,-0.286334,0.135058,0.304050,0.163564,-0.070803,0.162241,0.353044,0.259101,-0.067293,-0.103151,-0.065232,-0.093690,-0.020701,0.115815,0.223119,-0.217672,-0.216806,-0.225938,-0.099797,0.147110,-0.125967,-0.055799,0.007425,-0.002099,-0.326659,0.117908,0.214337,-0.363939,-0.098565,0.130746,0.075774,0.060130,0.128456,0.219470,-0.002824,-0.312204,-0.032801,-0.247146,-0.131475,-0.162525,-0.027770,-0.043533,0.061229,-0.188177,-0.216642,0.372074,0.508821,-0.133813,-0.082485,-0.172023,-0.470713,-0.296139,0.017781,0.229708,-0.067182,0.294502,0.068571,0.050037,0.062177,0.161068,-0.128573,-0.138652,0.045949,-0.203685,-0.124952,0.000770,0.385250,0.183626,-0.166629,0.214884,-0.172045,-0.505888,-0.496108,-0.070653,0.126998,0.313853,0.068818,0.020268,0.181820,-0.246906,0.117046,-0.138573,-0.083392,-0.129173,-0.033200,-0.506239,-0.217853,-0.207901,0.119172,-0.007775,0.073618,0.149350,-0.070462,0.326021,-0.095649,-0.080469,0.039715,-0.016597,0.189703,0.108877,},

	{0.049510,0.110208,-0.152994,-0.069135,-0.299115,0.379986,-0.035730,0.060181,0.054222,-0.133607,0.267612,0.245901,-0.038151,0.256543,0.076755,-0.178843,0.077220,-0.086097,-0.173403,0.130179,0.346218,0.091198,-0.095486,0.280815,-0.337603,0.243885,-0.236028,0.400991,0.048779,0.010120,-0.019374,0.330196,-0.077743,-0.276113,0.181592,0.304386,0.018034,-0.052030,-0.116818,-0.295136,-0.276552,-0.176207,-0.305696,-0.139912,0.034568,-0.036264,-0.135410,0.172720,0.258731,0.088370,-0.207208,-0.096930,-0.429370,0.078814,0.118729,0.366961,0.162112,0.065949,-0.157299,0.013976,-0.195610,-0.017654,0.261952,0.094049,0.297882,0.169799,-0.081375,0.273501,0.109972,0.245272,-0.018035,-0.262047,0.150295,0.161526,-0.059541,-0.404717,-0.310278,0.147933,-0.069018,0.095866,0.246234,-0.001418,-0.360288,-0.281562,0.135711,0.169542,-0.079936,0.192384,0.220823,-0.166676,0.177693,-0.050473,0.005580,0.159692,-0.367315,-0.220885,0.583405,-0.027417,-0.141667,0.008561,-0.070410,0.102823,0.146040,-0.033506,-0.257472,-0.185221,0.164531,-0.167438,-0.170241,-0.309145,-0.137981,0.127409,-0.144017,0.148871,-0.175601,-0.208480,0.053820,-0.211333,0.188944,0.021844,},

	{-0.302908,-0.334830,0.171456,0.232047,0.296104,-0.194379,-0.044475,0.016036,-0.121553,0.215007,-0.062918,-0.341314,-0.285785,-0.271619,0.105602,-0.039641,-0.225443,-0.094114,0.094434,-0.281142,-0.053165,0.039404,0.261829,-0.286576,0.338748,-0.055702,0.104729,-0.011989,-0.078612,-0.110897,0.015882,-0.367676,0.219428,-0.039095,0.070740,-0.300740,0.030407,-0.284238,-0.402725,-0.081578,-0.123078,0.151629,0.069826,0.319399,-0.216333,0.183413,0.532832,0.004732,-0.022565,-0.089198,0.097505,-0.185000,0.417248,0.067107,-0.108864,-0.505207,-0.171767,-0.139328,0.077610,-0.076783,0.213991,-0.117461,-0.072130,-0.150330,-0.455576,-0.361450,0.315819,-0.065696,-0.157041,-0.187236,-0.229082,0.084476,0.113389,-0.076281,-0.204489,0.173280,0.177473,-0.083877,0.080219,-0.023073,-0.059877,0.160113,0.088628,0.118597,-0.132482,-0.306825,0.006051,-0.251154,-0.184973,-0.155462,-0.173726,0.017165,0.040958,-0.118193,0.418156,-0.066947,-0.123747,-0.121858,0.109281,-0.182866,-0.026615,-0.057177,0.164680,-0.073078,0.145623,0.142551,-0.444256,0.269826,0.110048,0.084992,-0.072883,-0.023560,0.192020,-0.022211,0.149633,0.191934,0.166604,0.021306,-0.083860,-0.122594,},

	{0.251690,-0.006910,0.149371,-0.078944,0.195849,0.024605,-0.460892,-0.158506,0.220174,0.224313,0.012767,0.250784,-0.242921,0.193485,0.453073,-0.016345,-0.068758,0.126602,-0.182551,0.367136,0.433548,-0.165717,-0.061917,-0.048559,-0.030942,0.198968,-0.274498,0.117709,0.219143,-0.000195,0.257267,0.023024,-0.381940,0.044865,0.130041,0.191276,0.003963,0.046322,0.172312,-0.177376,-0.178957,-0.046431,0.289611,0.092017,-0.453442,-0.384252,0.119182,-0.039146,-0.030837,0.173267,-0.365556,-0.105622,-0.061033,0.171235,0.206873,0.002042,0.058534,-0.283069,-0.298282,0.267045,-0.180546,-0.085065,0.039784,0.036660,0.159570,-0.149748,0.279595,0.196496,-0.063035,-0.085907,0.008969,0.074244,0.208972,0.204187,0.019726,0.109012,-0.554373,0.201842,0.357605,-0.101356,0.105563,-0.023805,-0.178177,-0.002362,0.077615,-0.124592,0.188509,0.036647,-0.117076,-0.043086,-0.209465,0.060747,0.247547,-0.205805,-0.210733,-0.177599,0.265787,0.088232,0.043559,0.230929,-0.118909,-0.053790,-0.045711,-0.196344,0.257937,0.188394,-0.117957,0.076855,0.091866,-0.038499,-0.537843,0.002029,-0.002962,0.281111,0.085647,-0.065707,-0.150357,0.027313,0.420553,0.218391,},

	{0.079436,-0.368244,-0.140860,0.096587,0.187747,-0.195665,-0.159160,-0.187120,-0.102311,0.377527,0.020259,-0.103147,-0.087196,-0.087087,-0.089897,-0.103320,0.080192,0.177003,0.367793,-0.158858,0.130712,0.182915,0.026220,-0.130358,0.031497,-0.124102,-0.037006,-0.056384,0.221192,-0.207084,-0.013330,0.108196,-0.009355,0.016473,-0.092189,-0.139029,0.294217,0.013703,-0.317982,-0.022675,-0.218279,-0.010456,-0.002967,-0.114331,-0.021928,0.013684,0.346126,-0.297790,0.312706,-0.423187,0.052695,0.136929,0.081238,0.431730,-0.057024,0.118213,-0.131918,-0.008161,-0.264840,0.162722,0.066628,0.069547,-0.017877,0.090196,-0.303901,0.122145,0.124423,-0.088374,0.213961,0.228482,0.129284,-0.096212,0.259138,-0.046974,0.085289,-0.249558,0.219844,-0.160341,-0.036185,0.154942,0.097536,0.156240,0.004425,0.008397,-0.196330,0.019668,0.521364,-0.165474,-0.368686,0.137941,-0.244815,-0.056163,0.219097,-0.297218,0.126373,0.373217,-0.022293,-0.061515,-0.053836,0.022427,-0.192283,0.100902,0.299973,-0.486004,0.373824,-0.008629,-0.102758,-0.395777,0.206694,0.303091,0.185981,-0.178016,0.162204,0.050880,-0.144280,-0.122452,0.061279,0.347585,0.079682,-0.176928,},

	{0.066340,-0.472915,-0.103470,-0.049598,-0.424375,-0.052888,0.030233,-0.037802,0.145599,-0.027540,-0.054688,-0.340163,0.041516,0.134409,0.052317,-0.071914,0.142518,0.114275,-0.187032,-0.329968,0.048346,0.173178,-0.059164,-0.013792,0.279324,0.080212,0.059947,-0.073963,0.074454,-0.261388,0.068981,0.275688,-0.078017,-0.162905,-0.197011,-0.436747,0.027372,0.462495,-0.029891,-0.021695,0.027519,0.263208,-0.001723,0.014072,0.242567,0.237484,-0.089857,-0.086182,-0.099570,-0.279467,0.043036,-0.054070,0.112922,0.332475,-0.150698,-0.043197,-0.034179,-0.201655,0.069028,-0.030829,0.237600,-0.120236,0.193364,-0.516778,-0.058165,0.158706,0.104070,-0.270139,-0.158418,0.023800,-0.119358,0.001804,0.203376,-0.077811,-0.231213,-0.034875,0.183386,0.295752,-0.016165,-0.018725,-0.272348,-0.074183,0.378768,0.033895,-0.200392,0.100320,0.091457,-0.183280,-0.414812,0.287143,-0.225525,-0.429495,-0.217205,-0.149067,0.100686,0.105187,-0.129565,-0.217663,0.273073,-0.117368,-0.314188,0.101727,-0.117023,0.313758,-0.018487,0.061791,0.129411,0.202890,0.434291,0.491466,0.141168,-0.058164,0.003759,-0.311096,-0.175683,0.379278,-0.005130,-0.167768,0.088507,-0.207243,},

	{-0.047812,0.175148,-0.136220,-0.161144,0.417156,-0.341955,-0.065925,0.143924,0.183831,0.203594,-0.056567,0.371906,0.280039,-0.092547,0.065851,-0.049282,-0.148585,0.124479,-0.325664,0.284722,0.195254,-0.078147,0.070161,-0.277544,0.240027,0.278330,-0.024654,-0.212841,0.158691,0.214663,-0.124521,-0.276804,0.198979,0.031807,-0.116686,-0.035305,-0.285008,-0.075080,0.092975,-0.399142,0.008184,-0.238535,0.092380,0.495803,-0.222570,-0.297250,-0.209157,0.225749,0.201286,0.207992,-0.334452,-0.051255,0.172337,0.094795,0.106944,0.288864,0.064298,0.381712,0.290627,0.340187,-0.075911,0.351220,-0.101398,0.499472,-0.132184,-0.140833,0.006149,0.333430,-0.135603,-0.158043,0.048848,0.191522,0.062896,0.453187,-0.032663,0.092950,-0.019692,0.113888,0.045883,-0.363978,0.017485,0.178534,0.045272,0.314077,0.163709,-0.160819,-0.040028,0.044431,0.186526,0.154112,0.040239,-0.170248,0.328131,0.106978,-0.202387,-0.253141,-0.288681,-0.405977,0.034287,0.163357,0.347123,-0.141931,0.179066,0.432278,0.117130,-0.001381,-0.225805,0.142799,0.166518,-0.075486,-0.028144,-0.222818,0.083506,0.122651,0.094561,-0.068385,-0.191464,0.072670,-0.228971,0.425276,},

	{-0.180931,0.092406,-0.058598,-0.077187,-0.102813,-0.142459,0.061224,-0.095616,0.304067,0.338887,0.024130,-0.248637,0.144846,0.106883,-0.263844,0.155810,-0.368831,-0.010236,-0.146731,0.103488,0.000211,0.032390,-0.084423,-0.090477,0.016457,-0.286727,0.124449,0.133953,-0.223093,-0.340535,-0.217689,-0.014148,-0.229888,0.028196,-0.246264,0.166762,0.000587,-0.227327,0.162444,-0.197000,-0.029438,0.038563,-0.228286,0.187584,-0.438280,0.323197,0.217829,0.033813,-0.317478,-0.016093,0.181526,0.093168,0.317320,0.284014,0.127378,-0.096493,-0.028227,0.272101,-0.210988,0.192555,0.077655,-0.118941,-0.106346,-0.192062,0.031617,-0.261538,-0.056091,0.051624,-0.098627,-0.235762,-0.086482,0.207463,0.201528,-0.070062,0.209089,0.548116,0.093477,0.499656,-0.210305,-0.094421,0.115782,0.098897,0.073009,-0.080213,-0.002189,-0.066577,-0.151468,0.254671,-0.082282,-0.277509,-0.197602,0.086202,-0.138295,-0.104664,0.225389,0.222589,0.257800,-0.072662,0.214575,-0.083495,-0.437071,-0.002590,-0.384022,-0.197615,0.227799,-0.134818,-0.145663,0.188604,-0.039152,-0.040426,0.351827,-0.242998,0.150378,0.183739,-0.102619,0.001109,-0.079243,-0.228839,0.120405,0.077210,},

	{-0.034953,-0.192291,0.128714,0.182563,0.128589,0.037999,-0.082820,-0.127388,-0.382287,0.062568,0.258550,0.087471,0.056075,-0.268775,0.088248,0.073875,0.582487,-0.169355,-0.200203,-0.223944,0.185246,0.070032,-0.099561,0.355539,0.076216,0.193121,0.014370,-0.022099,0.069408,0.108775,0.016724,-0.223222,-0.377226,0.057610,0.285045,-0.164432,0.304645,0.309449,-0.238650,-0.348311,0.190197,0.090700,-0.253651,0.070537,0.006253,0.314190,0.143628,-0.079142,0.026384,0.026299,0.271779,0.191392,-0.138776,-0.129593,-0.098273,-0.245692,-0.073460,-0.155491,-0.143669,-0.394461,0.033999,0.217977,-0.236915,0.213401,0.050023,0.150285,0.188078,0.168791,0.139081,0.095012,-0.455951,-0.235027,-0.188983,0.228121,0.096262,-0.233013,0.053136,-0.151082,0.350269,0.004160,-0.218394,-0.243717,-0.121177,-0.290388,0.038820,0.116272,0.335411,-0.228253,-0.267038,0.003230,-0.011948,0.049578,-0.292831,0.122569,0.169632,-0.246688,0.282519,0.275908,0.335516,-0.064760,0.267574,-0.119257,-0.098536,-0.480870,-0.138447,-0.207802,-0.232955,-0.354848,0.129130,-0.168446,0.180767,0.126395,-0.224379,0.110178,-0.097880,0.109345,-0.012309,0.062753,-0.053738,0.050008,},

	{0.341829,0.023861,0.023681,0.235223,-0.032741,-0.068108,0.066567,-0.316781,0.035990,-0.284447,0.099866,-0.119089,0.340998,0.066731,0.166810,0.010229,0.070453,-0.141963,-0.347015,-0.188053,0.137217,0.219452,-0.025633,0.038159,0.178685,0.056851,-0.423968,-0.250023,0.479592,0.232606,0.122322,-0.142131,-0.088111,0.051562,0.197103,-0.362036,-0.104071,0.411129,-0.284905,0.181485,0.167000,-0.155665,-0.000896,0.152361,-0.088102,0.144074,-0.336166,-0.056052,-0.342196,-0.029333,-0.110566,-0.312081,-0.419367,-0.052331,-0.059968,-0.261562,0.136347,0.019506,0.071623,-0.159629,-0.020354,0.150142,-0.140633,0.148584,0.185796,-0.107878,0.158306,0.147011,0.058860,0.116401,-0.039952,0.112549,0.011953,-0.138810,-0.255572,-0.136827,-0.122016,0.275721,-0.099531,0.227550,-0.060855,0.188366,0.224414,-0.328442,0.007978,-0.018718,-0.098997,0.169801,0.026331,-0.501528,0.255785,0.012493,0.142579,0.344162,0.012725,-0.261491,-0.220917,0.226097,-0.037786,-0.059768,0.176708,0.094630,-0.093171,-0.177770,-0.406439,0.143486,-0.218801,0.235346,0.119602,0.290297,-0.114137,0.148862,0.096335,-0.170998,-0.242634,0.089092,0.355021,-0.198821,0.242581,0.206343,},

	{0.126559,0.144202,0.224503,-0.204056,0.201019,-0.195181,-0.036335,-0.093309,-0.207268,0.394906,0.077874,0.324301,0.253519,-0.257787,-0.397327,-0.012261,-0.076239,0.312879,0.235417,0.410241,-0.111691,0.108866,0.385153,0.153762,-0.228089,-0.173117,0.082413,0.108351,-0.104371,0.108592,-0.183748,-0.212836,0.013804,0.054963,-0.004195,-0.063976,-0.286439,-0.074050,0.013042,-0.097520,0.129054,0.041358,-0.129160,-0.019530,0.037812,0.184712,-0.185734,0.511916,-0.160691,-0.075832,0.067077,-0.005639,-0.026088,0.203274,0.062628,-0.104475,0.153750,0.461245,-0.269373,0.283281,-0.128063,0.129815,-0.133834,0.374708,-0.014359,-0.035840,-0.085912,-0.016320,0.001536,0.051879,-0.191496,0.062237,0.210921,0.081178,-0.074144,-0.042615,0.055750,-0.018863,0.212880,-0.405796,0.131341,0.201066,-0.213833,0.291699,0.231208,0.264511,-0.323946,0.115395,0.341586,-0.174454,-0.424638,0.001142,0.231313,0.382969,-0.033125,0.102860,0.216272,-0.130577,-0.313029,-0.029950,-0.277197,-0.140879,-0.010272,-0.120216,0.097691,0.125965,-0.117728,0.468478,-0.009936,0.064641,-0.096411,-0.319849,-0.075774,0.402056,0.031480,-0.072638,0.062242,0.064664,-0.008627,0.120580,},

	{0.096719,0.038796,-0.104312,0.119832,-0.006176,0.133423,0.035206,0.168434,0.014568,-0.312580,0.098711,0.319604,0.132130,0.321032,-0.176371,0.077765,-0.056754,-0.295675,-0.324279,-0.081235,-0.122316,-0.034641,0.058491,0.170777,-0.047102,0.057133,0.339123,0.108446,-0.256160,0.059697,0.054842,0.233956,-0.153635,-0.354908,-0.075689,0.028108,-0.040137,0.239566,0.037153,0.106525,-0.089612,-0.050029,0.134501,-0.309360,0.288558,-0.209219,-0.235162,0.121915,-0.080269,0.113389,0.072479,0.005372,0.189097,0.194298,-0.018115,-0.108853,0.301615,-0.382040,0.204545,0.153863,-0.180776,-0.020665,0.242357,-0.431550,0.211406,0.461498,-0.073366,-0.170000,0.087983,-0.186301,-0.174345,-0.132962,-0.169207,-0.116182,-0.249020,-0.047012,-0.047170,-0.196502,0.240423,0.094598,0.061386,-0.084081,0.066217,-0.225282,-0.336342,0.120058,-0.307221,0.251429,0.209733,-0.118255,0.070320,-0.056220,0.067048,0.287895,-0.273446,0.225363,-0.008103,-0.157268,-0.139084,-0.124933,-0.448325,0.282437,-0.293235,0.439974,-0.437700,-0.011752,0.139156,0.114853,-0.087200,0.085783,-0.116923,0.328400,-0.443759,-0.073379,0.099730,-0.206184,0.291843,0.129956,0.250293,-0.296380,},

	{0.262974,0.111684,-0.187792,0.127960,-0.058123,0.174355,-0.098022,0.344364,0.061926,0.099827,-0.078119,0.358224,0.182733,0.047769,0.096626,0.000879,0.059851,-0.229559,-0.064770,-0.024030,0.041039,-0.087679,-0.472973,0.068694,0.051051,0.044634,0.108402,0.227554,0.262244,0.031180,0.257878,0.106347,0.229501,0.042049,-0.113213,0.042844,0.126431,0.337634,0.096383,-0.082490,0.121448,0.151150,0.187090,-0.307212,0.029477,-0.311960,-0.180527,0.193559,0.126421,-0.025738,-0.179545,-0.386343,-0.155896,0.018490,-0.010561,0.259250,0.074268,0.108461,0.410436,0.272970,0.143908,-0.188760,0.464994,0.033095,0.094940,0.104116,0.072580,0.046912,0.019117,-0.039865,0.558336,0.054405,0.252835,-0.273194,-0.139565,-0.271681,-0.243675,0.185553,0.022486,-0.105508,-0.037066,-0.018598,-0.040381,-0.248245,-0.025944,0.002698,-0.139763,-0.081806,-0.317622,-0.207298,-0.266553,0.215392,0.386267,-0.058489,-0.169632,-0.187664,-0.038051,0.202185,-0.166845,0.376730,-0.483733,0.059396,-0.251134,0.371216,-0.147680,0.538407,0.314521,-0.083395,0.131839,-0.267511,-0.123333,0.016368,-0.216143,-0.043749,-0.152415,0.328048,0.179467,-0.086284,0.336303,0.025128,},

	{-0.043354,0.168023,-0.002980,-0.197323,-0.262871,-0.047193,0.046617,0.196668,0.166439,-0.320425,-0.388274,-0.149303,0.303551,0.513737,0.022208,0.008295,-0.269129,0.316070,-0.154042,0.050418,-0.045193,-0.242963,-0.102706,-0.193481,-0.011205,0.048940,0.159333,0.011666,0.084343,-0.153788,-0.043886,-0.059769,0.118373,0.173726,-0.293712,0.128095,0.118096,-0.376321,0.219188,0.230904,0.252608,0.076208,0.242912,-0.164126,0.048110,0.146376,-0.284929,0.343100,-0.044552,0.331652,-0.118038,0.200181,0.289189,0.060474,0.476555,-0.205706,0.119688,0.452287,0.168197,0.041467,0.052523,0.058262,0.381996,-0.066328,0.193469,-0.082275,-0.037406,-0.042400,0.066281,0.023674,0.214538,0.130365,0.233006,-0.235988,0.297196,-0.035370,0.216374,0.394306,-0.168211,-0.003380,-0.010052,0.240787,0.150875,-0.057245,-0.005559,-0.211860,0.039599,-0.351369,-0.068194,0.196593,-0.253715,0.288927,0.208945,0.181343,-0.150910,-0.099831,-0.166264,0.220706,0.157921,0.122048,-0.130271,-0.112584,-0.395192,0.369134,-0.086659,0.281572,-0.051656,0.222713,-0.252728,-0.151995,0.129745,-0.118788,0.337970,-0.146016,0.167113,0.230944,-0.246498,-0.137569,0.105512,0.069554,},

	{-0.151163,0.214328,-0.163833,0.258634,-0.108741,0.201987,0.194892,-0.357942,-0.219741,0.035654,0.040551,-0.081069,0.322678,0.140035,0.035246,-0.334620,0.019415,0.027914,-0.228017,-0.007503,0.310256,0.109387,-0.206975,0.348611,0.286517,0.256185,-0.121736,0.201212,0.406035,-0.219308,0.294100,0.206836,-0.458883,-0.033405,0.129930,0.091896,0.395799,0.161554,0.016650,-0.195835,-0.170684,0.352643,0.050635,-0.329489,-0.190278,0.082679,-0.000354,-0.183040,0.073276,0.200554,-0.004781,0.187015,-0.196160,-0.118508,-0.082678,-0.233268,0.319763,0.162406,-0.074192,-0.187699,-0.125251,0.111719,0.050601,-0.344905,-0.167828,-0.119616,-0.096601,0.465349,-0.262196,0.206145,-0.139612,0.060760,-0.005599,0.036424,0.092363,0.425079,-0.214328,0.189744,-0.050993,0.321768,0.202280,0.167612,0.042699,-0.239194,-0.092292,-0.047662,0.297655,-0.039346,-0.177452,-0.255334,-0.134969,-0.284613,-0.018344,-0.393593,-0.184267,-0.211712,0.236841,0.086682,-0.026012,-0.265728,0.006305,-0.030997,0.316852,-0.058045,0.138509,-0.249600,-0.327136,-0.189340,-0.052040,-0.035731,-0.309942,0.155274,0.132825,0.150526,0.014607,0.053226,-0.312049,-0.342073,-0.036395,0.292249,},

	{0.209914,-0.199373,-0.139919,-0.138628,-0.039833,-0.059963,-0.221456,0.390438,0.252476,0.145874,-0.342389,0.041717,0.261706,0.106260,-0.433038,0.141921,-0.024296,0.048621,0.237635,-0.055674,0.043130,0.256769,-0.036091,-0.136870,-0.221005,-0.298741,0.260906,0.040174,-0.119928,-0.158392,-0.026225,0.000861,0.225204,0.167910,-0.211350,-0.017449,-0.297088,0.217954,0.269627,0.188346,0.390285,-0.164453,0.033007,-0.309137,0.015565,-0.050861,-0.073651,-0.041238,-0.034915,-0.289445,0.417538,-0.013334,0.211381,-0.103786,0.187376,0.001518,-0.305129,-0.093517,-0.204792,-0.054872,0.259669,-0.371825,0.226898,-0.244594,0.264591,0.041490,0.202171,-0.466561,-0.345720,-0.020342,0.062030,-0.150638,0.150231,-0.249844,0.244511,-0.003644,0.268910,0.091798,-0.072652,-0.060649,0.121141,-0.202654,0.010553,-0.180205,0.057988,-0.262412,-0.040920,-0.436426,-0.073636,0.069548,0.218577,-0.015750,-0.050864,-0.189416,0.333849,0.041495,0.080126,0.213338,-0.006082,0.056817,-0.511836,-0.248355,-0.361904,-0.195630,0.158406,0.285244,0.239429,-0.058155,-0.033621,0.204428,0.014724,-0.051740,0.218129,-0.102776,-0.029324,0.409178,0.180037,0.233420,0.094088,-0.264674,},

}