
{0.065406,-0.030470,-0.005986,0.039089,-0.224671,-0.026050,0.004517,0.143045,0.000316,-0.122027,-0.064855,-0.069509,-0.027385,-0.013727,0.180571,0.013869,0.054660,0.029242,0.007610,0.129466,-0.095978,0.035661,-0.111494,-0.024809,0.148890,-0.089031,0.219514,0.068446,-0.128822,-0.063026,0.108837,0.061674,-0.025257,-0.018794,0.067007,-0.101953,0.082007,0.184933,-0.025384,0.102196,0.122165,0.020252,-0.130464,0.108583,0.123225,0.046563,0.168752,0.060025,0.140902,0.019314,0.003536,-0.031282,0.012562,-0.099364,0.109934,-0.189278,0.123287,0.009597,0.207626,0.059200,0.201235,0.082492,-0.165797,0.033213,-0.061884,-0.012982,-0.042468,-0.028608,-0.019572,0.064712,0.016994,0.082397,-0.102251,0.142419,-0.017011,-0.039821,-0.032708,0.146609,0.040560,-0.048786,-0.105584,-0.127478,0.086335,0.038974,-0.116565,-0.088751,0.160400,0.077914,-0.106401,0.201257,0.160941,-0.044128,-0.060113,0.020014,0.004504,0.010965,0.036469,-0.129371,-0.043638,0.204671,0.065987,0.107029,0.030040,0.059377,0.067856,0.013087,0.033019,-0.007873,0.261514,-0.045791,-0.100484,0.071061,0.018504,0.083087,0.151518,0.133330,-0.128191,-0.021656,0.056461,-0.007378,0.030944,0.011205,0.048813,-0.016330,-0.094860,-0.088576,0.079751,0.159552,}