	{11946, 10907, -5459, 2347, 21606, -20574, -7306, -17673, -1164, 7599, 8277, 6229, -21974, 23026, 5836, -15141, 7374, 11403, 5221, 18484, -16570, 5138, 717, 6158, 3024, 11365, -10787, 4351, 20548, 3279, -1590, 45, 14419, 3178, 2425, -2572, 527, -13043, 553, -2815, 14153, -3997, 4047, -15134, 12942, -16711, 13902, -3295, 3985, 6283, -4283, 12781, -13947, -16924, -5017, -19998, -3213, 1178, -2065, 1686, -23384, -4826, 34438, 5134, -24896, -2347, -1257, -17064, -10781, -4311, 2603, -6977, 18160, -6208, 6474, 5922, 10897, 18155, -5996, 2182, 4199, -7307, 9252, 11149, -5262, 24784, 2469, -2462, 5522, -4536, 7357, -22879, 17870, -15779, -9959, 14389, 16416, 3960, 50, -2650, -1771, -2538, 350, 10114, -1039, -2942, 37278, -24673, 11448, 7204, -10736, 8759, -8886, 4415, -8826, 14444, 4634, 6991, 14019, 2913, 6951, 3035, 4213, -8630, 5512, 15526, 10956, 15660, -142, 8544, -5523, -3746, -12731, 10427, 1020, 13791, -382, 12725, -1019, 14418, 8246, 31868, -9993, 4023, -9080, -118, -12407, 28918, -8578, 14746, 4468, 2570, -5339, -5779, 11387, 6731, 29113, -10287, 3142, -19906, 12800, 22588, 9966, -17829, -13645, -4675, 1512, -24264, 16425, 3934, -12675, 19139, 3256, -15689, 23942, 10256, 8931, -1324, -1872, -1644, -8140, 8047, -4354, -7803, 3873, 20415, 193, 6841, -8654, -2842, 13270, 4755, 4137, -11209, 1096, 124, 3172, 9130, 10287, 10703, -6306, -13125, 3037, 6318, 16645, 16635, -3296, 1274, 10528, -4857, -18288, 2585, -11592, 2114, -11343, 18005, 4260, 29959, -12105, 4194, 915, -46, 5152, -17612, -18162, -10162, -14626, -7760, 11060, -4190, -823, 9087, 6537, -9687, 4716, 1864, 727, 21928, 12088, -10286, 19102, 25, -3068, 13891, -24102, -13108, -12103, 1041, -1118, -14004, -7661, 4237, -3063, 15416, -1887, -5479, }