#ifndef __L22_CONV2D_BIAS_H__
#define __L22_CONV2D_BIAS_H__
#include "opennna_core.h"
const Bias_t L22_Conv2d_Bias[128]={
	-12836, -33315, 1161, -23304, -10509, -4868, -19206, 19706, 11618, -8368, -8910, 8990, -9857, -16397, -9503, 2685, 2555, 5863, 16275, -25482, 9321, -11161, 12618, -12843, 6752, 5140, -14164, 4909, -9445, 7495, 13509, 6742, 2310, -9488, -26567, -10564, 17287, -6158, -6289, 25326, 11622, 960, 4335, -11113, 13287, -12340, -16212, -1231, -4619, 20283, 4954, 2886, -2856, 9088, 2780, -14618, -10100, -25711, -1385, -15357, 1336, -11872, -9718, -14493, -1395, -6794, -10981, -21139, 2482, 5048, -4924, 8295, 5311, -170, 8958, -22650, -1787, 12063, -9269, 7479, -1363, 2502, -5495, 21446, -10175, 12760, 2084, 10275, 13911, -12953, -11113, 17316, -12050, -21137, 4068, 13128, 26647, -2778, 2816, 4066, -9822, -15424, 1896, 11614, -4514, 14499, -13451, 15619, 13283, 15141, -4032, 2628, -31482, 9451, -13340, -3476, -3904, -4989, 11300, 17475, 6230, -13573, 191, -2061, -25333, 14942, 3262, 11155, 
};