#ifndef __L25_DWCONV2D_BIAS_H__
#define __L25_DWCONV2D_BIAS_H__
#include "opennna_core.h"
const Bias_t L25_DwConv2d_Bias[1]={
	3673, 1507, 3128, -971, 3694, 4, 3485, 1, -283, 5, 18, 62, 5509, 31, 3765, 3147, 3429, 68, -31, 3151, 3945, 10, 3542, 6250, 4236, 4927, 2971, 0, 7539, 0, 4529, 3131, 3507, 5892, 3929, 29, 5154, -214, 5511, 5, 5794, -9, 6953, -1351, 2224, 18, 0, 4381, -3913, -149, 14, 4998, 952, 1833, 15, 7, -74, 3477, -1, 3448, -228, 4, -764, -3460, -1397, 4600, 4, 1, -14, -2849, 4995, -92, -1546, 7171, 5046, -10, -437, 6489, 3, 2899, 2962, 22, 3486, -311, -55, 9, -69, 5799, -3, -204, 1646, 1, 6081, -20, 196, 3778, 1182, 4139, -13, 0, -43, 6702, -426, -834, 37, -15, 4806, 9, 7178, 1, 6753, 349, -482, 3257, -19, 28, 2378, 10, 3, 472, 2202, 7037, 5, -574, 70, 8619, 11996, 4104, 5037, 3812, 6897, 4198, 77, 188, -177, 6836, -25, 4065, -1, 6541, 5536, 6385, -3581, -858, 33, 7374, 417, 6279, 3453, 2, -6593, -1524, -59, 49, -56, 5171, -1103, 3090, -3435, 3604, 5763, -2247, 591, 1, 2, -473, -664, 20, 5699, 6206, -524, 3538, 6814, -823, 4027, -218, -29, 3261, 5468, -211, 7578, 7838, -26, 8891, -6, -78, 5204, 13, -461, 5569, -177, 0, 880, 3918, 6, 6615, 169, -1, -1, -31, -233, 62, 675, -244, -49, 5480, 885, -25, 7, -1540, 37, -448, 1764, -13, -3532, 3041, -22, 3587, -202, -1782, 6179, 1988, -6620, 28, 4859, 3535, 2988, -10339, 8451, 7097, -12, 5719, -158, 2572, 33, 3463, -521, 6816, 7720, -53, 7225, -66, -3466, -357, -38, -79, 3432, 36, -53, 5015, -5983, -145, 5329, 510, 3925, -272, 
};
#endif