#ifndef __L26_CONV2D_BIAS_H__
#define __L26_CONV2D_BIAS_H__
const Bias_t L26_Conv2d_Bias[256]={
	2456, 13234, 32272, 3028, 529, -8203, 431, -2153, 3256, -6114, -4393, 14469, -3190, -5617, 9560, -11304, 7214, 9634, 2938, -13453, -8773, 7218, 2182, -11636, -12804, 4224, 4728, 17840, -5790, -4402, 194, 2171, -11411, -1066, 4311, 2617, 9774, -14607, 841, -2434, -453, 8764, -6317, -7425, -6253, 3141, 10734, -15359, 7174, 1122, -2209, -10090, -6838, 2118, 21317, 5632, -12177, 8515, 2656, 2419, 1262, 7153, 12467, -3522, -3458, -2231, 1781, 49, 2698, -9520, -9994, -12950, 12590, -3760, 5127, 12002, 13588, 6714, 2612, -12400, -23314, -1547, -9008, 10778, -3388, -4452, 394, -8475, 1428, 2566, 2668, -5844, -1927, 10926, -786, -4732, -8342, -4673, -3707, -15921, -566, -2013, 4327, -17069, -4961, -5178, -15049, 5797, 3366, 188, -1786, -11802, 3075, -1371, 12980, 21282, -1962, 5398, 15843, 3052, -16161, -3603, 8207, -1069, 10487, -5798, 10591, 7418, 21471, -12799, -7508, -17850, 771, 1394, -4963, -24256, 2, 1673, -6375, 10279, 9667, 5944, -4221, 17121, -825, 742, -4870, -17144, 1503, -1387, 26683, -2696, -25947, -12470, 4889, -4908, -3201, -5433, -7003, 840, -1605, 14224, 6653, 7427, 1046, 6253, -2755, 6819, -8721, -9484, 12941, 15878, 3954, 13738, -5527, -6397, -3613, -10953, 5550, 2018, 11593, 1809, -14508, -6092, -3896, 9931, 3979, 12229, -4695, -7373, 32279, 7726, -152, -5568, 10127, 13118, -4867, -7899, -1504, 1988, 3680, -6576, 4162, -4789, -7164, -5304, 2318, 2647, -1577, -5316, 21386, 2417, 9880, -7382, 944, -10253, 3962, 18588, 2093, -5899, 6394, 21193, 10637, -5747, 11805, -6831, 10571, -14596, -6283, 17175, 2040, -4048, 11647, 682, 2565, -2263, 5332, 28067, 8343, -7023, 1648, 12073, -5214, 12703, -11724, -3697, -3681, -14671, -4468, -6521, -776, -10671, -1690, 7793, 17169, -14691, 
};