#ifndef __L28_CONV2D_BIAS_H__
#define __L28_CONV2D_BIAS_H__
#include "opennna_core.h"
const Bias_t L28_Conv2d_Bias[1001]={
	-6742, 2474, 6116, -4128, -3283, 4235, 2489, 4185, 577, -883, -2241, -4178, -3871, 135, -2560, -52, -1620, -990, -72, 1983, 1538, 1596, 3123, 4007, 1435, 1401, -3684, 3221, -2356, 3579, -12, 2143, 1134, -1982, -3331, -3183, -6024, 992, -168, 1615, -1693, -510, 2803, 60, -1538, 1881, 1871, 633, -404, -868, -895, -281, 1918, 4587, 3192, -2145, -2591, -1893, -770, 4856, 1611, -2941, 1279, 1126, 6269, 225, 2126, -1604, -2092, -998, 2579, -2803, 3554, 3660, -432, 916, 3850, 2313, -1831, 423, 1451, -6278, -3502, -870, -12000, -6245, -915, -3590, 3347, 4105, 5548, -2200, -3420, 1286, 659, 388, -3699, 2607, -7927, -8975, -4960, -1567, -6601, 209, 2473, 678, 3070, 3188, 1027, -2674, -7897, -5818, 12692, 991, 833, -792, -6683, -6063, 3737, 1533, -3797, 510, -737, -1869, -2694, -95, -3752, 1404, -2992, -2714, -1445, 52, -3943, -471, -1678, -8074, -3837, -6410, -5791, -2612, -3532, -4349, -76, -3082, -3542, -6711, -2172, 136, -5564, -5353, -2490, -688, 2142, -5811, 3013, -302, 5040, 2705, -2922, -2147, -871, -2958, 8167, 5848, 780, 943, -1093, 209, -3623, 1128, -1227, -473, 7084, -830, -1623, 4946, -5764, -3143, -1345, 3154, -1301, -876, 1626, 4281, 1981, 1291, 1123, -528, 1314, -1089, 1495, 1472, 4781, -1405, -1029, -1588, 8350, 2831, -619, -4803, 3807, -4287, -424, 2944, 4180, 3075, -2608, -2437, -4160, -3697, 2822, -1892, -721, 557, 544, 1081, -1012, -383, 6329, 288, -408, -593, -1219, -453, 4716, -4205, -411, -3439, -3722, -3387, 3705, 1798, -3116, -2436, 2653, 1889, 70, 2999, 6524, 308, 4113, -1192, -2156, 1487, -356, 223, 3586, -857, 5481, -2650, -2765, -141, 6200, 695, 405, 7737, -3645, 2132, 1066, -47, 200, 4824, 6085, -3290, 604, 1624, 6517, 2656, -2007, -1699, -212, 962, -65, 2338, -1872, -3556, -4777, -3027, 1119, -2550, 2343, 2474, 6724, -1293, 1827, 5395, 3136, 2078, 1599, 565, 683, 1155, -4104, 370, -1863, -2164, 1042, 1080, 389, -1351, 4555, -4300, -3570, -989, -1128, -6327, 1833, 1218, -3727, -2439, -4262, -4456, -2441, -3327, 334, 4549, 1721, 693, -2905, -271, -3726, -5991, -7072, -7173, -6255, -4757, -6749, -5465, -447, -4977, -4074, -465, -889, 4163, 1950, -1928, -509, 2671, -2616, -5605, -197, -1291, -764, -3313, -4609, -1012, -1641, 1525, -1113, 794, 3314, 2056, -3468, -3795, -951, 2646, 1123, 440, -572, 726, 4285, -3720, -1358, -172, 868, -1376, 3147, 2858, 7181, 1975, 4585, -13, -284, -1358, 3595, 1815, 1302, 2194, 2918, 1297, 888, 465, 1112, 2117, 1627, -3858, 1985, -1318, -3616, -1645, 4722, 539, 6848, -5655, -1921, 1708, 4106, -6496, -1445, -1475, 7198, 2244, 3361, 2739, -2563, -6009, 4626, -2332, -1105, -3850, -3160, 2647, -1045, 3266, 4498, 656, -860, 8301, -2162, -1858, 1585, 880, 5690, 3253, 5250, 6339, 1216, -5839, -1184, -113, 1821, 5814, -1749, 23, -1508, 2080, 1556, -1862, -2253, -947, -3030, 1377, -776, 1201, 1123, -927, 3697, 421, -3002, 3605, 1852, 2387, 875, 720, 1816, 910, 1051, 2622, -117, 307, -315, -6885, 5054, 1101, 623, 3582, 9486, 1066, -617, -1591, 1102, -1912, 2561, -3783, 3859, -3147, 5423, 452, 414, -1890, -4901, 823, 2140, -1005, -2103, -4569, 2529, 2673, 1074, 420, -1960, 249, -822, 3307, -6035, 359, -989, 299, -4418, -124, 3304, 2678, 1405, -2859, -3335, 3195, 297, 1132, -132, 187, -3321, -1631, -2021, -179, -155, 4110, 6349, -382, -3064, -2370, 3165, -1877, -3381, -4238, 5469, 3302, 3641, 2399, -4222, 1298, 2046, -72, -812, 1674, -1707, 2360, -2117, -6426, -722, -2376, 153, -6046, -27, 5448, 3821, -334, 5257, -41, -7343, -4958, 8399, -1749, 2538, 8170, -1683, -2736, -1694, -1973, 2594, 103, -444, -1606, -459, -2441, 3771, -4096, -204, -483, 551, 4954, -406, 1023, -1803, -2040, 5355, 3791, 4569, 2165, 3365, 2462, 909, -3526, -2801, -968, 1052, 3449, 456, -2560, 4390, -1093, 1540, -3986, 1763, 345, 1301, 4555, -2528, 1873, 4850, -5998, -1058, 5404, 358, 6150, -970, -205, -3195, 4540, -3648, 6382, 750, 4422, -2749, 227, -1251, -1419, -2645, -1121, 1661, 6243, -4203, 3956, 228, 1063, 8072, -2999, -2461, 1379, 5502, -3240, -947, 3218, -505, 1982, 1146, 1495, -1132, 2335, -830, -431, -1004, -6032, -856, 2807, 1235, -1253, -4301, -285, -1948, 2269, -116, 6460, -1200, 1049, -258, 3581, 4358, -1537, -581, -1131, 316, 2440, 91, 1441, 16, 3655, 3494, -1696, 3232, -5123, 4912, 2277, -206, 870, 827, 1262, 1163, -3144, 692, 2310, -1608, 1175, 5144, -496, 2566, -749, -1875, 2246, 418, -6662, -2166, -2014, 1764, 3348, -4953, 1585, 4014, 3333, 236, -2676, 707, 4604, 101, 3331, 3765, -86, -4960, 2207, 4159, -2453, -2833, -127, 1948, 1131, 1827, 4308, 1371, 3320, -3280, -2944, 4061, 524, -2497, 3831, 327, -7024, -723, 7285, -2225, -220, -328, -1378, 1262, 933, 108, -4526, -1357, -4082, 825, 2621, 6776, -1635, -2431, -1566, 2363, -97, 2214, 710, 4171, -1695, 7177, 4214, 2594, 6040, 1048, -10, -2900, 2208, 303, 1738, -1745, 5667, 1143, -1747, 3510, 7261, 1361, -3398, -3922, -4176, -1613, 3365, -2971, -1039, -466, 3747, 3678, 5699, 9901, -6646, -1016, -3757, 169, -507, 737, 1301, 6106, -601, -1641, 5604, -1775, -3653, 4537, 3124, 946, 3536, -731, 3342, 6116, -571, 4952, -6145, -522, -5503, -762, 693, 604, -2291, 924, 4649, -1281, -3102, -790, 1013, 1790, -2069, -2927, 2125, -3970, -3150, 4150, 833, -2333, 5818, 1669, 2980, -1024, -1579, -4508, 1729, -2177, 1308, 1051, 470, -761, 4494, -4166, 6206, 7229, 1587, -1891, -214, -313, 4671, 4150, 349, 5998, -3343, 1367, 1796, -2463, 5143, 786, 1037, 5476, -3654, 5801, -2445, -840, 5514, 3375, -1263, 2328, 1294, -1193, -3307, -1129, 724, -286, -472, -3158, 3218, -4228, -542, -3135, -6237, 1900, 2485, 590, -4461, 4727, 5695, -978, -538, 1919, -2020, 14160, -4845, -2703, 996, -110, 5190, 178, 4776, 3717, -2239, 849, -169, 2379, 4165, -791, -3751, -836, -2889, 5649, 3653, 6276, 5705, 1027, -4519, 2529, 828, 4971, -2402, 212, 704, -1354, 1365, 3459, -975, 3964, -3640, 1360, 2336, -109, -3136, -130, -1106, -1833, 434, 1493, -1779, -3957, 1051, -8410, -2337, -560, 3982, -1068, 1264, -1489, 597, 2060, -363, -3067, -5593, -2192, -5080, -5625, -1742, -1534, -1416, -4306, -2664, 35, -997, -1671, 118, -1800, 2825, -6865, 4295, 1392, -274, -1403, -2324, 442, 1508, 2411, -288, 480, 1191, 3016, 2787, -4635, 1388, 2433, 555, 4971, -1344, -1170, 1398, 6978, 5913, -7084, -7829, 2393, -2358, -3018, -5201, -10072, -6675, -4530, -5713, -8042, 1094, -5629, -1193, -3293, -1884, 6143, 
};