	{
		{
			{-0.353084, -0.492253, -0.428596, },
			{0.051044, 0.281505, 0.061282, },
			{0.334658, 0.082467, 0.350399, },
		},
	},

	{
		{
			{0.122319, 0.203621, -0.120399, },
			{0.114771, 0.156615, -0.277997, },
			{0.159653, 0.213955, -0.020544, },
		},
	},

	{
		{
			{-0.048259, -0.653452, -0.479373, },
			{0.016030, -0.092270, -0.113387, },
			{0.423514, 0.433037, 0.336741, },
		},
	},

	{
		{
			{-0.105396, 0.323086, 0.173997, },
			{0.068950, -0.012288, 0.488525, },
			{-0.539962, -0.529503, -0.064885, },
		},
	},

	{
		{
			{0.120952, 0.108836, 0.074901, },
			{-0.041000, 0.244799, 0.105128, },
			{0.102117, 0.105289, -0.033271, },
		},
	},

	{
		{
			{-0.539944, -0.025888, 0.157339, },
			{-0.472647, 0.114656, 0.339910, },
			{0.015715, 0.341483, 0.060226, },
		},
	},

	{
		{
			{0.493724, 0.447533, 0.253474, },
			{0.121147, -0.138411, 0.016121, },
			{-0.313513, -0.675860, -0.465788, },
		},
	},

	{
		{
			{-0.183476, 0.182897, 0.217287, },
			{-0.097796, 0.300777, 0.165228, },
			{0.170388, 0.096544, 0.068702, },
		},
	},

	{
		{
			{0.241717, 0.358800, 0.402804, },
			{-0.170039, 0.153721, 0.077200, },
			{-0.563619, -0.567740, -0.185722, },
		},
	},

	{
		{
			{0.098558, 0.228735, -0.328880, },
			{-0.107163, 0.258161, -0.067708, },
			{-0.119967, 0.283298, 0.103969, },
		},
	},

	{
		{
			{0.110495, 0.195035, 0.497318, },
			{-0.431173, -0.092043, 0.292054, },
			{-0.583054, -0.320446, 0.388048, },
		},
	},

	{
		{
			{0.245868, 0.267122, -0.059373, },
			{-0.020759, 0.077465, 0.196211, },
			{-0.332518, 0.165151, 0.052989, },
		},
	},

	{
		{
			{-0.614553, 0.029993, 0.082459, },
			{0.051612, 0.472598, 0.211624, },
			{0.076960, -0.143633, -0.401595, },
		},
	},

	{
		{
			{0.056416, 0.358879, 0.049953, },
			{0.066623, 0.396517, 0.062516, },
			{0.034720, -0.252017, -0.531623, },
		},
	},

	{
		{
			{-0.642398, -0.308187, 0.220255, },
			{-0.601574, 0.256135, 0.181170, },
			{-0.355185, 0.198741, 0.326054, },
		},
	},

	{
		{
			{0.111428, 0.024749, -0.341323, },
			{0.272214, 0.010320, -0.127986, },
			{0.097293, -0.083357, 0.019468, },
		},
	},

