	{
		{
			{-0.079437, 0.078811, 0.102832, },
			{-0.289535, 0.070998, -0.133070, },
			{0.122995, -0.019142, 0.018640, },
		},
		{
			{0.038632, 0.129573, -0.128105, },
			{0.040237, -0.132241, 0.043317, },
			{-0.144036, -0.052164, -0.330680, },
		},
		{
			{0.054384, 0.046066, 0.176881, },
			{-0.300113, 0.102300, -0.141265, },
			{0.170976, -0.016255, -0.012979, },
		},
		{
			{0.287241, -0.083717, -0.021348, },
			{0.312889, 0.190832, -0.091990, },
			{-0.440063, -0.044041, -0.345744, },
		},
		{
			{0.136293, -0.084507, 0.159347, },
			{0.071846, 0.083286, 0.073073, },
			{0.003942, -0.264347, -0.347766, },
		},
		{
			{-0.126342, -0.058596, 0.149517, },
			{-0.161718, -0.194103, 0.092719, },
			{-0.371604, -0.413040, -0.001763, },
		},
		{
			{-0.077235, -0.029334, 0.110787, },
			{0.195866, 0.120575, 0.349647, },
			{-0.369313, -0.052005, 0.096615, },
		},
		{
			{-0.035595, -0.029555, 0.247166, },
			{-0.170319, -0.078560, 0.088082, },
			{-0.209105, -0.195140, -0.340314, },
		},
		{
			{0.118224, 0.036998, 0.116301, },
			{0.199019, 0.127382, 0.209523, },
			{-0.226432, 0.103692, -0.212611, },
		},
		{
			{0.149533, 0.078696, -0.213466, },
			{-0.038103, 0.067295, -0.271479, },
			{-0.022313, -0.175639, -0.223627, },
		},
		{
			{0.267820, -0.049566, -0.104135, },
			{0.422642, 0.027654, -0.146640, },
			{-0.203758, -0.070554, -0.194567, },
		},
		{
			{0.193580, 0.089007, -0.040048, },
			{0.038524, 0.144996, 0.062212, },
			{-0.228015, -0.301023, -0.077982, },
		},
		{
			{-0.139486, 0.059816, 0.237167, },
			{-0.222463, 0.105773, 0.190490, },
			{-0.362006, -0.665299, -0.461969, },
		},
		{
			{-0.102882, -0.056815, 0.078382, },
			{0.107228, 0.267383, 0.292555, },
			{-0.174360, -0.093496, -0.066433, },
		},
		{
			{-0.341163, -0.182954, 0.027607, },
			{-0.267101, -0.222542, -0.029179, },
			{-0.183626, -0.370876, -0.048081, },
		},
		{
			{0.036759, 0.197915, 0.071679, },
			{-0.059082, -0.079346, -0.053399, },
			{-0.081913, -0.111671, -0.328468, },
		},
	},

	{
		{
			{0.126878, 0.209073, 0.160777, },
			{0.026094, -0.087606, -0.297974, },
			{0.141447, 0.134053, 0.127920, },
		},
		{
			{-0.073238, -0.179611, 0.104873, },
			{-0.062228, 0.047743, 0.004280, },
			{-0.205308, -0.201756, -0.249686, },
		},
		{
			{0.153781, 0.113576, 0.052224, },
			{0.100173, -0.045216, -0.414688, },
			{0.087223, 0.216601, -0.041716, },
		},
		{
			{-0.211323, -0.144940, -0.099683, },
			{0.313345, 0.109563, 0.155067, },
			{0.230408, 0.017547, -0.366298, },
		},
		{
			{-0.076343, -0.106839, 0.169255, },
			{0.128450, 0.121736, -0.076205, },
			{-0.154795, -0.293018, -0.030597, },
		},
		{
			{-0.040218, 0.243399, 0.176274, },
			{-0.021153, 0.183599, -0.191462, },
			{-0.521630, -0.115429, 0.088310, },
		},
		{
			{-0.244436, -0.431925, -0.098449, },
			{0.167146, 0.215418, 0.180258, },
			{0.276776, -0.019893, -0.169275, },
		},
		{
			{-0.004400, 0.096537, 0.136586, },
			{0.029098, 0.051440, 0.102543, },
			{-0.434127, -0.368891, -0.116535, },
		},
		{
			{-0.016169, -0.168472, -0.052416, },
			{0.088755, 0.195925, 0.081299, },
			{0.352654, 0.129164, -0.375959, },
		},
		{
			{0.159801, -0.021494, -0.040361, },
			{0.054313, -0.197387, -0.008042, },
			{-0.067472, -0.434005, -0.210183, },
		},
		{
			{0.035084, 0.078451, -0.136612, },
			{0.046231, -0.133609, 0.043135, },
			{0.301178, 0.050838, -0.201365, },
		},
		{
			{0.002281, 0.023328, -0.054971, },
			{0.137879, -0.071878, 0.139355, },
			{0.018261, -0.128837, -0.138312, },
		},
		{
			{0.094405, 0.197155, 0.093326, },
			{0.173730, 0.162006, -0.058977, },
			{-0.341581, -0.342893, 0.018655, },
		},
		{
			{-0.008764, -0.205461, 0.118208, },
			{0.061469, 0.110743, 0.104210, },
			{0.046197, -0.028464, -0.320463, },
		},
		{
			{-0.006183, 0.263171, 0.061592, },
			{-0.115574, -0.061471, -0.244558, },
			{-0.509059, -0.088389, 0.133705, },
		},
		{
			{-0.051914, -0.059711, -0.041156, },
			{0.093185, 0.099338, -0.028295, },
			{-0.051835, -0.376559, -0.284915, },
		},
	},

	{
		{
			{0.121088, -0.122904, -0.082081, },
			{0.113275, -0.092629, -0.069955, },
			{-0.348183, -0.141832, 0.038997, },
		},
		{
			{0.223167, -0.037104, -0.091265, },
			{0.305549, -0.144286, -0.112948, },
			{0.251644, -0.255824, 0.032655, },
		},
		{
			{0.027262, 0.042330, -0.209443, },
			{0.018149, -0.088155, -0.239759, },
			{-0.382736, -0.041119, -0.216301, },
		},
		{
			{0.020417, 0.039096, -0.176354, },
			{-0.277897, -0.214527, -0.071472, },
			{-0.218175, 0.113862, -0.059895, },
		},
		{
			{-0.070225, -0.052117, -0.096679, },
			{0.299795, -0.234374, 0.086370, },
			{0.196381, -0.238958, 0.104783, },
		},
		{
			{-0.036868, -0.301929, 0.194675, },
			{0.075655, -0.050792, 0.246151, },
			{-0.142707, 0.181500, 0.112379, },
		},
		{
			{0.084459, 0.159862, -0.087166, },
			{-0.117786, -0.115358, -0.366887, },
			{0.422821, 0.176081, -0.363559, },
		},
		{
			{0.002480, -0.288808, 0.063725, },
			{0.194414, -0.292699, 0.184898, },
			{-0.044189, -0.018292, 0.118140, },
		},
		{
			{0.030799, 0.124726, -0.013495, },
			{-0.212516, -0.408364, -0.131195, },
			{0.002832, -0.189321, -0.222202, },
		},
		{
			{0.217767, -0.195542, -0.079448, },
			{0.286004, -0.290811, -0.046126, },
			{-0.105598, -0.337647, 0.003588, },
		},
		{
			{-0.175860, -0.030537, 0.084530, },
			{-0.137285, 0.085992, 0.181327, },
			{-0.365224, 0.291327, -0.016687, },
		},
		{
			{0.078015, -0.076148, 0.055017, },
			{0.082381, -0.340577, 0.106526, },
			{0.067147, -0.083620, -0.037239, },
		},
		{
			{0.028896, -0.022777, 0.051162, },
			{-0.072280, -0.136394, 0.134487, },
			{-0.035558, -0.132892, -0.085653, },
		},
		{
			{-0.011493, -0.073258, -0.158677, },
			{0.151242, -0.163619, 0.016612, },
			{0.320959, -0.102468, -0.073486, },
		},
		{
			{0.124366, -0.222660, 0.169300, },
			{0.198610, 0.154210, 0.156907, },
			{-0.196337, 0.101521, 0.065037, },
		},
		{
			{-0.024043, 0.101383, -0.115466, },
			{0.228998, 0.035566, -0.210348, },
			{0.212290, -0.094540, 0.028747, },
		},
	},

	{
		{
			{0.004131, -0.214023, -0.057099, },
			{0.272637, -0.093834, -0.193276, },
			{-0.139679, 0.336215, 0.210591, },
		},
		{
			{-0.206577, 0.177303, 0.055633, },
			{0.123686, 0.187872, 0.079861, },
			{0.166738, -0.062539, 0.136788, },
		},
		{
			{0.059812, -0.147169, -0.060248, },
			{-0.161817, -0.513101, -0.065078, },
			{-0.351100, 0.195652, 0.157482, },
		},
		{
			{-0.042731, -0.087546, 0.044213, },
			{-0.147463, -0.029104, -0.287237, },
			{-0.233447, -0.332978, -0.086674, },
		},
		{
			{0.025596, 0.215189, 0.023931, },
			{0.146672, 0.081212, -0.309408, },
			{-0.095706, -0.136175, -0.007877, },
		},
		{
			{0.056077, -0.153430, -0.170159, },
			{0.105107, -0.060356, -0.335735, },
			{-0.355653, -0.310905, -0.228042, },
		},
		{
			{-0.222136, -0.141637, 0.145985, },
			{0.009452, 0.144427, 0.117305, },
			{0.140646, 0.096951, -0.108420, },
		},
		{
			{-0.010821, 0.102652, -0.014596, },
			{0.199336, 0.096450, -0.411860, },
			{-0.018669, -0.046205, -0.171364, },
		},
		{
			{0.066182, 0.046215, 0.045189, },
			{0.012614, -0.016141, -0.213447, },
			{0.091035, -0.006663, -0.320407, },
		},
		{
			{0.120530, 0.077454, 0.143984, },
			{-0.000120, 0.007045, -0.044029, },
			{-0.113812, 0.068927, -0.070522, },
		},
		{
			{0.179937, -0.208691, -0.072237, },
			{-0.222778, -0.406010, -0.190464, },
			{-0.178868, -0.238478, -0.028244, },
		},
		{
			{0.177497, 0.205614, -0.118834, },
			{-0.012998, 0.112923, -0.124086, },
			{-0.066828, 0.151006, -0.226567, },
		},
		{
			{-0.072677, 0.145957, -0.086065, },
			{0.406674, 0.195473, -0.485905, },
			{-0.062312, -0.336300, -0.022694, },
		},
		{
			{-0.199773, 0.038397, 0.049681, },
			{0.224829, 0.169056, -0.185230, },
			{0.049182, -0.139539, -0.130102, },
		},
		{
			{-0.129808, 0.041347, -0.311863, },
			{0.251505, -0.328372, -0.456666, },
			{-0.113234, -0.357564, -0.195700, },
		},
		{
			{-0.166936, 0.121495, 0.154276, },
			{0.031474, 0.042734, 0.024165, },
			{0.194453, -0.178859, -0.009483, },
		},
	},

	{
		{
			{-0.438110, 0.012208, 0.126727, },
			{-0.267539, -0.421114, 0.157165, },
			{0.387282, -0.071293, -0.325467, },
		},
		{
			{-0.211183, 0.184819, 0.077668, },
			{-0.003032, 0.112600, 0.023131, },
			{-0.209514, -0.159011, 0.121987, },
		},
		{
			{-0.448644, 0.023076, 0.431294, },
			{-0.093399, -0.475662, 0.432867, },
			{0.127954, 0.008949, -0.334993, },
		},
		{
			{0.227387, 0.148225, -0.227058, },
			{-0.101810, 0.318890, 0.059364, },
			{-0.518689, 0.024179, 0.216436, },
		},
		{
			{0.076038, 0.065256, -0.231789, },
			{-0.190303, 0.075262, -0.090598, },
			{-0.079564, 0.056677, 0.180765, },
		},
		{
			{-0.060827, -0.086889, -0.261756, },
			{0.082671, 0.129403, -0.194633, },
			{0.150438, 0.168752, 0.135912, },
		},
		{
			{0.016279, -0.366125, -0.123031, },
			{-0.035239, 0.113063, -0.254021, },
			{-0.105921, -0.115677, -0.129450, },
		},
		{
			{-0.085052, -0.126093, -0.165632, },
			{-0.022541, -0.066227, -0.078157, },
			{0.047713, -0.083953, 0.125851, },
		},
		{
			{0.059589, -0.093528, -0.209950, },
			{-0.126577, 0.116485, -0.009100, },
			{-0.217263, -0.057309, 0.078316, },
		},
		{
			{0.159526, 0.287914, -0.115159, },
			{-0.195145, 0.138014, 0.358558, },
			{-0.186070, -0.196821, 0.124731, },
		},
		{
			{0.226235, 0.230959, -0.421068, },
			{-0.073715, 0.437350, 0.089341, },
			{-0.385433, 0.193217, 0.237738, },
		},
		{
			{0.027471, 0.186580, -0.232075, },
			{-0.058655, 0.145735, 0.214918, },
			{-0.345927, -0.194705, 0.169592, },
		},
		{
			{-0.125617, -0.056855, 0.097722, },
			{0.110115, -0.064730, -0.262248, },
			{0.104321, 0.051380, -0.012971, },
		},
		{
			{0.085718, -0.062543, -0.179612, },
			{-0.115225, 0.024487, -0.001325, },
			{-0.125755, -0.055177, -0.035148, },
		},
		{
			{-0.176535, -0.252296, -0.226332, },
			{-0.051986, -0.183315, -0.483952, },
			{0.119317, 0.079859, -0.065845, },
		},
		{
			{-0.095368, 0.107004, 0.111743, },
			{-0.009100, 0.086214, 0.099567, },
			{-0.083999, -0.028640, 0.071189, },
		},
	},

	{
		{
			{-0.055492, -0.065660, 0.336676, },
			{-0.324771, 0.012902, 0.181553, },
			{0.010358, 0.050279, -0.151186, },
		},
		{
			{-0.339889, -0.071634, -0.105262, },
			{-0.282992, -0.138195, -0.081296, },
			{-0.161091, 0.054747, 0.080755, },
		},
		{
			{-0.258412, -0.077210, 0.320722, },
			{-0.307516, -0.133917, 0.172725, },
			{-0.153393, 0.040821, -0.103886, },
		},
		{
			{0.059989, 0.094956, 0.052080, },
			{-0.013106, -0.003463, 0.012572, },
			{-0.048766, -0.229696, -0.418474, },
		},
		{
			{0.001940, -0.053954, -0.157083, },
			{-0.195349, 0.098995, 0.126226, },
			{-0.000294, 0.083349, -0.113095, },
		},
		{
			{0.117811, -0.066925, -0.392106, },
			{0.041527, 0.010137, 0.133455, },
			{0.000791, 0.182055, 0.107620, },
		},
		{
			{-0.040271, -0.015825, -0.162772, },
			{-0.219942, -0.044281, 0.193281, },
			{-0.302214, -0.397082, 0.127254, },
		},
		{
			{0.038491, -0.141321, -0.094737, },
			{-0.031570, -0.101705, 0.158943, },
			{0.070571, -0.048226, -0.011538, },
		},
		{
			{-0.128128, 0.103822, 0.001624, },
			{-0.094099, 0.120874, 0.179576, },
			{-0.438491, -0.701031, -0.240463, },
		},
		{
			{-0.015358, 0.203682, 0.055413, },
			{-0.124753, -0.066622, 0.096589, },
			{-0.085197, -0.121971, -0.322222, },
		},
		{
			{0.169193, 0.133742, -0.146952, },
			{0.080236, 0.139205, 0.025901, },
			{-0.077377, -0.112784, -0.437809, },
		},
		{
			{0.065108, 0.113885, -0.064058, },
			{-0.057350, 0.034665, 0.181063, },
			{-0.172662, 0.010492, -0.204590, },
		},
		{
			{-0.114690, -0.125474, -0.056159, },
			{-0.151222, -0.160061, -0.184870, },
			{-0.064257, 0.023326, 0.045384, },
		},
		{
			{-0.130806, -0.145821, -0.061360, },
			{-0.184574, -0.072901, 0.170797, },
			{-0.370361, 0.049522, 0.111395, },
		},
		{
			{0.110347, -0.129810, -0.392199, },
			{-0.162003, 0.064946, -0.098439, },
			{0.142783, 0.172421, 0.095006, },
		},
		{
			{-0.276287, 0.021042, -0.032349, },
			{-0.329607, -0.044480, -0.144603, },
			{-0.212416, -0.056920, -0.028392, },
		},
	},

	{
		{
			{0.133945, -0.217731, -0.145973, },
			{-0.029988, -0.060221, 0.144019, },
			{0.120146, -0.006310, -0.174730, },
		},
		{
			{-0.097156, 0.155179, -0.001501, },
			{-0.101616, -0.005214, 0.042855, },
			{-0.197227, -0.093716, -0.027600, },
		},
		{
			{0.092686, -0.300137, 0.176263, },
			{0.039963, -0.170266, 0.060292, },
			{0.268308, -0.046029, -0.074186, },
		},
		{
			{0.068659, 0.105966, 0.006575, },
			{0.082277, 0.211500, 0.214011, },
			{-0.072197, 0.096718, 0.029330, },
		},
		{
			{0.046856, 0.111251, -0.177858, },
			{-0.024046, -0.189953, 0.058657, },
			{-0.122764, -0.138042, -0.011806, },
		},
		{
			{0.113726, -0.190417, -0.159753, },
			{-0.163751, -0.108926, -0.239556, },
			{-0.173372, -0.144482, 0.163092, },
		},
		{
			{0.101376, 0.108416, 0.028375, },
			{0.095380, -0.150174, -0.283851, },
			{-0.240806, -0.009448, -0.197462, },
		},
		{
			{0.073921, -0.019196, -0.260528, },
			{-0.158259, -0.045598, -0.113407, },
			{-0.148386, -0.154110, 0.100140, },
		},
		{
			{0.024781, 0.036186, -0.085895, },
			{0.054911, 0.021669, 0.065948, },
			{-0.085705, -0.126541, 0.081597, },
		},
		{
			{-0.073635, 0.047912, 0.057335, },
			{-0.056081, -0.051215, 0.172061, },
			{-0.048391, 0.025311, 0.100318, },
		},
		{
			{-0.241316, -0.051097, -0.095062, },
			{-0.050477, 0.004192, 0.075012, },
			{-0.204621, 0.074970, 0.248595, },
		},
		{
			{-0.091921, 0.079679, 0.093110, },
			{0.052757, -0.008152, 0.082026, },
			{-0.033894, 0.005273, 0.045678, },
		},
		{
			{0.333013, 0.197085, -0.219830, },
			{-0.132301, 0.002250, -0.034934, },
			{-0.153759, -0.272950, -0.024289, },
		},
		{
			{-0.001230, 0.128999, -0.027885, },
			{0.059353, -0.170474, -0.206985, },
			{-0.317504, -0.054244, -0.180830, },
		},
		{
			{-0.022219, -0.110005, -0.280312, },
			{-0.163271, -0.191759, -0.412171, },
			{0.009954, -0.316767, -0.127850, },
		},
		{
			{0.012965, -0.024895, 0.172967, },
			{0.029390, -0.191749, 0.136008, },
			{-0.046618, 0.032976, -0.033655, },
		},
	},

	{
		{
			{-0.376492, -0.275527, 0.078043, },
			{-0.358177, -0.149109, 0.250617, },
			{-0.337136, -0.196090, 0.356373, },
		},
		{
			{-0.009280, 0.251138, 0.007435, },
			{-0.155101, 0.254212, -0.063943, },
			{-0.379858, -0.120603, 0.103242, },
		},
		{
			{-0.384231, -0.039920, 0.003057, },
			{-0.519789, 0.111942, 0.422059, },
			{-0.410386, -0.393228, 0.220082, },
		},
		{
			{0.209725, -0.161992, 0.121924, },
			{0.169362, 0.105022, 0.083105, },
			{0.004596, 0.146327, 0.221732, },
		},
		{
			{0.165484, 0.001607, -0.264866, },
			{0.066404, 0.129599, 0.042547, },
			{-0.245165, 0.017710, 0.211621, },
		},
		{
			{-0.147438, -0.008783, 0.163032, },
			{-0.065121, -0.282866, -0.173332, },
			{0.067154, -0.043328, -0.274311, },
		},
		{
			{-0.155898, -0.353918, 0.247151, },
			{-0.163794, -0.252920, -0.033502, },
			{-0.176105, -0.123328, -0.010530, },
		},
		{
			{0.114464, 0.093670, -0.206035, },
			{0.013727, 0.049938, -0.161220, },
			{-0.091733, 0.063941, 0.040232, },
		},
		{
			{0.076682, -0.338028, -0.042020, },
			{0.151623, 0.199317, -0.107915, },
			{-0.049330, 0.119284, 0.063671, },
		},
		{
			{0.181459, 0.259834, -0.178135, },
			{0.047228, 0.159150, 0.013029, },
			{-0.165839, 0.081162, 0.126929, },
		},
		{
			{0.304759, -0.162224, 0.153121, },
			{0.268928, 0.287940, -0.080656, },
			{0.131659, 0.335477, 0.211021, },
		},
		{
			{0.124664, -0.088333, -0.273835, },
			{0.127443, 0.225798, -0.143008, },
			{-0.078323, 0.162750, 0.272331, },
		},
		{
			{-0.045759, 0.090199, 0.346327, },
			{-0.003639, -0.100604, -0.025793, },
			{-0.237814, -0.321810, -0.213177, },
		},
		{
			{-0.137849, 0.121276, -0.018230, },
			{-0.055680, -0.026918, 0.011761, },
			{-0.168045, -0.144244, -0.032876, },
		},
		{
			{-0.177382, 0.126710, -0.245117, },
			{-0.141127, -0.155862, -0.415818, },
			{0.121545, -0.131785, -0.397024, },
		},
		{
			{-0.051219, -0.036103, 0.067968, },
			{0.024004, 0.128904, 0.048993, },
			{-0.162208, -0.109090, 0.058605, },
		},
	},

	{
		{
			{-0.015258, -0.163907, -0.324343, },
			{0.116559, -0.173723, -0.332801, },
			{0.092205, -0.159003, -0.101471, },
		},
		{
			{0.017002, -0.249016, 0.202725, },
			{0.292775, -0.144465, 0.048904, },
			{0.063534, -0.244183, 0.132041, },
		},
		{
			{0.097216, -0.147285, -0.394250, },
			{0.133043, -0.209641, -0.287995, },
			{0.110565, -0.016868, -0.196878, },
		},
		{
			{-0.433043, -0.001947, -0.109721, },
			{-0.070396, 0.219661, -0.016108, },
			{0.088883, 0.126545, 0.112599, },
		},
		{
			{-0.014215, -0.141049, 0.033489, },
			{0.247409, -0.151913, -0.037431, },
			{0.056871, -0.064465, 0.102770, },
		},
		{
			{-0.137546, 0.204950, 0.115581, },
			{0.146214, -0.007635, 0.138052, },
			{-0.201787, 0.008512, 0.245332, },
		},
		{
			{-0.183204, -0.065985, -0.326508, },
			{0.239553, -0.153973, -0.426446, },
			{0.286621, -0.098525, -0.592851, },
		},
		{
			{-0.112058, 0.073431, 0.026712, },
			{0.109851, -0.085934, 0.097276, },
			{0.007525, -0.015058, 0.106347, },
		},
		{
			{-0.379300, -0.102676, -0.135184, },
			{-0.073496, -0.035960, -0.136410, },
			{0.017485, -0.036623, -0.250321, },
		},
		{
			{0.044641, -0.280578, 0.026960, },
			{0.231742, -0.284358, 0.044634, },
			{0.018928, -0.155688, 0.190226, },
		},
		{
			{-0.212287, 0.070141, 0.133335, },
			{-0.049704, 0.188302, 0.140624, },
			{-0.275521, 0.213642, 0.262571, },
		},
		{
			{-0.161472, -0.125109, -0.002281, },
			{0.018566, -0.054943, 0.143537, },
			{0.005955, -0.116153, 0.191646, },
		},
		{
			{-0.239769, 0.083161, 0.086278, },
			{0.130166, -0.132301, -0.007119, },
			{-0.016536, -0.026281, -0.129891, },
		},
		{
			{-0.082916, -0.000394, -0.018253, },
			{0.183632, -0.215305, -0.107898, },
			{0.206432, -0.164606, -0.146358, },
		},
		{
			{0.133904, 0.124082, 0.177721, },
			{0.218193, 0.201981, 0.228832, },
			{-0.073518, 0.117303, 0.155655, },
		},
		{
			{0.170025, -0.278906, 0.108054, },
			{0.101730, -0.017719, 0.025284, },
			{0.226799, -0.185959, 0.133415, },
		},
	},

	{
		{
			{-0.036681, -0.212790, -0.527172, },
			{0.089232, -0.254071, -0.338712, },
			{-0.312371, 0.130676, -0.016983, },
		},
		{
			{-0.000831, 0.039289, 0.070606, },
			{-0.105396, 0.104910, 0.058584, },
			{-0.056513, -0.125843, 0.120242, },
		},
		{
			{0.042822, -0.288991, -0.599457, },
			{-0.030806, -0.233719, -0.065188, },
			{-0.079298, 0.045198, 0.111964, },
		},
		{
			{-0.193617, 0.031144, -0.035138, },
			{0.027101, 0.135605, -0.038159, },
			{0.134507, 0.060361, -0.145891, },
		},
		{
			{-0.049438, 0.229843, 0.037846, },
			{0.163316, -0.020548, -0.128021, },
			{-0.188905, -0.103003, -0.218592, },
		},
		{
			{0.154703, 0.115767, -0.215105, },
			{0.088716, -0.021672, -0.235025, },
			{-0.275362, 0.102127, 0.009891, },
		},
		{
			{-0.274987, -0.164067, 0.273798, },
			{0.040860, 0.110490, 0.041099, },
			{0.235152, -0.157895, -0.355967, },
		},
		{
			{-0.092949, 0.186100, 0.097350, },
			{0.166026, -0.031161, -0.309170, },
			{-0.187425, -0.033101, -0.036480, },
		},
		{
			{-0.110591, -0.191287, 0.118005, },
			{0.081853, 0.055301, -0.075401, },
			{0.154690, 0.029189, -0.171149, },
		},
		{
			{0.084829, 0.105169, -0.022109, },
			{-0.089743, 0.139450, -0.102587, },
			{-0.034875, 0.032953, 0.237205, },
		},
		{
			{-0.009694, -0.038702, -0.181223, },
			{-0.241163, 0.014464, -0.247044, },
			{0.076986, 0.238514, -0.048524, },
		},
		{
			{0.012851, -0.039242, 0.074521, },
			{-0.063419, 0.059037, -0.103719, },
			{0.142914, 0.008831, -0.094955, },
		},
		{
			{-0.086899, 0.187047, 0.131582, },
			{0.334805, 0.269362, -0.418935, },
			{-0.178876, 0.135190, -0.167283, },
		},
		{
			{-0.296199, 0.218386, 0.007491, },
			{-0.087682, 0.059735, 0.094213, },
			{0.036960, -0.328947, -0.277860, },
		},
		{
			{-0.046206, 0.047683, -0.349574, },
			{-0.015179, 0.139226, -0.095942, },
			{-0.275752, 0.041520, -0.117320, },
		},
		{
			{-0.229150, -0.135738, 0.144794, },
			{-0.023541, -0.096357, -0.005866, },
			{0.136277, 0.059356, -0.011925, },
		},
	},

	{
		{
			{-0.164239, -0.151773, 0.303621, },
			{0.253852, -0.317056, 0.000782, },
			{0.272244, -0.131993, -0.167473, },
		},
		{
			{0.052558, -0.020646, -0.065684, },
			{0.050580, -0.467010, -0.137773, },
			{0.221075, -0.010809, -0.330020, },
		},
		{
			{-0.117172, -0.209868, 0.206421, },
			{0.284024, -0.243679, -0.262127, },
			{0.274763, 0.074392, -0.112520, },
		},
		{
			{0.026182, -0.048680, -0.252900, },
			{-0.357236, 0.132412, 0.464457, },
			{0.201719, -0.285682, 0.262869, },
		},
		{
			{-0.076097, -0.256821, 0.110817, },
			{-0.110167, -0.396765, 0.021780, },
			{0.234439, -0.221652, -0.281320, },
		},
		{
			{-0.482063, 0.026797, 0.229862, },
			{-0.296476, -0.187435, 0.228071, },
			{0.046316, -0.405789, -0.129477, },
		},
		{
			{0.029851, 0.031413, -0.071679, },
			{-0.325558, -0.162947, 0.164692, },
			{0.181224, -0.341618, 0.096282, },
		},
		{
			{-0.192722, -0.121325, 0.177533, },
			{-0.222270, -0.305110, 0.068038, },
			{0.139027, -0.342262, -0.193109, },
		},
		{
			{0.008195, -0.053604, -0.206668, },
			{-0.163155, -0.200854, 0.468733, },
			{-0.008330, -0.289859, 0.289599, },
		},
		{
			{-0.115359, -0.210563, 0.172799, },
			{-0.059778, -0.359056, 0.024077, },
			{0.169326, -0.038821, -0.231617, },
		},
		{
			{0.024147, -0.003531, -0.053039, },
			{-0.052816, -0.099257, 0.404050, },
			{-0.057575, -0.067848, 0.121415, },
		},
		{
			{-0.024846, -0.110943, 0.022567, },
			{-0.219088, -0.234989, 0.035954, },
			{0.004134, -0.225939, -0.058841, },
		},
		{
			{-0.388565, -0.171376, 0.185656, },
			{-0.186258, -0.256226, 0.367156, },
			{0.087353, -0.482295, -0.168758, },
		},
		{
			{-0.114019, 0.020031, -0.072229, },
			{-0.062820, -0.304217, 0.209023, },
			{0.276599, -0.336408, -0.307814, },
		},
		{
			{-0.294652, -0.024257, 0.494902, },
			{-0.314920, -0.223368, 0.214679, },
			{0.278183, -0.060050, 0.026161, },
		},
		{
			{-0.172209, -0.115766, 0.035217, },
			{0.204052, -0.014585, 0.037536, },
			{0.253725, -0.183167, -0.441432, },
		},
	},

	{
		{
			{0.160130, 0.203203, 0.314770, },
			{0.102075, 0.083665, 0.300395, },
			{-0.222184, -0.298294, -0.119344, },
		},
		{
			{-0.433230, -0.290862, -0.073020, },
			{-0.086114, -0.112255, 0.010671, },
			{-0.041641, -0.073571, 0.021706, },
		},
		{
			{0.052023, 0.232695, 0.250829, },
			{0.213235, 0.094949, 0.174666, },
			{-0.384122, -0.214643, -0.099162, },
		},
		{
			{-0.334913, -0.403964, -0.000198, },
			{-0.231716, 0.039781, 0.223725, },
			{0.249943, 0.142879, 0.203075, },
		},
		{
			{-0.356839, -0.262493, -0.150326, },
			{-0.011373, 0.116576, 0.120066, },
			{0.008267, -0.147705, -0.081944, },
		},
		{
			{0.007557, -0.077196, -0.123161, },
			{0.058444, 0.035506, -0.133180, },
			{-0.313917, -0.108055, 0.016854, },
		},
		{
			{-0.182295, -0.120131, -0.098494, },
			{-0.305485, 0.040609, -0.110300, },
			{0.050618, -0.000858, 0.089520, },
		},
		{
			{-0.198979, -0.164809, -0.255277, },
			{-0.068355, 0.040767, 0.117959, },
			{-0.089247, -0.060998, 0.043526, },
		},
		{
			{-0.350540, -0.362509, 0.237965, },
			{-0.253900, -0.027975, 0.025756, },
			{0.068922, 0.139190, 0.221872, },
		},
		{
			{-0.226006, -0.181092, -0.062725, },
			{-0.135792, 0.117533, 0.009269, },
			{-0.160172, -0.006381, 0.048222, },
		},
		{
			{-0.393569, -0.397577, -0.245647, },
			{-0.435032, 0.049480, 0.133637, },
			{0.020657, 0.127588, 0.173838, },
		},
		{
			{-0.547418, -0.386080, -0.342294, },
			{-0.231027, 0.153019, 0.148638, },
			{0.136630, 0.136889, 0.214857, },
		},
		{
			{-0.150820, -0.165136, -0.183870, },
			{0.171486, 0.135503, -0.003730, },
			{-0.115258, -0.090952, 0.023873, },
		},
		{
			{-0.669430, -0.570019, -0.564320, },
			{-0.021338, 0.062847, -0.050415, },
			{0.094070, 0.062081, 0.070458, },
		},
		{
			{0.205515, -0.094842, -0.251033, },
			{0.113403, 0.000949, -0.111839, },
			{-0.419140, -0.316842, -0.310474, },
		},
		{
			{-0.389914, -0.245934, -0.056639, },
			{0.037602, -0.080363, 0.095530, },
			{-0.026356, -0.065331, -0.116546, },
		},
	},

	{
		{
			{-0.100986, -0.302446, -0.113766, },
			{-0.156289, 0.140131, 0.087927, },
			{-0.155376, 0.092589, -0.132822, },
		},
		{
			{-0.137050, 0.007129, -0.020819, },
			{0.072262, -0.344090, 0.140967, },
			{-0.527830, -0.120228, 0.109192, },
		},
		{
			{0.005466, -0.369313, -0.018899, },
			{-0.121669, 0.031857, -0.052706, },
			{-0.327161, -0.029228, -0.181371, },
		},
		{
			{0.022598, -0.041648, -0.017269, },
			{-0.154836, -0.121478, -0.339592, },
			{0.071177, 0.051947, -0.199450, },
		},
		{
			{-0.068759, 0.059378, 0.077052, },
			{0.096893, -0.189165, 0.130600, },
			{-0.302572, 0.082728, 0.107231, },
		},
		{
			{-0.008755, -0.225285, -0.036995, },
			{-0.590997, 0.190392, 0.109891, },
			{-0.180858, 0.082696, 0.017035, },
		},
		{
			{0.049179, 0.067208, -0.059590, },
			{-0.166052, -0.088764, -0.235327, },
			{0.184458, -0.423730, -0.056318, },
		},
		{
			{-0.107473, 0.039889, 0.036471, },
			{-0.027377, -0.081340, 0.172970, },
			{-0.342082, 0.030406, 0.042682, },
		},
		{
			{0.038020, 0.188243, -0.001671, },
			{-0.011797, -0.180821, -0.347445, },
			{0.005750, -0.253900, -0.150235, },
		},
		{
			{0.021138, 0.091066, 0.111748, },
			{-0.007081, -0.204480, -0.005796, },
			{-0.508248, -0.014184, 0.005492, },
		},
		{
			{-0.016173, 0.029940, 0.163524, },
			{-0.263108, -0.026871, 0.000857, },
			{0.027957, 0.264421, -0.124416, },
		},
		{
			{0.190022, 0.077517, 0.042183, },
			{-0.067216, -0.011429, 0.057166, },
			{-0.081334, 0.277511, -0.020165, },
		},
		{
			{-0.052749, -0.013082, -0.162280, },
			{-0.261009, -0.122695, 0.044849, },
			{-0.259487, 0.134264, 0.028759, },
		},
		{
			{-0.015468, 0.115532, -0.059368, },
			{0.009961, -0.275327, 0.171455, },
			{-0.111923, -0.122458, 0.091087, },
		},
		{
			{-0.358457, -0.161370, 0.002251, },
			{-0.235457, 0.124421, 0.054918, },
			{0.080399, 0.302501, 0.102217, },
		},
		{
			{-0.043848, 0.129507, -0.008381, },
			{-0.106593, -0.195532, 0.077099, },
			{-0.154061, -0.161288, 0.125376, },
		},
	},

	{
		{
			{-0.231494, -0.156317, 0.211875, },
			{-0.509056, 0.016018, 0.299314, },
			{-0.422381, -0.154075, 0.095424, },
		},
		{
			{0.074074, 0.273480, 0.118419, },
			{0.072538, 0.056647, 0.167762, },
			{0.037859, 0.147722, 0.189120, },
		},
		{
			{-0.292053, -0.085896, 0.274609, },
			{-0.529342, 0.019138, 0.243404, },
			{-0.608777, -0.099356, 0.000977, },
		},
		{
			{-0.106208, -0.171118, -0.302703, },
			{0.019194, -0.035144, -0.130205, },
			{0.055129, 0.087596, 0.167761, },
		},
		{
			{0.181104, 0.167584, -0.064412, },
			{-0.045588, 0.152702, 0.108359, },
			{0.073520, 0.184249, 0.166088, },
		},
		{
			{-0.012968, -0.039462, -0.176313, },
			{0.060427, -0.247774, -0.049935, },
			{-0.279739, -0.245656, -0.395715, },
		},
		{
			{-0.699773, -0.288401, 0.188655, },
			{-0.543467, -0.314949, -0.033463, },
			{-0.208040, 0.032539, 0.174769, },
		},
		{
			{0.087538, 0.163468, -0.083657, },
			{0.110044, 0.160633, 0.046976, },
			{-0.036746, 0.109580, 0.244050, },
		},
		{
			{-0.117635, -0.309131, -0.248000, },
			{-0.120236, -0.111071, -0.230439, },
			{-0.001147, 0.124659, 0.172204, },
		},
		{
			{-0.012252, 0.290711, 0.145623, },
			{-0.058460, 0.084793, 0.032331, },
			{0.060714, 0.057414, 0.157038, },
		},
		{
			{0.068683, -0.054577, -0.313688, },
			{-0.059561, -0.067854, -0.341101, },
			{-0.007265, -0.046735, -0.031126, },
		},
		{
			{0.223599, 0.007103, -0.226222, },
			{0.048823, 0.081446, -0.037012, },
			{0.032657, 0.217131, 0.149682, },
		},
		{
			{0.008627, -0.036657, -0.126053, },
			{-0.192374, -0.121373, 0.298423, },
			{-0.272888, -0.173355, -0.052821, },
		},
		{
			{-0.251925, 0.143924, -0.153825, },
			{-0.164283, -0.033095, -0.012405, },
			{-0.000574, 0.095645, 0.068654, },
		},
		{
			{0.079589, 0.000198, 0.028483, },
			{-0.074349, -0.322437, -0.181558, },
			{-0.008842, -0.185008, -0.643864, },
		},
		{
			{0.110075, 0.219753, 0.152275, },
			{-0.149165, 0.151416, 0.069650, },
			{0.025265, -0.043294, 0.148757, },
		},
	},

	{
		{
			{-0.352599, -0.232400, -0.443775, },
			{-0.073594, 0.152265, 0.178118, },
			{-0.101615, 0.064348, 0.164092, },
		},
		{
			{0.052554, -0.015617, -0.169873, },
			{0.083187, 0.066698, -0.221805, },
			{0.001290, -0.088967, -0.239513, },
		},
		{
			{-0.373728, -0.257522, -0.344687, },
			{0.036632, 0.174456, 0.245995, },
			{-0.031687, -0.011812, -0.059913, },
		},
		{
			{-0.413512, 0.007968, 0.181052, },
			{0.112082, -0.207609, -0.112715, },
			{0.140815, 0.246449, 0.203956, },
		},
		{
			{-0.059064, -0.132166, -0.243750, },
			{-0.103665, -0.146186, -0.166925, },
			{0.020014, -0.061300, -0.049588, },
		},
		{
			{0.159383, 0.080662, 0.074617, },
			{-0.019918, -0.086477, 0.200748, },
			{-0.062487, -0.083713, 0.033542, },
		},
		{
			{-0.071520, 0.268719, 0.229559, },
			{-0.268848, -0.161493, -0.113113, },
			{0.157912, 0.274850, 0.251232, },
		},
		{
			{0.121731, -0.226013, -0.209141, },
			{0.064462, -0.234717, -0.022311, },
			{0.066927, -0.026184, -0.181986, },
		},
		{
			{-0.294640, 0.115590, 0.149043, },
			{-0.187073, -0.397525, -0.284882, },
			{0.179890, 0.307861, 0.258082, },
		},
		{
			{-0.098017, -0.234260, -0.138628, },
			{0.036759, 0.017044, -0.211309, },
			{0.080928, -0.208919, -0.074222, },
		},
		{
			{-0.093028, 0.061281, 0.137996, },
			{-0.054639, -0.441006, -0.135696, },
			{-0.126945, -0.076360, -0.010274, },
		},
		{
			{0.006858, -0.185435, -0.021970, },
			{-0.025695, -0.201627, -0.318085, },
			{0.128506, 0.127436, -0.052587, },
		},
		{
			{0.186775, 0.203787, -0.109409, },
			{0.118519, -0.094809, 0.157479, },
			{0.136131, 0.107504, 0.075204, },
		},
		{
			{-0.006963, 0.130378, 0.036796, },
			{-0.045741, -0.034759, 0.089012, },
			{0.182435, 0.094445, 0.169318, },
		},
		{
			{0.237470, 0.014459, 0.023613, },
			{-0.103299, -0.199052, -0.006590, },
			{-0.271833, -0.262445, -0.129414, },
		},
		{
			{0.063558, 0.117282, -0.211914, },
			{0.182959, -0.024737, -0.124992, },
			{0.093881, 0.096506, -0.147096, },
		},
	},

	{
		{
			{-0.324335, -0.528313, -0.357080, },
			{-0.373542, -0.203465, -0.283651, },
			{-0.092811, 0.082368, -0.101083, },
		},
		{
			{-0.024939, 0.143780, -0.066008, },
			{-0.015909, 0.081596, 0.000438, },
			{-0.186787, 0.049831, -0.109043, },
		},
		{
			{-0.397666, -0.486735, -0.333757, },
			{-0.418813, -0.072366, -0.159592, },
			{-0.038460, -0.092439, -0.145804, },
		},
		{
			{0.046759, -0.274117, 0.056936, },
			{0.105974, 0.015115, -0.225159, },
			{0.250742, 0.147843, -0.238354, },
		},
		{
			{0.035606, 0.019690, 0.063549, },
			{-0.093072, 0.004598, -0.052514, },
			{-0.115024, 0.039021, -0.220049, },
		},
		{
			{0.055978, -0.122307, -0.349917, },
			{0.120592, 0.071350, -0.454621, },
			{0.074650, 0.335444, -0.544314, },
		},
		{
			{-0.175196, -0.014476, 0.228462, },
			{0.014403, -0.083992, -0.105382, },
			{-0.090242, -0.002660, -0.045003, },
		},
		{
			{-0.036092, -0.068971, -0.015728, },
			{-0.011033, 0.018106, -0.243014, },
			{-0.001378, 0.220499, -0.394845, },
		},
		{
			{0.080486, -0.203356, 0.014181, },
			{-0.004197, -0.139058, -0.095356, },
			{0.066318, -0.014316, -0.113840, },
		},
		{
			{-0.185261, 0.103635, -0.070048, },
			{-0.130499, 0.172210, -0.151012, },
			{-0.253246, 0.146922, -0.009786, },
		},
		{
			{0.071532, -0.218701, -0.073774, },
			{0.222017, 0.179612, -0.111607, },
			{0.523932, 0.415097, -0.343071, },
		},
		{
			{0.055620, 0.018589, 0.047197, },
			{0.114060, 0.063192, -0.098414, },
			{0.057391, -0.033004, -0.044803, },
		},
		{
			{-0.002866, -0.074945, -0.239394, },
			{-0.013345, 0.011346, -0.174222, },
			{-0.081771, 0.110664, -0.421671, },
		},
		{
			{0.065680, 0.020093, 0.100221, },
			{-0.170240, -0.013321, -0.183555, },
			{-0.039670, 0.248344, -0.113369, },
		},
		{
			{0.003974, -0.122432, -0.559079, },
			{0.158676, 0.218892, -0.517433, },
			{0.513443, 0.468701, -0.596228, },
		},
		{
			{-0.232018, 0.044031, -0.088981, },
			{-0.234813, -0.052069, 0.036992, },
			{-0.481149, 0.138078, 0.011746, },
		},
	},

	{
		{
			{0.192821, -0.016252, 0.061298, },
			{-0.202767, -0.279897, 0.003863, },
			{0.093526, -0.007131, -0.179818, },
		},
		{
			{0.007335, -0.081427, 0.088819, },
			{-0.035062, -0.018600, 0.015123, },
			{0.060662, -0.132152, -0.091530, },
		},
		{
			{0.047877, 0.033394, 0.101598, },
			{-0.278465, -0.174435, 0.084414, },
			{-0.003872, 0.044535, -0.057949, },
		},
		{
			{0.050937, -0.016579, 0.070110, },
			{-0.160475, 0.080820, 0.164717, },
			{-0.056772, -0.122813, -0.156844, },
		},
		{
			{0.148440, 0.101432, 0.077989, },
			{0.032388, -0.024717, 0.083857, },
			{-0.137248, -0.084112, 0.045123, },
		},
		{
			{0.073928, -0.245357, -0.327627, },
			{0.038006, -0.107919, 0.214744, },
			{-0.035565, 0.070624, 0.074822, },
		},
		{
			{0.061699, -0.046361, -0.024917, },
			{0.098182, 0.031329, 0.013541, },
			{0.164425, -0.263805, 0.206833, },
		},
		{
			{0.008587, 0.029935, 0.094783, },
			{0.105135, 0.004356, 0.041440, },
			{-0.240890, -0.015459, 0.094599, },
		},
		{
			{-0.003960, 0.098756, 0.013296, },
			{0.071585, 0.120534, 0.087807, },
			{-0.097423, -0.396759, 0.003777, },
		},
		{
			{0.110960, 0.187437, 0.180357, },
			{0.018222, -0.191489, -0.136417, },
			{-0.080488, -0.158412, -0.238014, },
		},
		{
			{-0.061169, -0.096318, 0.007960, },
			{-0.131792, 0.052697, 0.183247, },
			{-0.017671, 0.112151, -0.101239, },
		},
		{
			{0.112155, 0.136084, 0.098722, },
			{-0.034967, -0.059890, 0.203736, },
			{-0.186160, -0.051594, -0.188442, },
		},
		{
			{-0.058940, -0.094147, 0.119072, },
			{0.045102, -0.086646, 0.081585, },
			{-0.094067, -0.034826, -0.039312, },
		},
		{
			{-0.139214, 0.153599, 0.059509, },
			{0.073105, 0.004097, 0.132472, },
			{0.039857, -0.209206, 0.038323, },
		},
		{
			{-0.168791, -0.383603, -0.627162, },
			{-0.089951, -0.155874, 0.034578, },
			{0.006889, 0.183689, 0.059718, },
		},
		{
			{-0.041522, 0.131266, -0.018247, },
			{-0.028731, -0.113385, -0.078130, },
			{0.249265, -0.231322, -0.055777, },
		},
	},

	{
		{
			{0.213943, 0.107522, -0.364711, },
			{-0.172950, -0.009853, 0.152577, },
			{-0.198125, 0.076965, 0.104255, },
		},
		{
			{0.109785, -0.113942, -0.378461, },
			{0.201012, 0.057893, -0.154903, },
			{0.053916, 0.235450, -0.002075, },
		},
		{
			{0.232946, 0.202388, -0.163333, },
			{-0.199443, 0.127082, 0.115250, },
			{-0.191876, -0.032684, 0.250566, },
		},
		{
			{-0.205398, -0.494971, 0.097429, },
			{-0.177010, -0.042952, -0.154422, },
			{0.170364, 0.032070, 0.153158, },
		},
		{
			{-0.054730, -0.069879, -0.169457, },
			{0.150668, 0.122026, -0.215065, },
			{0.157414, 0.071445, -0.068983, },
		},
		{
			{-0.340800, -0.135240, 0.136153, },
			{-0.114468, -0.203587, -0.189567, },
			{0.057099, -0.279715, 0.030970, },
		},
		{
			{-0.479657, -0.364436, -0.180550, },
			{-0.262687, -0.013689, -0.298119, },
			{-0.203971, -0.299373, 0.035775, },
		},
		{
			{0.063614, -0.273677, -0.122356, },
			{0.173236, -0.103608, -0.175033, },
			{0.062021, -0.030957, -0.069322, },
		},
		{
			{-0.418007, -0.321771, 0.074701, },
			{-0.088760, -0.286565, -0.407364, },
			{0.029072, -0.273310, 0.246011, },
		},
		{
			{0.129618, -0.088342, -0.266206, },
			{0.204175, 0.042833, 0.093237, },
			{0.208566, 0.183560, -0.004710, },
		},
		{
			{-0.452476, -0.521515, 0.090834, },
			{-0.144643, 0.043211, -0.060634, },
			{0.130616, -0.056724, -0.120950, },
		},
		{
			{0.115082, -0.202636, -0.219206, },
			{-0.000751, -0.022999, -0.098158, },
			{0.163226, 0.097355, 0.018319, },
		},
		{
			{-0.107990, -0.223418, 0.029641, },
			{-0.126674, -0.249835, -0.287599, },
			{-0.111350, -0.276846, 0.283127, },
		},
		{
			{-0.199668, -0.184781, -0.377554, },
			{0.078431, -0.053389, -0.200071, },
			{-0.056034, -0.167481, 0.202567, },
		},
		{
			{-0.288224, -0.066729, 0.087392, },
			{0.051583, 0.129178, 0.118334, },
			{0.055920, -0.270886, -0.173603, },
		},
		{
			{0.080675, -0.076484, -0.354364, },
			{0.177419, 0.171770, -0.081106, },
			{0.143194, 0.273901, -0.012821, },
		},
	},

	{
		{
			{0.086880, -0.223179, -0.264037, },
			{0.395313, 0.109697, -0.032613, },
			{-0.181887, -0.023222, 0.115715, },
		},
		{
			{-0.138970, -0.134135, 0.171289, },
			{0.163313, 0.090180, -0.128228, },
			{0.141197, 0.243099, 0.149991, },
		},
		{
			{0.133128, -0.339319, -0.405286, },
			{0.450278, 0.312489, 0.128509, },
			{-0.355965, 0.035448, 0.037423, },
		},
		{
			{-0.171786, 0.188340, 0.115850, },
			{0.238064, -0.264783, -0.354758, },
			{0.118680, -0.267193, -0.138379, },
		},
		{
			{-0.162389, -0.096749, 0.003074, },
			{-0.050717, -0.152128, -0.136211, },
			{0.167508, 0.092622, 0.022706, },
		},
		{
			{-0.002811, 0.017025, -0.033387, },
			{-0.215976, -0.044994, 0.042764, },
			{0.093597, 0.002972, -0.057596, },
		},
		{
			{0.167993, 0.127251, 0.063629, },
			{0.053789, -0.467156, -0.245078, },
			{-0.154238, -0.448361, -0.203268, },
		},
		{
			{-0.174403, -0.083581, -0.193122, },
			{0.091021, 0.003522, -0.009353, },
			{0.090089, 0.028643, 0.025458, },
		},
		{
			{-0.010723, 0.136572, 0.110719, },
			{0.213822, -0.418433, -0.322221, },
			{0.020290, -0.239130, -0.184898, },
		},
		{
			{-0.210205, -0.098304, -0.093660, },
			{0.200149, -0.030005, -0.235749, },
			{0.177361, 0.255293, 0.090987, },
		},
		{
			{-0.053728, 0.194503, -0.045047, },
			{0.049736, -0.166686, -0.163276, },
			{0.300869, -0.148404, -0.144009, },
		},
		{
			{-0.309551, -0.175334, -0.070175, },
			{0.167680, -0.198051, -0.197348, },
			{0.339218, 0.021908, 0.065792, },
		},
		{
			{0.162760, 0.023654, -0.005272, },
			{-0.169236, -0.096530, -0.085642, },
			{0.027965, -0.344726, -0.070330, },
		},
		{
			{-0.121992, -0.000499, 0.003265, },
			{-0.021827, -0.356571, -0.185582, },
			{-0.016754, 0.029464, -0.062524, },
		},
		{
			{-0.293321, 0.024989, 0.184770, },
			{-0.283836, -0.041739, 0.068831, },
			{-0.168548, -0.049353, 0.064877, },
		},
		{
			{-0.022749, -0.008437, -0.066433, },
			{0.151701, 0.044440, -0.239927, },
			{-0.098117, 0.238592, 0.128414, },
		},
	},

	{
		{
			{-0.690519, -0.094918, -0.197913, },
			{-0.425976, -0.013686, -0.035915, },
			{0.080073, -0.131808, -0.018871, },
		},
		{
			{-0.046549, 0.101253, -0.063694, },
			{-0.224827, -0.077905, 0.077986, },
			{0.089595, -0.035414, 0.191560, },
		},
		{
			{-0.657713, -0.350586, -0.179720, },
			{-0.278096, -0.029963, 0.072289, },
			{0.098576, -0.396977, 0.313037, },
		},
		{
			{0.185960, -0.021414, -0.246366, },
			{0.053532, 0.236754, -0.379320, },
			{-0.114003, 0.306712, -0.109417, },
		},
		{
			{0.074736, -0.092399, 0.038528, },
			{-0.120177, -0.006162, -0.016477, },
			{-0.183364, -0.017723, 0.152974, },
		},
		{
			{-0.028707, -0.022677, 0.099698, },
			{-0.132806, 0.258385, -0.076602, },
			{-0.362464, 0.114555, -0.289056, },
		},
		{
			{0.015804, -0.320856, 0.018189, },
			{-0.157651, -0.289017, -0.275889, },
			{-0.273344, -0.232294, -0.384236, },
		},
		{
			{0.091430, 0.119211, 0.069718, },
			{-0.064420, 0.107956, -0.184134, },
			{-0.164953, 0.148209, -0.011992, },
		},
		{
			{0.044936, -0.031425, -0.382872, },
			{0.016786, 0.091905, -0.168900, },
			{-0.236632, 0.123685, -0.164853, },
		},
		{
			{0.077700, -0.027959, -0.081606, },
			{-0.266244, 0.108669, 0.078044, },
			{0.035660, 0.133581, 0.162518, },
		},
		{
			{0.161445, 0.070203, -0.233088, },
			{-0.007329, 0.261741, -0.152259, },
			{-0.091296, 0.484272, -0.014035, },
		},
		{
			{0.017335, 0.048932, -0.132658, },
			{-0.197486, 0.132377, 0.014516, },
			{-0.321378, 0.201873, 0.159820, },
		},
		{
			{-0.023614, -0.059976, 0.191140, },
			{-0.076828, -0.011522, 0.004139, },
			{-0.083298, 0.010509, -0.165169, },
		},
		{
			{-0.105578, -0.280112, -0.082315, },
			{-0.320656, -0.082850, 0.142180, },
			{-0.435934, -0.199558, -0.012710, },
		},
		{
			{-0.010260, 0.193074, 0.222295, },
			{-0.011509, 0.169819, 0.021396, },
			{-0.372621, 0.040474, -0.229569, },
		},
		{
			{-0.000174, 0.103323, 0.070595, },
			{-0.283372, -0.069925, 0.152832, },
			{-0.015714, -0.193588, 0.068548, },
		},
	},

	{
		{
			{0.044950, 0.003323, -0.183561, },
			{0.157647, 0.154307, 0.083042, },
			{0.010556, 0.011221, 0.188706, },
		},
		{
			{0.041804, -0.188908, -0.207057, },
			{-0.177488, -0.003014, -0.048526, },
			{-0.149938, -0.165798, 0.035865, },
		},
		{
			{0.271925, 0.164975, -0.118315, },
			{-0.014096, 0.320169, 0.100447, },
			{-0.069551, -0.119554, 0.020784, },
		},
		{
			{0.326562, 0.046438, 0.130998, },
			{0.430144, 0.209360, -0.303503, },
			{0.018081, 0.182196, 0.038946, },
		},
		{
			{-0.031109, -0.218467, -0.137468, },
			{0.058729, -0.097932, -0.274952, },
			{-0.144270, 0.033022, -0.164781, },
		},
		{
			{-0.113763, -0.360807, -0.111418, },
			{-0.161267, -0.149536, -0.260073, },
			{-0.076404, 0.113181, -0.271023, },
		},
		{
			{-0.187494, -0.004519, -0.021757, },
			{0.121954, -0.213147, -0.217660, },
			{0.042158, -0.021489, -0.011780, },
		},
		{
			{-0.218505, -0.301227, -0.169491, },
			{-0.051649, 0.000318, -0.299695, },
			{-0.199548, -0.095162, -0.230287, },
		},
		{
			{-0.066114, -0.201282, -0.025850, },
			{0.370434, 0.008258, -0.385100, },
			{0.050161, -0.011543, -0.147863, },
		},
		{
			{-0.017088, -0.050720, -0.387460, },
			{0.084117, 0.040333, -0.171878, },
			{-0.284070, 0.106860, 0.035428, },
		},
		{
			{-0.136332, -0.219418, 0.110827, },
			{0.357276, -0.037975, -0.306432, },
			{0.089454, 0.363471, -0.023311, },
		},
		{
			{-0.015887, -0.092428, -0.133284, },
			{0.110596, 0.086626, -0.343247, },
			{-0.274747, 0.114140, 0.044525, },
		},
		{
			{-0.025071, -0.084113, -0.060198, },
			{0.067099, -0.206630, -0.347848, },
			{-0.077683, -0.030714, -0.248383, },
		},
		{
			{-0.105404, 0.033260, -0.147336, },
			{0.189713, 0.076790, -0.287722, },
			{-0.125532, 0.117621, 0.003131, },
		},
		{
			{-0.235647, -0.455284, -0.037368, },
			{-0.202753, -0.177529, -0.062253, },
			{0.039545, 0.077071, -0.048697, },
		},
		{
			{-0.118012, -0.048638, -0.096727, },
			{-0.071971, 0.100391, -0.126698, },
			{-0.305384, 0.029482, 0.174806, },
		},
	},

	{
		{
			{-0.529399, -0.391229, -0.200494, },
			{0.419189, 0.155629, -0.227840, },
			{0.044305, 0.158184, 0.091723, },
		},
		{
			{-0.075254, 0.105003, 0.185599, },
			{-0.131507, -0.157792, -0.108702, },
			{-0.038930, 0.205067, 0.031070, },
		},
		{
			{-0.645519, -0.564608, -0.362230, },
			{0.234033, 0.249963, -0.003571, },
			{0.175420, 0.248736, 0.181815, },
		},
		{
			{0.315459, 0.330946, 0.170411, },
			{-0.255426, -0.016966, 0.117092, },
			{-0.102346, -0.255644, -0.245832, },
		},
		{
			{-0.040974, -0.002078, 0.218439, },
			{-0.263279, -0.267760, 0.037515, },
			{0.171280, 0.209984, -0.029701, },
		},
		{
			{-0.180008, 0.010961, 0.204326, },
			{-0.332505, -0.339525, -0.121636, },
			{-0.026254, 0.001215, -0.015360, },
		},
		{
			{0.118547, 0.061172, 0.245606, },
			{-0.171034, 0.051876, 0.060120, },
			{-0.281157, -0.465076, -0.320115, },
		},
		{
			{-0.140319, 0.216395, 0.234734, },
			{-0.117428, -0.234173, -0.216372, },
			{0.142621, 0.068287, 0.153483, },
		},
		{
			{0.303865, 0.199979, 0.171784, },
			{-0.140151, 0.094440, 0.069462, },
			{-0.105696, -0.602128, -0.092242, },
		},
		{
			{-0.172269, -0.060708, 0.042965, },
			{-0.204662, -0.105493, -0.036677, },
			{0.226567, 0.224120, 0.006643, },
		},
		{
			{0.318182, 0.267381, 0.117207, },
			{-0.136253, 0.016663, 0.028904, },
			{-0.004953, -0.152220, -0.414327, },
		},
		{
			{0.061612, 0.158392, 0.273148, },
			{-0.362470, -0.235386, -0.048590, },
			{0.080550, 0.064732, -0.040089, },
		},
		{
			{-0.114552, 0.183775, 0.182817, },
			{-0.410460, -0.250195, -0.018199, },
			{0.116300, -0.029816, -0.029631, },
		},
		{
			{0.213452, 0.153590, 0.152400, },
			{-0.443246, -0.240869, 0.005983, },
			{0.028248, -0.102329, -0.108272, },
		},
		{
			{0.028565, -0.045808, 0.069051, },
			{-0.289627, -0.267519, -0.333587, },
			{-0.005202, 0.105303, -0.095104, },
		},
		{
			{-0.086992, 0.061528, 0.048709, },
			{-0.137808, -0.338721, -0.151446, },
			{0.111483, 0.164616, 0.092708, },
		},
	},

	{
		{
			{0.345854, 0.184525, -0.018802, },
			{-0.021893, 0.239870, 0.321795, },
			{-0.094851, -0.223989, 0.057641, },
		},
		{
			{-0.347494, -0.098274, -0.171740, },
			{-0.084121, -0.028532, 0.195880, },
			{-0.114471, -0.114647, 0.199759, },
		},
		{
			{0.279245, 0.330929, 0.040365, },
			{-0.127481, -0.057696, 0.278625, },
			{0.012570, -0.276924, 0.031264, },
		},
		{
			{-0.496974, -0.200920, 0.322229, },
			{0.079711, 0.241888, 0.135633, },
			{-0.034686, -0.060746, -0.082842, },
		},
		{
			{-0.390490, -0.330644, -0.144858, },
			{-0.146122, 0.162349, 0.023182, },
			{-0.128593, 0.095575, 0.218545, },
		},
		{
			{0.144666, -0.078419, -0.097921, },
			{0.096506, -0.000664, -0.182124, },
			{-0.069885, -0.005123, -0.140775, },
		},
		{
			{-0.361989, -0.155440, -0.187787, },
			{-0.021519, -0.082355, -0.120378, },
			{-0.233822, -0.199336, -0.148327, },
		},
		{
			{-0.335862, -0.223326, -0.275751, },
			{-0.036571, 0.057415, -0.009040, },
			{-0.173239, 0.122324, 0.225471, },
		},
		{
			{-0.676018, -0.148272, 0.163319, },
			{-0.091998, 0.043863, -0.004818, },
			{-0.140273, 0.002700, 0.081369, },
		},
		{
			{-0.334788, -0.102748, -0.156609, },
			{-0.043343, 0.074190, 0.074135, },
			{-0.035463, 0.183489, 0.279449, },
		},
		{
			{-0.318329, -0.228141, 0.025272, },
			{0.003721, 0.187354, -0.072444, },
			{0.051217, 0.052186, 0.143693, },
		},
		{
			{-0.627584, -0.505072, -0.428985, },
			{-0.044847, 0.174077, -0.019066, },
			{-0.124223, 0.057535, 0.248955, },
		},
		{
			{-0.068314, -0.175784, -0.237048, },
			{0.198584, -0.061955, 0.012608, },
			{0.097131, 0.208311, -0.181222, },
		},
		{
			{-0.489152, -0.662405, -0.341021, },
			{-0.001944, 0.140404, 0.060673, },
			{-0.173895, -0.150299, -0.095181, },
		},
		{
			{0.156807, -0.040010, -0.320061, },
			{0.031724, -0.035171, -0.228192, },
			{-0.147173, -0.058208, -0.186199, },
		},
		{
			{-0.197271, -0.212583, -0.173326, },
			{0.051225, 0.072736, 0.099916, },
			{-0.093366, -0.029473, -0.036781, },
		},
	},

	{
		{
			{-0.319620, -0.009756, 0.017342, },
			{0.145983, 0.093097, -0.086809, },
			{0.101018, -0.168526, -0.314720, },
		},
		{
			{-0.384660, -0.215597, -0.014947, },
			{-0.071435, -0.159763, -0.075662, },
			{-0.047940, 0.005389, 0.086588, },
		},
		{
			{-0.436167, 0.053536, -0.006936, },
			{-0.021650, 0.111579, -0.136517, },
			{-0.027792, -0.228400, -0.237560, },
		},
		{
			{-0.288061, 0.010645, -0.054147, },
			{-0.273052, -0.020347, -0.226419, },
			{0.100334, -0.100248, -0.131813, },
		},
		{
			{-0.279049, -0.155616, -0.022170, },
			{0.111258, 0.108523, 0.129960, },
			{-0.016006, 0.145671, 0.171976, },
		},
		{
			{-0.285688, 0.042725, 0.088016, },
			{0.226147, 0.049991, 0.142225, },
			{0.061736, 0.051004, 0.045141, },
		},
		{
			{-0.299670, -0.185922, -0.411994, },
			{-0.062467, -0.192233, -0.307837, },
			{0.240157, -0.046877, -0.335604, },
		},
		{
			{-0.231098, -0.222814, 0.079174, },
			{0.076087, 0.035581, 0.143126, },
			{-0.040426, 0.009703, 0.088681, },
		},
		{
			{-0.276090, -0.282312, -0.069906, },
			{-0.396840, -0.070765, -0.418427, },
			{0.143121, 0.044902, -0.180365, },
		},
		{
			{-0.298851, -0.252903, 0.083344, },
			{-0.086182, -0.011677, -0.108204, },
			{-0.273683, -0.105322, 0.151230, },
		},
		{
			{-0.117841, -0.073221, 0.160624, },
			{-0.152014, -0.064526, -0.070262, },
			{-0.153563, 0.022729, -0.197415, },
		},
		{
			{-0.290567, -0.162839, -0.059420, },
			{-0.367353, -0.187640, -0.058485, },
			{0.022660, 0.013021, 0.171737, },
		},
		{
			{-0.216831, -0.264916, -0.113659, },
			{0.334284, 0.161794, 0.147564, },
			{0.261774, -0.027007, -0.002280, },
		},
		{
			{-0.076198, -0.226521, -0.244144, },
			{-0.104267, -0.140712, -0.020804, },
			{0.101895, -0.103489, -0.181186, },
		},
		{
			{-0.201648, 0.064338, 0.298632, },
			{-0.004497, -0.039871, 0.011116, },
			{0.022898, -0.126851, -0.071598, },
		},
		{
			{-0.263833, -0.292016, -0.052369, },
			{-0.192665, -0.036243, -0.142610, },
			{-0.053000, -0.066598, 0.133188, },
		},
	},

	{
		{
			{-0.192766, -0.528860, -0.240757, },
			{-0.550635, -0.145369, 0.261532, },
			{-0.118742, 0.021177, 0.201590, },
		},
		{
			{0.161196, 0.270437, -0.214371, },
			{0.003806, -0.172985, -0.202715, },
			{-0.060795, -0.094801, 0.039453, },
		},
		{
			{-0.276490, -0.432001, -0.357776, },
			{-0.488846, -0.040562, 0.182122, },
			{-0.209099, 0.201921, 0.170383, },
		},
		{
			{0.133114, -0.056968, -0.340335, },
			{0.021808, -0.364540, -0.533967, },
			{-0.520990, -0.304104, 0.233925, },
		},
		{
			{0.211632, -0.009658, -0.340985, },
			{0.024046, -0.190841, 0.035350, },
			{-0.127275, -0.018390, 0.094845, },
		},
		{
			{0.016736, 0.368472, -0.034815, },
			{-0.411868, -0.112427, 0.117802, },
			{-0.280839, 0.101046, 0.039985, },
		},
		{
			{0.181177, 0.172826, -0.154886, },
			{0.327965, 0.122757, -0.330935, },
			{0.057997, -0.291595, 0.073670, },
		},
		{
			{0.294523, 0.029016, -0.276450, },
			{0.041686, -0.294555, -0.069475, },
			{-0.083862, -0.052614, 0.227766, },
		},
		{
			{0.141941, 0.043028, -0.342581, },
			{0.074217, 0.038075, -0.291010, },
			{-0.126296, -0.428734, 0.147838, },
		},
		{
			{0.357784, -0.022906, -0.230975, },
			{-0.066742, -0.224218, -0.220898, },
			{-0.236793, -0.054043, -0.082276, },
		},
		{
			{0.118205, -0.354803, -0.284441, },
			{-0.254072, -0.277930, -0.104334, },
			{-0.186123, 0.022278, 0.068957, },
		},
		{
			{0.357305, 0.030227, -0.332185, },
			{-0.006953, -0.076959, -0.243567, },
			{-0.219908, -0.151916, 0.070141, },
		},
		{
			{0.127395, -0.107705, -0.246589, },
			{-0.150682, -0.368636, 0.016414, },
			{-0.127925, 0.218233, 0.387774, },
		},
		{
			{0.198943, 0.070669, -0.208751, },
			{0.249583, 0.048583, -0.299701, },
			{-0.122536, -0.174953, 0.125226, },
		},
		{
			{0.112537, 0.468183, -0.092403, },
			{-0.466170, 0.033233, 0.096835, },
			{0.064070, 0.389158, 0.126064, },
		},
		{
			{0.272171, 0.104423, -0.147331, },
			{-0.002452, 0.018695, -0.317659, },
			{-0.083815, -0.131201, 0.081861, },
		},
	},

	{
		{
			{-0.336962, -0.021181, -0.012490, },
			{0.025912, 0.015672, 0.120824, },
			{0.113914, -0.035669, 0.168851, },
		},
		{
			{-0.082123, 0.193670, -0.252293, },
			{-0.109794, -0.043789, -0.162589, },
			{0.087490, -0.278747, -0.153653, },
		},
		{
			{-0.464270, 0.009951, 0.224464, },
			{0.235890, 0.119900, 0.169471, },
			{0.038343, -0.182527, 0.087563, },
		},
		{
			{0.299987, 0.003493, -0.198898, },
			{-0.103265, 0.235198, 0.132436, },
			{-0.239065, 0.095220, -0.138340, },
		},
		{
			{-0.066182, -0.176806, -0.211598, },
			{-0.017431, 0.080255, -0.077159, },
			{-0.046248, -0.030756, -0.361533, },
		},
		{
			{0.163794, -0.030458, -0.031149, },
			{-0.028611, 0.140773, -0.011817, },
			{-0.025267, -0.401184, -0.145949, },
		},
		{
			{0.118913, -0.155846, -0.259123, },
			{-0.241194, 0.031579, 0.049443, },
			{0.171094, 0.342013, 0.122803, },
		},
		{
			{0.011547, -0.033837, -0.212028, },
			{-0.074422, 0.070916, -0.070088, },
			{0.088732, -0.272811, -0.350391, },
		},
		{
			{-0.024375, 0.091954, -0.332520, },
			{-0.046879, 0.141166, 0.214749, },
			{0.098222, 0.067052, 0.126403, },
		},
		{
			{0.114266, 0.196026, -0.313773, },
			{0.130513, 0.064573, -0.132710, },
			{-0.135812, -0.100773, -0.133531, },
		},
		{
			{0.259415, 0.151913, -0.024489, },
			{0.030452, -0.171811, 0.058649, },
			{-0.156204, -0.099964, -0.140181, },
		},
		{
			{-0.020785, 0.113860, -0.272616, },
			{-0.153129, -0.078379, 0.033585, },
			{-0.126800, 0.094261, -0.079760, },
		},
		{
			{0.107093, 0.029376, -0.071653, },
			{0.093067, 0.249825, 0.264768, },
			{0.160273, -0.101902, -0.251910, },
		},
		{
			{-0.013917, -0.022051, -0.273404, },
			{-0.279508, 0.150130, -0.039769, },
			{0.042028, 0.107182, 0.098546, },
		},
		{
			{0.064074, -0.102114, -0.011257, },
			{-0.010424, -0.179899, -0.412252, },
			{-0.205164, -0.205362, -0.130500, },
		},
		{
			{-0.030936, 0.195582, -0.063899, },
			{-0.054459, 0.071251, -0.029007, },
			{-0.031127, -0.080358, -0.218184, },
		},
	},

	{
		{
			{0.063530, -0.079154, -0.037969, },
			{0.002321, -0.072845, -0.372585, },
			{-0.025184, -0.081505, 0.079774, },
		},
		{
			{-0.129051, -0.007894, 0.158597, },
			{-0.037602, 0.035027, 0.191862, },
			{-0.096109, 0.098309, 0.221720, },
		},
		{
			{0.063869, -0.141412, -0.001485, },
			{0.159211, -0.223052, -0.339723, },
			{-0.101700, -0.360198, -0.013152, },
		},
		{
			{-0.000064, -0.400670, -0.135970, },
			{-0.084141, -0.377904, -0.208012, },
			{-0.238387, -0.266159, -0.149774, },
		},
		{
			{-0.131628, 0.085575, 0.118244, },
			{0.132792, 0.129965, 0.219464, },
			{0.181647, 0.003461, 0.054090, },
		},
		{
			{0.048271, 0.197808, 0.069594, },
			{0.203693, 0.063519, -0.149056, },
			{-0.069839, -0.041696, -0.038469, },
		},
		{
			{-0.305023, -0.687381, -0.091934, },
			{-0.558697, -0.652992, -0.052059, },
			{-0.323112, -0.322917, 0.174022, },
		},
		{
			{0.113695, 0.069184, 0.120441, },
			{0.048448, 0.150102, 0.099527, },
			{0.072796, 0.089348, 0.126183, },
		},
		{
			{-0.258176, -0.416158, -0.264345, },
			{-0.213302, -0.577076, 0.015769, },
			{-0.127655, -0.310152, -0.190045, },
		},
		{
			{-0.011961, -0.066743, 0.125446, },
			{-0.165093, -0.030493, 0.017985, },
			{0.018943, 0.174004, 0.210306, },
		},
		{
			{0.111552, -0.121597, -0.156529, },
			{0.045834, -0.177820, -0.297532, },
			{-0.100843, -0.176857, -0.204735, },
		},
		{
			{-0.095567, 0.100969, 0.095328, },
			{0.002121, -0.030643, 0.125817, },
			{0.113505, 0.064337, 0.005109, },
		},
		{
			{-0.052772, 0.006850, 0.013592, },
			{0.009519, -0.020447, -0.086759, },
			{-0.071722, 0.040196, -0.203460, },
		},
		{
			{-0.201639, -0.179495, 0.099424, },
			{-0.311054, 0.077431, 0.062150, },
			{-0.156470, 0.038788, 0.145472, },
		},
		{
			{0.165705, 0.100113, 0.102757, },
			{0.149729, -0.034531, -0.079138, },
			{0.025568, -0.134959, 0.160736, },
		},
		{
			{-0.167590, -0.091969, 0.137431, },
			{-0.128361, -0.134211, 0.108055, },
			{-0.186015, -0.010158, 0.092911, },
		},
	},

	{
		{
			{-0.182393, -0.004944, -0.153384, },
			{-0.092717, -0.151372, -0.317045, },
			{-0.388491, -0.139274, -0.171743, },
		},
		{
			{-0.049814, 0.186593, -0.110619, },
			{0.048504, 0.091064, -0.020186, },
			{0.030239, -0.000577, -0.103222, },
		},
		{
			{-0.104417, -0.067169, -0.023443, },
			{-0.081859, -0.276029, -0.253969, },
			{-0.673200, -0.125292, 0.112208, },
		},
		{
			{0.196012, -0.124719, 0.078914, },
			{0.050440, -0.209592, -0.140594, },
			{-0.048169, -0.162441, -0.363375, },
		},
		{
			{-0.004540, 0.115323, -0.247037, },
			{0.142345, 0.146938, -0.137507, },
			{0.053902, 0.082576, -0.294440, },
		},
		{
			{0.287379, -0.151361, -0.717431, },
			{0.242608, -0.202157, -0.484992, },
			{0.136103, -0.095907, -0.388861, },
		},
		{
			{-0.355224, -0.127595, 0.048886, },
			{-0.263916, -0.019765, -0.106937, },
			{0.015132, -0.096435, -0.084519, },
		},
		{
			{0.033386, 0.105169, -0.306364, },
			{0.141614, 0.010894, -0.204576, },
			{0.134917, -0.005240, -0.266172, },
		},
		{
			{-0.025065, 0.040195, 0.054113, },
			{-0.090817, 0.033832, -0.215173, },
			{-0.176805, -0.008987, -0.168092, },
		},
		{
			{-0.070976, 0.059038, -0.013188, },
			{0.126592, -0.011461, -0.082564, },
			{0.028576, -0.037508, -0.207544, },
		},
		{
			{0.326338, -0.158651, 0.031967, },
			{0.232848, -0.388314, -0.173126, },
			{-0.074525, -0.304413, -0.365804, },
		},
		{
			{0.069420, 0.056251, -0.130130, },
			{0.138815, 0.101129, -0.085752, },
			{0.081880, -0.001180, -0.217560, },
		},
		{
			{0.237989, -0.073835, -0.516902, },
			{0.063765, 0.078780, -0.323914, },
			{0.224949, -0.190930, -0.134823, },
		},
		{
			{-0.148017, 0.190062, -0.190313, },
			{-0.102512, 0.064498, -0.154689, },
			{0.053514, 0.037874, -0.101547, },
		},
		{
			{0.162547, 0.034621, -0.667122, },
			{0.327764, -0.078524, -0.368447, },
			{0.163869, 0.017712, -0.310384, },
		},
		{
			{-0.222437, 0.154540, -0.098360, },
			{0.021966, 0.178966, -0.110782, },
			{0.127351, -0.030210, 0.049652, },
		},
	},

	{
		{
			{-0.138834, -0.077554, -0.133959, },
			{0.061706, -0.200169, -0.498739, },
			{-0.428771, -0.286813, -0.166282, },
		},
		{
			{-0.373357, -0.031417, 0.010674, },
			{0.114927, 0.090981, 0.072019, },
			{0.036622, -0.036768, -0.165441, },
		},
		{
			{-0.134365, -0.184152, -0.253733, },
			{0.061211, -0.387828, -0.326522, },
			{-0.390346, -0.295152, -0.146761, },
		},
		{
			{0.066211, -0.189286, 0.153684, },
			{0.048172, 0.067863, -0.102358, },
			{-0.005419, -0.158447, 0.081440, },
		},
		{
			{-0.157119, 0.176293, 0.052171, },
			{0.071106, 0.104120, -0.069732, },
			{0.086976, -0.134579, -0.212908, },
		},
		{
			{0.035484, 0.153845, -0.181134, },
			{0.138326, 0.055370, -0.083622, },
			{-0.064343, -0.171350, 0.189920, },
		},
		{
			{-0.256051, -0.031888, 0.016978, },
			{-0.257240, 0.073995, 0.143961, },
			{0.080670, 0.261420, -0.142146, },
		},
		{
			{0.020815, 0.103180, 0.126357, },
			{0.166138, 0.111996, -0.113611, },
			{-0.012483, -0.113227, -0.178016, },
		},
		{
			{0.120065, -0.129560, 0.057804, },
			{-0.064368, -0.070721, 0.060836, },
			{0.219823, 0.033362, 0.052964, },
		},
		{
			{-0.159749, 0.003838, -0.036949, },
			{0.049431, -0.109908, -0.004851, },
			{0.018701, 0.019390, -0.082494, },
		},
		{
			{0.214181, -0.147759, 0.005732, },
			{0.026092, -0.123283, 0.055354, },
			{-0.070608, 0.024736, 0.115518, },
		},
		{
			{0.166697, -0.025187, 0.156707, },
			{-0.071842, 0.018264, 0.106665, },
			{-0.010715, -0.038610, -0.193004, },
		},
		{
			{-0.252386, 0.022966, -0.321027, },
			{0.242172, 0.165899, -0.359909, },
			{0.153677, -0.099073, -0.194701, },
		},
		{
			{-0.352423, -0.091116, 0.073821, },
			{0.015161, 0.266825, 0.032717, },
			{0.201995, -0.004616, 0.088928, },
		},
		{
			{-0.062521, 0.010552, -0.128380, },
			{0.267095, 0.057833, -0.001350, },
			{-0.051379, 0.122304, 0.373593, },
		},
		{
			{-0.316869, -0.261118, -0.124755, },
			{-0.097345, 0.129057, -0.115512, },
			{0.026916, 0.104140, -0.065509, },
		},
	},

	{
		{
			{-0.122423, 0.287128, 0.099206, },
			{0.059695, 0.042472, -0.268089, },
			{0.084280, -0.363847, 0.188584, },
		},
		{
			{-0.339601, -0.285414, -0.017556, },
			{-0.228065, 0.041350, 0.021741, },
			{0.230976, 0.014153, -0.204969, },
		},
		{
			{-0.279109, 0.278551, 0.089347, },
			{0.012587, -0.106192, -0.294649, },
			{-0.066670, -0.046625, 0.255559, },
		},
		{
			{-0.072842, -0.351119, 0.059336, },
			{-0.481575, -0.213088, 0.033230, },
			{-0.305311, 0.097788, -0.128785, },
		},
		{
			{-0.213580, -0.010379, -0.011108, },
			{0.060227, 0.112411, -0.190315, },
			{0.014051, -0.196565, -0.215640, },
		},
		{
			{-0.228858, 0.182366, 0.289900, },
			{0.338022, 0.266726, -0.365396, },
			{0.244177, -0.211778, 0.009298, },
		},
		{
			{-0.222334, -0.214414, 0.236412, },
			{-0.388398, 0.221640, 0.304711, },
			{-0.011315, -0.052306, -0.230980, },
		},
		{
			{-0.224022, -0.005941, 0.218515, },
			{0.177026, 0.103895, -0.097490, },
			{0.031672, -0.083793, -0.077105, },
		},
		{
			{0.114151, -0.303286, 0.090042, },
			{-0.446092, -0.080053, 0.010342, },
			{-0.146340, -0.034639, -0.144244, },
		},
		{
			{-0.133687, -0.051028, 0.082046, },
			{-0.317684, -0.223238, -0.013573, },
			{0.036398, 0.150457, 0.093818, },
		},
		{
			{0.173998, -0.011971, -0.396843, },
			{-0.171743, -0.328501, -0.123453, },
			{-0.206671, 0.107228, 0.150024, },
		},
		{
			{-0.097570, -0.106017, -0.204514, },
			{-0.154321, -0.031888, 0.172437, },
			{-0.201936, 0.087858, -0.236970, },
		},
		{
			{-0.425647, 0.013204, 0.482703, },
			{0.332185, 0.418358, 0.108011, },
			{0.333763, -0.170898, 0.072939, },
		},
		{
			{-0.213074, -0.155512, 0.136744, },
			{-0.137511, 0.196789, -0.057147, },
			{0.112602, 0.051019, -0.196822, },
		},
		{
			{0.044815, 0.065988, 0.231311, },
			{0.325639, 0.166166, -0.269214, },
			{0.087955, -0.093617, -0.185726, },
		},
		{
			{-0.092438, -0.315011, -0.046453, },
			{-0.129278, 0.129882, -0.079501, },
			{0.158864, 0.116624, -0.095515, },
		},
	},

	{
		{
			{0.039191, 0.164568, 0.129248, },
			{-0.073654, 0.056601, 0.064364, },
			{-0.264208, -0.040553, -0.286983, },
		},
		{
			{0.073057, 0.091501, -0.131397, },
			{0.025517, 0.105168, 0.038836, },
			{-0.235053, -0.207012, -0.009122, },
		},
		{
			{0.115565, 0.177013, 0.294520, },
			{-0.188687, 0.089159, 0.173820, },
			{-0.330988, -0.131931, -0.132644, },
		},
		{
			{-0.051183, -0.234985, -0.089974, },
			{0.203156, 0.255472, 0.208903, },
			{-0.047558, -0.000695, 0.261111, },
		},
		{
			{-0.044555, -0.168844, -0.084288, },
			{-0.022480, 0.012120, -0.094597, },
			{-0.152641, -0.109596, 0.086912, },
		},
		{
			{0.025466, -0.057211, 0.047147, },
			{-0.165041, -0.301297, -0.151776, },
			{-0.168889, -0.217795, 0.082649, },
		},
		{
			{-0.173534, -0.364854, -0.181617, },
			{0.108872, 0.122928, 0.016703, },
			{-0.015019, 0.166242, 0.047142, },
		},
		{
			{0.112259, -0.143567, 0.012608, },
			{0.014829, -0.024998, -0.024448, },
			{-0.155754, -0.145539, 0.091422, },
		},
		{
			{-0.262188, -0.280293, -0.313896, },
			{0.177971, 0.257725, 0.164363, },
			{-0.027949, 0.062328, 0.239672, },
		},
		{
			{-0.102981, 0.194447, 0.000628, },
			{0.094756, 0.136025, -0.121925, },
			{-0.235897, -0.266215, -0.064952, },
		},
		{
			{0.054165, -0.287015, -0.085207, },
			{0.003376, 0.075915, 0.049532, },
			{-0.228680, 0.205841, 0.215201, },
		},
		{
			{-0.055804, -0.219210, -0.121475, },
			{0.125317, 0.148092, 0.030292, },
			{-0.277145, 0.027301, 0.124148, },
		},
		{
			{0.039826, 0.044157, 0.111299, },
			{-0.143394, -0.098614, 0.139385, },
			{-0.149531, -0.281301, -0.008739, },
		},
		{
			{-0.091719, -0.159236, -0.241458, },
			{0.140110, 0.202203, 0.060824, },
			{-0.124108, -0.053799, 0.256250, },
		},
		{
			{0.149398, -0.329284, -0.230795, },
			{-0.009076, -0.434463, -0.436306, },
			{-0.257759, -0.159163, -0.085370, },
		},
		{
			{0.069255, -0.002039, -0.079386, },
			{0.071438, 0.028764, -0.061066, },
			{-0.156579, -0.298555, -0.145019, },
		},
	},

	{
		{
			{-0.090714, 0.210301, 0.052591, },
			{-0.074455, -0.039965, -0.235806, },
			{-0.039166, 0.003469, -0.205485, },
		},
		{
			{-0.495415, -0.115317, 0.020777, },
			{-0.558908, 0.072738, 0.085198, },
			{-0.326257, 0.149366, 0.074732, },
		},
		{
			{-0.053466, 0.042937, 0.033258, },
			{-0.116267, -0.161019, -0.206702, },
			{0.007113, -0.193859, -0.066623, },
		},
		{
			{-0.115256, 0.026704, -0.094178, },
			{-0.255207, -0.015221, -0.384455, },
			{-0.197197, -0.138589, -0.187952, },
		},
		{
			{-0.260567, -0.056286, 0.090696, },
			{-0.236756, 0.048148, 0.072512, },
			{-0.146897, 0.109329, -0.070035, },
		},
		{
			{-0.277674, 0.053655, 0.122194, },
			{-0.034919, 0.155827, -0.115964, },
			{0.203757, 0.266872, -0.139363, },
		},
		{
			{0.080831, -0.126211, -0.028555, },
			{-0.440754, -0.231506, 0.101479, },
			{-0.231241, -0.240677, 0.080899, },
		},
		{
			{-0.288502, -0.041689, 0.075087, },
			{-0.290875, 0.137084, 0.004674, },
			{0.125238, 0.214483, -0.018147, },
		},
		{
			{0.044895, -0.071332, -0.200939, },
			{-0.410791, -0.074899, -0.248647, },
			{-0.308124, -0.367900, -0.339247, },
		},
		{
			{-0.302851, -0.199133, 0.053865, },
			{-0.080309, -0.070148, -0.088596, },
			{-0.129920, 0.117042, 0.094522, },
		},
		{
			{0.045716, 0.133823, -0.119228, },
			{-0.076802, 0.196743, -0.289584, },
			{0.262868, 0.114677, -0.277110, },
		},
		{
			{-0.168311, -0.077028, -0.097170, },
			{-0.233669, -0.077997, -0.078414, },
			{0.047270, -0.075725, 0.019426, },
		},
		{
			{0.069198, 0.102546, 0.206029, },
			{-0.101185, 0.082169, -0.013675, },
			{-0.005069, 0.217946, -0.058696, },
		},
		{
			{0.004734, -0.109435, 0.259776, },
			{-0.428611, 0.195977, 0.081571, },
			{-0.153072, -0.097610, -0.055667, },
		},
		{
			{-0.260686, 0.045692, 0.281319, },
			{0.089494, 0.111073, -0.074961, },
			{0.209957, 0.286976, -0.196618, },
		},
		{
			{-0.466251, -0.253065, -0.013235, },
			{-0.605662, -0.128584, 0.076628, },
			{-0.400635, -0.022631, -0.040551, },
		},
	},

