
{
	{0.070102,0.046456,0.034743,-0.020085,-0.070249,-0.080826,0.006191,-0.033097,-0.041456,0.075952,0.071522,-0.064976,-0.003541,0.015325,0.030429,0.044371,0.017569,0.071798,-0.075737,-0.010649,0.068490,-0.046412,-0.065799,0.064603,-0.016505,0.000153,-0.041498,-0.003799,0.070196,-0.074292,0.025374,0.030930,-0.068390,-0.047597,-0.061472,-0.020261,-0.033440,-0.040764,-0.012505,0.015452,0.048431,-0.119757,-0.081388,-0.102021,0.029743,-0.002418,0.045045,-0.030867,-0.075774,0.038620,0.054018,0.001563,0.078666,0.041927,0.071876,0.079816,-0.006119,-0.054461,0.035267,-0.069560,0.035272,0.019462,-0.062082,-0.137584,-0.124060,-0.224773,-0.127840,-0.220537,-0.256945,-0.365243,-0.204930,-0.082640,-0.096451,-0.027850,0.036777,0.091953,0.035605,-0.092069,-0.102466,-0.025924,-0.044504,0.058082,-0.034030,-0.072812,-0.074993,0.043265,0.008786,0.084036,-0.002099,0.041735,-0.097074,-0.076912,-0.070581,-0.150683,-0.132014,-0.264868,-0.281799,-0.211219,-0.026948,-0.140299,-0.143459,-0.002177,0.098500,0.078157,-0.041655,0.005924,-0.097930,0.044203,0.089640,0.061618,0.054582,0.014412,0.038290,-0.012331,0.036948,0.155461,0.125883,0.032824,0.007613,0.004723,-0.072456,-0.015403,-0.078379,0.032969,-0.029159,-0.028780,-0.069406,-0.008222,-0.102277,0.050271,0.010034,-0.034633,-0.014062,0.012082,0.104461,0.005748,0.131491,0.204175,-0.002830,-0.016588,-0.061609,-0.009358,0.046491,0.150601,0.093485,-0.043763,-0.087453,0.017324,-0.006683,0.168471,0.163692,0.103097,0.032366,-0.054207,-0.019363,-0.028905,-0.072413,-0.057287,-0.011545,-0.100398,0.018627,-0.050402,-0.039975,0.186402,0.167119,0.192810,-0.137760,0.004509,0.067627,0.070060,0.079682,0.180625,0.092931,-0.040495,-0.035517,-0.056086,0.195842,0.010052,-0.023862,0.008980,0.095897,0.143530,0.083958,0.047005,-0.006306,-0.012023,0.004055,-0.119659,0.092328,0.081100,0.170048,-0.007142,0.139009,0.122208,0.132503,0.139288,0.080049,0.049627,0.024854,0.096185,-0.002212,0.102817,-0.028687,-0.000405,0.011628,0.055861,0.067824,-0.046746,0.031807,0.081013,0.042196,0.065415,0.009467,-0.004615,-0.063720,-0.024619,0.065205,0.017986,0.026962,0.012209,0.029311,0.198912,0.114542,0.213070,0.034107,0.006768,0.055012,-0.028957,-0.029743,0.132652,0.073519,0.018622,0.124691,-0.022250,-0.026609,-0.039836,-0.008316,-0.038721,0.010786,-0.071344,-0.036517,0.077273,0.040770,-0.018607,-0.064949,0.013401,0.035470,-0.115924,0.039415,-0.051881,0.153032,0.096045,-0.067423,-0.068630,0.064072,-0.000962,0.071805,-0.092625,0.111168,0.153725,-0.070082,-0.017427,-0.039191,0.011334,0.056908,-0.051988,-0.070799,0.043749,0.040185,-0.010674,-0.023504,-0.072958,-0.099355,-0.069723,-0.124822,-0.137637,-0.069758,0.018183,-0.028514,0.015693,0.024214,-0.077550,0.028798,0.206416,0.070687,-0.050969,0.052806,-0.108181,0.032055,0.018617,-0.024874,0.006823,-0.014655,-0.128918,-0.056052,-0.045119,0.031276,0.040378,0.023570,0.040607,-0.055478,0.013489,-0.043712,-0.077898,-0.038145,0.188170,-0.028423,0.022324,0.029518,-0.060985,-0.014314,0.021620,-0.152357,-0.066299,0.066944,-0.025608,0.058793,-0.015097,-0.033419,-0.009752,-0.068344,0.020451,-0.096026,-0.075547,0.041208,0.086590,0.006001,0.042888,0.076791,-0.001195,0.071748,0.060454,0.115874,0.295845,0.051252,-0.119257,0.043092,-0.059708,-0.011172,-0.099271,-0.136083,-0.069458,-0.011196,0.016480,-0.029050,-0.080163,0.145844,-0.009133,0.059056,0.205575,0.133296,0.079119,0.049145,-0.021776,-0.014706,-0.084320,0.064270,0.054331,0.084233,0.079802,0.105961,0.175519,-0.015188,-0.202705,-0.022243,0.026914,0.013868,-0.123894,-0.181660,-0.181249,0.029414,-0.002501,0.033087,-0.021595,0.079981,0.127306,0.101102,0.139930,0.115468,-0.044903,-0.069841,0.000223,0.010638,0.035029,-0.000189,0.025972,0.022655,0.105395,0.072041,-0.013797,-0.069558,-0.055789,0.077192,0.014565,-0.096225,-0.201657,0.048947,-0.166617,0.102865,0.055242,0.081778,0.109951,0.062255,0.072875,0.190621,0.178092,0.065235,0.078873,0.053097,0.067165,0.023715,-0.039601,0.099856,0.026743,-0.127988,-0.253604,-0.078515,-0.188639,-0.235806,-0.004441,0.067958,0.038326,0.074765,-0.102975,0.137834,0.000656,0.043789,0.027233,0.130724,0.228801,0.293910,0.176096,0.182298,0.101484,0.070405,0.106842,0.012213,0.057677,0.057460,0.013821,0.049622,0.054386,-0.122428,-0.136044,-0.115323,-0.155197,-0.089875,0.029571,-0.073163,0.041751,0.073607,-0.073961,-0.079322,-0.156212,-0.117665,-0.091600,0.045411,0.084699,0.235931,0.288651,0.268452,0.240609,0.092079,-0.039144,-0.115741,0.059270,-0.002704,-0.032676,-0.012527,-0.098997,-0.086898,-0.019918,0.021002,-0.274030,-0.202046,0.084500,-0.014367,0.081092,-0.058398,-0.063763,-0.257845,-0.358399,-0.369567,-0.264026,-0.194569,-0.072403,0.097724,0.054261,0.034594,0.021902,-0.070052,0.049240,-0.007523,-0.052033,0.082377,-0.025158,-0.095499,-0.061667,-0.165794,-0.015580,-0.047403,-0.075801,0.039198,-0.061984,0.108112,0.071980,0.059676,0.030248,-0.312320,-0.469176,-0.520623,-0.614317,-0.600636,-0.623456,-0.423470,-0.419732,-0.292036,-0.229465,-0.204757,-0.099474,-0.054956,0.059843,-0.086849,-0.037712,0.025051,-0.020576,-0.035549,0.005089,0.058946,-0.074361,0.088213,-0.087039,0.035195,0.019849,0.179481,0.135355,-0.163771,-0.387579,-0.578185,-0.683198,-0.728576,-0.817013,-0.796164,-0.617386,-0.464057,-0.330085,-0.200214,-0.076631,0.000312,-0.101143,-0.042606,-0.047436,0.000138,0.110877,0.045340,-0.006996,0.063244,-0.011963,-0.096255,0.021086,0.044691,-0.025069,0.209379,0.257149,-0.086767,-0.198529,-0.253730,-0.394244,-0.366487,-0.269928,-0.269412,-0.219650,-0.241909,-0.105978,-0.027008,-0.033747,-0.052657,0.022654,0.026237,0.012043,-0.066603,-0.006295,-0.007250,0.094207,-0.000228,-0.096035,0.061446,-0.008595,0.064956,0.088739,0.231537,0.256729,0.149460,0.028097,0.073815,0.049387,0.028097,0.096152,0.110739,0.033611,0.061730,-0.024839,-0.012399,-0.115936,-0.069090,-0.106121,-0.035790,-0.009745,-0.016920,-0.067474,-0.102865,0.047588,0.110431,0.084487,0.047495,-0.042786,-0.080164,0.099649,0.217761,0.184829,0.082751,0.113006,0.060107,0.159608,0.074872,0.124406,0.256975,0.169543,0.068367,-0.026654,-0.126633,-0.023528,-0.124566,-0.160434,-0.126354,-0.206941,-0.162199,-0.223097,-0.158804,0.133722,0.143392,-0.066774,-0.105154,0.072334,0.076282,-0.005369,0.170737,0.169327,0.203215,0.132273,0.053697,0.044966,0.106559,0.170378,0.225511,0.228238,0.056813,-0.028835,0.065093,-0.146507,-0.055311,-0.124023,-0.081527,-0.181551,-0.082573,-0.141530,-0.103641,0.047611,0.047783,-0.007908,-0.084786,-0.079165,0.020525,0.039310,-0.026126,0.133217,0.188480,0.183069,0.180483,0.231174,0.192833,0.058337,0.124355,0.032905,0.055377,-0.003678,-0.029052,-0.018032,-0.031156,0.020589,0.026128,-0.069497,-0.025081,0.099495,0.071844,0.204250,0.110190,0.003727,0.024656,0.036683,-0.042185,0.000849,0.138355,0.130576,0.120056,0.313802,0.203670,0.130690,0.093821,0.043492,0.013056,-0.015151,0.003149,0.138273,-0.045411,0.033768,0.096994,0.141384,0.153556,0.171511,0.261201,0.187442,0.274695,0.302264,0.210575,0.061694,0.011128,0.060830,0.000757,-0.049180,-0.064010,-0.000804,0.250070,0.205753,0.328942,0.182354,-0.041915,-0.044243,-0.102897,-0.008917,0.064008,0.121875,0.177035,0.115948,0.174680,0.166754,0.083681,0.108852,0.188610,0.110049,0.028040,0.043027,0.091942,0.069226,0.025626,-0.057920,0.005730,-0.035086,-0.020150,-0.032030,0.060092,-0.058287,-0.020794,-0.014790,-0.038352,-0.075931,0.010336,-0.026094,0.098601,-0.032387,0.015850,0.108074,0.053925,-0.042630,-0.081755,0.139433,-0.002577,-0.125840,-0.084047,-0.030528,0.063869,-0.040751,-0.040957,-0.018310,},

	{-0.012534,0.049465,0.012283,-0.065990,0.076421,-0.047065,-0.029518,-0.058539,0.033883,0.066849,-0.012597,-0.014552,0.089191,0.023941,-0.007499,-0.022027,-0.021495,0.042739,-0.054765,0.019403,0.072738,0.050603,-0.054987,0.065885,0.020624,-0.074130,-0.003523,0.031199,0.065401,0.002105,0.019510,0.029198,0.006040,-0.028919,0.138565,0.113461,0.043976,0.181985,0.085662,0.144393,0.048679,0.167669,0.035150,0.241457,0.282817,0.209538,0.248400,0.169011,0.188880,0.033838,0.083540,0.039547,-0.060485,0.079706,0.056954,0.049692,-0.078963,-0.039759,0.039760,0.032608,0.177279,0.053124,0.062729,0.150762,0.082006,0.073633,0.123140,0.161849,0.256726,0.173469,0.118620,0.143637,0.124391,0.008242,0.098332,0.068712,0.053476,-0.036407,0.002066,0.029747,-0.042210,-0.075065,-0.053174,-0.045573,-0.071079,-0.047133,0.043268,0.099525,0.083938,0.064898,0.225397,0.295684,0.140988,0.028762,0.107961,0.008469,0.148436,0.179787,0.041300,0.020552,-0.035513,0.007458,0.075188,0.040104,-0.053276,-0.004233,0.073571,0.080316,0.016035,0.004868,-0.072374,0.012364,-0.034036,0.069946,0.063380,0.099066,0.218483,0.188510,0.272732,0.107856,-0.024370,-0.027643,-0.035995,-0.072720,0.069416,0.100859,0.043570,-0.015589,-0.183495,-0.155628,-0.165176,-0.187830,-0.149545,-0.121235,-0.199121,-0.187062,-0.192015,0.009786,-0.057106,-0.070751,-0.048987,0.048821,0.079777,0.066313,0.082852,0.085983,0.068391,-0.049632,-0.028385,-0.110864,0.022196,-0.088685,0.017108,-0.002816,-0.200645,-0.149376,-0.200583,-0.162943,-0.186051,-0.175260,-0.284752,-0.363831,-0.320175,-0.234937,-0.209367,-0.045615,0.041487,-0.030220,0.037490,-0.063006,-0.072404,0.054511,0.097563,-0.177945,-0.197957,-0.182993,-0.023287,0.061020,0.045098,-0.001256,-0.093265,-0.065493,-0.019377,-0.009438,0.048137,-0.029750,-0.092262,-0.289245,-0.196513,-0.155964,-0.334095,-0.250529,-0.250240,-0.142367,-0.079052,-0.101360,0.069229,0.089823,-0.034390,0.060928,-0.047463,-0.162795,-0.098394,-0.014247,-0.056243,-0.143120,-0.091166,-0.049200,0.044101,0.056502,0.140214,0.023989,-0.056649,-0.059586,-0.185086,-0.229255,-0.282700,-0.217464,-0.514375,-0.426580,-0.334496,-0.123191,-0.086899,-0.089681,-0.007487,0.103847,-0.085708,0.072824,0.033980,0.019568,-0.037546,0.055153,-0.092909,-0.099333,-0.037399,0.008482,0.029624,0.160348,0.231790,0.132099,0.011032,-0.025824,-0.199430,-0.095852,-0.052066,-0.195877,-0.398958,-0.449390,-0.265480,-0.181718,-0.097973,-0.091229,0.031734,0.136516,0.047001,0.161021,0.212407,0.025009,0.049971,0.046525,0.044482,0.070146,0.027265,-0.013475,-0.013326,0.104556,0.246041,0.152399,-0.017478,-0.060911,-0.105966,-0.089252,-0.078436,-0.276247,-0.313896,-0.385995,-0.435368,-0.272511,0.037703,0.128502,-0.000737,-0.004302,0.006580,0.224340,0.105715,0.082623,0.021644,0.167257,-0.009346,0.030761,-0.026350,0.017577,0.074815,0.233549,0.256901,0.008782,-0.061371,-0.076351,-0.072233,-0.083461,-0.046279,-0.186768,-0.054865,-0.218537,-0.314847,-0.211586,-0.056930,0.057791,0.073166,0.104927,0.281318,0.128678,0.244695,0.063069,-0.031874,0.095447,0.122088,0.077978,0.113568,0.040862,0.084947,0.182170,0.181924,-0.044428,-0.163015,-0.111202,0.089728,0.063717,0.127692,0.010884,0.012759,-0.048841,-0.258190,-0.412618,-0.188478,-0.064680,0.049693,-0.006604,0.178563,0.009808,0.176212,0.088653,0.022061,-0.066499,0.064683,0.006997,-0.065911,0.004443,-0.041737,-0.065282,0.018136,-0.012643,0.072619,0.039488,0.134324,0.069978,0.104292,0.050178,-0.047708,-0.119337,-0.152751,-0.271093,-0.057741,0.135419,0.042152,0.103762,0.232762,-0.002109,0.140295,0.066753,-0.002909,-0.091242,0.014912,-0.135813,-0.055874,-0.127317,-0.134229,-0.037279,-0.057311,-0.079776,0.037731,0.075070,0.148996,0.063164,0.115918,0.056416,-0.040173,-0.034348,0.021519,-0.102432,-0.065013,-0.013624,-0.119993,0.053174,0.239745,-0.091003,-0.045550,-0.179862,-0.146540,-0.102339,-0.134440,-0.033113,0.027782,-0.088949,-0.116344,-0.076984,-0.028549,0.022273,-0.027851,-0.031870,0.100859,0.208332,0.165578,0.200652,0.003177,0.098379,0.056498,-0.136089,-0.143047,0.003330,-0.083238,-0.031384,-0.062137,-0.022179,-0.050164,-0.001888,-0.074054,-0.161691,0.008125,-0.118617,0.035384,-0.023045,0.026790,-0.009977,0.036108,-0.036815,-0.090038,0.001228,0.090471,0.051393,0.214800,0.128540,0.067457,-0.036850,-0.016385,-0.262907,-0.236740,0.007495,0.000250,0.114566,0.128915,0.011735,-0.006897,-0.136780,-0.119363,-0.034952,0.064707,0.033891,0.019653,0.065843,-0.107788,0.097916,0.096520,-0.215949,-0.064947,-0.068492,0.004767,0.026797,0.087324,0.135028,0.179550,-0.060765,-0.030963,-0.246239,-0.238949,-0.152747,0.049794,0.106094,0.105923,0.060894,0.014105,-0.186783,-0.147000,-0.088618,-0.058393,0.040273,0.027015,0.099770,0.163327,0.014586,0.005722,-0.210260,-0.196419,0.064471,0.090000,-0.015417,-0.026960,0.020781,0.017222,-0.099571,-0.032750,-0.255726,-0.187638,-0.123062,0.152790,-0.064990,0.199374,-0.010939,-0.006534,-0.161178,-0.166255,-0.001236,0.033686,0.076994,0.015215,0.068640,0.062439,-0.004531,-0.058998,-0.115709,0.012281,0.036552,0.017633,0.121740,-0.039187,-0.046213,-0.111210,-0.171903,-0.214115,-0.006090,-0.041149,-0.106056,0.042321,0.209964,-0.055419,-0.077330,-0.130765,-0.008921,-0.170411,-0.028558,-0.063509,-0.027010,0.017238,0.059818,0.097916,0.105988,0.028156,-0.056238,0.027820,0.119080,0.045293,0.160716,-0.103249,-0.035143,-0.066641,-0.164125,-0.158296,-0.076106,-0.147402,0.009961,0.004893,0.059484,-0.121473,-0.090251,-0.106813,-0.092685,-0.177590,-0.101199,-0.092373,-0.150296,0.016048,-0.107664,0.021064,0.159931,0.147631,0.106567,0.136784,0.099041,0.053631,-0.056784,-0.066846,-0.169161,-0.002045,-0.065502,-0.022001,-0.039510,-0.125007,0.021129,0.037810,0.143140,-0.058652,0.030296,-0.154947,-0.224588,-0.087672,-0.007507,-0.191346,-0.124095,-0.183985,-0.139448,-0.054813,-0.036541,0.079424,0.087917,-0.051875,-0.094596,-0.073865,-0.087840,-0.084431,-0.187489,-0.201738,-0.045317,-0.098238,0.034769,-0.114803,-0.044832,-0.074460,0.003181,-0.025740,0.025800,0.040938,-0.054949,0.021685,-0.083790,-0.099624,-0.065511,-0.178128,-0.040961,0.065307,-0.011536,-0.094197,0.010965,-0.040422,-0.081437,-0.036356,-0.090105,-0.157804,-0.199991,-0.030279,0.050695,-0.035386,0.076506,-0.056386,-0.061356,0.072163,-0.001888,0.089715,0.087610,0.049221,-0.017101,0.008863,-0.122507,-0.135123,-0.181555,-0.009989,-0.032844,-0.044354,-0.015499,-0.016316,-0.094224,-0.139549,-0.099423,-0.207720,-0.241611,-0.133838,0.016973,0.042370,-0.006498,0.055024,-0.014689,-0.034804,-0.057870,0.074143,0.022676,0.132157,0.114263,0.192848,0.010191,0.074547,0.007276,-0.068146,-0.038040,0.071604,-0.082915,-0.053765,-0.034849,-0.059108,-0.111210,-0.139663,-0.062040,-0.176787,-0.060452,0.090570,-0.004217,-0.081089,0.028740,-0.018075,0.020982,0.022066,-0.071931,-0.026034,-0.077259,0.068179,0.155733,0.186469,0.207193,0.188821,0.255404,0.319342,0.164876,0.080501,0.033708,0.198365,0.073640,0.180826,0.057802,0.141691,0.073436,0.049429,0.237604,0.132222,0.064267,-0.069045,-0.137196,-0.015099,0.030342,-0.063872,0.058652,0.018993,-0.023181,0.033878,0.010824,-0.041933,0.081989,0.266070,0.379950,0.422537,0.381943,0.554561,0.202939,0.172416,0.303995,0.231725,0.066195,0.297973,0.363077,0.336102,0.368041,0.230428,0.152919,0.043238,0.136560,-0.029286,-0.070630,0.012521,-0.065166,-0.030887,0.034809,-0.004451,-0.054026,0.042049,0.138344,0.163443,0.158272,0.149287,0.158562,0.217675,0.121750,0.027128,0.159177,0.249607,0.172151,-0.006870,0.209799,0.351187,0.152805,0.222643,0.144139,0.048917,0.066170,0.019446,0.073247,0.070680,0.077770,},

	{0.035741,0.036916,0.028046,0.011028,-0.035518,0.064876,-0.053038,0.043934,0.053076,0.062150,-0.042796,0.040943,0.073083,-0.059350,-0.030097,-0.016241,-0.029160,0.054329,0.064547,0.057655,0.013508,0.065983,-0.018358,0.045854,-0.027219,-0.017278,0.028385,0.030572,0.011678,-0.000304,-0.007817,0.030284,0.028421,0.056868,0.103945,0.093230,0.103614,0.118764,-0.023306,-0.015307,-0.004780,0.104807,-0.027518,-0.029458,0.020725,0.021685,0.060954,0.052672,0.037450,-0.030255,0.083532,0.083766,0.039986,0.030780,0.063849,0.002804,0.030309,-0.069565,0.069610,0.038365,0.081718,0.022650,0.013067,-0.048604,0.046355,0.002249,0.010586,0.137750,0.141374,-0.058713,-0.005276,-0.101142,-0.128790,-0.160636,-0.086625,-0.084601,-0.041675,0.014057,0.037221,0.059148,0.020700,-0.034481,-0.062732,-0.013842,-0.027107,0.021921,0.013814,0.080658,0.008806,-0.102030,-0.032172,-0.016168,-0.130175,-0.122398,-0.130045,-0.057575,-0.147823,-0.194344,-0.142230,-0.187882,-0.130802,-0.100293,-0.024156,-0.086705,-0.108848,-0.166375,-0.053688,-0.011953,0.052298,0.036520,-0.018923,0.045032,0.036512,0.033832,-0.004575,-0.128887,-0.068176,0.142645,0.193193,0.056083,-0.025211,0.007073,-0.044761,-0.053718,0.025760,0.096261,0.008465,-0.012948,-0.049937,-0.014735,0.095497,0.071015,-0.013468,-0.017073,0.009517,-0.070398,-0.072746,-0.101378,0.036934,-0.045472,0.024144,-0.077395,-0.003089,-0.049916,-0.092363,0.092537,-0.020407,0.071014,0.008454,0.003367,-0.041847,-0.000075,-0.011856,0.029870,-0.010876,0.018356,0.045354,0.051926,0.047480,-0.014960,-0.021615,-0.032034,0.078265,-0.006079,-0.116877,-0.158977,-0.083297,0.047594,0.081010,0.074461,0.030000,0.064803,0.006324,0.173436,-0.052450,0.024373,0.021917,0.066252,0.052121,0.053066,0.109892,0.042003,0.129379,-0.022090,0.027767,0.006466,-0.089674,-0.029130,0.047588,0.098095,0.065122,-0.011856,-0.190127,-0.242240,-0.123990,0.043694,-0.015217,-0.035031,0.148221,0.245637,0.065373,0.004150,-0.026536,-0.000300,-0.032896,0.133735,0.124429,0.167886,0.166582,0.038805,0.007422,0.072719,0.024505,-0.067818,-0.026961,0.013701,0.047995,0.100740,0.056976,0.127664,-0.071119,-0.176767,-0.133638,-0.016853,0.131808,0.103592,0.282059,0.059804,0.092775,0.000512,-0.073820,0.028263,0.105049,0.014177,0.162169,0.072508,0.151120,0.177723,0.218781,0.126978,0.036439,0.076661,-0.025082,0.028510,0.107928,0.005676,0.084243,0.087658,-0.081215,-0.101381,-0.126479,-0.152396,-0.033088,-0.001587,-0.004275,0.009344,0.029039,0.154998,-0.036805,0.053539,0.085466,0.032397,0.079062,0.007946,0.112642,0.121768,0.056293,-0.013672,0.011703,0.118889,0.127086,0.093026,0.091481,-0.084985,0.077001,0.019342,-0.065729,-0.088939,-0.164741,0.038366,0.000952,0.032325,0.056476,0.012200,0.076454,0.123120,0.069201,-0.034673,0.001007,0.062474,0.149796,0.001904,-0.092649,-0.165462,-0.273068,-0.185128,-0.068924,0.042263,0.015005,-0.056767,0.005485,-0.044719,-0.007137,-0.012907,-0.060475,-0.084468,-0.118043,-0.075679,-0.034575,0.054703,0.059504,0.010726,-0.043516,0.073869,-0.002648,0.087648,0.009508,0.127104,0.018022,-0.008470,-0.129252,-0.425964,-0.532646,-0.307021,-0.060515,0.023901,0.070844,-0.027223,-0.034724,-0.063425,-0.162680,-0.085499,-0.068709,-0.067966,-0.074608,-0.037662,-0.004179,0.027803,0.006169,0.021823,-0.050313,0.018492,0.042438,0.052603,0.078030,0.075448,0.051528,-0.126102,-0.242666,-0.545254,-0.439879,-0.215458,0.014507,0.119553,0.008130,-0.099591,-0.131319,-0.052574,-0.168001,-0.165236,-0.009866,0.065041,-0.097855,-0.081058,-0.028527,0.131533,0.178320,0.025805,-0.160299,-0.165335,0.045129,-0.073949,0.019634,-0.055447,-0.125762,-0.197439,-0.381427,-0.344582,-0.135665,-0.111445,-0.070068,0.007646,0.021933,-0.066612,-0.149953,-0.155348,-0.103782,-0.070631,-0.057885,0.123224,-0.039358,-0.015402,0.078916,-0.096343,0.118033,0.021718,-0.126516,-0.143155,-0.088925,0.015627,-0.049811,-0.116340,-0.191948,-0.336164,-0.334476,-0.254278,-0.148837,-0.041080,-0.149866,0.004071,-0.077794,-0.091451,-0.101992,-0.043119,-0.055123,-0.065401,0.071496,0.076767,0.036612,0.020341,-0.041495,0.020198,0.052676,0.037292,-0.115960,-0.102512,-0.117309,-0.069034,-0.153151,-0.270385,-0.400599,-0.234767,-0.205687,-0.126860,-0.101091,-0.185118,-0.081241,-0.009869,-0.068172,-0.199100,-0.042135,-0.025382,-0.078208,-0.165803,0.026411,0.091080,0.105895,0.078514,-0.012530,0.019307,0.018404,0.022726,-0.133343,-0.196102,-0.169015,-0.150461,-0.218224,-0.286960,-0.217522,-0.027587,-0.054949,0.019754,-0.101729,-0.068515,-0.040756,-0.018074,-0.044333,-0.057505,-0.094375,0.031965,-0.172804,-0.041121,0.089155,-0.015551,0.089599,0.115607,0.071102,-0.093032,-0.007823,-0.043759,-0.093541,-0.164206,-0.189017,-0.258248,-0.211196,-0.022916,0.048992,0.012664,0.031376,-0.021715,-0.038994,-0.011764,-0.022626,0.028995,-0.037427,0.026289,-0.007580,-0.087238,-0.155724,0.033960,0.044015,0.149103,0.117795,0.163049,-0.043756,0.057849,-0.115407,0.002774,-0.029825,-0.141773,-0.197811,-0.035751,0.003820,0.076144,0.082365,0.059805,0.099979,-0.089167,-0.012798,-0.089281,-0.027337,0.036655,0.061111,0.056756,0.033593,-0.092830,-0.046125,-0.012066,0.000899,0.237303,0.181054,0.135143,-0.042326,-0.003036,-0.025962,-0.062867,-0.118459,-0.043871,-0.057063,0.061788,-0.017799,0.073003,0.034965,0.090776,0.053253,0.079847,-0.042021,-0.036045,-0.059388,-0.089523,-0.066010,0.003686,-0.038570,-0.080808,-0.100263,-0.097385,0.079705,0.090947,0.097730,0.026884,-0.062759,0.100418,0.009701,0.122684,0.066236,-0.046782,0.117247,0.108523,0.061762,0.052064,0.108699,0.187110,0.069940,0.060783,0.007761,0.095023,-0.000233,-0.155283,-0.065241,-0.007167,0.027279,0.043932,-0.066584,-0.015526,-0.056155,0.047373,0.048666,-0.047293,-0.029666,0.046512,0.127748,0.152644,-0.005401,-0.042634,0.021961,-0.029910,0.018985,0.110444,0.075666,0.224186,0.192427,0.136043,0.114113,0.045340,-0.026733,0.049365,-0.031405,-0.026368,-0.064894,-0.019956,0.058332,0.044531,-0.037238,0.119971,0.007097,0.025176,0.050737,-0.061926,0.119618,0.062720,0.027217,-0.030925,-0.031410,0.051736,0.105411,0.146251,0.121824,0.117592,0.125036,0.064629,0.047428,-0.008000,0.079470,0.041797,0.100872,-0.007663,-0.089519,0.002280,0.151463,0.011656,-0.109648,0.073603,-0.004276,-0.005160,0.062893,-0.029955,-0.041603,-0.109602,-0.027859,-0.034080,0.203825,0.124246,0.115661,0.128976,0.062140,-0.028933,0.084320,0.074191,0.022534,0.042084,0.028309,0.038470,0.076347,-0.017522,-0.164525,0.071352,0.094286,0.065670,-0.043433,-0.008230,-0.105280,-0.039106,0.037212,0.026410,0.147227,-0.094227,0.010100,0.040701,0.021366,-0.063255,0.013116,-0.053240,-0.020148,-0.098584,-0.105373,-0.121702,-0.047718,0.095748,-0.052291,0.051861,-0.044241,-0.031453,-0.125832,-0.129372,-0.026446,0.081456,0.213356,0.126658,-0.059938,-0.077603,0.034292,-0.057214,-0.033619,0.179206,0.034088,-0.152189,-0.036104,0.161786,0.190125,0.137956,-0.082341,0.050206,0.054303,-0.041400,0.066148,0.214707,0.138444,-0.031232,-0.050616,-0.096545,-0.245158,-0.100236,0.043161,-0.036635,-0.168766,-0.045568,0.048462,-0.005516,-0.077607,0.024242,0.059436,0.005579,-0.170537,-0.267723,-0.089952,0.187940,0.220153,0.168054,-0.017386,-0.018571,0.048269,0.039941,0.230540,0.071204,0.066165,0.043560,0.019543,0.051926,-0.060554,-0.091912,0.052486,-0.000037,0.038493,0.035499,0.079211,0.011672,-0.072209,-0.029645,0.064264,-0.077729,0.112089,0.050084,0.136860,0.219618,0.133411,0.144000,0.177360,0.130797,0.067413,0.161332,0.124083,0.089796,0.029403,0.116423,0.148988,0.104293,-0.000455,-0.085853,0.068716,-0.027766,-0.068564,0.032488,-0.075026,0.020615,},

	{0.075497,-0.038189,-0.011016,0.057712,-0.006582,0.023099,0.051990,-0.015095,-0.000279,-0.036060,0.063166,0.011127,0.067468,0.044781,0.036003,-0.007900,0.072638,0.035063,-0.052558,0.046749,-0.019188,-0.078842,0.041570,-0.021178,-0.047841,-0.035410,-0.052436,-0.011442,0.043816,0.007898,0.022376,0.012899,-0.038119,0.018199,0.024349,0.046230,0.031455,-0.041487,-0.123837,-0.109894,-0.098663,-0.048628,-0.011555,-0.012883,-0.111594,-0.091942,-0.136102,-0.096221,-0.078504,-0.121741,0.008066,0.008175,-0.023389,-0.005196,0.075332,-0.065008,0.000829,0.058318,-0.026253,0.049197,-0.023319,-0.058006,0.006280,0.069887,-0.021923,-0.175805,-0.183740,-0.173364,-0.158762,-0.119965,-0.126035,-0.037568,-0.016858,0.003287,0.131342,0.084541,0.136523,0.038478,-0.000135,0.024100,-0.189439,0.026433,0.063542,0.057096,-0.041730,0.059293,0.075684,0.021149,0.046368,0.032803,-0.012207,0.122621,0.033308,0.006418,-0.164608,-0.153206,0.075680,-0.037354,-0.111018,0.049242,-0.067000,-0.048137,0.090903,-0.021971,0.064360,0.155181,-0.054883,-0.088374,-0.083190,0.007254,0.033201,-0.055424,-0.036579,-0.058144,0.026515,-0.010736,-0.009846,0.071745,-0.007493,-0.036324,-0.196294,-0.146131,-0.073589,-0.004322,0.043087,-0.019601,-0.008327,0.088327,0.053208,0.049229,-0.063310,0.004529,-0.019429,-0.003463,-0.077703,-0.062513,0.218214,0.239740,0.018411,0.020878,0.006486,-0.024171,0.004825,0.050461,-0.052739,0.027752,-0.062946,-0.145619,-0.312754,-0.268239,-0.105971,-0.057607,0.077793,-0.008853,-0.004801,-0.007513,0.055745,0.239020,0.031621,0.041524,0.004047,0.028919,-0.101487,-0.030274,-0.070580,0.159905,0.098517,0.010042,-0.076150,-0.002929,-0.016648,-0.066516,-0.072030,-0.280237,-0.300300,-0.321599,-0.243777,-0.193677,-0.141419,0.006238,0.034103,0.101184,-0.006755,0.012680,0.162889,0.020854,-0.006776,0.084528,0.062348,-0.021612,0.040127,0.053963,0.040792,0.021085,0.227707,-0.041590,-0.055608,-0.165026,0.025921,-0.120904,-0.084388,-0.288287,-0.277684,-0.375598,-0.358420,-0.141740,-0.064361,0.090566,0.086173,0.027899,0.147571,0.073594,0.025595,0.051542,-0.036546,-0.003358,0.025095,-0.051647,0.009381,0.119383,0.085317,0.263887,0.222637,0.046267,-0.052015,-0.094052,-0.164209,-0.071010,0.018010,-0.160577,-0.034593,-0.322956,-0.248156,-0.029656,0.049743,0.061850,0.075624,0.014592,0.028836,0.006534,-0.112233,-0.099682,-0.015675,-0.017121,-0.088548,0.064879,0.057058,0.210539,0.221691,0.348257,0.278090,0.130992,-0.036755,-0.039499,0.101693,0.040791,-0.166380,-0.024404,-0.011652,-0.132854,-0.198020,-0.063740,0.069935,0.153735,0.028081,0.000251,-0.055027,-0.026126,-0.113386,-0.124882,0.006784,0.050101,0.029680,0.012367,0.130657,0.190956,0.151389,0.481769,0.152351,-0.036222,-0.101501,0.029926,-0.074464,0.031155,-0.055913,-0.143035,-0.307974,-0.216806,-0.032357,-0.013047,0.061877,0.019048,0.050658,-0.033317,0.085288,0.074995,0.013336,-0.003981,0.003137,0.089715,0.009732,0.001274,0.100463,0.180405,0.034066,0.323227,0.047257,-0.079637,-0.050723,-0.083436,-0.068318,-0.069114,-0.081680,-0.280482,-0.296054,-0.150881,0.025433,-0.081295,-0.171109,-0.028935,0.086999,0.180858,0.279478,0.203602,0.128374,0.208516,0.128506,0.118672,0.015219,-0.032640,-0.027531,-0.102707,-0.003913,0.274616,0.246773,-0.052276,0.009915,-0.066019,-0.208420,-0.119831,-0.008250,-0.194267,-0.133883,-0.031237,-0.077460,-0.192688,-0.136206,-0.003060,0.003249,0.250798,0.418699,0.172827,0.114228,0.108962,0.017451,0.013869,-0.033017,-0.197908,-0.230175,-0.234679,-0.223895,-0.126773,0.061788,-0.048061,-0.021458,-0.043282,-0.133852,-0.061958,0.043770,-0.314866,-0.202281,-0.190439,-0.179726,-0.090162,-0.195946,-0.097900,-0.003528,0.158123,0.238492,0.235121,0.234030,0.101526,-0.107338,-0.062855,-0.093010,-0.233742,-0.347556,-0.301213,-0.215614,-0.133855,0.058541,0.041416,0.056844,-0.017862,0.028155,0.066733,0.050635,-0.148165,-0.285272,-0.303062,-0.283782,-0.224093,-0.262927,-0.092417,0.061098,0.096895,0.173710,0.034732,0.047308,0.022315,-0.127737,-0.218663,-0.200448,-0.153203,-0.199317,-0.216002,-0.140858,0.028104,-0.082728,0.047617,0.047623,0.044387,0.221146,0.048954,0.132426,0.007764,-0.144737,-0.224267,-0.146047,-0.159883,-0.283675,-0.112631,-0.011365,0.066247,0.062902,0.038062,0.012454,-0.113750,-0.094344,-0.029423,-0.050885,-0.107565,-0.125282,-0.313329,-0.077716,-0.019028,-0.036969,0.054285,-0.080634,0.004198,0.135611,0.107247,0.168085,0.191927,0.143093,-0.055573,-0.142054,-0.202577,-0.214213,-0.331537,-0.187232,-0.053976,-0.014241,-0.013189,0.005132,-0.086737,0.035446,-0.096566,-0.087468,-0.057847,-0.170223,-0.265805,-0.037155,0.038718,-0.050995,-0.052430,-0.076212,0.021536,0.050997,0.189918,0.249716,0.186484,0.187962,0.153053,-0.068497,-0.191908,-0.245420,-0.305285,-0.196161,-0.126939,-0.090019,0.014634,0.129405,0.147594,0.093385,-0.071454,0.015762,0.011051,-0.298977,-0.108030,0.089264,-0.040383,0.006198,0.012802,0.081241,-0.048249,0.054540,0.185395,0.252365,0.246509,0.223453,0.239774,0.007498,-0.007649,-0.072953,-0.078912,-0.161872,-0.144482,-0.037108,0.019407,0.146720,0.248457,0.018454,0.003491,-0.188787,-0.163160,-0.329846,-0.122432,0.012174,0.020740,-0.034429,-0.027140,0.069296,-0.074922,0.027028,-0.107261,0.201161,0.152762,0.241007,0.139918,0.197138,0.122017,0.077243,-0.116022,-0.142760,-0.085580,-0.130321,-0.061262,0.070405,0.193255,0.180650,-0.084271,-0.315266,-0.294064,-0.356334,-0.133109,-0.088256,0.067225,0.025554,-0.026463,0.066910,-0.027107,-0.055473,-0.109057,0.088296,0.130924,0.100918,0.100354,0.097332,0.021978,0.046061,-0.028565,-0.082210,-0.002398,-0.091954,-0.099830,-0.047089,0.172374,0.150288,-0.175910,-0.226708,-0.310572,-0.278640,-0.296694,-0.213176,-0.139177,0.097823,0.038518,-0.003580,-0.001241,-0.145165,-0.067707,0.068387,0.018899,0.110221,-0.000590,-0.064409,0.026379,0.105622,0.055412,-0.028171,0.000699,-0.075688,0.044433,-0.024120,0.131549,0.045482,-0.234599,-0.407709,-0.437665,-0.277181,-0.182212,-0.180989,-0.083145,-0.034622,0.051153,0.093138,-0.009984,-0.156603,-0.073649,-0.017169,-0.035507,-0.026750,-0.024556,0.016863,-0.048805,0.084243,0.035002,0.001491,-0.075783,-0.059068,0.035749,0.053367,0.123040,-0.142143,-0.489560,-0.457524,-0.288863,-0.367914,-0.134277,-0.000861,-0.026742,-0.028570,-0.045341,0.036002,0.069641,0.005038,0.011567,0.082439,-0.097237,-0.118385,-0.085554,-0.103327,-0.068256,-0.012583,0.070360,0.130587,-0.020693,0.040105,-0.024460,0.092743,-0.131760,-0.324567,-0.453787,-0.240839,-0.194532,-0.121506,-0.203807,0.107136,-0.072168,-0.053330,0.045623,-0.000430,-0.071952,0.057123,0.156047,-0.227199,-0.168988,-0.101589,-0.042122,-0.123824,0.105003,0.001498,0.122595,0.017409,-0.111776,-0.089994,0.025593,0.083252,-0.060581,-0.201936,-0.330394,-0.217372,-0.192001,-0.059232,0.037766,-0.051589,-0.039467,-0.109287,-0.005647,-0.072400,0.059263,0.040020,-0.107364,-0.075734,-0.049349,0.002960,0.077924,0.135111,0.055029,0.140678,0.028985,0.050220,0.020625,0.027855,0.026633,0.064136,-0.000684,-0.082936,-0.142323,-0.039757,-0.070206,0.026158,0.062196,0.012960,0.042686,-0.077909,0.018255,0.069069,-0.072950,0.053391,0.057017,0.072081,-0.053280,0.004086,0.102117,0.151100,0.126603,0.203071,0.083725,0.037591,0.006330,0.087892,0.135981,0.035922,0.037889,0.184867,0.068631,0.054748,0.032365,0.143736,0.094338,-0.065604,-0.039616,-0.041208,-0.036216,0.068931,0.028356,-0.034763,-0.067463,0.012540,0.013532,-0.102970,-0.147588,-0.093758,-0.204261,-0.093284,-0.038603,-0.081250,-0.118575,0.027317,0.121084,0.057312,-0.124078,-0.044901,-0.069298,0.036182,-0.037280,-0.037355,0.006925,0.014912,-0.077903,-0.065559,-0.013139,},

	{-0.061070,0.071647,0.073050,0.070580,-0.004759,-0.038473,0.042868,0.044572,-0.060975,0.030371,0.046087,0.027354,0.036032,0.063553,0.069188,0.092480,-0.003535,-0.067732,0.024544,0.023798,0.003162,-0.019558,-0.016927,-0.072526,0.027738,-0.007319,-0.052026,-0.002392,-0.052042,0.021633,-0.080129,0.008159,0.052397,0.034736,-0.031067,0.041673,0.104249,-0.015823,0.042657,0.050956,0.012120,0.116828,0.021504,-0.079120,0.186059,0.114680,0.064739,-0.101023,-0.014797,-0.147879,0.079440,-0.036184,0.040431,0.007753,-0.080978,0.068192,0.058250,-0.032740,-0.018318,-0.034952,-0.029252,0.070952,0.105706,0.076401,0.207764,0.083729,0.109545,0.064090,0.313017,0.135382,0.045314,-0.059454,-0.057527,-0.055204,-0.246983,-0.184459,-0.092714,-0.025746,-0.007133,-0.001045,0.002163,-0.014098,0.038173,0.012075,0.000964,0.041761,-0.000355,-0.037339,0.060005,0.186780,0.242606,0.286676,0.281270,0.310007,0.248346,0.198951,0.346863,0.285698,0.223439,0.109431,0.108184,-0.013980,0.039336,-0.082498,-0.085454,-0.158039,0.036257,0.062554,0.012191,0.067115,0.054258,-0.015901,0.033753,0.025999,0.057513,0.088882,0.116053,0.055195,0.167133,0.314547,0.250023,0.258714,0.341092,0.298414,0.165875,0.083278,0.129564,0.160841,0.154884,0.098819,-0.007246,0.019240,-0.028119,-0.039518,-0.162499,-0.173867,-0.028239,-0.045201,0.135131,0.000544,0.032183,-0.062193,0.078096,0.081494,0.164429,-0.084996,0.138131,0.107720,0.071917,0.029142,0.006495,-0.020774,-0.087873,0.037190,0.011577,0.078631,0.129449,0.122281,0.145968,0.074945,0.046616,0.022508,-0.062002,-0.175677,-0.222472,0.028100,0.041083,0.075611,0.049525,-0.020394,0.023483,0.023265,-0.013129,-0.047382,-0.008359,0.048634,0.004210,-0.017982,-0.153394,-0.102461,-0.123442,0.015223,-0.036567,0.070559,0.096749,0.172499,0.039130,-0.017312,0.073715,0.000594,-0.089126,-0.071843,-0.203416,-0.148797,-0.067709,0.103311,0.049499,0.134393,-0.102388,-0.138598,0.048512,-0.066450,-0.013450,-0.014591,-0.099500,-0.122591,-0.117149,-0.042779,0.030249,0.115627,0.130233,0.108087,0.041973,-0.054463,0.028421,0.013051,-0.160249,0.009091,-0.131826,-0.201723,-0.299747,-0.152288,0.135855,0.093633,0.071763,0.092918,-0.042806,-0.077701,0.057588,-0.067231,-0.128756,-0.024419,-0.207196,-0.097239,-0.041787,0.049889,0.043065,0.119336,-0.027357,0.051030,-0.025427,-0.029189,0.069888,0.110915,-0.060512,0.057315,-0.025066,-0.201392,-0.301112,-0.028132,0.207513,0.073990,0.069947,-0.125086,0.092820,0.084280,-0.015588,-0.117715,-0.128883,-0.159810,-0.103846,-0.040879,-0.026179,-0.140316,-0.143164,-0.130338,-0.124142,-0.116208,0.024323,-0.010030,0.050800,0.158118,0.082355,0.079206,0.019693,0.042758,-0.253180,0.056592,0.051894,0.012577,-0.025243,0.042798,-0.028658,0.134987,-0.010787,-0.129612,0.000504,-0.073451,-0.018630,-0.146663,-0.118059,-0.067502,-0.165240,-0.148753,-0.193153,-0.194051,0.039949,0.034283,0.210371,0.213600,0.157070,0.033050,0.049728,-0.148203,-0.407892,-0.180817,0.049553,-0.043391,-0.095864,-0.024119,-0.177929,-0.026542,-0.010078,-0.124104,-0.178293,-0.083727,-0.056158,0.010958,0.016567,-0.057244,-0.168667,-0.179666,-0.010541,0.081605,0.002726,0.056890,0.216277,0.239227,0.175018,0.108972,-0.072476,-0.346553,-0.392217,-0.245990,-0.087480,-0.087330,0.026702,-0.077211,-0.065961,-0.092741,0.043006,-0.177289,-0.177639,-0.029577,0.013753,-0.032759,-0.072898,-0.056444,-0.084606,0.122414,0.117076,0.120113,0.110175,0.100586,0.169355,0.224210,0.143056,-0.090005,-0.260311,-0.370787,-0.223606,-0.127702,-0.080310,-0.079455,-0.004304,-0.085341,-0.174686,-0.188476,-0.143194,-0.033670,-0.082820,-0.031717,-0.029386,-0.021994,-0.114989,-0.120652,-0.084396,0.080692,0.176091,0.044047,0.055935,0.038228,0.005744,0.051413,-0.145208,-0.289592,-0.363104,-0.320746,-0.185089,-0.144401,0.018870,-0.008056,-0.027409,-0.017011,-0.069916,-0.129701,-0.093412,-0.139463,-0.084652,0.024640,0.005371,-0.007085,-0.122673,-0.069326,-0.004715,0.164193,0.066937,0.099255,0.028200,-0.048883,-0.057437,-0.200543,-0.242860,-0.213801,-0.240737,-0.191585,-0.137937,-0.031782,-0.037950,0.069246,-0.009636,0.123457,0.012754,-0.179317,0.035556,0.013486,-0.018841,0.026718,0.023498,-0.066272,-0.073344,0.087957,-0.006248,0.081967,0.087284,-0.024750,-0.044624,-0.215054,-0.156743,-0.255230,-0.116560,-0.118716,-0.006975,0.073437,-0.051437,-0.028895,-0.016803,0.024911,0.071509,0.165834,0.089195,0.046775,0.112557,-0.009094,0.099047,-0.046100,-0.101812,0.017372,0.132174,0.061890,0.036364,0.149250,-0.012580,0.022559,-0.110091,-0.073961,-0.205295,-0.117755,-0.154029,-0.090467,0.222563,0.050970,-0.019859,-0.086347,0.034364,0.058924,0.040824,-0.026909,0.074687,0.198915,0.295472,0.169633,-0.009300,0.060966,0.149218,0.031555,0.112967,0.097594,0.099898,0.104435,-0.031120,-0.115028,-0.157109,-0.135416,-0.088720,-0.026176,-0.118056,-0.090326,0.048959,0.060177,-0.016180,-0.016388,0.000595,0.164087,-0.073831,0.086180,0.106895,0.321101,0.148679,0.201737,0.186122,0.020446,0.136204,0.004509,0.082928,0.037217,0.000980,-0.089608,-0.090321,-0.076480,-0.018672,-0.052348,-0.179137,0.039003,-0.012869,0.002632,0.068483,0.235256,0.204814,0.077167,0.007443,-0.121513,0.026737,0.093038,-0.101156,0.123193,0.131035,0.280065,0.134780,0.088907,0.003945,0.039750,-0.039219,-0.123423,-0.077359,-0.127784,-0.123020,-0.111493,0.092725,-0.014314,0.037448,0.014522,-0.113445,0.059596,0.091753,0.191547,0.173146,0.086465,0.119270,-0.004680,-0.071329,-0.068559,-0.076313,0.222533,0.338240,0.113978,0.130399,0.185635,0.076216,0.080811,0.032812,-0.119350,-0.241186,-0.073458,0.050441,0.066359,-0.017283,0.019282,0.075569,0.036021,0.013792,-0.013256,0.095375,0.129899,0.147622,-0.041636,0.144102,0.011857,-0.000495,0.013209,0.070299,0.141488,0.249655,-0.009215,0.039003,0.090727,-0.048097,0.038978,-0.022152,-0.085950,0.000946,0.007125,-0.012614,-0.036773,0.024848,0.091991,0.079841,-0.026447,-0.062179,0.006698,0.091851,0.094385,-0.012328,0.149742,0.191128,-0.007771,0.094906,-0.006656,0.066429,0.060155,0.086680,-0.090452,-0.149959,0.044479,-0.078705,-0.002101,0.000051,0.038362,-0.033370,0.071954,0.063201,0.040870,-0.004338,0.126044,0.045594,-0.031594,0.047491,-0.038759,0.024241,0.015145,0.003527,-0.027459,-0.123658,-0.037888,0.016083,0.062319,0.115106,0.129898,0.030279,-0.063026,-0.171801,-0.070754,-0.019812,-0.042344,0.021293,-0.015690,0.081970,0.029357,-0.058872,0.033253,0.050734,0.146036,0.140685,0.111011,-0.027969,0.084685,0.137207,0.035740,-0.053071,-0.205856,-0.107268,-0.059682,0.072114,-0.057086,-0.022726,-0.018954,-0.038844,-0.145751,-0.027051,-0.124973,0.014806,-0.038643,0.016476,0.034056,0.005729,0.085703,0.029831,0.147445,0.186761,0.160165,0.183430,-0.019662,-0.042921,0.173350,0.136663,0.133698,0.022661,0.116527,-0.019884,-0.043917,0.028912,-0.039628,0.026669,-0.160287,-0.127947,-0.054060,0.023231,0.009565,0.103941,0.110315,0.083637,0.068198,0.107202,0.134491,0.032726,0.091943,0.157995,0.174890,0.186074,0.168164,0.220691,0.156471,-0.002918,-0.049575,0.040763,0.009128,-0.075869,-0.055787,0.042618,-0.055118,0.009889,0.068684,0.035836,-0.052193,-0.160802,-0.063518,-0.032080,0.146354,0.279634,0.227827,0.155291,0.133602,0.196964,0.064492,0.053954,0.232071,0.069650,0.006588,0.109720,0.082698,-0.003657,0.125643,0.093534,-0.064572,-0.014512,-0.070135,0.074482,-0.022090,0.012984,0.022750,-0.107635,-0.094611,-0.015312,-0.083502,-0.005732,0.055245,0.089029,0.136101,0.167769,-0.004073,0.094915,0.037106,-0.013944,0.065667,0.124372,0.026288,0.133918,0.005311,-0.055779,-0.046964,0.011954,0.053785,-0.033970,0.042235,},

	{0.012623,0.060017,0.023777,-0.016843,0.009609,0.031252,0.033065,0.040640,0.001420,0.019184,-0.019882,0.027110,0.032710,-0.045525,0.066781,0.020112,0.017130,0.065544,-0.026563,0.013896,0.038222,0.024802,0.054289,0.044628,0.026969,-0.060794,0.012643,0.069253,0.011927,0.034394,-0.004304,-0.032319,-0.073189,0.053872,0.065347,0.049923,0.100296,0.165103,0.128887,0.008560,0.092840,0.157676,-0.071314,-0.117821,-0.029223,0.371273,0.283914,0.155206,0.078870,0.000305,0.108835,0.093562,0.026588,-0.013178,0.068131,-0.049362,-0.020174,-0.038483,-0.018502,0.018910,0.094961,0.102183,0.066628,0.046021,0.077843,0.010046,0.034535,0.110524,0.091912,-0.170698,-0.140915,-0.116381,-0.023503,0.137530,0.131227,-0.015745,0.027374,0.107820,0.162903,0.109741,0.041121,0.041412,-0.019882,-0.029842,-0.009933,0.032303,-0.147136,-0.086815,0.041191,0.007428,-0.025006,0.078169,0.059263,-0.019709,-0.073142,-0.004391,-0.134032,-0.299329,-0.197729,-0.180116,0.023325,-0.049967,-0.073164,0.061469,-0.067919,0.079501,0.154551,0.060466,0.227808,0.042627,0.145689,-0.062566,-0.078500,-0.030169,-0.130320,-0.120958,-0.116343,-0.039183,-0.068221,-0.036772,-0.069399,-0.090885,-0.115769,-0.043681,-0.075024,-0.101996,-0.047676,-0.072648,0.024199,0.131892,0.016498,-0.016400,0.003633,0.085571,-0.056497,0.080825,0.248515,0.338493,0.243340,0.092720,0.026431,-0.063459,0.020316,-0.206645,-0.023561,-0.031558,-0.174087,-0.066545,0.101761,0.065912,-0.077685,-0.006456,-0.034338,-0.048079,0.015954,0.024865,0.097194,0.063300,-0.002011,-0.114766,0.028558,0.006007,0.035789,0.111439,0.235413,0.261545,0.192916,0.180581,-0.029512,0.020327,0.238723,-0.159206,-0.090684,0.047270,-0.057757,0.025846,0.093787,0.157598,0.007761,0.027307,0.129692,-0.074686,-0.087785,0.069987,0.009996,-0.011849,-0.067603,-0.065632,-0.008379,-0.023807,0.111430,0.165876,0.254321,0.425839,0.272007,0.085640,-0.019234,-0.059438,0.241200,0.016957,-0.024030,0.061528,-0.030611,0.129467,0.047935,0.060028,0.126760,0.110249,0.075872,0.034556,-0.051971,-0.034242,0.062624,-0.026612,0.142174,0.048527,0.120046,0.116238,0.292047,0.170472,0.158615,0.190914,0.150579,0.128957,-0.059686,0.068391,0.044114,0.050052,-0.016772,-0.044629,0.086778,0.157878,-0.015204,0.001960,0.025864,0.045288,0.016443,0.063726,0.003057,-0.070996,0.005684,0.085745,0.159065,0.118165,0.239005,0.146961,0.225166,0.198073,0.161841,0.083531,0.261975,0.061333,-0.058057,-0.031760,0.067917,0.096505,0.141192,0.138505,0.095728,0.058192,0.072266,-0.072601,-0.008577,0.037624,-0.093324,-0.003395,-0.025216,-0.051427,-0.074134,0.015706,0.143538,0.011112,0.141387,0.065381,-0.055940,-0.005199,0.064776,0.161033,0.133653,0.122653,0.061049,-0.076397,0.147912,0.031639,0.226257,0.148355,0.228785,0.118133,0.011678,0.065250,-0.051294,-0.108907,-0.097034,0.008160,-0.053793,-0.154608,-0.186636,-0.180697,-0.059274,-0.131191,-0.083312,-0.103777,-0.243556,-0.179068,-0.118439,0.116880,0.094004,0.094319,0.050758,0.065769,0.103263,-0.108589,0.233787,0.236270,0.007950,0.048289,0.060197,0.147490,0.013590,0.063559,0.041402,0.013255,-0.202141,-0.181818,-0.171992,-0.219030,-0.291504,-0.211219,-0.237816,-0.256404,-0.287290,-0.256742,-0.257136,0.076097,0.117663,-0.101095,-0.031939,0.062418,0.039694,-0.161076,0.076311,0.063816,-0.031701,0.100592,0.059047,0.038603,0.062280,-0.076800,-0.064405,-0.128315,-0.063690,-0.141015,-0.129081,-0.206336,-0.230773,-0.373970,-0.227437,-0.214167,-0.297576,-0.218891,-0.147756,-0.056486,-0.015951,-0.017842,0.009524,0.074055,0.126947,-0.009239,-0.125504,-0.033812,-0.142970,-0.153611,-0.070511,0.031632,0.060034,0.020182,-0.028869,-0.056506,0.027172,0.007952,0.034637,-0.121360,-0.183977,-0.334061,-0.230861,-0.263099,-0.215285,-0.294887,-0.168770,-0.066381,0.097646,0.076649,0.021922,0.044711,0.051851,-0.124956,-0.214915,-0.217720,-0.259426,-0.278361,-0.130493,-0.230296,-0.161402,-0.170677,-0.119753,-0.072768,0.045169,-0.032381,-0.051925,-0.172401,-0.151437,-0.118693,-0.270856,-0.131811,-0.179661,-0.153878,-0.223428,-0.027483,-0.049232,-0.014257,0.058449,-0.106233,-0.025576,-0.027110,-0.227757,-0.270221,-0.305651,-0.335625,-0.360100,-0.193599,-0.215961,-0.110091,0.070458,-0.008132,0.032200,0.033232,-0.010191,0.064806,0.112356,0.024793,-0.001742,-0.091860,-0.089879,0.005641,-0.023707,0.012073,-0.121644,0.021999,0.021367,-0.078872,-0.160290,-0.043225,-0.321821,-0.382544,-0.362287,-0.357974,-0.195324,-0.052842,-0.052745,0.012317,0.207804,0.047498,0.096724,0.076911,0.166249,0.202372,0.152076,0.083216,0.031768,0.102693,0.035093,0.071873,-0.186965,-0.003461,-0.079417,0.035355,0.075116,-0.153017,-0.114129,0.151566,-0.118111,-0.250386,-0.049956,-0.032873,-0.030801,0.038589,0.056066,0.079395,0.120400,0.010097,0.039940,0.127944,0.092999,0.149598,0.160968,0.030208,0.092755,0.126954,0.160817,0.053008,-0.050781,0.306925,0.064601,0.055201,0.015585,-0.101527,-0.196105,0.100055,0.019581,-0.128526,-0.011885,0.121190,0.011517,0.078165,0.039393,0.101632,0.095583,0.092660,0.038477,0.092456,0.021652,0.041868,0.129621,0.025933,0.055662,0.159027,-0.018432,0.061444,0.036035,0.113529,0.242118,-0.053832,-0.034386,-0.040712,-0.000507,-0.072796,0.119175,-0.015691,0.041450,0.123431,0.035506,0.066725,0.070349,0.062784,0.050618,-0.063469,0.077119,0.076426,-0.038415,0.026149,0.009155,-0.002199,-0.051776,-0.015682,-0.032369,0.070066,-0.036791,0.024525,0.054967,-0.066623,0.032390,-0.035571,0.107371,-0.105543,0.107563,0.143431,0.098323,0.215315,0.192605,0.059331,0.122899,0.095616,0.070401,0.022469,-0.004976,-0.016303,-0.068709,-0.102082,-0.039099,-0.070451,-0.208361,-0.159225,-0.018668,0.027963,-0.067499,0.131601,0.028793,-0.063049,-0.053507,0.002789,0.079419,-0.080161,0.049223,0.129988,0.061396,-0.026597,0.017929,0.112374,0.067877,0.016227,0.096710,-0.024883,0.031317,0.037985,-0.047289,-0.021173,-0.124848,-0.060466,-0.079607,-0.051772,0.075885,0.048424,0.131434,0.100307,0.098614,-0.069821,0.018147,-0.054147,0.178543,0.148814,0.197971,0.074458,0.081268,0.006790,0.018734,0.103602,0.023287,0.042966,0.160726,0.050714,0.053755,0.085186,-0.002847,0.017669,-0.000264,0.017849,-0.107303,-0.060875,0.074994,-0.057430,-0.045242,0.137087,0.107018,0.065568,-0.008075,0.064074,0.108319,0.168431,0.232615,0.199625,0.107164,0.072307,0.038547,0.035613,0.001410,0.094274,0.018554,0.076885,0.053721,0.050054,-0.028482,-0.128765,0.162109,0.063005,0.017170,0.005152,-0.034457,-0.015352,0.025037,0.099840,-0.100243,-0.063270,0.056389,-0.045351,0.004124,0.011202,-0.027729,0.043969,0.038673,-0.029515,0.073306,0.079316,0.010716,-0.031173,0.065431,0.042506,-0.016636,0.067912,0.078101,0.082677,0.102414,0.142805,0.140197,0.111388,-0.022941,-0.184675,0.023995,-0.000806,-0.082634,-0.072545,0.003860,-0.026849,-0.104826,0.097126,0.044716,-0.172062,0.097510,0.197020,0.034168,0.145019,0.045534,0.108997,0.097616,0.073899,-0.032416,0.163457,0.194598,0.118324,0.135939,0.161021,0.047513,0.046780,0.139534,-0.086659,-0.119830,-0.015445,-0.043335,0.007540,-0.017187,-0.003491,0.035954,0.044106,-0.107642,-0.094670,-0.007423,0.040477,0.125881,-0.005758,-0.060011,-0.091460,-0.011280,0.002234,0.070009,0.062006,0.051649,-0.046714,-0.043492,0.039503,0.095015,-0.080866,0.000488,0.130205,-0.047393,-0.018799,-0.023390,-0.050030,0.032995,-0.043513,-0.040584,-0.014702,-0.021527,-0.004979,0.173505,0.081417,0.119070,0.050807,0.157649,0.184501,-0.020701,0.162079,0.118811,0.113382,0.174734,0.172208,-0.002838,-0.010312,0.048248,-0.111717,-0.025864,-0.010982,-0.065945,-0.008308,-0.007529,0.042769,},

	{0.065320,-0.002989,0.053708,0.029521,0.017844,-0.066477,-0.027858,0.022214,-0.075290,-0.054034,-0.075360,0.055208,0.017097,-0.019378,0.046614,-0.002004,0.068148,-0.059055,-0.061002,-0.005731,0.081108,0.009523,-0.056240,0.032926,-0.014484,-0.048699,0.056888,-0.078638,-0.064055,0.010023,0.032214,-0.062417,-0.017855,0.004764,0.031791,0.094538,0.050451,0.132038,0.065517,0.079747,0.180473,0.143628,0.083814,0.048915,0.040558,0.236042,0.196780,0.158238,0.235785,0.200686,0.085312,0.062533,0.075705,0.005522,0.043590,0.033079,-0.027872,-0.074005,0.055634,0.049231,0.156962,0.116388,0.120959,0.207557,0.082692,0.078524,0.098666,0.057859,0.188547,0.078071,0.166069,0.215863,0.195784,0.082462,0.040970,0.059691,0.204313,0.258586,0.178194,0.215009,0.085444,0.109218,0.049529,-0.023316,-0.010352,-0.019128,-0.063069,0.037370,0.022016,-0.030823,0.077877,-0.074790,0.065955,0.008977,0.015755,0.003709,-0.057991,-0.073622,-0.090950,-0.174664,-0.012920,-0.092721,0.042389,0.067234,-0.079496,0.018459,0.122026,-0.004371,0.068452,-0.034790,0.009545,-0.017266,-0.024728,0.007266,-0.096961,0.042003,-0.039141,0.151610,0.045147,0.035433,0.089394,0.112943,-0.016058,-0.104108,-0.031168,-0.071174,-0.118154,-0.141820,0.035551,0.029086,0.048743,0.060452,-0.000557,-0.089662,-0.249946,-0.139295,-0.124148,-0.146648,-0.023736,0.112846,0.019363,-0.024405,0.014767,-0.031499,0.043383,0.115236,-0.051190,0.026141,0.092101,-0.034576,-0.130859,-0.012642,0.048773,-0.033376,-0.076898,-0.037216,-0.107858,-0.161239,-0.052442,-0.091472,-0.169881,-0.145131,-0.154768,-0.142876,-0.057253,0.049815,-0.026311,0.067149,0.048799,-0.039613,0.024070,0.047736,0.063878,0.196999,0.162186,0.065433,-0.036612,-0.024683,-0.168710,-0.055576,0.019663,-0.006584,-0.046188,0.003143,-0.023747,0.035938,-0.124634,-0.207073,-0.027782,0.014443,0.013514,0.053702,-0.049306,-0.079857,-0.076094,0.113370,0.014559,-0.007176,0.096231,0.153152,0.174856,0.030075,-0.037897,-0.084056,-0.188229,-0.082381,-0.085967,-0.033880,-0.007833,-0.005729,-0.089749,-0.027930,0.058925,0.000117,-0.027973,-0.004239,-0.094198,-0.041858,-0.066485,0.036781,-0.069440,-0.123588,-0.034601,-0.076518,0.054722,0.015610,0.104429,0.137401,0.045885,0.073213,-0.019051,0.033512,0.099219,0.025474,-0.047380,-0.040240,-0.004904,-0.019967,-0.067272,0.012407,-0.066782,-0.054434,-0.018179,0.019564,-0.026825,0.025271,-0.155272,-0.054066,-0.093837,-0.078956,0.012351,-0.089179,0.020458,0.023034,0.012635,0.129266,0.134980,-0.019593,0.047756,0.022336,0.030196,-0.048476,0.070546,-0.000641,-0.141894,-0.097754,-0.010746,0.098594,-0.028146,0.045510,-0.016494,-0.049673,-0.098524,-0.053422,-0.196356,-0.133720,0.017142,-0.111412,-0.028979,0.152543,0.140797,0.123093,0.088383,-0.053293,0.173728,-0.026190,0.001616,0.175983,0.062092,-0.058023,0.025680,0.035401,-0.085829,-0.075259,0.076183,-0.011409,0.045287,0.023870,0.091318,0.017175,-0.099246,-0.095862,-0.115656,-0.168278,0.008739,-0.019144,-0.055356,0.101895,0.146736,0.093988,0.239643,0.003552,0.086451,0.001678,-0.079655,0.044375,0.106025,0.045399,0.189750,0.077426,0.001925,-0.010300,0.012903,-0.027802,0.026571,0.177169,0.048196,-0.046167,-0.080001,0.122239,0.048554,-0.147873,-0.228287,-0.179732,-0.189667,0.004623,0.020004,0.173801,0.099770,0.124903,0.006772,-0.119868,0.028818,-0.029775,0.101384,0.100822,0.090262,0.068307,-0.019975,-0.104825,-0.083255,0.096488,0.074789,0.168665,0.190032,0.045854,-0.005014,0.150941,0.077576,-0.226215,-0.247390,-0.265936,-0.145710,-0.013600,0.056749,0.026826,0.107660,0.078045,-0.075239,-0.139688,-0.132971,-0.032581,0.000875,0.104453,0.196893,0.049870,-0.008289,-0.203425,-0.130011,0.153038,0.122974,0.073864,0.042289,0.075621,-0.020454,0.095164,0.120227,-0.094319,-0.160500,-0.081654,-0.119750,-0.056022,0.046632,0.051055,0.101542,-0.046432,0.008829,-0.152549,-0.285649,-0.215782,-0.070772,0.042040,0.044169,0.159330,0.091464,-0.047521,0.077394,0.033312,0.033681,0.102336,0.034898,0.130293,0.002497,-0.049346,0.101247,0.024645,-0.115984,-0.067590,-0.199457,-0.116018,-0.049349,0.054273,0.057335,-0.099754,-0.163732,-0.269261,-0.336333,-0.092608,-0.089134,0.020060,0.133853,0.046645,-0.053418,0.053169,0.018809,0.066632,0.107316,0.161928,0.035236,0.037545,0.005120,-0.104409,-0.037910,-0.038911,-0.133553,-0.003369,-0.031037,-0.033045,0.024963,-0.056107,-0.090820,-0.147827,-0.125086,-0.195240,-0.165033,-0.262090,-0.022925,-0.010880,0.038756,0.003406,-0.092244,0.047436,0.045569,0.133370,0.111303,0.072743,0.009888,-0.122016,-0.092312,-0.046887,-0.083268,-0.032252,-0.075164,0.055024,-0.199975,-0.070934,0.011606,0.032965,-0.111435,-0.100268,-0.109556,-0.042657,-0.254678,-0.378724,-0.143855,-0.080299,0.010913,-0.013955,-0.068309,0.058993,0.123751,0.023569,0.099791,0.003789,-0.052378,-0.108518,-0.069837,-0.031156,0.000740,0.033313,0.103486,0.013677,-0.109754,-0.119507,0.046908,-0.018444,-0.071455,-0.120501,-0.213002,-0.147293,-0.247360,-0.372413,-0.257305,0.021590,-0.004441,-0.014480,0.082585,0.119181,-0.008679,-0.021076,0.036420,-0.077618,0.036787,-0.029682,-0.180290,-0.037880,-0.218539,-0.214738,-0.067360,0.081214,0.162787,-0.062220,-0.010330,0.078455,-0.000501,-0.093310,-0.072261,-0.159223,-0.328089,-0.352487,-0.291916,0.006084,0.112592,0.179755,0.236446,0.130658,0.052119,-0.047456,-0.071622,-0.110011,-0.038712,-0.061366,-0.072931,-0.114076,-0.192018,-0.232563,-0.176733,0.043211,-0.026064,-0.063677,0.034143,0.117943,-0.072526,-0.186663,-0.112501,-0.342504,-0.375264,-0.406969,-0.232118,0.006082,0.127066,0.240802,0.220436,-0.058135,-0.017091,-0.140328,-0.052357,-0.112918,-0.118636,-0.078951,-0.152458,-0.177498,-0.225243,-0.213882,-0.081699,-0.139697,-0.108348,-0.065526,0.024128,0.001959,-0.101791,-0.133643,-0.289816,-0.244603,-0.486078,-0.418270,-0.074556,0.091097,0.139638,0.061664,0.126879,-0.025911,-0.065349,-0.193576,-0.166000,-0.050245,-0.000549,0.027305,-0.116871,-0.194691,-0.177064,-0.207693,-0.116675,-0.067176,0.088286,0.011429,-0.019810,0.004515,-0.068807,-0.094453,-0.256156,-0.221208,-0.360192,-0.308894,0.015666,0.030792,-0.031617,-0.013233,-0.038691,-0.013916,0.053112,-0.029652,-0.037764,-0.089909,-0.014257,-0.121585,-0.051872,0.022445,-0.227977,-0.223787,-0.046416,0.027538,0.034583,0.028594,0.037634,0.014861,-0.131715,-0.170471,-0.236069,-0.175097,-0.238927,-0.112008,-0.072490,0.039172,-0.061259,-0.003125,0.046883,0.107489,0.074233,0.052550,-0.103835,0.026187,0.085297,0.055512,-0.007390,-0.074398,-0.169349,-0.094842,0.009776,-0.068806,0.008229,-0.050675,-0.046658,0.005855,-0.094007,-0.163830,-0.035722,-0.127417,-0.060117,-0.206532,-0.197447,-0.218605,-0.014362,0.031630,0.070496,0.005396,-0.115150,-0.113462,0.054057,-0.001965,0.126265,0.116839,0.063966,-0.003440,-0.017077,-0.036707,-0.094490,0.013556,0.001086,0.005934,0.008891,0.008761,0.051489,0.077397,0.037976,-0.003551,-0.180417,-0.127928,0.002186,-0.030199,-0.013032,-0.089985,-0.091110,-0.237038,0.052126,-0.156513,-0.154834,-0.064461,0.082295,-0.028984,-0.057146,-0.079028,-0.049654,0.063898,-0.074986,-0.088901,-0.035662,0.019225,-0.060805,0.056972,0.056815,-0.040576,-0.091480,-0.013537,-0.067254,-0.002724,0.119286,0.076828,0.017342,-0.030914,-0.103406,-0.142458,-0.031546,-0.137019,-0.146697,-0.088428,0.038931,0.073524,0.067845,0.023405,-0.008744,-0.072029,0.007510,-0.025816,-0.064543,-0.023058,-0.062113,-0.053274,-0.023452,-0.046394,0.127407,0.162867,0.174961,0.098885,0.034160,0.123873,0.202029,0.051753,0.012829,0.106942,0.114322,-0.013425,0.137788,0.338015,0.278367,0.156186,0.165747,0.048814,0.156425,0.002516,-0.019031,-0.069946,-0.018342,0.021909,},

	{-0.078608,0.078416,0.032240,0.075869,-0.015734,-0.048541,-0.019844,0.018631,0.003202,0.076875,0.063783,0.008622,-0.031283,-0.041106,-0.022200,0.019842,0.009190,-0.022236,-0.018785,-0.038935,0.061030,0.027387,0.051691,0.079900,0.037040,0.065975,-0.018701,0.078744,-0.068135,-0.036081,0.043957,0.011052,-0.036065,-0.031492,-0.166621,-0.142005,-0.124849,-0.131212,-0.052945,-0.172612,-0.042317,-0.156380,-0.054415,-0.287576,-0.089824,-0.050854,-0.094583,-0.131216,-0.136559,-0.129772,-0.166690,-0.153004,0.004618,0.055346,0.013188,-0.035168,0.062240,0.040570,0.007807,-0.045135,-0.110534,-0.065415,-0.174236,-0.151434,-0.249393,-0.101311,-0.126904,-0.196344,-0.041826,-0.032183,0.008945,-0.015106,-0.037670,0.096873,0.003095,-0.079462,-0.228340,-0.203263,-0.234444,-0.185281,0.022304,0.142045,0.040693,0.013229,0.004391,-0.019240,0.037045,-0.124106,-0.207691,0.073818,-0.107842,0.030350,0.026962,-0.113887,-0.063581,0.064427,-0.087765,-0.078287,-0.097694,-0.018173,-0.007347,-0.052296,-0.283342,-0.135418,-0.065553,-0.043887,-0.118797,-0.030751,-0.005683,0.102178,0.050993,0.025065,-0.021168,0.018810,-0.088203,-0.079376,-0.004968,0.095377,0.153388,0.065834,0.293076,0.321964,0.220830,0.132659,0.196798,0.155379,0.055921,-0.039423,-0.059320,0.019010,-0.043968,0.037133,0.098692,0.110087,0.067113,0.004830,0.016140,-0.008895,-0.093080,-0.088140,0.059948,-0.024247,-0.185558,-0.081284,0.037441,0.157163,0.194469,0.230063,0.190426,0.217031,0.077914,0.060400,-0.036064,-0.166512,-0.216716,-0.208905,-0.061721,0.101445,0.096001,0.078202,0.045834,0.130922,0.201908,0.059935,-0.083226,-0.113825,-0.152011,-0.080818,-0.053576,-0.014486,0.006165,-0.022037,0.002749,0.153112,0.101200,0.051104,0.079767,0.076238,0.024499,-0.091743,-0.193945,-0.149771,-0.313790,-0.315007,-0.135600,-0.125528,0.041077,0.010954,0.180426,0.162903,-0.052710,-0.039901,-0.178331,-0.234661,0.004386,0.053283,-0.017788,-0.078617,0.045479,0.051729,0.134046,0.101064,-0.048967,-0.135453,-0.050984,-0.024120,0.020841,0.010424,-0.075162,-0.240074,-0.223606,-0.314044,-0.109606,-0.033887,0.086819,0.093154,0.112885,0.105408,0.049438,-0.060972,-0.247033,-0.196391,-0.069027,-0.059505,0.189079,0.120591,0.082985,0.006635,0.005209,-0.043295,-0.122113,-0.237752,-0.174147,0.048316,0.092071,0.043403,-0.154891,-0.239181,-0.203910,-0.158284,-0.004074,0.107198,0.116146,0.070710,0.022825,-0.063956,0.001950,-0.163951,-0.213512,-0.291360,-0.144607,0.061056,-0.069825,0.025503,-0.028236,0.009572,-0.092277,-0.047658,-0.296923,-0.227370,-0.188581,-0.009071,0.016783,-0.068286,-0.032204,-0.200712,-0.220557,-0.215576,0.079422,0.095383,0.054481,0.071343,-0.035703,-0.038195,-0.098213,-0.230416,-0.146203,-0.197450,-0.084971,-0.092242,-0.065430,0.110774,-0.047663,0.132590,0.109645,0.022374,-0.253145,-0.120876,-0.170945,-0.137649,-0.074260,0.022990,-0.086327,-0.222111,-0.395108,-0.228189,0.012060,0.093904,0.123316,0.103503,-0.120004,-0.068626,-0.109067,-0.300421,-0.284345,-0.152424,-0.023703,-0.076138,-0.071139,0.055472,-0.135561,0.003479,-0.107072,-0.042179,-0.059175,-0.130724,-0.018366,-0.084813,-0.026767,-0.017799,-0.022202,-0.151547,-0.194809,-0.135409,0.020964,0.100594,0.034707,0.057006,-0.030872,-0.090246,-0.102839,-0.204164,-0.107471,-0.010088,-0.088814,-0.036971,0.026748,-0.045051,-0.009084,-0.046519,-0.082847,-0.103640,-0.016274,0.014000,-0.077302,-0.145481,0.035536,0.078151,0.165443,-0.070626,-0.314301,-0.292811,-0.006051,-0.053960,-0.055556,0.027236,-0.050907,0.017096,-0.024068,-0.155906,0.078447,0.109013,-0.092823,0.063403,0.063630,0.094634,0.044233,-0.097987,-0.074161,0.020015,0.080968,-0.008545,-0.057665,-0.032303,0.094245,0.139944,0.148951,0.008875,-0.254560,-0.171110,-0.029290,0.066619,-0.070858,0.009007,0.033814,0.020400,-0.013313,0.057420,-0.003402,0.114368,0.091947,0.093632,0.054677,-0.091729,-0.023672,0.070869,-0.025613,0.043420,0.017549,0.099259,0.030241,0.090395,0.136374,0.256116,0.226070,0.132992,0.085893,0.021577,0.112998,0.080892,-0.008466,-0.004435,0.028230,-0.059748,0.043331,0.013860,0.071568,0.028559,0.202193,0.026975,-0.036009,-0.082038,0.110483,0.193097,0.001652,-0.044722,0.077947,0.044388,0.097442,0.054840,0.098851,0.123529,0.192197,0.058633,0.036704,0.073783,0.124246,0.039524,0.053769,0.051195,-0.066158,-0.027127,0.071510,0.076897,0.075963,0.054453,0.194766,-0.041681,0.073720,-0.094905,-0.002575,0.077971,-0.027379,-0.031638,0.004310,0.063246,0.016952,0.091117,0.036168,0.051390,0.079480,-0.056138,0.167370,0.181672,0.174123,0.172889,0.119318,0.108033,0.076646,0.180172,-0.001258,-0.085222,0.022088,0.128303,0.187002,0.073148,-0.046655,-0.011676,0.033264,0.132139,0.102611,0.017078,0.027750,0.050996,0.042755,-0.019156,0.025622,0.023682,-0.071145,-0.102159,0.122334,0.152951,0.198395,0.108616,0.148660,-0.005083,0.063734,0.160809,-0.028022,0.020276,0.063536,0.323787,0.270572,0.182237,0.051379,0.042404,0.086348,0.112691,0.102791,0.046811,0.067714,0.061807,0.155271,0.088461,-0.093222,-0.023433,-0.140743,-0.021652,0.069335,0.141322,0.115235,0.047217,0.083560,0.010976,0.124223,0.067900,0.010642,0.093747,0.134321,0.181818,0.175000,0.073594,0.040206,-0.094484,0.083811,0.011506,0.124364,-0.017018,0.086652,0.082312,0.147264,0.053509,-0.045304,-0.137267,-0.079672,-0.103082,0.037643,0.078761,0.123273,-0.005593,0.042322,0.042305,0.110631,0.080804,0.096870,0.063647,0.230805,0.142550,0.246103,-0.002600,-0.057207,-0.059510,0.091075,0.150908,0.172115,0.018241,0.006417,0.089362,0.266281,0.096832,-0.003736,-0.057644,-0.203168,-0.101315,-0.094019,-0.108306,0.011859,0.037959,0.143712,0.089705,0.076250,0.035613,0.080577,0.090001,0.066900,-0.145070,0.229951,-0.014885,-0.046139,0.025508,0.167587,0.137659,0.130488,0.135016,-0.037905,0.087860,0.073870,0.032661,-0.088049,-0.245019,-0.256869,-0.154642,-0.104794,-0.074360,-0.120253,-0.072292,0.024128,0.066845,0.087806,0.096810,0.027196,0.017144,0.042474,-0.063566,0.011186,-0.052328,-0.069159,-0.004443,0.152507,0.061775,0.057276,0.113043,0.020620,0.037680,-0.017929,0.031148,-0.051898,-0.176419,-0.179782,-0.015397,-0.156142,-0.064708,-0.029938,-0.173730,-0.117563,-0.002526,-0.042413,0.196011,-0.030393,0.009594,0.026881,-0.110328,0.045994,0.023478,0.040861,-0.059739,0.070985,-0.090070,0.038405,-0.050432,-0.059418,0.014517,0.063403,-0.107645,-0.102951,-0.226041,-0.093312,-0.048575,-0.096733,-0.000414,0.004775,-0.110284,-0.154637,-0.181228,-0.040732,0.098700,-0.014058,-0.085218,-0.114413,-0.103331,0.022353,0.077241,-0.038396,-0.064632,0.138693,-0.060591,-0.032497,-0.060226,-0.037426,-0.116486,-0.109933,-0.030443,-0.340711,-0.220619,-0.093846,0.009526,-0.021965,0.018492,-0.008542,-0.013871,0.041616,-0.188287,-0.116237,-0.106771,-0.118243,-0.125212,0.018980,0.085923,0.002011,0.058157,-0.078787,-0.018640,0.008226,-0.042059,-0.169015,-0.241347,-0.136941,-0.179108,-0.115267,-0.264293,-0.245610,-0.195390,-0.131655,-0.087616,-0.165558,0.047825,0.072568,-0.137203,-0.070962,-0.325985,-0.290962,-0.171250,-0.128717,-0.035433,-0.135301,-0.040655,0.035481,-0.049761,0.028191,-0.049947,-0.051681,-0.015162,-0.038156,-0.045653,-0.192606,-0.141705,-0.119524,-0.139445,-0.182214,-0.145674,-0.122427,-0.280164,-0.280070,-0.223918,-0.237530,-0.131406,-0.147619,-0.187898,-0.277918,-0.195268,-0.173663,-0.173789,-0.057334,0.046406,-0.012629,0.026578,0.029350,0.067621,-0.025032,0.033037,0.043286,-0.038019,-0.054430,-0.028036,-0.101155,0.036955,-0.104032,-0.115376,-0.115084,0.021683,-0.174423,-0.068474,-0.078194,-0.058039,-0.022033,-0.044038,-0.038501,-0.117597,-0.069704,0.060354,0.009988,0.074737,-0.043987,0.004244,},

	{0.028870,0.015922,-0.044425,0.039718,-0.046841,0.065332,0.029049,-0.003955,0.007618,-0.070549,-0.066953,-0.038585,0.066623,0.006334,-0.002465,0.023908,0.041357,-0.036994,-0.072709,0.068088,-0.065526,-0.053938,-0.065243,0.031967,0.031102,0.053685,-0.056473,-0.060193,0.057278,-0.035290,0.044209,0.067651,0.023227,-0.016046,0.156915,0.131876,0.011565,0.181658,0.146327,0.157446,0.293930,0.104906,0.131964,0.227054,0.102028,0.284220,0.289419,0.244754,0.061448,0.153169,0.102048,0.095346,-0.058409,-0.000157,0.036636,-0.065601,-0.001058,0.035068,0.083711,0.081454,0.108610,0.080423,0.119539,0.136770,-0.072212,-0.082700,-0.002055,0.161240,0.005031,0.023903,0.104311,0.122947,0.247062,0.140379,0.112630,0.229139,0.102564,0.163608,0.122241,0.189740,0.036276,0.095055,0.003175,0.046815,0.075440,0.037959,-0.065673,0.031672,0.081950,-0.020062,0.134666,0.171834,0.167119,0.017820,0.140769,0.145277,0.131291,0.101256,0.102239,0.048726,0.039530,0.105469,0.103259,0.088012,-0.126870,0.063232,0.171065,0.098874,-0.040702,0.142911,0.068679,0.037045,0.068630,0.036762,0.077836,0.062039,0.084441,-0.084320,-0.171509,-0.083438,-0.070749,-0.031807,-0.017392,0.043507,0.039998,0.011996,-0.052537,0.095137,0.003805,-0.056605,0.171436,0.030089,0.016639,0.002218,0.008550,0.042362,0.075992,0.103783,0.033402,-0.074798,-0.035153,-0.011995,0.063807,-0.117009,-0.105317,-0.032161,-0.083896,-0.023827,0.054196,0.115082,0.083305,0.058396,-0.017233,-0.046260,0.045382,0.071663,0.072007,0.151310,0.020740,0.110127,0.028984,-0.082790,-0.055478,0.012518,-0.081792,-0.113414,0.009559,-0.068368,0.011898,0.062018,-0.122092,-0.074268,0.013076,-0.079290,-0.115236,0.002197,-0.054940,0.094865,0.059099,0.045392,-0.003651,0.060707,0.083784,0.023365,0.080966,-0.025923,0.064159,0.170075,0.059748,0.011341,0.007478,-0.069445,0.042976,0.062704,0.051320,0.032256,-0.051431,0.084027,-0.052798,0.005809,0.039408,-0.139076,-0.138373,-0.077856,-0.050358,-0.038075,0.020775,0.123711,0.030475,0.021837,-0.058705,-0.010252,0.053259,0.033913,-0.002306,0.053625,0.006968,0.042995,-0.119284,-0.110866,-0.065667,-0.090243,0.035932,-0.044344,-0.040692,-0.044466,-0.075899,-0.015583,0.008325,-0.118150,-0.096833,-0.008742,-0.011250,-0.070067,-0.001352,0.096368,0.078529,-0.029980,-0.042860,-0.096519,-0.061430,-0.083901,-0.097449,-0.050887,0.052564,0.049655,-0.166465,-0.207626,-0.121179,-0.041126,-0.013200,-0.011745,0.036920,-0.062853,-0.095642,0.033666,-0.053684,-0.169838,-0.099395,0.021076,0.031396,-0.015651,0.083235,0.095956,0.070712,-0.146096,-0.163272,-0.074442,0.027590,0.002472,-0.143575,-0.133434,0.038788,-0.079369,-0.077344,-0.094629,-0.047070,0.094446,-0.119338,0.021289,0.034338,-0.172064,-0.020126,0.147895,0.008880,-0.202645,-0.080857,-0.102018,-0.092951,-0.035983,0.082203,0.092374,-0.010442,-0.091321,-0.056483,-0.013855,0.130079,0.082172,0.005456,-0.139380,0.007082,-0.158989,-0.182070,-0.181851,-0.040240,0.042868,0.036821,-0.090480,-0.043380,-0.099165,-0.141030,-0.042256,0.034753,-0.083106,-0.159024,-0.218229,0.082974,0.123317,0.186404,0.005754,-0.125801,-0.068888,-0.112524,0.006611,0.080089,0.121723,-0.047510,-0.067954,-0.127417,-0.125297,-0.006613,-0.070736,-0.078534,-0.067181,-0.030439,-0.133790,0.037081,-0.194541,-0.168220,-0.116108,0.006189,-0.168986,-0.118871,-0.058547,0.029135,0.124507,0.161812,-0.014977,-0.095869,-0.194504,-0.057757,0.045229,0.099386,0.066808,0.087223,-0.014125,-0.034643,-0.015604,-0.096409,0.030722,-0.172174,-0.152646,-0.172313,-0.211805,0.037191,-0.089227,-0.165381,-0.079231,-0.012947,-0.077210,-0.099991,0.044539,0.121682,0.120035,0.145759,-0.062180,-0.106367,-0.099058,-0.070905,-0.045867,-0.021391,-0.067670,0.096902,0.137091,0.014073,0.015088,-0.131291,-0.103782,-0.187044,-0.101075,-0.305138,-0.059563,-0.012700,0.105678,-0.126131,-0.092310,-0.061836,-0.113454,-0.127422,0.004018,0.142030,0.208758,0.120248,0.067159,-0.070147,-0.094063,-0.036814,-0.038094,-0.046298,0.024207,0.238766,0.068808,0.096275,0.196553,-0.060413,-0.093173,-0.057686,-0.217804,-0.236827,-0.068015,-0.029434,0.029620,-0.046549,-0.235445,-0.053169,-0.099875,-0.090602,-0.015765,0.029443,0.188160,0.235073,0.158600,0.061644,-0.099929,0.026485,0.027631,-0.002055,-0.018786,0.120948,0.127468,0.169053,0.208498,-0.026314,-0.103824,-0.147082,-0.249788,-0.062054,-0.059390,-0.034201,0.015151,0.027378,-0.106012,-0.093037,-0.058219,-0.129447,-0.166664,0.108337,0.184253,0.263033,0.316949,0.188276,0.053446,0.004543,-0.093039,-0.217105,-0.010738,0.043690,0.128485,0.133463,0.095289,0.034409,-0.102976,-0.060800,-0.235912,-0.218223,-0.034576,-0.061992,0.074293,0.027993,-0.024853,-0.104507,-0.032297,-0.155346,-0.122006,-0.014377,0.131615,0.079931,0.193799,0.177730,0.095264,-0.047657,-0.187825,-0.215688,0.007962,0.019709,0.086256,0.058464,0.083648,0.019876,-0.061324,-0.109832,-0.216805,-0.207993,-0.114471,-0.045782,0.020688,-0.001187,-0.073892,-0.069101,-0.165894,-0.217559,-0.129237,-0.158235,0.002929,-0.039985,0.129096,0.048110,-0.044763,0.006581,-0.093304,-0.120356,-0.108136,-0.121637,0.084091,0.089851,0.071902,-0.017339,-0.132458,-0.334582,-0.216458,-0.059204,-0.097949,0.015239,0.088173,0.080306,0.177197,-0.030440,-0.057594,-0.218735,-0.178018,-0.143292,-0.147672,-0.007568,-0.087416,0.097720,-0.033541,-0.026610,-0.145710,-0.041396,0.011155,0.018351,0.165690,0.032111,0.030173,-0.025156,-0.149447,-0.329098,-0.203682,-0.078856,-0.031662,-0.033817,0.112876,0.041370,0.006263,0.016957,-0.091809,-0.096303,-0.133226,-0.144043,-0.210191,-0.095050,-0.143323,-0.011208,-0.092097,0.011884,-0.068062,0.073674,-0.006593,0.070455,0.129513,0.086365,0.038537,-0.083218,-0.216784,-0.167159,-0.043695,-0.166024,-0.014587,-0.059397,0.091151,0.031757,0.144851,0.065690,0.007048,-0.059150,-0.001361,-0.169314,-0.204716,-0.109998,-0.109336,-0.116461,-0.074769,-0.047005,0.038922,0.073361,0.143169,0.050515,0.099316,-0.039029,0.034137,-0.118865,-0.191101,-0.265525,-0.199703,0.144382,0.072882,-0.048392,0.070090,0.023324,0.165624,0.119296,0.085162,-0.122247,-0.025383,-0.083247,-0.155911,-0.177796,-0.160215,-0.023801,-0.006389,0.062594,0.062193,0.073289,0.082626,0.078168,0.095181,-0.112964,-0.138853,-0.131077,-0.119360,-0.184024,-0.145150,0.138830,-0.045343,-0.053786,-0.028796,0.138800,0.124268,0.132661,0.211055,0.057148,0.094662,0.001605,-0.086405,-0.006859,-0.001700,-0.087695,0.005179,0.092646,-0.001831,0.085413,0.068136,0.053591,-0.071188,-0.019400,-0.178871,-0.263672,-0.142808,0.044407,-0.110669,-0.040262,-0.016072,-0.040454,0.026556,0.101371,0.211290,0.272624,0.225767,0.209099,0.255259,0.171835,0.089061,0.069612,0.148891,0.248628,0.142093,0.122846,0.101335,0.071517,-0.108454,-0.093436,-0.102905,-0.086427,-0.089040,-0.080915,-0.012124,0.052839,-0.104235,0.024937,-0.067691,0.050788,0.069646,0.126954,0.093762,0.191094,0.303812,0.239610,0.334520,0.350351,0.201203,0.361049,0.338372,0.265308,0.159843,0.065742,0.006402,0.034148,-0.102223,0.069948,0.157774,0.005767,0.056165,0.049184,0.224268,0.164066,-0.000760,-0.086530,-0.024125,-0.069159,-0.048117,0.044681,0.028790,0.187894,0.217704,0.208238,0.121509,0.072529,0.056852,0.181168,0.217895,0.241220,0.214327,0.230072,0.112681,0.123796,0.196807,0.066892,0.012449,0.189024,0.135690,0.082496,0.067425,0.093372,-0.073855,-0.040666,-0.059519,-0.010572,0.075941,0.005532,-0.029196,-0.036737,-0.063333,0.028869,0.083098,0.010273,0.044209,-0.061617,0.073376,0.067594,-0.082848,0.021214,-0.011373,-0.126503,-0.139935,-0.048310,0.005060,-0.192937,-0.071122,-0.091978,-0.082993,0.030612,0.022815,0.065025,-0.016181,},

	{0.067720,-0.035882,0.017479,-0.074922,0.055551,0.019205,0.018403,0.012309,0.010384,-0.019185,-0.040982,-0.015649,-0.125373,-0.000535,-0.054911,0.010029,0.074278,-0.062623,-0.037084,-0.019209,-0.047652,-0.065986,-0.011336,-0.056106,0.045642,-0.035467,0.032453,-0.080957,0.022412,-0.010027,0.014834,0.050161,-0.058877,-0.038913,-0.090788,-0.045578,-0.126399,-0.122532,-0.075832,-0.090767,-0.144826,0.027519,0.131440,0.039474,0.033475,-0.113585,-0.143087,-0.061451,0.001614,0.016565,-0.080462,-0.061935,-0.064822,-0.036879,0.013557,-0.028571,0.029498,0.017629,0.066510,-0.040695,-0.053266,0.035500,-0.073961,-0.088710,-0.059783,-0.141941,-0.136348,-0.017865,0.042284,0.063617,0.016135,0.075531,0.087834,-0.116564,-0.144886,-0.137562,-0.097967,-0.139610,-0.008597,-0.060189,0.049519,0.150139,0.072511,0.036738,-0.066597,-0.019982,0.009329,-0.125970,0.002855,-0.117411,-0.143672,-0.219457,-0.163219,-0.129699,-0.088243,0.055583,-0.000131,0.018551,0.102074,0.164162,0.122222,0.021350,-0.183093,-0.229809,-0.232386,-0.117289,-0.082303,0.117065,0.195755,0.107040,0.054562,-0.039600,0.021391,0.020651,0.080451,0.019565,-0.129715,-0.010264,-0.041954,-0.101957,-0.078083,-0.115421,-0.038951,-0.129574,0.058041,-0.046364,0.096691,0.118450,0.151830,0.033421,-0.068547,-0.100830,-0.021279,-0.121488,0.003523,-0.197328,-0.155235,-0.140786,0.026218,-0.068606,0.010651,0.056939,0.168610,0.017177,-0.052856,0.035029,-0.110424,-0.026319,-0.036273,0.026482,-0.152315,-0.129964,-0.156649,-0.092096,-0.002509,-0.016005,-0.049006,0.059591,0.041309,0.063173,-0.077921,-0.069994,-0.015523,-0.106040,-0.123550,-0.093826,0.006116,-0.007765,0.009077,0.040602,-0.142511,0.008562,0.080558,-0.007404,0.095051,0.135699,0.077012,0.015394,-0.023424,-0.160854,-0.183424,-0.175698,-0.208025,-0.060979,0.077902,0.117982,0.063391,0.111973,-0.011335,0.104118,-0.011057,-0.106853,-0.223216,-0.050037,-0.108080,-0.022634,-0.059978,0.168066,-0.124036,0.253078,0.260919,0.222964,0.208020,0.243843,0.126367,0.104230,0.079818,-0.121744,-0.036509,-0.199193,-0.184047,-0.094698,-0.075719,0.080307,0.130249,0.081607,0.081970,0.111878,0.035592,-0.211448,-0.213715,-0.143893,0.004002,-0.049033,-0.005689,0.095957,0.087312,0.273020,0.366036,0.166302,0.210641,0.282875,0.085761,0.223658,0.136326,0.021654,0.042321,-0.238366,-0.187278,-0.130890,0.049318,0.145751,0.085263,0.135022,0.121854,0.004308,-0.071709,-0.196688,-0.333355,-0.004497,0.037727,0.069515,-0.049684,0.160908,0.115226,0.306410,0.172376,0.205946,0.124489,0.147822,0.120066,0.149605,0.066031,-0.018626,-0.076064,-0.228635,-0.325630,0.051863,0.179650,0.183264,0.207784,0.121084,0.071691,-0.031515,-0.228110,-0.184010,-0.298660,0.111840,0.127625,0.078607,0.016499,0.202035,0.129401,-0.038099,0.078007,0.059535,-0.000520,0.180507,0.047837,-0.045669,-0.023216,-0.068306,-0.152805,-0.308182,-0.084841,0.073448,0.141273,0.312491,0.131755,0.076163,0.007451,-0.034725,-0.132620,-0.114292,-0.275665,-0.102196,0.023167,0.107963,-0.071784,0.129731,0.169930,-0.036316,0.005585,0.005150,-0.029716,0.088714,-0.081705,-0.046468,-0.048418,-0.108029,-0.187727,-0.088259,0.026709,0.153175,0.102911,0.095474,0.058716,0.082447,-0.014943,0.027260,-0.077663,-0.165033,-0.206424,-0.100728,-0.046614,0.073291,-0.071754,0.038502,0.046496,-0.002270,-0.130113,-0.145604,-0.224592,-0.024331,-0.068348,-0.040186,-0.122490,-0.088616,0.067628,-0.047645,0.148545,0.129596,0.043633,0.029740,0.044544,-0.074579,-0.013847,0.051928,-0.060742,-0.070638,-0.026425,0.182058,-0.011033,0.066685,0.080033,0.004136,0.100245,-0.108304,-0.131461,-0.177988,-0.246413,-0.171784,-0.143718,-0.120932,-0.154689,0.029202,0.091306,-0.032461,0.109984,0.112471,0.041791,0.003438,0.007433,-0.158128,-0.136173,0.001436,-0.127395,-0.114202,0.023152,0.292556,0.200896,0.102886,-0.032063,-0.030918,0.068338,-0.111178,-0.051253,-0.146838,-0.253138,-0.361135,-0.128316,-0.147667,-0.045633,0.036376,0.102649,0.102063,0.036816,0.057422,0.018970,-0.055146,-0.142148,-0.110709,-0.142844,-0.106961,-0.116692,-0.070594,0.112042,0.301215,0.200135,0.174070,0.077833,0.020996,0.026075,-0.098367,-0.096346,-0.231051,-0.277951,-0.354908,-0.217185,-0.143947,0.039355,0.146683,0.092003,0.034133,0.067608,-0.022912,-0.107707,-0.092026,-0.025834,-0.021603,-0.148181,-0.050061,-0.057455,0.000804,0.189833,0.236975,0.269083,0.101801,-0.032793,-0.012253,-0.068714,-0.081396,-0.098182,-0.185506,-0.274069,-0.239134,-0.146634,0.076314,0.142190,0.226707,0.161547,0.093979,-0.007381,-0.086595,0.000849,0.015804,-0.001065,0.160017,0.007529,0.063052,0.011526,0.049265,0.180315,0.171698,0.245911,0.012350,0.069660,-0.020688,0.067217,-0.184454,-0.184226,-0.317087,-0.327330,-0.088455,0.049886,0.120358,0.250939,0.222083,0.187754,0.105554,-0.044494,-0.178609,-0.103359,0.057912,0.050299,0.053594,-0.015908,-0.036241,-0.042827,0.069716,0.099119,0.164022,0.040400,-0.003875,-0.082740,0.137360,0.001489,0.008220,-0.132532,-0.320060,-0.190212,-0.100639,-0.005379,0.166771,0.270570,0.081920,0.098419,-0.062789,0.010680,0.008846,0.000115,0.000264,0.021089,0.026836,-0.138165,-0.116106,-0.054291,0.013586,0.116810,0.061721,0.176844,0.023154,-0.003386,0.111686,0.097510,0.118699,-0.156839,-0.203807,-0.006462,-0.065225,0.116772,0.167048,0.158639,-0.043587,-0.192140,-0.033168,-0.101267,0.069039,0.055853,0.074366,-0.096287,-0.037797,-0.119712,-0.043574,-0.015016,-0.090624,0.027138,-0.024541,0.122915,0.087684,-0.031474,0.157495,0.192843,0.216489,0.104537,-0.127065,-0.024691,0.120652,0.071941,0.005106,0.029440,0.080470,-0.026369,-0.026740,-0.113397,-0.109762,-0.062911,0.024390,-0.026062,0.039527,0.097309,-0.004787,-0.119824,-0.071077,0.006625,-0.003547,0.077703,-0.066437,-0.028947,0.048032,0.170315,0.330795,0.056728,-0.081309,-0.007444,0.115636,-0.015686,0.055295,0.099857,0.052186,-0.035602,-0.011365,-0.103624,-0.101840,0.029964,-0.038999,-0.085141,-0.043620,0.053469,0.030108,-0.014125,0.009197,-0.071310,-0.020068,0.132208,0.020025,-0.035765,0.074368,0.216130,0.077502,0.061140,0.241751,0.110405,-0.036386,0.002829,0.059995,0.057460,0.132359,-0.030534,-0.033703,-0.030975,-0.044718,0.044869,-0.014777,-0.079371,0.055832,0.047288,0.092877,0.075383,-0.040714,-0.193160,-0.074897,-0.045567,0.085217,-0.053579,0.029847,0.277996,-0.060500,-0.099114,0.079740,0.039891,0.112116,-0.001331,0.106490,0.072335,-0.000279,0.093459,0.172393,0.047632,-0.068194,0.043414,0.034205,0.011081,0.013729,0.110848,0.127955,0.081063,-0.172086,-0.174726,-0.069625,-0.067770,-0.011039,0.079343,-0.057294,0.096449,-0.132084,0.022428,-0.051456,0.021011,-0.093113,-0.093609,-0.010249,-0.014530,0.013876,0.036136,0.119931,0.047274,-0.047037,0.036884,-0.015232,0.046538,0.114973,-0.066561,-0.046893,-0.134505,-0.096543,-0.188101,0.012588,-0.046327,0.070921,0.075138,-0.009618,0.061653,0.012178,0.115186,-0.017206,0.039845,-0.000116,0.007070,-0.004359,0.053738,0.059713,-0.032378,0.075971,0.029135,0.126249,-0.071905,-0.017327,-0.035920,-0.028541,-0.088383,-0.200074,-0.201077,-0.173653,-0.051873,-0.109539,0.050434,-0.005914,-0.035555,0.011448,-0.037636,0.036023,-0.046723,0.001468,-0.027894,-0.040618,-0.035038,-0.079935,-0.161438,-0.044076,-0.141895,-0.189498,-0.151087,-0.188859,-0.073347,-0.118246,-0.213815,-0.024131,-0.127019,-0.190042,-0.056723,0.034455,0.018708,0.022753,0.016819,0.017690,0.052392,0.058051,-0.036334,0.067742,-0.006308,0.127552,0.088795,0.082417,0.023102,0.202769,0.199036,0.142284,-0.023448,0.093247,0.167531,0.028887,0.102029,-0.074231,-0.213140,-0.098614,-0.019689,-0.047877,-0.119433,0.070452,0.077673,0.069500,0.007658,-0.047966,},

	{-0.065455,-0.034457,0.001347,-0.060084,0.017628,-0.005103,-0.004101,0.001415,0.029524,-0.068092,-0.052813,0.072278,-0.014107,0.050982,-0.030168,-0.024846,-0.055438,-0.053781,0.039252,0.066432,-0.026058,-0.046603,0.063225,-0.041388,-0.003254,0.010280,-0.056219,0.071414,-0.067823,-0.033054,-0.047287,-0.029121,0.037836,-0.030092,0.070521,0.025449,0.046382,-0.136266,-0.016487,-0.119728,-0.063524,-0.220799,0.004284,-0.054657,-0.104234,-0.113428,0.007273,-0.101355,-0.091488,-0.024251,-0.064916,-0.104477,0.006022,0.037081,-0.050192,-0.066578,-0.026694,0.009153,0.016950,0.037212,-0.076192,-0.014014,0.072002,-0.028443,0.097705,-0.004176,-0.116040,-0.175653,-0.094099,-0.092039,-0.162532,-0.241669,-0.185893,-0.097920,-0.065057,-0.151978,-0.267061,-0.135679,-0.065508,-0.067817,0.061363,0.059896,0.068642,0.065401,-0.014619,-0.043076,0.071337,0.046964,-0.024461,-0.062150,0.083820,-0.059888,-0.090806,0.090427,-0.088335,-0.257907,-0.182668,-0.234446,-0.288201,-0.322699,-0.253257,-0.219945,-0.237444,-0.046374,-0.148158,-0.209380,-0.115128,-0.034224,0.102227,0.077309,-0.086940,-0.056825,0.068904,0.070416,0.137208,-0.014196,-0.039564,0.045322,-0.145826,-0.132867,-0.003201,0.094512,0.176699,-0.015915,0.043391,-0.027730,-0.000521,-0.154415,-0.090768,0.005704,0.034478,-0.104685,-0.064417,-0.018696,0.081421,-0.095556,-0.069330,-0.000250,0.034782,0.036122,0.077643,0.034659,-0.016473,0.008428,-0.024180,-0.103015,-0.217557,-0.118027,0.037861,0.148117,0.036873,0.117582,0.141650,0.017494,-0.073251,-0.178104,-0.069892,0.058053,-0.017511,0.004777,-0.021080,0.036805,0.250017,0.054442,-0.073454,0.018105,-0.009759,-0.082628,0.042409,0.012658,-0.005878,-0.172496,-0.057569,-0.138665,-0.012733,0.061605,-0.002194,-0.028302,0.026709,-0.003585,0.121503,-0.053584,-0.095250,-0.184307,-0.164791,-0.171252,-0.119820,0.096392,0.011455,0.059587,0.090775,0.125649,-0.229217,-0.033799,0.038313,-0.031439,-0.007773,-0.020726,-0.067022,-0.076946,-0.051404,0.028684,0.003431,-0.020098,-0.033834,-0.034012,0.033027,0.026184,0.017976,-0.087377,-0.070129,-0.172467,-0.125303,-0.056538,0.089504,0.051878,0.048793,-0.004011,0.074522,-0.017580,-0.078852,0.014876,0.041354,-0.006654,0.010660,-0.030011,0.091331,0.032321,0.115316,0.053177,0.204627,0.107332,-0.039062,-0.047445,0.067921,0.029505,0.219902,0.002728,-0.157369,-0.174393,-0.122593,-0.056496,0.132541,0.057414,0.018795,0.039421,-0.007097,-0.083665,-0.032939,0.083490,0.227846,0.050431,0.003232,-0.059002,0.077579,0.080279,0.115768,0.013551,0.194308,0.059317,-0.062153,-0.020148,0.015891,0.093570,0.188134,0.116773,-0.110473,-0.110080,-0.019093,0.038350,0.090485,0.062876,0.003503,0.007574,-0.062307,0.018266,0.020047,0.097491,0.195047,0.000562,0.033868,0.000616,0.123734,0.077787,0.125450,0.075694,0.019110,-0.082728,0.003308,-0.013616,0.032756,0.100553,0.203899,-0.035795,-0.090499,-0.079205,-0.090423,-0.015192,0.012396,-0.001451,-0.038779,0.017752,-0.069848,0.024193,0.118053,0.052062,-0.027814,0.029606,0.055913,0.000278,-0.037474,-0.049367,-0.020012,0.080095,0.005237,-0.069590,-0.111849,-0.003785,0.038323,0.128729,0.234373,0.035502,-0.070980,-0.066455,-0.026078,0.061053,-0.093225,-0.032814,-0.110362,0.009950,-0.068001,0.036734,0.222034,0.040926,0.035448,0.001126,0.048894,0.098258,-0.024461,0.077317,0.086727,0.086749,-0.129784,-0.101510,-0.113935,0.033243,0.006088,-0.071522,0.064698,0.114303,0.020394,-0.044279,0.100050,-0.050706,-0.104062,-0.028675,0.025893,0.056306,0.217907,0.197269,0.254199,0.143117,0.070297,0.077269,0.054278,0.023760,-0.037165,-0.023345,-0.025752,-0.147970,-0.238696,-0.226099,-0.101764,-0.035296,-0.021578,-0.052399,-0.116395,0.042646,0.028652,-0.001710,0.096658,0.027503,0.032244,-0.077518,0.051003,0.190888,0.279109,0.089660,0.118375,0.074472,0.247333,0.134618,0.053606,-0.024286,-0.005058,0.061636,-0.005134,-0.219654,-0.301511,-0.141268,-0.020164,-0.225738,-0.253760,-0.224043,-0.108802,0.106437,0.134922,0.060561,0.020401,-0.026387,-0.030969,0.088522,0.081685,0.140387,0.235287,0.137742,0.127474,0.206002,0.413265,0.156608,0.059056,0.023705,0.052205,0.121675,-0.022490,-0.182117,-0.133565,-0.078305,-0.055674,-0.214660,-0.200194,-0.025247,0.087468,0.232537,0.174261,0.082224,0.051066,-0.057886,-0.044323,0.061036,0.103779,0.101018,0.114145,0.249983,0.273155,0.084289,0.323866,0.130011,0.020010,-0.036283,0.035077,0.024894,-0.111002,-0.123274,-0.034128,-0.208349,-0.151055,-0.136525,-0.070777,0.196428,0.168397,0.212285,0.072335,0.019810,0.020351,0.073277,0.068381,-0.101289,0.006891,0.101927,0.222080,0.279522,0.165843,0.181251,0.355369,0.206254,-0.010566,-0.026532,0.064525,0.064443,-0.054099,-0.131079,-0.167722,-0.134707,-0.284435,-0.111161,0.111808,0.210912,0.212151,0.113368,0.048404,-0.167396,0.013366,-0.006734,-0.034927,-0.148549,-0.104745,-0.073857,-0.038684,0.133569,0.178116,-0.023824,0.116558,0.197278,0.026107,-0.073484,0.076346,-0.024449,-0.173803,-0.218196,-0.206558,-0.297608,-0.168759,0.021339,0.172384,0.152875,0.209756,0.068575,-0.175841,-0.055422,-0.050707,-0.149610,-0.053186,-0.248834,-0.127583,-0.116218,-0.190990,-0.119227,0.257049,0.013831,-0.006571,0.101732,-0.005991,-0.025055,-0.080345,0.051572,-0.126416,-0.188890,-0.208260,-0.102245,0.002584,0.108414,0.287427,0.183978,0.108598,-0.078077,-0.233663,-0.158882,-0.020704,-0.091559,-0.168799,-0.173483,-0.077293,-0.272339,-0.206353,-0.093218,0.157157,-0.050367,0.036870,-0.006535,0.074693,0.090330,-0.112281,-0.074377,-0.271400,-0.239639,-0.087161,0.006681,0.174962,0.149620,0.156681,0.104071,0.172872,-0.107065,-0.168119,-0.058768,-0.088032,-0.003702,-0.104438,-0.066775,-0.139030,-0.285624,-0.248881,-0.112037,0.205756,0.159374,0.110668,0.065558,0.010651,0.038564,-0.088676,-0.163844,-0.180030,-0.212779,-0.020481,0.036227,0.103733,0.144504,0.104075,0.078180,0.050723,-0.118887,-0.129487,-0.104179,-0.015497,-0.085533,-0.085927,0.005089,-0.128365,-0.256829,-0.085750,0.126952,0.124794,0.123011,0.146170,-0.067400,-0.036848,-0.044742,-0.085769,-0.078120,-0.121507,-0.050307,-0.013935,-0.093185,0.058353,0.116562,0.059516,0.136493,-0.028798,-0.023984,0.003009,-0.073793,0.006594,-0.168280,-0.003715,0.002402,-0.035042,-0.049149,-0.047779,0.111419,-0.003671,0.024382,0.000324,0.005835,-0.074968,0.029328,0.046474,-0.063464,-0.106597,-0.062579,-0.030074,-0.045338,0.010772,0.102822,0.146765,0.144186,0.231555,0.124932,0.156964,-0.071613,0.006274,-0.052837,-0.019103,0.102387,0.033047,0.101150,-0.004961,0.021607,-0.053036,0.061604,0.072149,-0.041502,0.023180,0.074105,-0.063194,-0.065699,-0.187816,-0.259742,-0.157193,-0.220410,-0.238065,-0.061872,-0.020339,0.232278,0.182687,0.172502,0.197744,-0.019276,-0.044039,-0.197452,-0.044382,0.073305,-0.031948,-0.076124,0.120950,0.141307,0.081038,-0.005716,0.087292,-0.051824,0.048693,0.028253,0.074051,0.178331,0.050757,-0.086095,0.043440,-0.066913,-0.169320,-0.106038,0.006761,0.022837,0.056519,0.090392,0.101417,-0.075486,-0.094796,-0.096461,-0.062367,-0.203871,-0.176423,-0.152371,-0.176062,-0.017792,0.074000,0.072195,0.012302,-0.069579,-0.055844,-0.004752,0.045842,-0.063599,-0.044400,0.084969,0.116249,0.076001,-0.058985,-0.208425,-0.332377,-0.120399,-0.225991,-0.035377,-0.182855,-0.078572,-0.202950,-0.165214,-0.207361,-0.025980,-0.059654,-0.117537,-0.102332,0.161274,0.051099,0.071332,-0.079227,-0.009219,0.027795,-0.035518,-0.063891,0.074761,0.126000,0.077220,0.056446,0.099034,0.219278,0.088151,0.014259,0.182898,-0.085487,0.025665,-0.055749,0.097153,-0.010968,-0.047764,-0.132455,-0.033595,-0.052295,0.048044,-0.071822,-0.061337,0.002482,0.031355,0.009504,0.068819,},

	{-0.047226,0.012605,0.061600,0.043179,0.016650,0.013150,0.007723,0.034548,-0.058837,-0.042944,-0.050804,0.068795,0.025259,0.068087,-0.013964,-0.044740,0.030012,0.002039,0.055884,-0.074334,0.019061,0.045992,-0.038039,0.067013,0.071364,-0.038154,0.025424,-0.035741,-0.051747,0.020256,-0.015307,0.021187,0.036531,0.071889,0.146214,0.106727,0.016897,0.062118,0.050719,0.055955,0.218025,0.265009,0.041331,0.024638,0.169911,0.245520,0.093967,0.203247,0.209317,0.123090,0.057384,0.029748,-0.026822,-0.064242,0.042694,-0.019957,0.074862,0.022789,-0.071925,0.046568,0.159302,0.194390,0.174706,0.058343,0.206618,0.108508,0.024155,0.089585,-0.011413,-0.027275,0.057001,0.090234,0.159010,0.102233,0.069569,0.080885,0.095774,0.111125,0.211537,0.177197,0.134670,0.049175,-0.057997,0.021054,-0.015318,0.021389,-0.126800,-0.019506,0.050235,-0.051944,0.008540,-0.013607,-0.007013,-0.105103,-0.118126,-0.000411,-0.084357,0.135934,0.070802,0.029364,0.102813,-0.013114,0.031590,0.114396,0.044206,0.048625,0.158112,0.010171,-0.029641,-0.068612,0.050002,-0.030260,0.000982,-0.038470,-0.016662,-0.008253,-0.114576,-0.043123,-0.170962,0.000779,-0.090018,-0.048882,-0.090967,-0.024846,-0.112906,-0.139111,-0.027655,-0.062717,-0.040040,0.151922,0.068594,-0.063993,0.046254,0.055929,0.146317,0.169469,0.179365,0.237255,0.056381,0.010125,-0.058483,-0.050291,-0.026020,-0.045412,-0.122141,-0.225873,-0.289124,-0.125174,-0.115522,-0.155078,-0.013428,0.092830,-0.015241,-0.000062,-0.076962,0.027468,0.081149,0.096903,0.049314,0.115438,0.201969,0.162817,0.176112,0.129912,0.172202,0.087469,0.099402,-0.077759,-0.047033,-0.118257,-0.055792,-0.050292,-0.132913,-0.185270,-0.269808,-0.235036,-0.116826,-0.085163,-0.134736,-0.011358,-0.024078,-0.006512,0.081900,0.079779,0.227643,0.158284,0.221647,0.235357,0.265731,0.050208,0.111575,0.151874,0.250339,0.097673,-0.024334,-0.005368,-0.019007,-0.145706,0.038974,-0.186846,-0.253801,-0.118842,-0.103079,-0.138727,-0.033903,-0.074732,0.010558,0.017919,-0.025507,0.055611,0.125964,0.177516,0.131465,0.174203,0.241761,0.255036,0.164496,0.173000,0.121955,0.095312,-0.063029,-0.076942,0.078264,-0.008115,0.023889,0.037927,0.005468,-0.169999,-0.196377,-0.121675,-0.028287,-0.060929,-0.057965,0.035697,-0.025257,0.118232,0.035995,0.051527,0.047589,0.027626,0.036617,-0.054041,0.017008,0.008060,-0.046137,0.054487,-0.075603,-0.163663,-0.197232,-0.174322,-0.069329,0.003461,-0.042552,-0.068263,0.020855,-0.189474,-0.191036,-0.067017,-0.028291,-0.056724,-0.100357,-0.022074,-0.054185,0.011737,-0.116694,-0.125044,-0.245719,-0.276625,-0.373619,-0.508525,-0.396154,-0.327366,-0.330307,-0.352953,-0.242467,-0.291979,-0.240677,-0.146350,-0.084055,0.047537,0.017968,0.070136,-0.061084,-0.190614,-0.187694,-0.094226,0.077685,0.027541,-0.000516,0.041920,0.014214,0.008934,-0.081762,-0.224265,-0.318135,-0.425462,-0.603432,-0.664039,-0.424481,-0.420910,-0.546377,-0.478265,-0.480468,-0.406161,-0.292500,-0.182828,0.021610,-0.012832,-0.073363,-0.036556,-0.050553,-0.160310,-0.030228,0.071877,0.041255,-0.011272,0.031528,0.039630,0.010201,-0.059625,-0.104803,-0.112902,-0.162682,-0.205487,-0.355469,-0.186124,-0.245289,-0.342798,-0.351471,-0.275310,-0.344333,-0.392451,-0.313826,-0.170505,0.142831,0.084965,-0.058524,0.033007,-0.006256,0.066308,-0.047563,0.044351,0.049620,-0.011428,-0.029153,0.074874,-0.024271,0.111374,-0.067132,0.006220,0.131529,0.014362,0.042559,0.115946,0.116638,-0.092604,-0.046101,-0.118711,-0.143769,-0.218159,-0.197520,-0.077443,0.278709,-0.019658,0.001332,-0.113151,-0.035609,0.137498,-0.116745,-0.109125,0.005690,0.160332,-0.052554,0.030997,0.093555,0.082403,0.055899,0.072351,0.197468,0.246156,0.226271,0.211501,0.133066,-0.003689,-0.004597,0.081117,-0.054171,0.026402,-0.109101,0.024724,0.104984,0.051595,0.093400,-0.118443,-0.153208,-0.066328,-0.012103,-0.069586,0.161782,0.086215,-0.044432,-0.050957,0.151733,0.027827,0.081611,0.020629,0.073423,0.124794,0.213507,0.003133,0.153322,0.043043,0.132345,0.072830,-0.007363,-0.020567,-0.051147,0.005858,0.113841,0.020956,0.059204,-0.053837,-0.094058,-0.087162,-0.159768,-0.058413,0.002114,0.046316,-0.087194,-0.087611,0.091506,-0.007504,-0.008252,0.037491,0.046278,0.119817,0.106563,0.093929,0.109837,0.036090,0.087388,0.008207,-0.043398,0.040378,0.149707,0.184969,-0.255619,-0.053943,0.054434,-0.050214,-0.240746,-0.054441,-0.037109,-0.132853,-0.026321,-0.137611,-0.033180,-0.026588,0.019815,0.025629,0.018367,0.033257,0.073382,0.092439,-0.016702,0.046738,0.065007,-0.047420,-0.035046,-0.085208,0.048259,-0.003957,0.078693,0.053201,-0.058052,-0.070664,0.048810,0.001450,-0.080388,0.154843,0.058673,-0.026200,-0.098520,-0.059478,-0.023883,-0.024290,0.121141,0.055154,0.051143,0.009221,-0.070601,0.021837,-0.088422,-0.055481,-0.066263,-0.019584,0.097726,0.125078,0.045728,0.006398,0.063748,0.069504,-0.012292,0.085144,0.004361,-0.018993,-0.141522,0.058952,0.158441,0.041907,-0.128955,-0.137471,0.111530,0.113396,0.091688,0.079396,0.035187,-0.047258,-0.009792,0.032025,0.061400,-0.054642,-0.093149,0.008463,0.163485,0.068207,0.093579,0.043426,0.008303,0.038311,-0.100719,-0.067213,0.019429,-0.074310,-0.097994,-0.147651,-0.018019,-0.003956,-0.057993,-0.053801,0.015577,0.077162,0.051276,-0.051577,0.055551,0.013737,-0.016141,-0.060474,-0.121638,-0.055513,0.041037,0.060385,0.070451,-0.020390,0.062221,0.087418,0.218119,0.077443,-0.118998,-0.092268,-0.030057,-0.043753,-0.006173,-0.096363,0.103562,0.032328,-0.056121,0.019903,0.042786,0.036943,0.029385,-0.060279,-0.022260,0.010703,-0.081491,-0.052700,-0.119617,-0.094878,-0.088054,-0.003310,-0.100127,0.035118,0.155445,0.187330,0.112507,0.212049,-0.027384,0.085914,-0.016409,-0.013761,-0.047613,-0.118500,0.067451,-0.022829,-0.123407,-0.007829,0.020114,0.133733,0.007848,-0.037270,0.109660,0.040738,0.002043,0.056121,0.006831,0.061430,0.027828,-0.037195,0.058771,-0.009582,0.033404,0.179681,0.028417,0.057170,-0.049888,0.026518,-0.066917,0.080463,-0.054541,-0.025209,0.187379,-0.050133,-0.145315,0.023121,-0.072023,-0.015405,-0.009567,-0.041850,0.013727,-0.012457,-0.029757,0.052812,-0.013067,0.130041,-0.102478,-0.105382,-0.004801,-0.131481,-0.008099,0.064549,0.005972,0.137333,-0.137208,0.007711,0.058394,-0.064439,-0.030680,0.117478,0.245134,0.266975,0.151160,0.038232,0.117250,0.004437,0.020886,0.021779,-0.050055,-0.113557,-0.044621,-0.080309,-0.057325,-0.160168,-0.008593,-0.144033,0.007015,0.038995,0.001918,0.105073,0.030060,0.043401,0.010625,0.051744,0.075525,-0.065132,-0.064383,0.008779,0.016746,0.116918,0.132071,0.106770,0.170162,0.091251,-0.067225,-0.085893,-0.059720,0.047560,-0.028723,-0.013074,-0.053381,-0.066841,-0.067456,-0.115729,0.119200,0.074438,0.070809,0.093502,0.082291,-0.076004,0.021508,-0.022059,0.057080,-0.026795,0.006402,-0.027816,-0.093190,-0.037716,0.147127,0.126814,0.188703,0.202784,0.123932,0.094074,0.195846,0.259863,0.033206,0.082370,0.075185,0.179785,0.185828,0.299232,0.051227,0.109428,0.240947,0.130639,0.126805,-0.044402,-0.012164,-0.053752,0.006217,-0.077903,-0.015875,0.004009,0.198769,0.191988,0.138762,0.153595,0.084505,0.157261,0.055796,0.128355,0.247102,0.221708,0.246063,0.099668,0.092258,0.084393,0.139817,0.183982,0.225775,0.168249,0.100452,0.125937,-0.065619,-0.020503,0.057356,-0.079457,0.065614,-0.045086,-0.070465,0.003260,-0.041118,-0.005233,-0.026297,-0.024365,-0.072459,0.076788,0.034489,-0.041637,0.049929,0.034977,0.044897,0.018553,-0.000299,-0.025157,0.059761,-0.037327,-0.099421,-0.065591,0.030532,0.014228,-0.032459,-0.026648,-0.017188,-0.024061,},

	{0.025897,-0.040211,-0.008115,0.049741,0.037186,-0.067497,-0.005027,0.079671,0.009662,-0.047128,-0.000284,0.064101,0.002218,0.009452,-0.062724,-0.026314,-0.014282,0.051210,-0.025776,-0.033435,0.035947,-0.009712,-0.048009,-0.021360,-0.056764,-0.046861,-0.058175,-0.057508,0.050065,-0.045095,-0.077112,-0.020059,0.017742,0.046659,0.066837,0.078451,0.036486,0.141842,-0.050860,0.119824,0.052053,0.139071,-0.163081,-0.005835,0.132714,0.314449,0.265550,0.132561,0.147346,0.259555,0.016916,0.106064,0.032103,0.046011,0.080246,0.008428,0.042140,-0.012088,-0.010597,0.159438,0.103246,0.085439,0.077004,0.152543,0.220815,0.291795,0.245199,0.377693,0.201318,-0.112986,-0.060484,-0.032724,0.031819,0.023934,-0.004829,-0.038205,0.073561,0.158131,0.191345,0.156187,0.064015,-0.001559,-0.079440,-0.021131,0.026372,-0.040173,-0.064671,0.080095,-0.059590,0.276100,0.177754,0.150190,0.216272,0.354465,0.310061,0.370819,0.065355,0.036281,0.025403,-0.034869,-0.001645,0.009651,-0.107176,0.069340,-0.112926,-0.124309,0.008389,-0.032054,0.010976,-0.027946,0.020566,0.030682,-0.006092,-0.067499,-0.038926,-0.071538,-0.025713,0.095101,0.217628,0.189030,0.209525,0.342420,0.391283,0.285424,0.053653,0.112873,-0.052239,0.094370,0.005641,0.103580,0.076628,0.045544,0.024803,-0.133828,-0.045535,-0.150358,-0.115855,-0.135424,-0.086988,-0.000402,0.044337,-0.078485,0.081229,-0.006917,0.075132,-0.136260,-0.124468,-0.099885,-0.080755,-0.191131,0.021240,-0.025537,-0.167439,-0.053508,0.016030,-0.035711,-0.028284,0.002579,0.041228,0.096342,0.069328,0.052650,0.087363,0.026460,0.013539,-0.106823,0.135586,0.127486,-0.067133,0.142270,0.164245,0.124703,0.253920,0.085403,-0.088039,-0.055715,-0.089339,-0.210030,-0.197398,-0.158603,-0.172342,-0.056929,-0.031335,-0.099268,-0.005293,-0.100129,-0.043133,-0.091151,-0.110699,-0.079792,0.029748,-0.013310,-0.050574,-0.101857,-0.002470,0.083185,-0.014559,0.055952,0.047498,0.223295,0.259428,-0.043000,-0.086163,-0.131603,-0.147784,-0.115455,-0.048495,0.088020,-0.102715,-0.003648,-0.049305,-0.078559,-0.006824,-0.070137,-0.029120,-0.074959,-0.018490,-0.064213,-0.076303,-0.181507,-0.098243,-0.112536,0.014967,0.102662,0.181321,-0.186495,0.033105,0.152640,0.138554,-0.125268,-0.191763,-0.117441,-0.007336,-0.052025,-0.029868,-0.134447,-0.089606,0.052963,0.134010,0.050067,0.027460,-0.056549,-0.008827,0.004321,0.023366,0.036676,-0.081752,-0.168897,-0.265740,-0.256855,-0.066483,-0.111796,-0.081175,-0.024973,-0.042493,0.095606,0.051502,-0.105785,-0.054219,-0.115202,-0.030285,-0.025752,-0.097998,-0.119563,-0.161960,-0.006398,-0.066756,0.071083,-0.021533,0.051651,0.046221,-0.006633,0.033705,-0.032478,-0.130279,-0.152209,-0.154601,-0.284588,-0.085706,-0.026222,-0.009461,-0.034655,-0.106549,0.027101,0.002574,0.048243,0.090174,-0.074221,-0.079900,-0.107935,-0.109956,-0.206521,0.006176,-0.039670,0.049577,-0.003896,0.041138,0.109268,-0.007382,-0.022250,-0.104154,-0.101816,-0.057636,-0.121479,-0.017555,-0.207817,-0.095716,-0.158519,-0.075837,0.032000,-0.098682,0.141205,-0.095036,0.020826,0.002284,-0.009531,0.023263,-0.054904,-0.099412,-0.108154,-0.064553,-0.100997,-0.118315,0.003635,0.025844,0.065702,-0.079596,-0.051890,-0.095337,-0.134224,-0.134638,-0.194874,-0.075993,-0.213872,-0.200517,-0.079607,-0.050300,0.008549,0.041719,-0.189852,-0.102380,-0.109879,0.043168,-0.053955,0.053806,-0.032220,0.004523,-0.016174,-0.057091,0.006431,-0.066101,-0.209250,0.008443,-0.033844,0.028626,-0.099222,0.058001,-0.130937,0.003179,-0.084903,-0.057110,-0.017489,0.015791,0.039736,0.001053,0.108679,-0.119571,-0.201565,-0.294722,-0.075055,0.079113,-0.015859,0.102732,-0.044437,-0.051382,0.050730,-0.036955,-0.072399,-0.031735,-0.149130,-0.002717,0.102864,0.016741,0.058915,-0.098451,-0.040003,0.109485,0.177425,0.105970,0.156763,0.187950,0.084545,0.095616,-0.019559,-0.059744,0.046771,-0.146175,0.050139,-0.002255,0.033153,0.135683,0.137151,-0.024617,-0.018481,0.065808,0.062726,-0.131629,-0.108874,-0.125902,0.050781,0.124264,0.085306,-0.031316,0.018511,0.136734,0.172410,0.173722,0.154617,0.256649,0.078358,-0.039064,-0.041928,0.066292,0.063434,0.100965,0.221076,0.050433,0.084960,0.038735,0.120382,0.063891,0.060201,-0.004278,-0.086459,-0.118006,-0.181116,-0.060908,-0.050264,0.087252,0.061962,-0.002365,-0.007567,0.121747,0.227344,0.171298,0.221301,0.098358,0.129566,0.023071,0.002037,0.278095,0.209851,0.110248,0.105602,-0.048988,0.061419,0.064117,0.069543,0.205504,0.189392,-0.010489,-0.138955,-0.143242,-0.097688,0.000648,0.042235,0.024175,0.098057,0.034256,0.163983,0.099504,0.147364,0.210253,0.332630,0.197642,0.024037,-0.057052,0.023712,0.183594,0.150830,0.019166,0.094397,0.012843,0.039989,0.022220,0.108374,0.156966,0.100306,-0.061311,-0.025317,-0.080136,-0.056018,-0.034274,0.001782,0.088868,0.002618,0.066408,0.061487,0.206759,0.025854,-0.102653,0.014156,-0.102805,0.253372,-0.053165,0.099107,0.046864,0.233583,0.043712,0.072778,0.024143,0.145286,0.053075,0.059963,0.065632,0.097906,0.044283,0.026592,0.139950,0.228850,0.065796,0.067490,0.016125,-0.014641,-0.122583,0.014001,0.058095,0.061143,-0.070696,0.073070,-0.087959,0.132804,0.034585,-0.067926,-0.071644,0.241104,0.138389,0.144470,0.015702,0.126397,0.149135,0.104016,0.195514,0.199858,0.147114,0.089760,0.157711,0.140814,0.045491,0.085463,0.080175,0.075811,-0.067224,-0.033718,-0.029983,0.001132,0.030961,0.071295,0.000886,0.005079,-0.069509,0.105109,0.115647,0.304647,0.166131,0.043685,-0.091391,0.108653,0.219951,0.254902,0.177830,0.168376,0.073294,0.087506,0.205668,0.224933,0.098727,0.071528,0.167904,0.042973,0.109215,0.021295,-0.056902,-0.145545,-0.064974,-0.139727,0.149660,0.069080,0.006061,0.033212,0.276899,0.272498,-0.090503,-0.053979,0.032938,-0.006588,0.087312,0.086221,0.252836,0.176358,0.154765,0.175623,0.126545,0.155742,0.021550,0.032687,-0.012618,0.039921,-0.130243,-0.130053,-0.016241,-0.097799,-0.128260,0.034626,0.128250,-0.050888,0.064333,0.071345,0.107237,0.170343,0.026306,0.068358,-0.081507,-0.109400,-0.037663,0.155352,0.109844,0.194925,0.135662,0.088531,-0.016738,-0.014613,-0.065305,-0.209274,-0.036890,-0.065234,-0.226593,-0.044011,-0.110034,-0.187485,-0.079799,-0.042703,0.042418,0.012822,-0.015682,0.066568,0.112480,0.254777,0.012629,0.095293,0.014530,-0.026182,0.093613,0.076329,0.099821,0.028068,-0.091272,-0.217646,-0.079595,-0.259946,-0.357845,-0.457654,-0.167421,-0.068320,-0.133221,-0.023365,-0.076294,-0.159843,-0.110162,-0.129150,0.018953,0.023460,-0.034552,0.027312,0.115482,0.043136,-0.003264,-0.095330,-0.225350,-0.194702,-0.208163,-0.159487,-0.197228,-0.381381,-0.573203,-0.410507,-0.432834,-0.400502,-0.347554,-0.462044,-0.141920,-0.211359,-0.175178,-0.088962,-0.227046,-0.110848,-0.185112,-0.094459,0.039149,0.078348,0.045872,0.066982,-0.006791,0.030599,-0.066582,-0.252372,-0.234128,-0.345442,-0.349219,-0.496165,-0.476629,-0.376405,-0.510829,-0.483827,-0.363660,-0.298490,-0.339450,-0.286853,-0.233862,-0.070832,-0.135320,-0.137192,-0.205514,-0.176489,-0.020152,0.027593,-0.076833,-0.027390,0.056981,-0.066138,0.065666,-0.048842,-0.048015,-0.010054,-0.048606,-0.208721,-0.212102,-0.175485,-0.126720,-0.055741,-0.132057,-0.123090,-0.250033,-0.149546,-0.036032,-0.201508,-0.084547,0.041922,-0.063789,-0.098735,-0.027966,-0.054077,-0.029875,0.037177,0.061578,0.038007,0.019268,-0.028561,-0.002109,-0.028182,-0.001546,-0.081647,-0.000552,-0.065329,-0.009776,0.015861,-0.034965,-0.039992,-0.103606,-0.150023,-0.064222,0.001683,0.024743,-0.000842,-0.067772,-0.064611,-0.055270,0.001779,-0.018671,0.059999,-0.053445,-0.025973,0.022191,0.005971,},

