
{
	{-0.252471,0.137528,0.084816,-0.573197,-0.087279,-0.537195,0.245968,0.107365,0.228231,0.139430,-0.194937,-0.301955,0.199217,0.109747,-0.172762,-0.101902,0.206305,-0.443648,0.148768,0.160178,-0.229780,-0.055507,0.066970,-0.194514,0.315191,0.158708,-0.429508,0.370956,0.103021,-0.551310,-0.283010,-0.410735,0.193915,0.320527,-0.023000,-0.063628,0.334979,-0.070926,-0.463900,0.253994,-0.117318,0.236912,-0.018990,0.072741,0.251073,-0.128160,-0.674531,-0.306741,0.248582,-0.047380,0.170747,-0.358104,-0.329366,-0.145154,-0.347796,-0.039215,0.133943,0.023100,-0.139810,-0.242918,0.316128,0.241625,-0.421660,0.283084,-0.234712,-0.168535,0.007648,-0.295586,-0.112854,-0.155906,-0.634359,-0.523536,0.245842,0.036175,-0.313557,-0.443606,-0.015616,0.060432,-0.640677,0.164182,0.014881,0.373706,-0.471660,0.211678,0.145255,-0.217244,-0.021858,0.009635,0.114294,0.278017,-0.558213,-0.240009,-0.378245,-0.187154,-0.111153,0.343614,0.005776,-0.374151,0.302759,-0.636168,0.121395,-0.033576,-0.201130,-0.170144,-0.176864,-0.184940,-0.416999,-0.631275,-0.476998,-0.551091,0.158599,-0.229212,-0.172802,-0.440730,-0.301572,-0.470002,0.300897,-0.196099,-0.099719,-0.522879,0.229623,-0.531093,0.253807,-0.391761,0.094682,0.153855,-0.094152,0.261334,},

	{-0.521598,0.177292,-0.024587,-0.010533,-0.105592,-0.317019,0.054921,0.412610,-0.663901,0.227541,0.197286,-0.720718,-0.156832,-0.072096,0.201254,0.050546,0.068042,0.359565,-0.241398,0.264441,0.084024,0.238872,-0.234973,-0.071818,0.053572,0.037256,0.145812,-0.178082,-0.233569,-0.082267,-0.380689,-0.179060,-0.301776,-0.218451,-0.239863,0.140488,0.149175,-0.165625,0.141831,-0.666853,-0.266971,-0.106703,0.134951,0.317625,0.607620,0.379778,-0.018599,0.232888,0.257741,0.177522,-0.444950,0.354722,0.230812,0.046190,0.113928,-0.059755,0.267872,-0.113974,0.254443,0.213164,-0.479656,-0.236569,0.134368,-0.043226,0.358504,-0.159195,-0.385052,-0.050514,0.270387,0.176825,0.244349,0.251623,-0.187892,-0.085299,-0.049386,-0.168870,-0.228978,-0.716276,0.520741,-0.363047,0.074288,-0.033894,-0.005240,-0.223736,-0.375480,0.030582,0.381441,0.087746,-0.168915,-0.668691,-0.320269,0.189395,-0.405544,-0.000139,0.047118,-0.201538,-0.460858,0.078865,-0.242845,0.211341,0.148305,-0.598989,-0.247089,-0.169306,-0.105988,0.026651,0.386994,0.214793,-0.001462,0.219654,-0.245027,-0.276562,0.394326,0.502371,-0.364238,0.208316,-0.691578,0.182051,-0.601113,-0.033498,-0.153710,0.170676,-0.681643,-0.358035,-0.300092,0.025801,0.402091,0.264585,},

	{-0.407294,-0.044837,0.268420,-0.450802,0.121575,0.165695,0.007528,0.332839,-0.341532,0.130904,0.225733,-0.023659,0.073153,-0.000244,0.183336,0.262960,0.014752,0.043813,-0.551887,-0.057855,0.142847,0.288677,-0.192779,-0.080592,-0.132496,0.091760,-0.647141,-0.062635,0.060621,0.367064,-0.084237,-0.003073,0.222025,-0.053163,0.014514,0.132850,0.256966,-0.237769,-0.158470,-0.563328,0.185800,0.160058,-0.104614,0.192942,-0.164181,0.460205,0.510690,0.262641,0.149604,0.143318,-0.004339,-0.055808,0.264910,0.322224,0.327818,0.087993,-0.633242,-0.441755,-0.382173,0.356736,-0.366360,-0.010517,0.032636,0.072151,-0.220964,-0.152469,-0.008412,0.234735,-0.289152,0.188276,-0.545716,-0.349282,0.076680,0.191527,-0.086199,0.145982,-0.237863,0.297589,0.165086,0.089485,0.124033,0.202099,0.132746,-0.126190,0.136785,0.087497,-0.786670,0.269254,-0.099042,0.215994,-0.075240,-0.331704,-0.241495,0.013268,-0.147616,-0.263630,-0.395971,0.219113,-0.011760,-0.397642,-0.230401,0.254455,-0.071626,-0.071394,0.181818,0.131283,-0.449169,-0.089007,-0.256643,0.227692,0.084289,-0.151486,-0.381929,0.189786,0.202618,0.262504,0.009145,-0.207157,0.063763,-0.561360,-0.648224,-0.073528,-0.068014,-0.157657,0.069236,0.168543,0.044507,0.179990,},

	{0.372526,0.224180,-0.082654,0.131757,0.153936,0.016209,-0.330099,-0.131968,0.172603,0.071162,-0.465336,-0.074773,0.110038,0.479657,-0.368464,0.439984,-0.254460,0.250809,-0.392420,-0.291868,0.205535,0.148066,0.149886,-0.038373,-0.165031,0.053195,-0.143733,-0.156384,0.068981,0.454170,0.143674,-0.006533,-0.173732,0.116972,-0.451900,0.126741,0.097629,-0.517926,0.191107,-0.054345,-0.500063,-0.136224,0.309115,-0.183480,-0.026410,-0.344996,0.045116,0.141448,-0.073985,-0.320489,0.142223,0.246821,0.189708,-0.122170,0.037701,0.241011,-0.816906,0.305508,0.022238,0.314361,0.126671,-0.047384,0.162154,-0.186589,-0.350345,0.131589,0.159344,0.145102,-0.361614,0.049351,0.247225,0.278787,0.074216,0.075455,0.264244,0.186222,-0.165960,-0.189167,0.275857,-0.117936,0.156036,-0.284945,-0.354297,0.017541,0.155105,-0.046813,-0.363390,0.217117,-0.094432,0.123711,0.038213,0.206729,0.288541,-0.179215,-0.060562,-0.262471,-0.172922,0.099824,-0.152175,-0.589088,-0.517629,0.155033,-0.200019,-0.499586,-0.364811,-0.199155,0.295339,0.204575,-0.472079,-0.126935,-0.345084,-0.362957,-0.469115,-0.131556,-0.048772,-0.177465,-0.187910,-0.140951,-0.441673,0.177457,-0.006328,0.123126,0.109908,-0.130753,0.029143,0.098229,-0.546279,-0.460371,},

	{0.131607,-0.392889,-0.292663,-0.029309,-0.394554,-0.155524,0.106101,0.340762,0.058628,0.150499,0.223683,-0.480769,0.027451,-0.617169,0.165135,-0.397254,0.183324,0.309265,0.279511,-0.571355,-0.053004,-0.062465,-0.261248,0.025346,-0.448715,-0.294897,0.175558,0.211021,-0.046130,-0.718721,0.185398,0.216643,0.247629,-0.004040,0.341431,-0.539054,-0.548205,0.224936,0.130375,0.191744,0.225372,0.069016,0.342518,-0.335404,-0.297564,-0.469599,-0.297303,-0.399839,-0.438555,-0.271256,0.053889,0.483919,0.251774,-0.481398,0.252412,-0.139766,0.015285,-0.535523,0.355967,-0.309625,-0.089753,0.047296,0.127506,-0.499296,0.361892,-0.069259,-0.397980,-0.265183,0.158996,0.332989,0.155749,-0.123974,0.081209,0.147727,-0.472800,-0.705421,0.123765,0.051985,-0.158159,0.173103,-0.067869,-0.382369,0.171726,-0.459937,-0.116939,0.031308,-0.503049,-0.486369,0.100441,-0.813734,0.180450,0.210053,-0.081614,-0.092755,0.090614,0.184030,0.344506,-0.293363,-0.315923,0.165675,0.258774,0.134446,-0.490768,0.244981,0.043001,-0.289930,0.074057,0.186117,0.206621,-0.103990,0.090627,0.038779,-0.583768,-0.403864,-0.201583,-0.304242,-0.235346,-0.415200,0.158173,0.063311,0.058740,0.279527,-0.079421,-0.673529,-0.549453,-0.793062,0.183946,0.014890,},

	{0.369146,-0.436343,-0.128545,0.228856,-0.331826,0.334876,-0.483208,-0.167681,0.161722,-0.563038,-0.337828,0.415838,0.039446,0.154796,-0.049772,0.258989,0.059333,-0.347324,-0.296457,0.335279,0.172570,-0.775040,-0.028831,-0.014071,0.133988,-0.293433,0.116700,-0.069950,0.015990,-0.498233,0.216739,0.177157,-0.385737,0.209879,-0.388474,-0.003134,0.119110,0.127130,-0.025749,0.218323,-0.551257,-0.327817,-0.418804,-0.260813,-0.010916,-0.015671,-0.146514,0.240283,0.150662,-0.002532,0.182259,-0.550418,-0.163613,-0.337933,0.000490,-0.558796,-0.190653,0.347338,0.236731,0.219611,0.272642,0.232025,-0.441958,-0.120847,-0.117213,-0.051664,-0.318200,0.237424,-0.383261,-0.133073,0.252064,0.326320,-0.236385,-0.274315,-0.161301,-0.023415,-0.459478,0.103199,0.234223,-0.164962,-0.011319,-0.365357,-0.563814,0.097845,0.106802,-0.154856,0.413455,0.277008,-0.060903,0.348529,0.129899,-0.451578,0.148398,-0.029144,-0.343511,0.194922,-0.272541,-0.397319,-0.324487,0.170854,-0.019287,0.202993,0.252502,0.243036,0.102158,0.077926,0.332923,0.206930,0.371300,-0.103132,-0.416923,0.124010,0.452336,0.215973,0.295897,-0.007221,-0.099974,-0.111016,0.272363,0.111091,0.202706,-0.651580,0.285684,0.547085,-0.104813,0.080478,0.403564,0.291065,},

	{-0.927130,0.158224,-0.011240,-0.276485,-0.234046,0.267811,0.091835,0.052034,0.233632,-0.006513,-0.309311,0.398735,0.155324,-0.114958,-0.505515,-0.469257,0.244676,-0.533317,0.171161,-0.109416,-0.286046,-0.129831,-0.303554,-0.032862,-0.272995,0.018422,-0.401925,-0.292223,0.109777,-0.770059,-0.455789,-0.250868,0.082326,-0.258681,-0.053189,-0.223362,-0.348580,0.065132,0.037467,0.144746,0.286576,-0.354605,0.306832,0.367352,0.073827,-0.038227,-0.170615,0.140063,0.260242,0.205472,0.069979,-0.535627,-0.415485,-0.138723,0.214342,0.302835,0.270999,0.232036,0.103375,-0.428955,0.134981,-0.368865,0.002935,0.238442,-0.062160,0.059141,0.282938,-0.446849,0.008785,-0.542918,-0.248059,0.158343,-0.482345,-0.170063,-0.229102,-0.838382,-0.141043,0.219727,-0.053846,-0.004242,-0.488066,0.042977,0.131884,0.171978,0.025375,-0.228932,-0.141012,-0.039147,0.114874,-0.422720,-0.679620,-0.226592,-0.285069,0.076829,-0.305133,0.344775,0.337574,-0.311699,0.097036,0.209291,0.082116,0.157023,-0.181485,0.309740,0.263916,-0.001837,-0.931567,-0.250069,-0.287341,-0.358465,-0.073548,0.097729,0.355205,-0.254025,0.359512,0.195431,0.128844,-0.032658,0.260017,-0.499969,0.213664,-0.493183,0.060575,0.098673,-0.496674,-0.157006,-0.014722,-0.465091,},

	{-0.099775,0.121731,0.244117,-0.289425,-0.257947,0.237229,0.129145,-0.385118,-0.051786,0.163877,0.142491,-0.143353,-0.759532,0.266861,-0.053538,-0.204061,-0.229474,-0.072869,-0.032329,0.229237,-0.432494,-0.188466,0.099389,0.079824,0.376004,0.024424,0.197169,0.229181,-0.387539,0.493471,0.154699,0.121938,-0.427438,-0.243981,0.253876,0.099219,-0.222092,0.176449,0.055511,0.339084,0.185448,0.295502,0.259250,-0.164412,0.408312,0.228033,0.403354,-0.320491,-0.419193,-0.246350,0.081373,-0.000552,-0.248225,-0.010904,-0.341951,0.132853,-0.264397,-0.666106,-0.397244,0.430012,0.374773,0.082668,-0.150972,0.218971,0.374364,0.100639,0.107490,0.144526,0.217805,0.157976,-0.110020,0.143971,0.069327,0.373232,0.223920,0.165853,0.066333,0.009340,0.143936,0.042864,0.167462,-0.196272,0.176751,-0.315805,-0.232627,-0.247079,0.070056,0.169025,-0.106778,0.281136,0.075295,0.096863,0.160563,-0.482032,0.038676,0.248218,0.154179,0.133379,0.262729,-0.389364,0.313115,0.164109,-0.167890,-0.503827,-0.255880,-0.378972,-0.636899,-0.527619,0.237810,0.366348,-0.331583,-0.074715,-0.253731,0.344310,-0.342018,-0.290344,-0.374069,-0.135731,0.229321,0.056488,-0.126680,0.166854,-0.087877,-0.384433,0.087777,-0.134082,0.280789,0.026526,},

	{-0.627578,-0.232468,-0.287109,0.272396,0.207758,0.197009,0.075541,-0.341162,0.113314,0.093760,0.235328,0.190538,-0.051170,-0.443398,-0.618894,-0.498896,0.162110,-0.150460,-0.352981,-0.138618,0.171633,0.088542,0.146033,-0.049738,-0.116045,0.159547,-0.053803,-0.444904,0.135754,-0.326607,0.172176,0.276862,-0.228748,0.235011,-0.718280,0.198369,-0.588125,-0.235206,0.197893,-0.171803,-0.268589,-0.249312,-0.332231,-0.330772,-0.371271,-0.627288,-0.368754,0.090295,-0.159963,0.122204,0.176417,-0.066355,-0.302096,0.159509,-0.217748,0.063840,-0.266869,-0.052294,0.005085,-0.463164,-0.680831,0.193420,0.245669,-0.506650,-0.110684,-0.024525,-0.144230,0.014709,0.101925,-0.419817,0.165951,0.011638,0.077176,-0.394885,-0.322998,-0.146888,-0.001840,-0.204765,-0.424097,0.139932,0.186397,0.342949,0.127082,0.117437,0.238487,0.122980,-0.118367,-0.375119,0.119377,-0.210880,-0.350332,0.082454,0.192436,0.060070,0.050993,-0.169899,-0.159851,0.091784,-0.082744,-0.010746,-0.240512,-0.509038,-0.372534,-0.397440,0.335832,0.162274,-0.527032,0.157213,-0.075360,-0.094404,-0.141837,0.202283,-0.016648,-0.304794,0.052965,-0.056958,0.067483,0.169851,0.274493,0.195697,0.184882,-0.113627,-0.329429,-0.027730,-0.003369,0.165520,-0.590576,-0.303340,},

	{0.278662,0.076439,-0.591509,0.161640,0.021658,-0.339906,0.099202,-0.685405,0.089898,-0.330908,-0.243688,0.145381,-0.417503,-0.420609,0.241047,-0.317256,-0.330058,-0.337245,-0.025646,-0.267728,0.174861,-0.052834,0.113242,0.068382,-0.328184,0.053479,0.256828,0.246589,-0.059766,-0.779699,0.167374,0.254727,-0.157236,0.167760,0.334302,0.133156,0.095245,0.112996,0.131786,0.099324,-0.040685,0.151363,-0.417902,-0.352991,-0.662912,-0.716539,-0.239554,0.183328,-0.316917,-0.480166,0.189117,-0.368497,0.237614,-0.877898,-0.052463,0.185074,0.438621,-0.093941,-0.684638,-0.978731,-0.162701,0.153317,-0.268886,0.162465,-0.368350,-0.138069,0.157846,-0.487358,-0.397046,0.308946,0.067043,-0.412725,0.246707,-0.484932,0.244518,0.102628,0.106309,-0.689382,0.041242,0.025647,-0.000260,-0.071881,-0.010839,-0.212871,0.077933,0.055176,-0.042334,-0.891086,0.075390,0.054707,0.146663,0.234076,0.197461,-0.112081,0.092413,-0.366049,-0.555982,-0.288284,0.257212,0.100290,0.207749,0.222558,0.337066,0.183591,-0.244618,0.168031,0.301896,0.105534,0.029716,-0.887689,0.234539,-0.082160,0.052666,-0.192238,-0.605573,-0.625743,0.194616,0.227513,-0.429385,0.174845,0.105348,0.202678,0.164777,0.071654,-0.118582,-0.028533,-0.093660,0.100268,},

}