
{0.06540618091821670532,-0.03047041967511177063,-0.00598576851189136505,0.03908914327621459961,-0.22467148303985595703,-0.02605034038424491882,0.00451735872775316238,0.14304529130458831787,0.00031576264882460237,-0.12202726304531097412,-0.06485487520694732666,-0.06950928270816802979,-0.02738527953624725342,-0.01372703164815902710,0.18057131767272949219,0.01386914029717445374,0.05466029047966003418,0.02924242243170738220,0.00761046586558222771,0.12946556508541107178,-0.09597773849964141846,0.03566073626279830933,-0.11149393767118453979,-0.02480943500995635986,0.14888964593410491943,-0.08903144299983978271,0.21951419115066528320,0.06844585388898849487,-0.12882249057292938232,-0.06302572041749954224,0.10883673280477523804,0.06167367473244667053,-0.02525720186531543732,-0.01879443414509296417,0.06700731068849563599,-0.10195311903953552246,0.08200706541538238525,0.18493321537971496582,-0.02538410946726799011,0.10219568014144897461,0.12216518074274063110,0.02025175467133522034,-0.13046362996101379395,0.10858286917209625244,0.12322519719600677490,0.04656317085027694702,0.16875231266021728516,0.06002543866634368896,0.14090183377265930176,0.01931368373334407806,0.00353584461845457554,-0.03128218650817871094,0.01256222464144229889,-0.09936358034610748291,0.10993428528308868408,-0.18927812576293945312,0.12328702211380004883,0.00959693919867277145,0.20762635767459869385,0.05920044332742691040,0.20123535394668579102,0.08249217271804809570,-0.16579677164554595947,0.03321332484483718872,-0.06188420951366424561,-0.01298199966549873352,-0.04246824607253074646,-0.02860811538994312286,-0.01957153528928756714,0.06471152603626251221,0.01699352264404296875,0.08239660412073135376,-0.10225149244070053101,0.14241942763328552246,-0.01701124757528305054,-0.03982127830386161804,-0.03270786628127098083,0.14660908281803131104,0.04056033492088317871,-0.04878595098853111267,-0.10558434575796127319,-0.12747842073440551758,0.08633549511432647705,0.03897435590624809265,-0.11656539142131805420,-0.08875072747468948364,0.16040025651454925537,0.07791388034820556641,-0.10640093684196472168,0.20125693082809448242,0.16094052791595458984,-0.04412823915481567383,-0.06011267378926277161,0.02001415006816387177,0.00450362125411629677,0.01096540130674839020,0.03646943718194961548,-0.12937141954898834229,-0.04363777115941047668,0.20467050373554229736,0.06598655134439468384,0.10702881217002868652,0.03004039637744426727,0.05937654525041580200,0.06785607337951660156,0.01308695599436759949,0.03301870077848434448,-0.00787282921373844147,0.26151365041732788086,-0.04579083621501922607,-0.10048411041498184204,0.07106075435876846313,0.01850437000393867493,0.08308719098567962646,0.15151785314083099365,0.13333012163639068604,-0.12819147109985351562,-0.02165563963353633881,0.05646068602800369263,-0.00737847341224551201,0.03094415552914142609,0.01120515726506710052,0.04881301149725914001,-0.01632983237504959106,-0.09485951066017150879,-0.08857598900794982910,0.07975120842456817627,0.15955199301242828369,}