
{
	{-0.25247061252593994141,0.13752846419811248779,0.08481553941965103149,-0.57319736480712890625,-0.08727862685918807983,-0.53719460964202880859,0.24596798419952392578,0.10736506432294845581,0.22823128104209899902,0.13943028450012207031,-0.19493675231933593750,-0.30195486545562744141,0.19921749830245971680,0.10974711179733276367,-0.17276172339916229248,-0.10190209001302719116,0.20630483329296112061,-0.44364750385284423828,0.14876760542392730713,0.16017809510231018066,-0.22978009283542633057,-0.05550653487443923950,0.06697016954421997070,-0.19451439380645751953,0.31519061326980590820,0.15870812535285949707,-0.42950838804244995117,0.37095639109611511230,0.10302080214023590088,-0.55130964517593383789,-0.28300955891609191895,-0.41073524951934814453,0.19391521811485290527,0.32052680850028991699,-0.02299951016902923584,-0.06362786144018173218,0.33497855067253112793,-0.07092618197202682495,-0.46389997005462646484,0.25399428606033325195,-0.11731834709644317627,0.23691245913505554199,-0.01899037510156631470,0.07274098694324493408,0.25107303261756896973,-0.12816004455089569092,-0.67453098297119140625,-0.30674070119857788086,0.24858213961124420166,-0.04737970232963562012,0.17074668407440185547,-0.35810416936874389648,-0.32936641573905944824,-0.14515385031700134277,-0.34779602289199829102,-0.03921499103307723999,0.13394288718700408936,0.02309982478618621826,-0.13981039822101593018,-0.24291834235191345215,0.31612798571586608887,0.24162450432777404785,-0.42165973782539367676,0.28308430314064025879,-0.23471221327781677246,-0.16853509843349456787,0.00764795718714594841,-0.29558578133583068848,-0.11285391449928283691,-0.15590590238571166992,-0.63435864448547363281,-0.52353644371032714844,0.24584244191646575928,0.03617467731237411499,-0.31355699896812438965,-0.44360587000846862793,-0.01561560574918985367,0.06043189764022827148,-0.64067739248275756836,0.16418179869651794434,0.01488128583878278732,0.37370583415031433105,-0.47166007757186889648,0.21167805790901184082,0.14525450766086578369,-0.21724353730678558350,-0.02185770682990550995,0.00963488873094320297,0.11429394781589508057,0.27801677584648132324,-0.55821329355239868164,-0.24000890552997589111,-0.37824541330337524414,-0.18715354800224304199,-0.11115256696939468384,0.34361395239830017090,0.00577564816921949387,-0.37415084242820739746,0.30275863409042358398,-0.63616758584976196289,0.12139531224966049194,-0.03357618302106857300,-0.20113037526607513428,-0.17014433443546295166,-0.17686372995376586914,-0.18493971228599548340,-0.41699889302253723145,-0.63127452135086059570,-0.47699785232543945312,-0.55109107494354248047,0.15859936177730560303,-0.22921176254749298096,-0.17280183732509613037,-0.44073036313056945801,-0.30157181620597839355,-0.47000223398208618164,0.30089730024337768555,-0.19609948992729187012,-0.09971907734870910645,-0.52287870645523071289,0.22962327301502227783,-0.53109264373779296875,0.25380676984786987305,-0.39176115393638610840,0.09468192607164382935,0.15385513007640838623,-0.09415165334939956665,0.26133444905281066895,},

	{-0.52159804105758666992,0.17729209363460540771,-0.02458725310862064362,-0.01053282152861356735,-0.10559172183275222778,-0.31701880693435668945,0.05492129549384117126,0.41261029243469238281,-0.66390126943588256836,0.22754101455211639404,0.19728636741638183594,-0.72071814537048339844,-0.15683229267597198486,-0.07209586352109909058,0.20125371217727661133,0.05054587870836257935,0.06804155558347702026,0.35956504940986633301,-0.24139834940433502197,0.26444140076637268066,0.08402368426322937012,0.23887176811695098877,-0.23497326672077178955,-0.07181806117296218872,0.05357207730412483215,0.03725609928369522095,0.14581178128719329834,-0.17808184027671813965,-0.23356895148754119873,-0.08226708322763442993,-0.38068857789039611816,-0.17906001210212707520,-0.30177631974220275879,-0.21845087409019470215,-0.23986332118511199951,0.14048804342746734619,0.14917492866516113281,-0.16562545299530029297,0.14183063805103302002,-0.66685324907302856445,-0.26697078347206115723,-0.10670312494039535522,0.13495077192783355713,0.31762486696243286133,0.60761970281600952148,0.37977814674377441406,-0.01859889179468154907,0.23288823664188385010,0.25774076581001281738,0.17752160131931304932,-0.44494950771331787109,0.35472175478935241699,0.23081195354461669922,0.04618997126817703247,0.11392829567193984985,-0.05975548550486564636,0.26787185668945312500,-0.11397407948970794678,0.25444307923316955566,0.21316446363925933838,-0.47965598106384277344,-0.23656898736953735352,0.13436765968799591064,-0.04322559759020805359,0.35850417613983154297,-0.15919531881809234619,-0.38505160808563232422,-0.05051383376121520996,0.27038702368736267090,0.17682501673698425293,0.24434924125671386719,0.25162345170974731445,-0.18789173662662506104,-0.08529863506555557251,-0.04938568174839019775,-0.16886973381042480469,-0.22897835075855255127,-0.71627640724182128906,0.52074128389358520508,-0.36304739117622375488,0.07428827881813049316,-0.03389351814985275269,-0.00524023454636335373,-0.22373552620410919189,-0.37548044323921203613,0.03058203123509883881,0.38144093751907348633,0.08774635940790176392,-0.16891470551490783691,-0.66869109869003295898,-0.32026886940002441406,0.18939496576786041260,-0.40554434061050415039,-0.00013930976274423301,0.04711781442165374756,-0.20153750479221343994,-0.46085771918296813965,0.07886473089456558228,-0.24284480512142181396,0.21134085953235626221,0.14830462634563446045,-0.59898877143859863281,-0.24708883464336395264,-0.16930595040321350098,-0.10598811507225036621,0.02665134891867637634,0.38699436187744140625,0.21479289233684539795,-0.00146222882904112339,0.21965417265892028809,-0.24502687156200408936,-0.27656164765357971191,0.39432606101036071777,0.50237053632736206055,-0.36423835158348083496,0.20831586420536041260,-0.69157809019088745117,0.18205110728740692139,-0.60111343860626220703,-0.03349769115447998047,-0.15371018648147583008,0.17067646980285644531,-0.68164288997650146484,-0.35803538560867309570,-0.30009156465530395508,0.02580139040946960449,0.40209105610847473145,0.26458469033241271973,},

	{-0.40729376673698425293,-0.04483657702803611755,0.26842004060745239258,-0.45080241560935974121,0.12157516181468963623,0.16569501161575317383,0.00752845685929059982,0.33283904194831848145,-0.34153163433074951172,0.13090424239635467529,0.22573320567607879639,-0.02365874871611595154,0.07315313816070556641,-0.00024378122179768980,0.18333572149276733398,0.26295992732048034668,0.01475232839584350586,0.04381290823221206665,-0.55188661813735961914,-0.05785531923174858093,0.14284740388393402100,0.28867706656455993652,-0.19277870655059814453,-0.08059206604957580566,-0.13249611854553222656,0.09175983816385269165,-0.64714097976684570312,-0.06263533234596252441,0.06062144413590431213,0.36706420779228210449,-0.08423741906881332397,-0.00307318428531289101,0.22202463448047637939,-0.05316342785954475403,0.01451394427567720413,0.13284958899021148682,0.25696590542793273926,-0.23776862025260925293,-0.15846966207027435303,-0.56332820653915405273,0.18580046296119689941,0.16005769371986389160,-0.10461413860321044922,0.19294241070747375488,-0.16418114304542541504,0.46020525693893432617,0.51068979501724243164,0.26264059543609619141,0.14960381388664245605,0.14331750571727752686,-0.00433913758024573326,-0.05580766499042510986,0.26490968465805053711,0.32222366333007812500,0.32781809568405151367,0.08799304813146591187,-0.63324218988418579102,-0.44175460934638977051,-0.38217282295227050781,0.35673552751541137695,-0.36635971069335937500,-0.01051712036132812500,0.03263632580637931824,0.07215094566345214844,-0.22096353769302368164,-0.15246912837028503418,-0.00841241050511598587,0.23473472893238067627,-0.28915226459503173828,0.18827556073665618896,-0.54571551084518432617,-0.34928232431411743164,0.07668016850948333740,0.19152709841728210449,-0.08619860559701919556,0.14598211646080017090,-0.23786318302154541016,0.29758876562118530273,0.16508576273918151855,0.08948491513729095459,0.12403345108032226562,0.20209887623786926270,0.13274557888507843018,-0.12618960440158843994,0.13678456842899322510,0.08749669045209884644,-0.78666967153549194336,0.26925399899482727051,-0.09904170036315917969,0.21599356830120086670,-0.07524048537015914917,-0.33170428872108459473,-0.24149481952190399170,0.01326842606067657471,-0.14761582016944885254,-0.26363044977188110352,-0.39597102999687194824,0.21911348402500152588,-0.01176043692976236343,-0.39764186739921569824,-0.23040127754211425781,0.25445482134819030762,-0.07162565737962722778,-0.07139401882886886597,0.18181836605072021484,0.13128310441970825195,-0.44916859269142150879,-0.08900681883096694946,-0.25664314627647399902,0.22769200801849365234,0.08428858965635299683,-0.15148568153381347656,-0.38192853331565856934,0.18978603184223175049,0.20261766016483306885,0.26250350475311279297,0.00914470292627811432,-0.20715692639350891113,0.06376340240240097046,-0.56135964393615722656,-0.64822405576705932617,-0.07352798432111740112,-0.06801370531320571899,-0.15765675902366638184,0.06923632323741912842,0.16854281723499298096,0.04450705274939537048,0.17999032139778137207,},

	{0.37252613902091979980,0.22417965531349182129,-0.08265440165996551514,0.13175733387470245361,0.15393602848052978516,0.01620885543525218964,-0.33009865880012512207,-0.13196814060211181641,0.17260254919528961182,0.07116226106882095337,-0.46533623337745666504,-0.07477349042892456055,0.11003825068473815918,0.47965678572654724121,-0.36846444010734558105,0.43998378515243530273,-0.25446003675460815430,0.25080859661102294922,-0.39241990447044372559,-0.29186809062957763672,0.20553521811962127686,0.14806613326072692871,0.14988642930984497070,-0.03837269172072410583,-0.16503126919269561768,0.05319502204656600952,-0.14373290538787841797,-0.15638352930545806885,0.06898064166307449341,0.45417034626007080078,0.14367429912090301514,-0.00653272075578570366,-0.17373220622539520264,0.11697157472372055054,-0.45189982652664184570,0.12674070894718170166,0.09762882441282272339,-0.51792621612548828125,0.19110652804374694824,-0.05434466153383255005,-0.50006258487701416016,-0.13622367382049560547,0.30911549925804138184,-0.18348024785518646240,-0.02640954218804836273,-0.34499621391296386719,0.04511604458093643188,0.14144764840602874756,-0.07398492097854614258,-0.32048928737640380859,0.14222268760204315186,0.24682088196277618408,0.18970845639705657959,-0.12216986715793609619,0.03770053386688232422,0.24101135134696960449,-0.81690567731857299805,0.30550795793533325195,0.02223814651370048523,0.31436097621917724609,0.12667065858840942383,-0.04738399013876914978,0.16215352714061737061,-0.18658858537673950195,-0.35034519433975219727,0.13158942759037017822,0.15934418141841888428,0.14510235190391540527,-0.36161416769027709961,0.04935117438435554504,0.24722547829151153564,0.27878725528717041016,0.07421550899744033813,0.07545512914657592773,0.26424422860145568848,0.18622170388698577881,-0.16595950722694396973,-0.18916736543178558350,0.27585676312446594238,-0.11793649941682815552,0.15603573620319366455,-0.28494513034820556641,-0.35429665446281433105,0.01754068583250045776,0.15510481595993041992,-0.04681349173188209534,-0.36339011788368225098,0.21711660921573638916,-0.09443192929029464722,0.12371119111776351929,0.03821281343698501587,0.20672872662544250488,0.28854086995124816895,-0.17921470105648040771,-0.06056230515241622925,-0.26247081160545349121,-0.17292246222496032715,0.09982387721538543701,-0.15217500925064086914,-0.58908826112747192383,-0.51762908697128295898,0.15503259003162384033,-0.20001938939094543457,-0.49958607554435729980,-0.36481085419654846191,-0.19915460050106048584,0.29533943533897399902,0.20457485318183898926,-0.47207927703857421875,-0.12693515419960021973,-0.34508383274078369141,-0.36295694112777709961,-0.46911540627479553223,-0.13155637681484222412,-0.04877185449004173279,-0.17746521532535552979,-0.18791015446186065674,-0.14095106720924377441,-0.44167274236679077148,0.17745663225650787354,-0.00632831593975424767,0.12312649935483932495,0.10990810394287109375,-0.13075308501720428467,0.02914289012551307678,0.09822922199964523315,-0.54627943038940429688,-0.46037116646766662598,},

	{0.13160718977451324463,-0.39288872480392456055,-0.29266306757926940918,-0.02930889464914798737,-0.39455384016036987305,-0.15552404522895812988,0.10610076040029525757,0.34076151251792907715,0.05862785130739212036,0.15049891173839569092,0.22368335723876953125,-0.48076915740966796875,0.02745117805898189545,-0.61716943979263305664,0.16513538360595703125,-0.39725419878959655762,0.18332417309284210205,0.30926525592803955078,0.27951124310493469238,-0.57135510444641113281,-0.05300376191735267639,-0.06246498227119445801,-0.26124799251556396484,0.02534562349319458008,-0.44871523976325988770,-0.29489675164222717285,0.17555844783782958984,0.21102105081081390381,-0.04612994939088821411,-0.71872073411941528320,0.18539805710315704346,0.21664254367351531982,0.24762931466102600098,-0.00403962749987840652,0.34143117070198059082,-0.53905421495437622070,-0.54820549488067626953,0.22493600845336914062,0.13037471473217010498,0.19174407422542572021,0.22537237405776977539,0.06901607662439346313,0.34251832962036132812,-0.33540365099906921387,-0.29756402969360351562,-0.46959885954856872559,-0.29730322957038879395,-0.39983862638473510742,-0.43855497241020202637,-0.27125611901283264160,0.05388851091265678406,0.48391905426979064941,0.25177353620529174805,-0.48139834403991699219,0.25241243839263916016,-0.13976588845252990723,0.01528465375304222107,-0.53552299737930297852,0.35596740245819091797,-0.30962526798248291016,-0.08975329250097274780,0.04729565232992172241,0.12750609219074249268,-0.49929645657539367676,0.36189195513725280762,-0.06925875693559646606,-0.39797973632812500000,-0.26518291234970092773,0.15899552404880523682,0.33298909664154052734,0.15574857592582702637,-0.12397366762161254883,0.08120866119861602783,0.14772737026214599609,-0.47280034422874450684,-0.70542061328887939453,0.12376536428928375244,0.05198549106717109680,-0.15815903246402740479,0.17310291528701782227,-0.06786941736936569214,-0.38236916065216064453,0.17172628641128540039,-0.45993697643280029297,-0.11693901568651199341,0.03130753710865974426,-0.50304943323135375977,-0.48636919260025024414,0.10044094175100326538,-0.81373393535614013672,0.18044973909854888916,0.21005311608314514160,-0.08161419630050659180,-0.09275491535663604736,0.09061361104249954224,0.18403008580207824707,0.34450578689575195312,-0.29336288571357727051,-0.31592291593551635742,0.16567490994930267334,0.25877362489700317383,0.13444560766220092773,-0.49076807498931884766,0.24498078227043151855,0.04300066083669662476,-0.28993007540702819824,0.07405714690685272217,0.18611654639244079590,0.20662133395671844482,-0.10399015247821807861,0.09062657505273818970,0.03877922520041465759,-0.58376759290695190430,-0.40386363863945007324,-0.20158271491527557373,-0.30424192547798156738,-0.23534558713436126709,-0.41520047187805175781,0.15817342698574066162,0.06331072747707366943,0.05874009057879447937,0.27952730655670166016,-0.07942070066928863525,-0.67352855205535888672,-0.54945313930511474609,-0.79306238889694213867,0.18394595384597778320,0.01489010639488697052,},

	{0.36914631724357604980,-0.43634262681007385254,-0.12854471802711486816,0.22885581851005554199,-0.33182626962661743164,0.33487552404403686523,-0.48320788145065307617,-0.16768059134483337402,0.16172182559967041016,-0.56303828954696655273,-0.33782827854156494141,0.41583836078643798828,0.03944585099816322327,0.15479587018489837646,-0.04977184906601905823,0.25898927450180053711,0.05933304503560066223,-0.34732440114021301270,-0.29645699262619018555,0.33527880907058715820,0.17257016897201538086,-0.77504044771194458008,-0.02883084118366241455,-0.01407120656222105026,0.13398832082748413086,-0.29343256354331970215,0.11669957637786865234,-0.06994958966970443726,0.01599035784602165222,-0.49823346734046936035,0.21673925220966339111,0.17715728282928466797,-0.38573703169822692871,0.20987866818904876709,-0.38847410678863525391,-0.00313416891731321812,0.11910960823297500610,0.12712970376014709473,-0.02574894763529300690,0.21832256019115447998,-0.55125731229782104492,-0.32781699299812316895,-0.41880351305007934570,-0.26081320643424987793,-0.01091592106968164444,-0.01567116752266883850,-0.14651398360729217529,0.24028338491916656494,0.15066218376159667969,-0.00253198202699422836,0.18225878477096557617,-0.55041772127151489258,-0.16361261904239654541,-0.33793255686759948730,0.00048990017967298627,-0.55879592895507812500,-0.19065317511558532715,0.34733790159225463867,0.23673135042190551758,0.21961116790771484375,0.27264201641082763672,0.23202487826347351074,-0.44195842742919921875,-0.12084728479385375977,-0.11721335351467132568,-0.05166447162628173828,-0.31819963455200195312,0.23742443323135375977,-0.38326111435890197754,-0.13307285308837890625,0.25206369161605834961,0.32632017135620117188,-0.23638546466827392578,-0.27431514859199523926,-0.16130086779594421387,-0.02341536618769168854,-0.45947828888893127441,0.10319884121417999268,0.23422300815582275391,-0.16496227681636810303,-0.01131933182477951050,-0.36535668373107910156,-0.56381428241729736328,0.09784459322690963745,0.10680165141820907593,-0.15485596656799316406,0.41345503926277160645,0.27700760960578918457,-0.06090285629034042358,0.34852850437164306641,0.12989936769008636475,-0.45157769322395324707,0.14839822053909301758,-0.02914435416460037231,-0.34351101517677307129,0.19492186605930328369,-0.27254146337509155273,-0.39731907844543457031,-0.32448732852935791016,0.17085404694080352783,-0.01928650215268135071,0.20299328863620758057,0.25250235199928283691,0.24303594231605529785,0.10215848684310913086,0.07792646437883377075,0.33292317390441894531,0.20692984759807586670,0.37129965424537658691,-0.10313246399164199829,-0.41692274808883666992,0.12401030212640762329,0.45233562588691711426,0.21597276628017425537,0.29589694738388061523,-0.00722076790407299995,-0.09997385740280151367,-0.11101642996072769165,0.27236264944076538086,0.11109095066785812378,0.20270611345767974854,-0.65157997608184814453,0.28568419814109802246,0.54708480834960937500,-0.10481259226799011230,0.08047782629728317261,0.40356436371803283691,0.29106518626213073730,},

	{-0.92712950706481933594,0.15822356939315795898,-0.01123983785510063171,-0.27648469805717468262,-0.23404628038406372070,0.26781061291694641113,0.09183540195226669312,0.05203385651111602783,0.23363244533538818359,-0.00651261815801262856,-0.30931106209754943848,0.39873543381690979004,0.15532432496547698975,-0.11495835334062576294,-0.50551515817642211914,-0.46925735473632812500,0.24467630684375762939,-0.53331679105758666992,0.17116127908229827881,-0.10941564291715621948,-0.28604581952095031738,-0.12983074784278869629,-0.30355408787727355957,-0.03286153078079223633,-0.27299508452415466309,0.01842189580202102661,-0.40192523598670959473,-0.29222276806831359863,0.10977748036384582520,-0.77005916833877563477,-0.45578920841217041016,-0.25086754560470581055,0.08232598006725311279,-0.25868055224418640137,-0.05318922922015190125,-0.22336234152317047119,-0.34858027100563049316,0.06513179093599319458,0.03746654838323593140,0.14474616944789886475,0.28657588362693786621,-0.35460475087165832520,0.30683153867721557617,0.36735218763351440430,0.07382708787918090820,-0.03822747990489006042,-0.17061468958854675293,0.14006294310092926025,0.26024177670478820801,0.20547215640544891357,0.06997893005609512329,-0.53562718629837036133,-0.41548526287078857422,-0.13872264325618743896,0.21434234082698822021,0.30283537507057189941,0.27099898457527160645,0.23203615844249725342,0.10337521135807037354,-0.42895501852035522461,0.13498067855834960938,-0.36886474490165710449,0.00293482397682964802,0.23844182491302490234,-0.06216034665703773499,0.05914128199219703674,0.28293788433074951172,-0.44684949517250061035,0.00878479424864053726,-0.54291802644729614258,-0.24805891513824462891,0.15834340453147888184,-0.48234537243843078613,-0.17006279528141021729,-0.22910158336162567139,-0.83838152885437011719,-0.14104282855987548828,0.21972729265689849854,-0.05384624749422073364,-0.00424165464937686920,-0.48806625604629516602,0.04297735169529914856,0.13188372552394866943,0.17197810113430023193,0.02537532709538936615,-0.22893181443214416504,-0.14101244509220123291,-0.03914714604616165161,0.11487383395433425903,-0.42272034287452697754,-0.67961966991424560547,-0.22659176588058471680,-0.28506851196289062500,0.07682930678129196167,-0.30513307452201843262,0.34477487206459045410,0.33757373690605163574,-0.31169885396957397461,0.09703644365072250366,0.20929051935672760010,0.08211558312177658081,0.15702304244041442871,-0.18148539960384368896,0.30974009633064270020,0.26391556859016418457,-0.00183688825927674770,-0.93156689405441284180,-0.25006908178329467773,-0.28734087944030761719,-0.35846453905105590820,-0.07354819029569625854,0.09772880375385284424,0.35520508885383605957,-0.25402456521987915039,0.35951223969459533691,0.19543071091175079346,0.12884414196014404297,-0.03265788406133651733,0.26001748442649841309,-0.49996948242187500000,0.21366421878337860107,-0.49318286776542663574,0.06057498604059219360,0.09867340326309204102,-0.49667406082153320312,-0.15700593590736389160,-0.01472172420471906662,-0.46509122848510742188,},

	{-0.09977544844150543213,0.12173071503639221191,0.24411740899085998535,-0.28942462801933288574,-0.25794693827629089355,0.23722910881042480469,0.12914542853832244873,-0.38511750102043151855,-0.05178592354059219360,0.16387709975242614746,0.14249056577682495117,-0.14335326850414276123,-0.75953227281570434570,0.26686134934425354004,-0.05353814363479614258,-0.20406146347522735596,-0.22947417199611663818,-0.07286860793828964233,-0.03232932463288307190,0.22923746705055236816,-0.43249413371086120605,-0.18846607208251953125,0.09938866645097732544,0.07982396334409713745,0.37600374221801757812,0.02442358434200286865,0.19716873764991760254,0.22918099164962768555,-0.38753935694694519043,0.49347132444381713867,0.15469858050346374512,0.12193796038627624512,-0.42743751406669616699,-0.24398130178451538086,0.25387561321258544922,0.09921863675117492676,-0.22209198772907257080,0.17644877731800079346,0.05551053211092948914,0.33908408880233764648,0.18544767796993255615,0.29550224542617797852,0.25924965739250183105,-0.16441152989864349365,0.40831217169761657715,0.22803270816802978516,0.40335369110107421875,-0.32049095630645751953,-0.41919320821762084961,-0.24635049700736999512,0.08137251436710357666,-0.00055229000281542540,-0.24822473526000976562,-0.01090402062982320786,-0.34195098280906677246,0.13285334408283233643,-0.26439654827117919922,-0.66610580682754516602,-0.39724409580230712891,0.43001213669776916504,0.37477311491966247559,0.08266787230968475342,-0.15097242593765258789,0.21897104382514953613,0.37436378002166748047,0.10063864290714263916,0.10749030858278274536,0.14452603459358215332,0.21780529618263244629,0.15797631442546844482,-0.11001961678266525269,0.14397127926349639893,0.06932725012302398682,0.37323194742202758789,0.22391952574253082275,0.16585308313369750977,0.06633321940898895264,0.00934034027159214020,0.14393611252307891846,0.04286375641822814941,0.16746160387992858887,-0.19627219438552856445,0.17675061523914337158,-0.31580507755279541016,-0.23262660205364227295,-0.24707911908626556396,0.07005584985017776489,0.16902504861354827881,-0.10677777975797653198,0.28113633394241333008,0.07529483735561370850,0.09686268121004104614,0.16056296229362487793,-0.48203182220458984375,0.03867576271295547485,0.24821768701076507568,0.15417870879173278809,0.13337948918342590332,0.26272895932197570801,-0.38936373591423034668,0.31311511993408203125,0.16410940885543823242,-0.16789048910140991211,-0.50382709503173828125,-0.25587967038154602051,-0.37897187471389770508,-0.63689875602722167969,-0.52761864662170410156,0.23780964314937591553,0.36634844541549682617,-0.33158329129219055176,-0.07471477985382080078,-0.25373065471649169922,0.34431013464927673340,-0.34201759099960327148,-0.29034423828125000000,-0.37406885623931884766,-0.13573122024536132812,0.22932134568691253662,0.05648779496550559998,-0.12668046355247497559,0.16685415804386138916,-0.08787683397531509399,-0.38443279266357421875,0.08777692168951034546,-0.13408195972442626953,0.28078934550285339355,0.02652597799897193909,},

	{-0.62757831811904907227,-0.23246753215789794922,-0.28710946440696716309,0.27239641547203063965,0.20775830745697021484,0.19700938463211059570,0.07554149627685546875,-0.34116169810295104980,0.11331428587436676025,0.09375955164432525635,0.23532767593860626221,0.19053827226161956787,-0.05116997286677360535,-0.44339776039123535156,-0.61889398097991943359,-0.49889612197875976562,0.16210971772670745850,-0.15045998990535736084,-0.35298109054565429688,-0.13861787319183349609,0.17163279652595520020,0.08854238688945770264,0.14603284001350402832,-0.04973756521940231323,-0.11604464799165725708,0.15954735875129699707,-0.05380303412675857544,-0.44490373134613037109,0.13575400412082672119,-0.32660731673240661621,0.17217607796192169189,0.27686178684234619141,-0.22874769568443298340,0.23501093685626983643,-0.71827995777130126953,0.19836901128292083740,-0.58812463283538818359,-0.23520576953887939453,0.19789333641529083252,-0.17180274426937103271,-0.26858904957771301270,-0.24931170046329498291,-0.33223104476928710938,-0.33077234029769897461,-0.37127095460891723633,-0.62728834152221679688,-0.36875379085540771484,0.09029539674520492554,-0.15996269881725311279,0.12220418453216552734,0.17641669511795043945,-0.06635534763336181641,-0.30209597945213317871,0.15950939059257507324,-0.21774779260158538818,0.06384003907442092896,-0.26686927676200866699,-0.05229399353265762329,0.00508511392399668694,-0.46316373348236083984,-0.68083137273788452148,0.19341981410980224609,0.24566866457462310791,-0.50664973258972167969,-0.11068419367074966431,-0.02452532015740871429,-0.14422954618930816650,0.01470948755741119385,0.10192505270242691040,-0.41981735825538635254,0.16595101356506347656,0.01163794565945863724,0.07717581838369369507,-0.39488473534584045410,-0.32299843430519104004,-0.14688768982887268066,-0.00184025254566222429,-0.20476536452770233154,-0.42409726977348327637,0.13993205130100250244,0.18639723956584930420,0.34294909238815307617,0.12708173692226409912,0.11743696033954620361,0.23848675191402435303,0.12297952175140380859,-0.11836671084165573120,-0.37511917948722839355,0.11937665194272994995,-0.21087998151779174805,-0.35033220052719116211,0.08245445787906646729,0.19243600964546203613,0.06007033213973045349,0.05099284648895263672,-0.16989949345588684082,-0.15985088050365447998,0.09178383648395538330,-0.08274409174919128418,-0.01074573304504156113,-0.24051205813884735107,-0.50903767347335815430,-0.37253379821777343750,-0.39744028449058532715,0.33583226799964904785,0.16227418184280395508,-0.52703195810317993164,0.15721252560615539551,-0.07535977661609649658,-0.09440441429615020752,-0.14183683693408966064,0.20228347182273864746,-0.01664761081337928772,-0.30479419231414794922,0.05296523496508598328,-0.05695800855755805969,0.06748286634683609009,0.16985058784484863281,0.27449277043342590332,0.19569690525531768799,0.18488192558288574219,-0.11362726986408233643,-0.32942870259284973145,-0.02773022092878818512,-0.00336947990581393242,0.16552016139030456543,-0.59057587385177612305,-0.30334028601646423340,},

	{0.27866247296333312988,0.07643941044807434082,-0.59150862693786621094,0.16164028644561767578,0.02165816724300384521,-0.33990564942359924316,0.09920181334018707275,-0.68540507555007934570,0.08989817649126052856,-0.33090814948081970215,-0.24368762969970703125,0.14538140594959259033,-0.41750267148017883301,-0.42060926556587219238,0.24104683101177215576,-0.31725585460662841797,-0.33005791902542114258,-0.33724504709243774414,-0.02564634941518306732,-0.26772785186767578125,0.17486059665679931641,-0.05283355712890625000,0.11324202269315719604,0.06838227063417434692,-0.32818371057510375977,0.05347862094640731812,0.25682798027992248535,0.24658922851085662842,-0.05976584181189537048,-0.77969902753829956055,0.16737444698810577393,0.25472745299339294434,-0.15723606944084167480,0.16776007413864135742,0.33430150151252746582,0.13315553963184356689,0.09524533897638320923,0.11299611628055572510,0.13178558647632598877,0.09932394325733184814,-0.04068526253104209900,0.15136252343654632568,-0.41790169477462768555,-0.35299062728881835938,-0.66291201114654541016,-0.71653860807418823242,-0.23955385386943817139,0.18332752585411071777,-0.31691706180572509766,-0.48016604781150817871,0.18911723792552947998,-0.36849707365036010742,0.23761448264122009277,-0.87789750099182128906,-0.05246262997388839722,0.18507446348667144775,0.43862062692642211914,-0.09394057095050811768,-0.68463802337646484375,-0.97873133420944213867,-0.16270077228546142578,0.15331731736660003662,-0.26888617873191833496,0.16246457397937774658,-0.36834982037544250488,-0.13806851208209991455,0.15784612298011779785,-0.48735776543617248535,-0.39704558253288269043,0.30894613265991210938,0.06704320758581161499,-0.41272506117820739746,0.24670681357383728027,-0.48493170738220214844,0.24451775848865509033,0.10262780636548995972,0.10630858689546585083,-0.68938213586807250977,0.04124212637543678284,0.02564726769924163818,-0.00026049005100503564,-0.07188143581151962280,-0.01083865854889154434,-0.21287107467651367188,0.07793328166007995605,0.05517578497529029846,-0.04233418405055999756,-0.89108604192733764648,0.07539032399654388428,0.05470662191510200500,0.14666268229484558105,0.23407647013664245605,0.19746093451976776123,-0.11208059638738632202,0.09241320192813873291,-0.36604923009872436523,-0.55598223209381103516,-0.28828382492065429688,0.25721192359924316406,0.10028994083404541016,0.20774932205677032471,0.22255848348140716553,0.33706596493721008301,0.18359142541885375977,-0.24461758136749267578,0.16803085803985595703,0.30189573764801025391,0.10553377866744995117,0.02971566095948219299,-0.88768857717514038086,0.23453927040100097656,-0.08215985447168350220,0.05266550183296203613,-0.19223797321319580078,-0.60557305812835693359,-0.62574267387390136719,0.19461573660373687744,0.22751301527023315430,-0.42938548326492309570,0.17484462261199951172,0.10534819215536117554,0.20267796516418457031,0.16477675735950469971,0.07165352255105972290,-0.11858155578374862671,-0.02853305451571941376,-0.09365988522768020630,0.10026842355728149414,},

}