
{
	{0.07010180503129959106,0.04645564407110214233,0.03474328666925430298,-0.02008458599448204041,-0.07024943083524703979,-0.08082595467567443848,0.00619141012430191040,-0.03309684246778488159,-0.04145599529147148132,0.07595243304967880249,0.07152167707681655884,-0.06497602909803390503,-0.00354065001010894775,0.01532503962516784668,0.03042850643396377563,0.04437129944562911987,0.01756902039051055908,0.07179846614599227905,-0.07573653757572174072,-0.01064878702163696289,0.06848960369825363159,-0.04641240462660789490,-0.06579877436161041260,0.06460318714380264282,-0.01650485396385192871,0.00015302747488021851,-0.04149838536977767944,-0.00379929691553115845,0.07019606977701187134,-0.07429179549217224121,0.02537434548139572144,0.03093002736568450928,-0.06839019060134887695,-0.04759708791971206665,-0.06147176399827003479,-0.02026052772998809814,-0.03343980014324188232,-0.04076364263892173767,-0.01250534132122993469,0.01545189693570137024,0.04843086376786231995,-0.11975721269845962524,-0.08138839900493621826,-0.10202147066593170166,0.02974287606775760651,-0.00241779768839478493,0.04504467174410820007,-0.03086703456938266754,-0.07577365636825561523,0.03862005472183227539,0.05401835590600967407,0.00156319141387939453,0.07866577059030532837,0.04192701727151870728,0.07187560945749282837,0.07981636375188827515,-0.00611906498670578003,-0.05446109920740127563,0.03526666015386581421,-0.06955973058938980103,0.03527215123176574707,0.01946157589554786682,-0.06208182126283645630,-0.13758413493633270264,-0.12405991554260253906,-0.22477334737777709961,-0.12783962488174438477,-0.22053727507591247559,-0.25694465637207031250,-0.36524307727813720703,-0.20492996275424957275,-0.08263998478651046753,-0.09645096957683563232,-0.02785033918917179108,0.03677680343389511108,0.09195310622453689575,0.03560456261038780212,-0.09206860512495040894,-0.10246622562408447266,-0.02592444978654384613,-0.04450372606515884399,0.05808225646615028381,-0.03402958810329437256,-0.07281165570020675659,-0.07499290257692337036,0.04326505959033966064,0.00878622382879257202,0.08403562754392623901,-0.00209884205833077431,0.04173505306243896484,-0.09707427769899368286,-0.07691170275211334229,-0.07058103382587432861,-0.15068271756172180176,-0.13201406598091125488,-0.26486763358116149902,-0.28179892897605895996,-0.21121913194656372070,-0.02694752067327499390,-0.14029894769191741943,-0.14345921576023101807,-0.00217688479460775852,0.09850019961595535278,0.07815664261579513550,-0.04165486991405487061,0.00592414522543549538,-0.09792982041835784912,0.04420314356684684753,0.08964043110609054565,0.06161765381693840027,0.05458176881074905396,0.01441151648759841919,0.03828962147235870361,-0.01233116909861564636,0.03694843500852584839,0.15546058118343353271,0.12588313221931457520,0.03282372280955314636,0.00761321047320961952,0.00472304597496986389,-0.07245568186044692993,-0.01540340576320886612,-0.07837850600481033325,0.03296878933906555176,-0.02915866486728191376,-0.02878032810986042023,-0.06940628588199615479,-0.00822155829519033432,-0.10227692127227783203,0.05027077719569206238,0.01003406289964914322,-0.03463287651538848877,-0.01406162325292825699,0.01208237465471029282,0.10446055978536605835,0.00574776995927095413,0.13149128854274749756,0.20417490601539611816,-0.00283045577816665173,-0.01658825762569904327,-0.06160925328731536865,-0.00935803353786468506,0.04649082571268081665,0.15060114860534667969,0.09348450601100921631,-0.04376253113150596619,-0.08745344728231430054,0.01732372865080833435,-0.00668299524113535881,0.16847085952758789062,0.16369210183620452881,0.10309722274541854858,0.03236614540219306946,-0.05420744046568870544,-0.01936317980289459229,-0.02890531904995441437,-0.07241308689117431641,-0.05728673562407493591,-0.01154452841728925705,-0.10039807111024856567,0.01862700842320919037,-0.05040174722671508789,-0.03997489064931869507,0.18640196323394775391,0.16711857914924621582,0.19281016290187835693,-0.13775976002216339111,0.00450930092483758926,0.06762655824422836304,0.07006044685840606689,0.07968170195817947388,0.18062478303909301758,0.09293051809072494507,-0.04049530997872352600,-0.03551717475056648254,-0.05608601495623588562,0.19584228098392486572,0.01005195267498493195,-0.02386228367686271667,0.00897994823753833771,0.09589662402868270874,0.14352987706661224365,0.08395781368017196655,0.04700509086251258850,-0.00630643591284751892,-0.01202300004661083221,0.00405474379658699036,-0.11965935677289962769,0.09232782572507858276,0.08109977841377258301,0.17004768550395965576,-0.00714242085814476013,0.13900932669639587402,0.12220840156078338623,0.13250286877155303955,0.13928773999214172363,0.08004947751760482788,0.04962730407714843750,0.02485386654734611511,0.09618450701236724854,-0.00221213418990373611,0.10281716287136077881,-0.02868679165840148926,-0.00040478343726135790,0.01162789668887853622,0.05586079880595207214,0.06782391667366027832,-0.04674607142806053162,0.03180707246065139771,0.08101315051317214966,0.04219590127468109131,0.06541516631841659546,0.00946728605777025223,-0.00461531244218349457,-0.06371989101171493530,-0.02461885847151279449,0.06520508229732513428,0.01798575557768344879,0.02696200646460056305,0.01220898050814867020,0.02931148000061511993,0.19891156256198883057,0.11454155296087265015,0.21306958794593811035,0.03410657495260238647,0.00676794955506920815,0.05501243472099304199,-0.02895667217671871185,-0.02974318899214267731,0.13265228271484375000,0.07351864129304885864,0.01862234063446521759,0.12469074875116348267,-0.02225004509091377258,-0.02660890109837055206,-0.03983638808131217957,-0.00831630919128656387,-0.03872099891304969788,0.01078556198626756668,-0.07134402543306350708,-0.03651731461286544800,0.07727308571338653564,0.04076987504959106445,-0.01860749907791614532,-0.06494949758052825928,0.01340081542730331421,0.03546995297074317932,-0.11592429131269454956,0.03941544890403747559,-0.05188097804784774780,0.15303222835063934326,0.09604450315237045288,-0.06742315739393234253,-0.06862989068031311035,0.06407190859317779541,-0.00096160278189927340,0.07180548459291458130,-0.09262455999851226807,0.11116826534271240234,0.15372502803802490234,-0.07008196413516998291,-0.01742693595588207245,-0.03919070586562156677,0.01133438851684331894,0.05690839514136314392,-0.05198837071657180786,-0.07079931348562240601,0.04374920576810836792,0.04018466174602508545,-0.01067375112324953079,-0.02350350655615329742,-0.07295756787061691284,-0.09935534000396728516,-0.06972292065620422363,-0.12482157349586486816,-0.13763740658760070801,-0.06975816935300827026,0.01818277500569820404,-0.02851428650319576263,0.01569304428994655609,0.02421426214277744293,-0.07755020260810852051,0.02879821695387363434,0.20641602575778961182,0.07068707793951034546,-0.05096947774291038513,0.05280585587024688721,-0.10818070173263549805,0.03205477073788642883,0.01861748844385147095,-0.02487433888018131256,0.00682305963709950447,-0.01465520542114973068,-0.12891776859760284424,-0.05605204403400421143,-0.04511907696723937988,0.03127605095505714417,0.04037790745496749878,0.02356955222785472870,0.04060715064406394958,-0.05547764897346496582,0.01348936650902032852,-0.04371225833892822266,-0.07789839059114456177,-0.03814536333084106445,0.18817006051540374756,-0.02842279896140098572,0.02232425659894943237,0.02951776050031185150,-0.06098470836877822876,-0.01431429293006658554,0.02161950059235095978,-0.15235693752765655518,-0.06629939377307891846,0.06694359332323074341,-0.02560789510607719421,0.05879336595535278320,-0.01509707421064376831,-0.03341892361640930176,-0.00975198391824960709,-0.06834411621093750000,0.02045110426843166351,-0.09602624177932739258,-0.07554718106985092163,0.04120837524533271790,0.08659031987190246582,0.00600109715014696121,0.04288836196064949036,0.07679129391908645630,-0.00119506742339581251,0.07174829393625259399,0.06045351177453994751,0.11587375402450561523,0.29584464430809020996,0.05125207453966140747,-0.11925719678401947021,0.04309161379933357239,-0.05970819666981697083,-0.01117183733731508255,-0.09927085787057876587,-0.13608306646347045898,-0.06945794820785522461,-0.01119585335254669189,0.01647961884737014771,-0.02905002236366271973,-0.08016300201416015625,0.14584429562091827393,-0.00913258176296949387,0.05905551463365554810,0.20557524263858795166,0.13329593837261199951,0.07911911606788635254,0.04914537072181701660,-0.02177565731108188629,-0.01470601558685302734,-0.08431968092918395996,0.06426995247602462769,0.05433131009340286255,0.08423265814781188965,0.07980242371559143066,0.10596118122339248657,0.17551906406879425049,-0.01518840063363313675,-0.20270469784736633301,-0.02224277704954147339,0.02691424265503883362,0.01386819500476121902,-0.12389432638883590698,-0.18166001141071319580,-0.18124938011169433594,0.02941405400633811951,-0.00250087841413915157,0.03308694809675216675,-0.02159517258405685425,0.07998067885637283325,0.12730613350868225098,0.10110224038362503052,0.13993029296398162842,0.11546764522790908813,-0.04490268602967262268,-0.06984088569879531860,0.00022309500491246581,0.01063837483525276184,0.03502937406301498413,-0.00018943968461826444,0.02597195841372013092,0.02265494316816329956,0.10539459437131881714,0.07204125821590423584,-0.01379744429141283035,-0.06955832988023757935,-0.05578856542706489563,0.07719227671623229980,0.01456470880657434464,-0.09622536599636077881,-0.20165714621543884277,0.04894702881574630737,-0.16661722958087921143,0.10286451131105422974,0.05524180084466934204,0.08177826553583145142,0.10995148122310638428,0.06225515902042388916,0.07287514954805374146,0.19062107801437377930,0.17809204757213592529,0.06523529440164566040,0.07887273281812667847,0.05309662595391273499,0.06716451048851013184,0.02371461689472198486,-0.03960055857896804810,0.09985570609569549561,0.02674292027950286865,-0.12798757851123809814,-0.25360429286956787109,-0.07851472496986389160,-0.18863914906978607178,-0.23580561578273773193,-0.00444100843742489815,0.06795769184827804565,0.03832555562257766724,0.07476503401994705200,-0.10297533124685287476,0.13783361017704010010,0.00065588933648541570,0.04378930106759071350,0.02723277918994426727,0.13072358071804046631,0.22880129516124725342,0.29390957951545715332,0.17609633505344390869,0.18229794502258300781,0.10148386657238006592,0.07040495425462722778,0.10684207826852798462,0.01221267972141504288,0.05767658352851867676,0.05746035277843475342,0.01382142491638660431,0.04962150752544403076,0.05438642576336860657,-0.12242823094129562378,-0.13604359328746795654,-0.11532335728406906128,-0.15519693493843078613,-0.08987504988908767700,0.02957086078822612762,-0.07316255569458007812,0.04175117239356040955,0.07360739260911941528,-0.07396069914102554321,-0.07932152599096298218,-0.15621204674243927002,-0.11766503006219863892,-0.09160016477108001709,0.04541090130805969238,0.08469924330711364746,0.23593127727508544922,0.28865051269531250000,0.26845172047615051270,0.24060936272144317627,0.09207933396100997925,-0.03914369270205497742,-0.11574093252420425415,0.05927002429962158203,-0.00270404759794473648,-0.03267640992999076843,-0.01252740807831287384,-0.09899698197841644287,-0.08689787983894348145,-0.01991830393671989441,0.02100185304880142212,-0.27403011918067932129,-0.20204617083072662354,0.08449975401163101196,-0.01436686515808105469,0.08109194040298461914,-0.05839803814888000488,-0.06376285851001739502,-0.25784525275230407715,-0.35839921236038208008,-0.36956682801246643066,-0.26402559876441955566,-0.19456939399242401123,-0.07240345329046249390,0.09772373735904693604,0.05426122248172760010,0.03459374234080314636,0.02190153114497661591,-0.07005193084478378296,0.04924032837152481079,-0.00752284144982695580,-0.05203307420015335083,0.08237693458795547485,-0.02515838667750358582,-0.09549852460622787476,-0.06166710332036018372,-0.16579352319240570068,-0.01558015402406454086,-0.04740343615412712097,-0.07580063492059707642,0.03919824957847595215,-0.06198395043611526489,0.10811177641153335571,0.07198036462068557739,0.05967609956860542297,0.03024833463132381439,-0.31231978535652160645,-0.46917623281478881836,-0.52062290906906127930,-0.61431711912155151367,-0.60063642263412475586,-0.62345635890960693359,-0.42346972227096557617,-0.41973239183425903320,-0.29203605651855468750,-0.22946539521217346191,-0.20475707948207855225,-0.09947388619184494019,-0.05495588853955268860,0.05984254181385040283,-0.08684906363487243652,-0.03771228715777397156,0.02505102753639221191,-0.02057552523910999298,-0.03554902970790863037,0.00508892955258488655,0.05894616991281509399,-0.07436083257198333740,0.08821340650320053101,-0.08703947812318801880,0.03519477695226669312,0.01984925195574760437,0.17948085069656372070,0.13535530865192413330,-0.16377097368240356445,-0.38757920265197753906,-0.57818526029586791992,-0.68319815397262573242,-0.72857630252838134766,-0.81701332330703735352,-0.79616415500640869141,-0.61738634109497070312,-0.46405693888664245605,-0.33008477091789245605,-0.20021417737007141113,-0.07663140445947647095,0.00031182530801743269,-0.10114295780658721924,-0.04260600730776786804,-0.04743623733520507812,0.00013785251940134913,0.11087660491466522217,0.04533978924155235291,-0.00699583906680345535,0.06324435025453567505,-0.01196338050067424774,-0.09625526517629623413,0.02108569443225860596,0.04469091445207595825,-0.02506868913769721985,0.20937868952751159668,0.25714877247810363770,-0.08676659315824508667,-0.19852909445762634277,-0.25373002886772155762,-0.39424413442611694336,-0.36648720502853393555,-0.26992800831794738770,-0.26941198110580444336,-0.21965001523494720459,-0.24190890789031982422,-0.10597776621580123901,-0.02700778283178806305,-0.03374747186899185181,-0.05265694111585617065,0.02265421859920024872,0.02623747847974300385,0.01204285025596618652,-0.06660337001085281372,-0.00629450893029570580,-0.00725048361346125603,0.09420727938413619995,-0.00022830303350929171,-0.09603478759527206421,0.06144642084836959839,-0.00859513692557811737,0.06495594233274459839,0.08873946964740753174,0.23153708875179290771,0.25672948360443115234,0.14946049451828002930,0.02809697948396205902,0.07381548732519149780,0.04938697442412376404,0.02809650078415870667,0.09615172445774078369,0.11073920875787734985,0.03361103683710098267,0.06173021346330642700,-0.02483900822699069977,-0.01239867787808179855,-0.11593589186668395996,-0.06909039616584777832,-0.10612107068300247192,-0.03578969091176986694,-0.00974546559154987335,-0.01692040637135505676,-0.06747384369373321533,-0.10286451131105422974,0.04758780449628829956,0.11043085157871246338,0.08448725938796997070,0.04749511554837226868,-0.04278597235679626465,-0.08016402274370193481,0.09964903444051742554,0.21776059269905090332,0.18482907116413116455,0.08275141566991806030,0.11300596594810485840,0.06010722741484642029,0.15960787236690521240,0.07487220317125320435,0.12440551817417144775,0.25697520375251770020,0.16954280436038970947,0.06836705654859542847,-0.02665424533188343048,-0.12663337588310241699,-0.02352838963270187378,-0.12456610798835754395,-0.16043369472026824951,-0.12635408341884613037,-0.20694115757942199707,-0.16219875216484069824,-0.22309744358062744141,-0.15880374610424041748,0.13372217118740081787,0.14339162409305572510,-0.06677384674549102783,-0.10515388101339340210,0.07233418524265289307,0.07628197222948074341,-0.00536941736936569214,0.17073689401149749756,0.16932679712772369385,0.20321476459503173828,0.13227264583110809326,0.05369678512215614319,0.04496648535132408142,0.10655902326107025146,0.17037780582904815674,0.22551070153713226318,0.22823818027973175049,0.05681254714727401733,-0.02883480302989482880,0.06509250402450561523,-0.14650741219520568848,-0.05531142279505729675,-0.12402319163084030151,-0.08152727782726287842,-0.18155136704444885254,-0.08257278054952621460,-0.14153030514717102051,-0.10364127159118652344,0.04761117696762084961,0.04778331890702247620,-0.00790785998106002808,-0.08478637039661407471,-0.07916502654552459717,0.02052479982376098633,0.03930988907814025879,-0.02612594142556190491,0.13321699202060699463,0.18847958743572235107,0.18306897580623626709,0.18048289418220520020,0.23117376863956451416,0.19283327460289001465,0.05833742022514343262,0.12435510009527206421,0.03290503099560737610,0.05537749826908111572,-0.00367756397463381290,-0.02905234135687351227,-0.01803174056112766266,-0.03115612827241420746,0.02058935351669788361,0.02612783573567867279,-0.06949719786643981934,-0.02508140169084072113,0.09949543327093124390,0.07184357196092605591,0.20425039529800415039,0.11019003391265869141,0.00372737227007746696,0.02465621009469032288,0.03668326884508132935,-0.04218497499823570251,0.00084856152534484863,0.13835497200489044189,0.13057586550712585449,0.12005596607923507690,0.31380245089530944824,0.20367000997066497803,0.13069023191928863525,0.09382123500108718872,0.04349241033196449280,0.01305552851408720016,-0.01515051256865262985,0.00314942421391606331,0.13827273249626159668,-0.04541086032986640930,0.03376757353544235229,0.09699439257383346558,0.14138355851173400879,0.15355609357357025146,0.17151071131229400635,0.26120126247406005859,0.18744185566902160645,0.27469465136528015137,0.30226421356201171875,0.21057519316673278809,0.06169440969824790955,0.01112779136747121811,0.06082984060049057007,0.00075742602348327637,-0.04917988926172256470,-0.06400956213474273682,-0.00080408126814290881,0.25006970763206481934,0.20575344562530517578,0.32894209027290344238,0.18235397338867187500,-0.04191500321030616760,-0.04424260184168815613,-0.10289655625820159912,-0.00891730841249227524,0.06400823593139648438,0.12187544256448745728,0.17703539133071899414,0.11594765633344650269,0.17468005418777465820,0.16675354540348052979,0.08368117362260818481,0.10885183513164520264,0.18861044943332672119,0.11004871875047683716,0.02804017066955566406,0.04302652180194854736,0.09194166213274002075,0.06922627240419387817,0.02562566101551055908,-0.05792018026113510132,0.00572988390922546387,-0.03508638590574264526,-0.02014975249767303467,-0.03202981501817703247,0.06009159237146377563,-0.05828729644417762756,-0.02079403027892112732,-0.01478965114802122116,-0.03835223242640495300,-0.07593116909265518188,0.01033618953078985214,-0.02609448507428169250,0.09860130399465560913,-0.03238680586218833923,0.01584992930293083191,0.10807375609874725342,0.05392463877797126770,-0.04263006895780563354,-0.08175461739301681519,0.13943272829055786133,-0.00257714977487921715,-0.12583960592746734619,-0.08404669165611267090,-0.03052794001996517181,0.06386921554803848267,-0.04075127094984054565,-0.04095735773444175720,-0.01831019669771194458,},

	{-0.01253438740968704224,0.04946505278348922729,0.01228330284357070923,-0.06599001586437225342,0.07642111927270889282,-0.04706458747386932373,-0.02951811626553535461,-0.05853861942887306213,0.03388339281082153320,0.06684949249029159546,-0.01259737461805343628,-0.01455180346965789795,0.08919095247983932495,0.02394064702093601227,-0.00749879330396652222,-0.02202663198113441467,-0.02149540930986404419,0.04273864626884460449,-0.05476512014865875244,0.01940329372882843018,0.07273814827203750610,0.05060317367315292358,-0.05498706549406051636,0.06588497012853622437,0.02062433212995529175,-0.07413035631179809570,-0.00352276116609573364,0.03119921684265136719,0.06540138274431228638,0.00210495293140411377,0.01951027661561965942,0.02919779717922210693,0.00603975495323538780,-0.02891863323748111725,0.13856515288352966309,0.11346089839935302734,0.04397597163915634155,0.18198488652706146240,0.08566173911094665527,0.14439348876476287842,0.04867927357554435730,0.16766868531703948975,0.03515020757913589478,0.24145698547363281250,0.28281667828559875488,0.20953771471977233887,0.24840013682842254639,0.16901129484176635742,0.18887989223003387451,0.03383783251047134399,0.08354028314352035522,0.03954726830124855042,-0.06048515439033508301,0.07970597594976425171,0.05695388466119766235,0.04969192296266555786,-0.07896330952644348145,-0.03975884988903999329,0.03975965827703475952,0.03260769322514533997,0.17727854847908020020,0.05312351137399673462,0.06272877752780914307,0.15076228976249694824,0.08200631290674209595,0.07363276183605194092,0.12313963472843170166,0.16184905171394348145,0.25672581791877746582,0.17346906661987304688,0.11861953884363174438,0.14363747835159301758,0.12439087033271789551,0.00824154820293188095,0.09833194315433502197,0.06871240586042404175,0.05347614735364913940,-0.03640674054622650146,0.00206604157574474812,0.02974748052656650543,-0.04221003130078315735,-0.07506544142961502075,-0.05317371338605880737,-0.04557325690984725952,-0.07107931375503540039,-0.04713281244039535522,0.04326828941702842712,0.09952489286661148071,0.08393764495849609375,0.06489831209182739258,0.22539666295051574707,0.29568406939506530762,0.14098775386810302734,0.02876230515539646149,0.10796126723289489746,0.00846914201974868774,0.14843609929084777832,0.17978696525096893311,0.04130019247531890869,0.02055183425545692444,-0.03551309555768966675,0.00745784444734454155,0.07518817484378814697,0.04010398313403129578,-0.05327639356255531311,-0.00423329835757613182,0.07357134670019149780,0.08031594753265380859,0.01603460311889648438,0.00486786058172583580,-0.07237380743026733398,0.01236367225646972656,-0.03403596952557563782,0.06994619220495223999,0.06337995082139968872,0.09906573593616485596,0.21848306059837341309,0.18850959837436676025,0.27273228764533996582,0.10785562545061111450,-0.02437023445963859558,-0.02764322608709335327,-0.03599524870514869690,-0.07271987944841384888,0.06941555440425872803,0.10085948556661605835,0.04357025027275085449,-0.01558883674442768097,-0.18349534273147583008,-0.15562832355499267578,-0.16517624258995056152,-0.18782950937747955322,-0.14954505860805511475,-0.12123507261276245117,-0.19912143051624298096,-0.18706212937831878662,-0.19201460480690002441,0.00978617649525403976,-0.05710594728589057922,-0.07075089216232299805,-0.04898704588413238525,0.04882135242223739624,0.07977655529975891113,0.06631293892860412598,0.08285193890333175659,0.08598309010267257690,0.06839066743850708008,-0.04963162168860435486,-0.02838530950248241425,-0.11086413264274597168,0.02219571173191070557,-0.08868480473756790161,0.01710784435272216797,-0.00281585939228534698,-0.20064522325992584229,-0.14937607944011688232,-0.20058287680149078369,-0.16294327378273010254,-0.18605099618434906006,-0.17525967955589294434,-0.28475174307823181152,-0.36383071541786193848,-0.32017490267753601074,-0.23493731021881103516,-0.20936672389507293701,-0.04561483487486839294,0.04148735105991363525,-0.03022023290395736694,0.03748951852321624756,-0.06300617009401321411,-0.07240360975265502930,0.05451054871082305908,0.09756272286176681519,-0.17794512212276458740,-0.19795741140842437744,-0.18299315869808197021,-0.02328711748123168945,0.06101989373564720154,0.04509807750582695007,-0.00125551095698028803,-0.09326450526714324951,-0.06549283117055892944,-0.01937684789299964905,-0.00943823996931314468,0.04813673719763755798,-0.02975018136203289032,-0.09226217865943908691,-0.28924521803855895996,-0.19651317596435546875,-0.15596407651901245117,-0.33409491181373596191,-0.25052902102470397949,-0.25023972988128662109,-0.14236748218536376953,-0.07905191928148269653,-0.10135968029499053955,0.06922871619462966919,0.08982282876968383789,-0.03438951075077056885,0.06092770025134086609,-0.04746328666806221008,-0.16279530525207519531,-0.09839354455471038818,-0.01424705050885677338,-0.05624268203973770142,-0.14311975240707397461,-0.09116628021001815796,-0.04919993877410888672,0.04410084709525108337,0.05650241672992706299,0.14021448791027069092,0.02398925833404064178,-0.05664855241775512695,-0.05958625301718711853,-0.18508590757846832275,-0.22925458848476409912,-0.28270012140274047852,-0.21746428310871124268,-0.51437526941299438477,-0.42658010125160217285,-0.33449566364288330078,-0.12319125980138778687,-0.08689937740564346313,-0.08968109637498855591,-0.00748705677688121796,0.10384725034236907959,-0.08570750057697296143,0.07282436639070510864,0.03397954255342483521,0.01956825144588947296,-0.03754584118723869324,0.05515347048640251160,-0.09290862083435058594,-0.09933322668075561523,-0.03739914298057556152,0.00848220661282539368,0.02962448447942733765,0.16034795343875885010,0.23178976774215698242,0.13209936022758483887,0.01103176828473806381,-0.02582363411784172058,-0.19942969083786010742,-0.09585225582122802734,-0.05206575989723205566,-0.19587732851505279541,-0.39895829558372497559,-0.44939029216766357422,-0.26547995209693908691,-0.18171842396259307861,-0.09797291457653045654,-0.09122935682535171509,0.03173406049609184265,0.13651558756828308105,0.04700054973363876343,0.16102133691310882568,0.21240687370300292969,0.02500935830175876617,0.04997052252292633057,0.04652481153607368469,0.04448161646723747253,0.07014613598585128784,0.02726452425122261047,-0.01347493845969438553,-0.01332601532340049744,0.10455574095249176025,0.24604131281375885010,0.15239930152893066406,-0.01747774705290794373,-0.06091089174151420593,-0.10596643388271331787,-0.08925175666809082031,-0.07843586802482604980,-0.27624678611755371094,-0.31389573216438293457,-0.38599535822868347168,-0.43536812067031860352,-0.27251076698303222656,0.03770264983177185059,0.12850205600261688232,-0.00073729391442611814,-0.00430160015821456909,0.00658001936972141266,0.22434028983116149902,0.10571467876434326172,0.08262325823307037354,0.02164386026561260223,0.16725742816925048828,-0.00934590771794319153,0.03076148033142089844,-0.02635048329830169678,0.01757682673633098602,0.07481477409601211548,0.23354867100715637207,0.25690147280693054199,0.00878244731575250626,-0.06137111783027648926,-0.07635057717561721802,-0.07223328202962875366,-0.08346066623926162720,-0.04627894982695579529,-0.18676817417144775391,-0.05486457422375679016,-0.21853655576705932617,-0.31484669446945190430,-0.21158559620380401611,-0.05693015456199645996,0.05779118835926055908,0.07316581159830093384,0.10492669045925140381,0.28131765127182006836,0.12867812812328338623,0.24469538033008575439,0.06306868046522140503,-0.03187371790409088135,0.09544711560010910034,0.12208794802427291870,0.07797752320766448975,0.11356841027736663818,0.04086221754550933838,0.08494661003351211548,0.18216988444328308105,0.18192438781261444092,-0.04442832991480827332,-0.16301515698432922363,-0.11120235174894332886,0.08972770720720291138,0.06371676176786422729,0.12769187986850738525,0.01088409591466188431,0.01275930926203727722,-0.04884054511785507202,-0.25818994641304016113,-0.41261753439903259277,-0.18847842514514923096,-0.06467990577220916748,0.04969270527362823486,-0.00660355854779481888,0.17856273055076599121,0.00980820506811141968,0.17621226608753204346,0.08865337818861007690,0.02206127531826496124,-0.06649901717901229858,0.06468334794044494629,0.00699727702885866165,-0.06591080129146575928,0.00444334931671619415,-0.04173671081662178040,-0.06528234481811523438,0.01813599281013011932,-0.01264346577227115631,0.07261922955513000488,0.03948831930756568909,0.13432428240776062012,0.06997821480035781860,0.10429185628890991211,0.05017764121294021606,-0.04770822450518608093,-0.11933728307485580444,-0.15275131165981292725,-0.27109286189079284668,-0.05774123594164848328,0.13541924953460693359,0.04215207695960998535,0.10376187413930892944,0.23276229202747344971,-0.00210864725522696972,0.14029474556446075439,0.06675299257040023804,-0.00290887500159442425,-0.09124160557985305786,0.01491231843829154968,-0.13581261038780212402,-0.05587389320135116577,-0.12731656432151794434,-0.13422925770282745361,-0.03727914392948150635,-0.05731084570288658142,-0.07977571338415145874,0.03773145750164985657,0.07507026195526123047,0.14899639785289764404,0.06316442042589187622,0.11591781675815582275,0.05641611665487289429,-0.04017285257577896118,-0.03434779122471809387,0.02151877619326114655,-0.10243224352598190308,-0.06501257419586181641,-0.01362436078488826752,-0.11999338120222091675,0.05317382141947746277,0.23974470794200897217,-0.09100315719842910767,-0.04554971307516098022,-0.17986221611499786377,-0.14653998613357543945,-0.10233944654464721680,-0.13443951308727264404,-0.03311337530612945557,0.02778152562677860260,-0.08894935250282287598,-0.11634390056133270264,-0.07698426395654678345,-0.02854878455400466919,0.02227319031953811646,-0.02785093337297439575,-0.03187004476785659790,0.10085897147655487061,0.20833201706409454346,0.16557846963405609131,0.20065169036388397217,0.00317741394974291325,0.09837891161441802979,0.05649784952402114868,-0.13608880341053009033,-0.14304719865322113037,0.00333035434596240520,-0.08323821425437927246,-0.03138428181409835815,-0.06213719025254249573,-0.02217926271259784698,-0.05016369372606277466,-0.00188793882261961699,-0.07405352592468261719,-0.16169057786464691162,0.00812463276088237762,-0.11861730366945266724,0.03538397327065467834,-0.02304536104202270508,0.02679032832384109497,-0.00997655652463436127,0.03610783070325851440,-0.03681544959545135498,-0.09003837406635284424,0.00122815440408885479,0.09047076106071472168,0.05139320343732833862,0.21479979157447814941,0.12854039669036865234,0.06745737791061401367,-0.03684998303651809692,-0.01638488285243511200,-0.26290744543075561523,-0.23673969507217407227,0.00749472901225090027,0.00024989890516735613,0.11456599086523056030,0.12891453504562377930,0.01173465419560670853,-0.00689699733629822731,-0.13678048551082611084,-0.11936293542385101318,-0.03495182469487190247,0.06470717489719390869,0.03389123082160949707,0.01965253055095672607,0.06584309786558151245,-0.10778798907995223999,0.09791637957096099854,0.09652045369148254395,-0.21594910323619842529,-0.06494731456041336060,-0.06849232316017150879,0.00476730102673172951,0.02679692395031452179,0.08732448518276214600,0.13502788543701171875,0.17954951524734497070,-0.06076489761471748352,-0.03096348606050014496,-0.24623873829841613770,-0.23894862830638885498,-0.15274672210216522217,0.04979441314935684204,0.10609436780214309692,0.10592321306467056274,0.06089422851800918579,0.01410514023154973984,-0.18678298592567443848,-0.14700040221214294434,-0.08861811459064483643,-0.05839281529188156128,0.04027315229177474976,0.02701470814645290375,0.09976981580257415771,0.16332668066024780273,0.01458557788282632828,0.00572154577821493149,-0.21026013791561126709,-0.19641883671283721924,0.06447117030620574951,0.08999992907047271729,-0.01541696861386299133,-0.02696012146770954132,0.02078112959861755371,0.01722173951566219330,-0.09957139939069747925,-0.03275018185377120972,-0.25572571158409118652,-0.18763798475265502930,-0.12306240946054458618,0.15278975665569305420,-0.06499002128839492798,0.19937419891357421875,-0.01093869935721158981,-0.00653395941480994225,-0.16117751598358154297,-0.16625507175922393799,-0.00123559089843183756,0.03368617594242095947,0.07699368149042129517,0.01521519944071769714,0.06863970309495925903,0.06243935972452163696,-0.00453118514269590378,-0.05899751558899879456,-0.11570920795202255249,0.01228147931396961212,0.03655198216438293457,0.01763338409364223480,0.12174043059349060059,-0.03918741643428802490,-0.04621274396777153015,-0.11121020466089248657,-0.17190262675285339355,-0.21411539614200592041,-0.00608990993350744247,-0.04114896059036254883,-0.10605613142251968384,0.04232122004032135010,0.20996421575546264648,-0.05541885644197463989,-0.07733008265495300293,-0.13076534867286682129,-0.00892092194408178329,-0.17041125893592834473,-0.02855839394032955170,-0.06350924074649810791,-0.02700979448854923248,0.01723784208297729492,0.05981802195310592651,0.09791592508554458618,0.10598751157522201538,0.02815629169344902039,-0.05623805895447731018,0.02781984768807888031,0.11907968670129776001,0.04529342055320739746,0.16071608662605285645,-0.10324890911579132080,-0.03514340519905090332,-0.06664112955331802368,-0.16412514448165893555,-0.15829566121101379395,-0.07610593736171722412,-0.14740233123302459717,0.00996110402047634125,0.00489286333322525024,0.05948437750339508057,-0.12147257477045059204,-0.09025083482265472412,-0.10681274533271789551,-0.09268468618392944336,-0.17759022116661071777,-0.10119864344596862793,-0.09237293899059295654,-0.15029601752758026123,0.01604822464287281036,-0.10766360908746719360,0.02106440067291259766,0.15993128716945648193,0.14763067662715911865,0.10656717419624328613,0.13678357005119323730,0.09904090315103530884,0.05363096669316291809,-0.05678373202681541443,-0.06684584170579910278,-0.16916063427925109863,-0.00204496737569570541,-0.06550160050392150879,-0.02200138010084629059,-0.03950985148549079895,-0.12500710785388946533,0.02112931758165359497,0.03781010955572128296,0.14314009249210357666,-0.05865205824375152588,0.03029588609933853149,-0.15494735538959503174,-0.22458757460117340088,-0.08767215907573699951,-0.00750730978325009346,-0.19134555757045745850,-0.12409541755914688110,-0.18398466706275939941,-0.13944825530052185059,-0.05481312796473503113,-0.03654105588793754578,0.07942363619804382324,0.08791723102331161499,-0.05187528580427169800,-0.09459573030471801758,-0.07386527955532073975,-0.08784019201993942261,-0.08443143963813781738,-0.18748891353607177734,-0.20173762738704681396,-0.04531659185886383057,-0.09823755919933319092,0.03476899862289428711,-0.11480261385440826416,-0.04483242705464363098,-0.07445984333753585815,0.00318122771568596363,-0.02573987655341625214,0.02580001391470432281,0.04093764349818229675,-0.05494920536875724792,0.02168546617031097412,-0.08378997445106506348,-0.09962401539087295532,-0.06551133096218109131,-0.17812821269035339355,-0.04096083343029022217,0.06530731916427612305,-0.01153555326163768768,-0.09419741481542587280,0.01096455659717321396,-0.04042204841971397400,-0.08143708854913711548,-0.03635587543249130249,-0.09010538458824157715,-0.15780360996723175049,-0.19999115169048309326,-0.03027945756912231445,0.05069532617926597595,-0.03538562729954719543,0.07650642842054367065,-0.05638566985726356506,-0.06135591864585876465,0.07216253131628036499,-0.00188774615526199341,0.08971473574638366699,0.08760983496904373169,0.04922121018171310425,-0.01710089109838008881,0.00886343326419591904,-0.12250735610723495483,-0.13512347638607025146,-0.18155543506145477295,-0.00998907815665006638,-0.03284426406025886536,-0.04435368627309799194,-0.01549887191504240036,-0.01631557755172252655,-0.09422436356544494629,-0.13954871892929077148,-0.09942301362752914429,-0.20771996676921844482,-0.24161076545715332031,-0.13383750617504119873,0.01697316952049732208,0.04236999154090881348,-0.00649832608178257942,0.05502364039421081543,-0.01468896400183439255,-0.03480359911918640137,-0.05786990374326705933,0.07414326816797256470,0.02267585694789886475,0.13215707242488861084,0.11426322907209396362,0.19284762442111968994,0.01019084826111793518,0.07454741746187210083,0.00727575086057186127,-0.06814550608396530151,-0.03803959861397743225,0.07160395383834838867,-0.08291524648666381836,-0.05376455932855606079,-0.03484873101115226746,-0.05910839512944221497,-0.11120975762605667114,-0.13966278731822967529,-0.06203993037343025208,-0.17678739130496978760,-0.06045223027467727661,0.09056951105594635010,-0.00421660952270030975,-0.08108869940042495728,0.02873973734676837921,-0.01807476207613945007,0.02098150737583637238,0.02206568233668804169,-0.07193133980035781860,-0.02603399381041526794,-0.07725854218006134033,0.06817922741174697876,0.15573263168334960938,0.18646940588951110840,0.20719312131404876709,0.18882086873054504395,0.25540417432785034180,0.31934216618537902832,0.16487623751163482666,0.08050077408552169800,0.03370775654911994934,0.19836540520191192627,0.07364003360271453857,0.18082566559314727783,0.05780216306447982788,0.14169099926948547363,0.07343642413616180420,0.04942893236875534058,0.23760353028774261475,0.13222198188304901123,0.06426690518856048584,-0.06904533505439758301,-0.13719578087329864502,-0.01509863324463367462,0.03034176677465438843,-0.06387215852737426758,0.05865243822336196899,0.01899251341819763184,-0.02318052947521209717,0.03387811034917831421,0.01082414854317903519,-0.04193349927663803101,0.08198936283588409424,0.26606956124305725098,0.37995040416717529297,0.42253714799880981445,0.38194343447685241699,0.55456107854843139648,0.20293869078159332275,0.17241559922695159912,0.30399501323699951172,0.23172467947006225586,0.06619496643543243408,0.29797282814979553223,0.36307671666145324707,0.33610215783119201660,0.36804065108299255371,0.23042778670787811279,0.15291860699653625488,0.04323758929967880249,0.13656038045883178711,-0.02928578667342662811,-0.07063049077987670898,0.01252087205648422241,-0.06516601145267486572,-0.03088707476854324341,0.03480903804302215576,-0.00445146113634109497,-0.05402608588337898254,0.04204896837472915649,0.13834378123283386230,0.16344270110130310059,0.15827219188213348389,0.14928670227527618408,0.15856181085109710693,0.21767525374889373779,0.12175048887729644775,0.02712829969823360443,0.15917672216892242432,0.24960668385028839111,0.17215055227279663086,-0.00687036849558353424,0.20979896187782287598,0.35118722915649414062,0.15280513465404510498,0.22264251112937927246,0.14413879811763763428,0.04891709983348846436,0.06617043912410736084,0.01944589614868164062,0.07324650138616561890,0.07068022340536117554,0.07777034491300582886,},

	{0.03574073314666748047,0.03691577166318893433,0.02804637700319290161,0.01102750748395919800,-0.03551844134926795959,0.06487613171339035034,-0.05303759127855300903,0.04393383115530014038,0.05307573825120925903,0.06214994937181472778,-0.04279617965221405029,0.04094298928976058960,0.07308297604322433472,-0.05934993922710418701,-0.03009708598256111145,-0.01624082773923873901,-0.02916033938527107239,0.05432938784360885620,0.06454747170209884644,0.05765510350465774536,0.01350797712802886963,0.06598251312971115112,-0.01835779100656509399,0.04585418850183486938,-0.02721894532442092896,-0.01727797836065292358,0.02838528156280517578,0.03057215362787246704,0.01167791336774826050,-0.00030422955751419067,-0.00781679153442382812,0.03028441220521926880,0.02842119336128234863,0.05686813220381736755,0.10394534468650817871,0.09322989732027053833,0.10361373424530029297,0.11876364052295684814,-0.02330563962459564209,-0.01530704554170370102,-0.00477968668565154076,0.10480690002441406250,-0.02751799672842025757,-0.02945815399289131165,0.02072532661259174347,0.02168525382876396179,0.06095356121659278870,0.05267159268260002136,0.03745002672076225281,-0.03025458566844463348,0.08353242278099060059,0.08376619219779968262,0.03998588025569915771,0.03077992051839828491,0.06384908407926559448,0.00280353426933288574,0.03030851483345031738,-0.06956534087657928467,0.06961008161306381226,0.03836473077535629272,0.08171796798706054688,0.02265014685690402985,0.01306735444813966751,-0.04860399663448333740,0.04635517299175262451,0.00224882573820650578,0.01058553159236907959,0.13774995505809783936,0.14137431979179382324,-0.05871341377496719360,-0.00527587020769715309,-0.10114206373691558838,-0.12879018485546112061,-0.16063603758811950684,-0.08662543445825576782,-0.08460108190774917603,-0.04167459160089492798,0.01405656244605779648,0.03722140565514564514,0.05914792045950889587,0.02069983258843421936,-0.03448129817843437195,-0.06273228675127029419,-0.01384225487709045410,-0.02710659056901931763,0.02192131429910659790,0.01381368748843669891,0.08065839856863021851,0.00880616344511508942,-0.10203022509813308716,-0.03217158094048500061,-0.01616816036403179169,-0.13017545640468597412,-0.12239798903465270996,-0.13004450500011444092,-0.05757507681846618652,-0.14782303571701049805,-0.19434432685375213623,-0.14222988486289978027,-0.18788211047649383545,-0.13080178201198577881,-0.10029266774654388428,-0.02415589429438114166,-0.08670505136251449585,-0.10884761810302734375,-0.16637462377548217773,-0.05368755012750625610,-0.01195281092077493668,0.05229843780398368835,0.03651963546872138977,-0.01892302930355072021,0.04503161460161209106,0.03651237487792968750,0.03383233398199081421,-0.00457547605037689209,-0.12888659536838531494,-0.06817569583654403687,0.14264498651027679443,0.19319304823875427246,0.05608295276761054993,-0.02521096356213092804,0.00707282638177275658,-0.04476068913936614990,-0.05371755361557006836,0.02576007507741451263,0.09626066684722900391,0.00846521649509668350,-0.01294849440455436707,-0.04993736371397972107,-0.01473486702889204025,0.09549692273139953613,0.07101452350616455078,-0.01346841081976890564,-0.01707266829907894135,0.00951740890741348267,-0.07039772719144821167,-0.07274582982063293457,-0.10137843340635299683,0.03693409636616706848,-0.04547225311398506165,0.02414437383413314819,-0.07739531993865966797,-0.00308937299996614456,-0.04991628602147102356,-0.09236311912536621094,0.09253711998462677002,-0.02040695399045944214,0.07101435959339141846,0.00845380406826734543,0.00336700468324124813,-0.04184699803590774536,-0.00007538936915807426,-0.01185579691082239151,0.02986994199454784393,-0.01087644230574369431,0.01835615374147891998,0.04535358399152755737,0.05192553997039794922,0.04747992753982543945,-0.01495960634201765060,-0.02161459438502788544,-0.03203446045517921448,0.07826525717973709106,-0.00607862416654825211,-0.11687726527452468872,-0.15897686779499053955,-0.08329685777425765991,0.04759392514824867249,0.08101012557744979858,0.07446137070655822754,0.03000018559396266937,0.06480338424444198608,0.00632406817749142647,0.17343552410602569580,-0.05245013907551765442,0.02437311410903930664,0.02191749028861522675,0.06625191122293472290,0.05212124437093734741,0.05306641012430191040,0.10989160835742950439,0.04200293496251106262,0.12937915325164794922,-0.02209019288420677185,0.02776684239506721497,0.00646644365042448044,-0.08967433869838714600,-0.02913034893572330475,0.04758838936686515808,0.09809457510709762573,0.06512212753295898438,-0.01185612380504608154,-0.19012667238712310791,-0.24223972856998443604,-0.12398988008499145508,0.04369392618536949158,-0.01521737780421972275,-0.03503056243062019348,0.14822077751159667969,0.24563738703727722168,0.06537254154682159424,0.00414953054860234261,-0.02653569914400577545,-0.00030033118673600256,-0.03289621323347091675,0.13373458385467529297,0.12442891299724578857,0.16788578033447265625,0.16658172011375427246,0.03880504146218299866,0.00742211379110813141,0.07271941751241683960,0.02450484782457351685,-0.06781788170337677002,-0.02696148678660392761,0.01370147801935672760,0.04799510911107063293,0.10074005275964736938,0.05697584524750709534,0.12766382098197937012,-0.07111942768096923828,-0.17676721513271331787,-0.13363794982433319092,-0.01685258559882640839,0.13180795311927795410,0.10359163582324981689,0.28205901384353637695,0.05980384722352027893,0.09277529269456863403,0.00051234528655186296,-0.07381986826658248901,0.02826296538114547729,0.10504884272813796997,0.01417683064937591553,0.16216883063316345215,0.07250796258449554443,0.15112029016017913818,0.17772251367568969727,0.21878145635128021240,0.12697827816009521484,0.03643922880291938782,0.07666074484586715698,-0.02508221194148063660,0.02850965224206447601,0.10792761296033859253,0.00567610422149300575,0.08424304425716400146,0.08765795826911926270,-0.08121512085199356079,-0.10138095170259475708,-0.12647911906242370605,-0.15239581465721130371,-0.03308803960680961609,-0.00158705934882164001,-0.00427517946809530258,0.00934429094195365906,0.02903920412063598633,0.15499801933765411377,-0.03680519759654998779,0.05353903025388717651,0.08546587079763412476,0.03239730000495910645,0.07906224578619003296,0.00794573687016963959,0.11264178901910781860,0.12176762521266937256,0.05629277601838111877,-0.01367246266454458237,0.01170288864523172379,0.11888941377401351929,0.12708595395088195801,0.09302592277526855469,0.09148135781288146973,-0.08498523384332656860,0.07700060307979583740,0.01934248208999633789,-0.06572894006967544556,-0.08893886953592300415,-0.16474086046218872070,0.03836613520979881287,0.00095213484019041061,0.03232511132955551147,0.05647644400596618652,0.01220014039427042007,0.07645374536514282227,0.12311952561140060425,0.06920073926448822021,-0.03467288240790367126,0.00100719393230974674,0.06247448921203613281,0.14979568123817443848,0.00190443848259747028,-0.09264941513538360596,-0.16546186804771423340,-0.27306771278381347656,-0.18512810766696929932,-0.06892433762550354004,0.04226337745785713196,0.01500530913472175598,-0.05676707252860069275,0.00548495585098862648,-0.04471902921795845032,-0.00713680544868111610,-0.01290746778249740601,-0.06047509238123893738,-0.08446799963712692261,-0.11804284155368804932,-0.07567868381738662720,-0.03457488492131233215,0.05470331758260726929,0.05950380861759185791,0.01072559971362352371,-0.04351555183529853821,0.07386943697929382324,-0.00264763040468096733,0.08764826506376266479,0.00950750615447759628,0.12710368633270263672,0.01802203245460987091,-0.00846969336271286011,-0.12925203144550323486,-0.42596432566642761230,-0.53264623880386352539,-0.30702084302902221680,-0.06051548197865486145,0.02390085160732269287,0.07084443420171737671,-0.02722321823239326477,-0.03472369536757469177,-0.06342529505491256714,-0.16267965734004974365,-0.08549909293651580811,-0.06870923191308975220,-0.06796626746654510498,-0.07460781931877136230,-0.03766218572854995728,-0.00417887745425105095,0.02780346758663654327,0.00616917014122009277,0.02182323485612869263,-0.05031324177980422974,0.01849237456917762756,0.04243787378072738647,0.05260298028588294983,0.07803028076887130737,0.07544834166765213013,0.05152812227606773376,-0.12610185146331787109,-0.24266640841960906982,-0.54525434970855712891,-0.43987914919853210449,-0.21545842289924621582,0.01450663898140192032,0.11955296248197555542,0.00812960602343082428,-0.09959072619676589966,-0.13131858408451080322,-0.05257403850555419922,-0.16800144314765930176,-0.16523553431034088135,-0.00986623950302600861,0.06504069268703460693,-0.09785459190607070923,-0.08105792105197906494,-0.02852739766240119934,0.13153287768363952637,0.17831984162330627441,0.02580516785383224487,-0.16029888391494750977,-0.16533519327640533447,0.04512895643711090088,-0.07394913583993911743,0.01963384449481964111,-0.05544706434011459351,-0.12576159834861755371,-0.19743922352790832520,-0.38142678141593933105,-0.34458231925964355469,-0.13566476106643676758,-0.11144493520259857178,-0.07006788998842239380,0.00764647591859102249,0.02193278446793556213,-0.06661182641983032227,-0.14995346963405609131,-0.15534758567810058594,-0.10378219932317733765,-0.07063116878271102905,-0.05788462609052658081,0.12322424352169036865,-0.03935828432440757751,-0.01540177874267101288,0.07891624420881271362,-0.09634254127740859985,0.11803302168846130371,0.02171763777732849121,-0.12651559710502624512,-0.14315536618232727051,-0.08892474323511123657,0.01562664285302162170,-0.04981055110692977905,-0.11633957922458648682,-0.19194829463958740234,-0.33616405725479125977,-0.33447623252868652344,-0.25427800416946411133,-0.14883732795715332031,-0.04108043760061264038,-0.14986568689346313477,0.00407105730846524239,-0.07779356837272644043,-0.09145145118236541748,-0.10199172794818878174,-0.04311936721205711365,-0.05512293800711631775,-0.06540125608444213867,0.07149638980627059937,0.07676711678504943848,0.03661226853728294373,0.02034140750765800476,-0.04149509966373443604,0.02019823901355266571,0.05267591774463653564,0.03729248419404029846,-0.11596004664897918701,-0.10251224786043167114,-0.11730919778347015381,-0.06903431564569473267,-0.15315079689025878906,-0.27038547396659851074,-0.40059918165206909180,-0.23476703464984893799,-0.20568652451038360596,-0.12685950100421905518,-0.10109086334705352783,-0.18511800467967987061,-0.08124110847711563110,-0.00986948143690824509,-0.06817170232534408569,-0.19910041987895965576,-0.04213519394397735596,-0.02538199163973331451,-0.07820763438940048218,-0.16580271720886230469,0.02641136385500431061,0.09108041971921920776,0.10589492321014404297,0.07851444184780120850,-0.01253017038106918335,0.01930705830454826355,0.01840382814407348633,0.02272597141563892365,-0.13334269821643829346,-0.19610218703746795654,-0.16901497542858123779,-0.15046077966690063477,-0.21822391450405120850,-0.28696024417877197266,-0.21752166748046875000,-0.02758725918829441071,-0.05494929850101470947,0.01975376158952713013,-0.10172858089208602905,-0.06851512938737869263,-0.04075558111071586609,-0.01807411760091781616,-0.04433285444974899292,-0.05750516057014465332,-0.09437463432550430298,0.03196466341614723206,-0.17280423641204833984,-0.04112077876925468445,0.08915481716394424438,-0.01555089838802814484,0.08959940075874328613,0.11560720950365066528,0.07110225409269332886,-0.09303157031536102295,-0.00782250333577394485,-0.04375888034701347351,-0.09354067593812942505,-0.16420599818229675293,-0.18901683390140533447,-0.25824776291847229004,-0.21119558811187744141,-0.02291625924408435822,0.04899195209145545959,0.01266360189765691757,0.03137584403157234192,-0.02171500213444232941,-0.03899434953927993774,-0.01176392007619142532,-0.02262603677809238434,0.02899545431137084961,-0.03742654249072074890,0.02628891542553901672,-0.00757993012666702271,-0.08723821491003036499,-0.15572409331798553467,0.03396017104387283325,0.04401453584432601929,0.14910261332988739014,0.11779458075761795044,0.16304920613765716553,-0.04375626891851425171,0.05784911662340164185,-0.11540702730417251587,0.00277416338212788105,-0.02982534095644950867,-0.14177341759204864502,-0.19781117141246795654,-0.03575103357434272766,0.00381966191343963146,0.07614357769489288330,0.08236480504274368286,0.05980461463332176208,0.09997927397489547729,-0.08916732668876647949,-0.01279778312891721725,-0.08928111940622329712,-0.02733728848397731781,0.03665484115481376648,0.06111121177673339844,0.05675623193383216858,0.03359257429838180542,-0.09282956272363662720,-0.04612458124756813049,-0.01206591445952653885,0.00089890643721446395,0.23730346560478210449,0.18105417490005493164,0.13514272868633270264,-0.04232637956738471985,-0.00303596700541675091,-0.02596157602965831757,-0.06286717951297760010,-0.11845855414867401123,-0.04387096688151359558,-0.05706272646784782410,0.06178846955299377441,-0.01779918372631072998,0.07300282269716262817,0.03496531769633293152,0.09077616035938262939,0.05325287953019142151,0.07984714955091476440,-0.04202064871788024902,-0.03604528680443763733,-0.05938830971717834473,-0.08952318876981735229,-0.06601030379533767700,0.00368614029139280319,-0.03857029601931571960,-0.08080769330263137817,-0.10026340186595916748,-0.09738529473543167114,0.07970498502254486084,0.09094657003879547119,0.09772958606481552124,0.02688361145555973053,-0.06275889277458190918,0.10041815787553787231,0.00970084406435489655,0.12268430739641189575,0.06623618304729461670,-0.04678189754486083984,0.11724658310413360596,0.10852323472499847412,0.06176163628697395325,0.05206387490034103394,0.10869883000850677490,0.18710976839065551758,0.06993972510099411011,0.06078271195292472839,0.00776143372058868408,0.09502324461936950684,-0.00023332453565672040,-0.15528284013271331787,-0.06524112075567245483,-0.00716714141890406609,0.02727949619293212891,0.04393167048692703247,-0.06658405065536499023,-0.01552605070173740387,-0.05615519732236862183,0.04737289249897003174,0.04866552725434303284,-0.04729298129677772522,-0.02966560795903205872,0.04651240631937980652,0.12774792313575744629,0.15264429152011871338,-0.00540124112740159035,-0.04263427481055259705,0.02196059748530387878,-0.02991019934415817261,0.01898452639579772949,0.11044378578662872314,0.07566585391759872437,0.22418557107448577881,0.19242656230926513672,0.13604259490966796875,0.11411266773939132690,0.04534015059471130371,-0.02673286385834217072,0.04936544597148895264,-0.03140456601977348328,-0.02636815235018730164,-0.06489368528127670288,-0.01995556429028511047,0.05833226814866065979,0.04453059658408164978,-0.03723840415477752686,0.11997123807668685913,0.00709710409864783287,0.02517573721706867218,0.05073677748441696167,-0.06192649155855178833,0.11961790174245834351,0.06272023916244506836,0.02721675112843513489,-0.03092469461262226105,-0.03140953183174133301,0.05173604190349578857,0.10541082173585891724,0.14625068008899688721,0.12182358652353286743,0.11759183555841445923,0.12503615021705627441,0.06462869048118591309,0.04742822796106338501,-0.00800017267465591431,0.07947003096342086792,0.04179726541042327881,0.10087158530950546265,-0.00766346277669072151,-0.08951860666275024414,0.00228022783994674683,0.15146334469318389893,0.01165623310953378677,-0.10964769870042800903,0.07360334694385528564,-0.00427632313221693039,-0.00515977945178747177,0.06289269775152206421,-0.02995458245277404785,-0.04160345345735549927,-0.10960194468498229980,-0.02785858325660228729,-0.03407965973019599915,0.20382469892501831055,0.12424557656049728394,0.11566077172756195068,0.12897606194019317627,0.06213959679007530212,-0.02893262356519699097,0.08432013541460037231,0.07419107854366302490,0.02253357507288455963,0.04208442568778991699,0.02830925211310386658,0.03847008198499679565,0.07634739577770233154,-0.01752233691513538361,-0.16452464461326599121,0.07135170698165893555,0.09428649395704269409,0.06567040830850601196,-0.04343280941247940063,-0.00822982843965291977,-0.10527976602315902710,-0.03910579532384872437,0.03721212595701217651,0.02641041576862335205,0.14722651243209838867,-0.09422703832387924194,0.01010016724467277527,0.04070099443197250366,0.02136578224599361420,-0.06325467675924301147,0.01311624236404895782,-0.05324026942253112793,-0.02014831267297267914,-0.09858388453722000122,-0.10537284612655639648,-0.12170206010341644287,-0.04771834984421730042,0.09574847668409347534,-0.05229133740067481995,0.05186130478978157043,-0.04424128681421279907,-0.03145319223403930664,-0.12583184242248535156,-0.12937219440937042236,-0.02644619531929492950,0.08145616203546524048,0.21335613727569580078,0.12665754556655883789,-0.05993752181529998779,-0.07760316878557205200,0.03429199010133743286,-0.05721437186002731323,-0.03361947834491729736,0.17920605838298797607,0.03408817574381828308,-0.15218850970268249512,-0.03610429167747497559,0.16178572177886962891,0.19012500345706939697,0.13795581459999084473,-0.08234068751335144043,0.05020608007907867432,0.05430251359939575195,-0.04139956086874008179,0.06614812463521957397,0.21470730006694793701,0.13844390213489532471,-0.03123211301863193512,-0.05061585828661918640,-0.09654504805803298950,-0.24515798687934875488,-0.10023587942123413086,0.04316057264804840088,-0.03663494810461997986,-0.16876615583896636963,-0.04556801915168762207,0.04846152290701866150,-0.00551603734493255615,-0.07760722935199737549,0.02424218505620956421,0.05943580716848373413,0.00557940453290939331,-0.17053703963756561279,-0.26772263646125793457,-0.08995217084884643555,0.18794012069702148438,0.22015330195426940918,0.16805410385131835938,-0.01738614030182361603,-0.01857089251279830933,0.04826914146542549133,0.03994124382734298706,0.23054008185863494873,0.07120408862829208374,0.06616486608982086182,0.04356018826365470886,0.01954280212521553040,0.05192560702562332153,-0.06055409833788871765,-0.09191218018531799316,0.05248631164431571960,-0.00003720325912581757,0.03849281743168830872,0.03549873456358909607,0.07921100407838821411,0.01167170703411102295,-0.07220882177352905273,-0.02964526414871215820,0.06426426023244857788,-0.07772917300462722778,0.11208924651145935059,0.05008395016193389893,0.13686032593250274658,0.21961814165115356445,0.13341146707534790039,0.14399974048137664795,0.17735973000526428223,0.13079656660556793213,0.06741329282522201538,0.16133178770542144775,0.12408307939767837524,0.08979620784521102905,0.02940315753221511841,0.11642300337553024292,0.14898778498172760010,0.10429345071315765381,-0.00045506504829972982,-0.08585309237241744995,0.06871595978736877441,-0.02776582539081573486,-0.06856392323970794678,0.03248821198940277100,-0.07502573728561401367,0.02061545848846435547,},

	{0.07549747079610824585,-0.03818896412849426270,-0.01101621985435485840,0.05771196633577346802,-0.00658179074525833130,0.02309917658567428589,0.05199024826288223267,-0.01509505510330200195,-0.00027876347303390503,-0.03606035932898521423,0.06316605955362319946,0.01112679392099380493,0.06746798008680343628,0.04478076845407485962,0.03600265085697174072,-0.00790014117956161499,0.07263823598623275757,0.03506254404783248901,-0.05255831032991409302,0.04674866050481796265,-0.01918832957744598389,-0.07884180545806884766,0.04156955331563949585,-0.02117806673049926758,-0.04784134775400161743,-0.03541012853384017944,-0.05243550986051559448,-0.01144170016050338745,0.04381598532199859619,0.00789754837751388550,0.02237630635499954224,0.01289858669042587280,-0.03811851516366004944,0.01819910109043121338,0.02434918284416198730,0.04622972384095191956,0.03145474940538406372,-0.04148721694946289062,-0.12383699417114257812,-0.10989385843276977539,-0.09866344183683395386,-0.04862761124968528748,-0.01155478507280349731,-0.01288267690688371658,-0.11159438639879226685,-0.09194169193506240845,-0.13610216975212097168,-0.09622053056955337524,-0.07850386947393417358,-0.12174140661954879761,0.00806573778390884399,0.00817453116178512573,-0.02338857203722000122,-0.00519639253616333008,0.07533197849988937378,-0.06500776112079620361,0.00082899630069732666,0.05831777304410934448,-0.02625344134867191315,0.04919732362031936646,-0.02331932261586189270,-0.05800577253103256226,0.00628044549375772476,0.06988728046417236328,-0.02192280814051628113,-0.17580547928810119629,-0.18373975157737731934,-0.17336441576480865479,-0.15876150131225585938,-0.11996496468782424927,-0.12603509426116943359,-0.03756801411509513855,-0.01685801520943641663,0.00328707206062972546,0.13134163618087768555,0.08454101532697677612,0.13652327656745910645,0.03847784176468849182,-0.00013524371024686843,0.02410038560628890991,-0.18943949043750762939,0.02643264830112457275,0.06354156881570816040,0.05709641426801681519,-0.04173000156879425049,0.05929317325353622437,0.07568400353193283081,0.02114850282669067383,0.04636779800057411194,0.03280296921730041504,-0.01220667362213134766,0.12262099981307983398,0.03330777212977409363,0.00641830312088131905,-0.16460782289505004883,-0.15320563316345214844,0.07567998766899108887,-0.03735397383570671082,-0.11101777851581573486,0.04924156144261360168,-0.06699981540441513062,-0.04813674092292785645,0.09090311825275421143,-0.02197050862014293671,0.06435989588499069214,0.15518058836460113525,-0.05488282069563865662,-0.08837427198886871338,-0.08318953961133956909,0.00725439423695206642,0.03320100530982017517,-0.05542360618710517883,-0.03657870367169380188,-0.05814370140433311462,0.02651498280465602875,-0.01073559653013944626,-0.00984616018831729889,0.07174455374479293823,-0.00749309081584215164,-0.03632445260882377625,-0.19629360735416412354,-0.14613094925880432129,-0.07358880341053009033,-0.00432166783139109612,0.04308658838272094727,-0.01960109546780586243,-0.00832749158143997192,0.08832734823226928711,0.05320818349719047546,0.04922877997159957886,-0.06330952793359756470,0.00452882284298539162,-0.01942898519337177277,-0.00346254697069525719,-0.07770293205976486206,-0.06251323223114013672,0.21821370720863342285,0.23974011838436126709,0.01841119304299354553,0.02087808772921562195,0.00648628175258636475,-0.02417063340544700623,0.00482493219897150993,0.05046085268259048462,-0.05273886397480964661,0.02775196172297000885,-0.06294625997543334961,-0.14561946690082550049,-0.31275439262390136719,-0.26823949813842773438,-0.10597106814384460449,-0.05760701000690460205,0.07779314368963241577,-0.00885347276926040649,-0.00480098696425557137,-0.00751275662332773209,0.05574498698115348816,0.23901987075805664062,0.03162113577127456665,0.04152381047606468201,0.00404672324657440186,0.02891947142779827118,-0.10148724913597106934,-0.03027357906103134155,-0.07057964056730270386,0.15990494191646575928,0.09851735830307006836,0.01004161126911640167,-0.07614981383085250854,-0.00292918202467262745,-0.01664815284311771393,-0.06651571393013000488,-0.07202968001365661621,-0.28023687005043029785,-0.30029991269111633301,-0.32159912586212158203,-0.24377688765525817871,-0.19367748498916625977,-0.14141941070556640625,0.00623814016580581665,0.03410264477133750916,0.10118394345045089722,-0.00675481138750910759,0.01267988979816436768,0.16288924217224121094,0.02085443027317523956,-0.00677620619535446167,0.08452766388654708862,0.06234809011220932007,-0.02161223627626895905,0.04012694209814071655,0.05396317690610885620,0.04079198837280273438,0.02108548022806644440,0.22770719230175018311,-0.04158983752131462097,-0.05560801178216934204,-0.16502623260021209717,0.02592092752456665039,-0.12090376764535903931,-0.08438788354396820068,-0.28828701376914978027,-0.27768376469612121582,-0.37559783458709716797,-0.35841950774192810059,-0.14174044132232666016,-0.06436084955930709839,0.09056605398654937744,0.08617277443408966064,0.02789913117885589600,0.14757119119167327881,0.07359397411346435547,0.02559514902532100677,0.05154171586036682129,-0.03654606640338897705,-0.00335796945728361607,0.02509489096701145172,-0.05164683237671852112,0.00938140414655208588,0.11938264220952987671,0.08531689643859863281,0.26388746500015258789,0.22263701260089874268,0.04626694321632385254,-0.05201518908143043518,-0.09405168890953063965,-0.16420897841453552246,-0.07101016491651535034,0.01801030337810516357,-0.16057737171649932861,-0.03459314256906509399,-0.32295587658882141113,-0.24815620481967926025,-0.02965611219406127930,0.04974260926246643066,0.06185003742575645447,0.07562433928251266479,0.01459241565316915512,0.02883562073111534119,0.00653427699580788612,-0.11223331838846206665,-0.09968157857656478882,-0.01567487604916095734,-0.01712058857083320618,-0.08854810148477554321,0.06487923115491867065,0.05705846101045608521,0.21053926646709442139,0.22169068455696105957,0.34825661778450012207,0.27808997035026550293,0.13099159300327301025,-0.03675473108887672424,-0.03949882462620735168,0.10169315338134765625,0.04079068452119827271,-0.16637973487377166748,-0.02440356463193893433,-0.01165232341736555099,-0.13285385072231292725,-0.19802047312259674072,-0.06374023854732513428,0.06993504613637924194,0.15373529493808746338,0.02808109670877456665,0.00025101372739300132,-0.05502730607986450195,-0.02612596005201339722,-0.11338606476783752441,-0.12488215416669845581,0.00678368285298347473,0.05010126531124114990,0.02968019433319568634,0.01236693933606147766,0.13065731525421142578,0.19095624983310699463,0.15138947963714599609,0.48176875710487365723,0.15235085785388946533,-0.03622162342071533203,-0.10150068253278732300,0.02992580272257328033,-0.07446444779634475708,0.03115512803196907043,-0.05591303855180740356,-0.14303477108478546143,-0.30797362327575683594,-0.21680587530136108398,-0.03235737606883049011,-0.01304731797426939011,0.06187716498970985413,0.01904757693409919739,0.05065777525305747986,-0.03331689536571502686,0.08528825640678405762,0.07499480247497558594,0.01333645451813936234,-0.00398075301200151443,0.00313688861206173897,0.08971471339464187622,0.00973234325647354126,0.00127430190332233906,0.10046333819627761841,0.18040533363819122314,0.03406648337841033936,0.32322719693183898926,0.04725730419158935547,-0.07963678985834121704,-0.05072263628244400024,-0.08343569189310073853,-0.06831847131252288818,-0.06911420077085494995,-0.08168025314807891846,-0.28048232197761535645,-0.29605355858802795410,-0.15088087320327758789,0.02543298713862895966,-0.08129509538412094116,-0.17110851407051086426,-0.02893511205911636353,0.08699931949377059937,0.18085846304893493652,0.27947771549224853516,0.20360241830348968506,0.12837398052215576172,0.20851589739322662354,0.12850631773471832275,0.11867187172174453735,0.01521883439272642136,-0.03264025226235389709,-0.02753123641014099121,-0.10270661115646362305,-0.00391282187774777412,0.27461555600166320801,0.24677288532257080078,-0.05227610468864440918,0.00991536676883697510,-0.06601864844560623169,-0.20841987431049346924,-0.11983108520507812500,-0.00824950356036424637,-0.19426740705966949463,-0.13388349115848541260,-0.03123726882040500641,-0.07745950669050216675,-0.19268839061260223389,-0.13620553910732269287,-0.00305993272922933102,0.00324871111661195755,0.25079849362373352051,0.41869884729385375977,0.17282737791538238525,0.11422843486070632935,0.10896248370409011841,0.01745056919753551483,0.01386913657188415527,-0.03301740437746047974,-0.19790792465209960938,-0.23017458617687225342,-0.23467913269996643066,-0.22389517724514007568,-0.12677313387393951416,0.06178823113441467285,-0.04806112870573997498,-0.02145777828991413116,-0.04328237846493721008,-0.13385151326656341553,-0.06195762753486633301,0.04377048835158348083,-0.31486624479293823242,-0.20228050649166107178,-0.19043888151645660400,-0.17972640693187713623,-0.09016201645135879517,-0.19594553112983703613,-0.09790001809597015381,-0.00352832511998713017,0.15812258422374725342,0.23849247395992279053,0.23512087762355804443,0.23402960598468780518,0.10152614116668701172,-0.10733769834041595459,-0.06285477429628372192,-0.09300951659679412842,-0.23374174535274505615,-0.34755581617355346680,-0.30121302604675292969,-0.21561372280120849609,-0.13385517895221710205,0.05854089558124542236,0.04141573980450630188,0.05684449896216392517,-0.01786247640848159790,0.02815495058894157410,0.06673313677310943604,0.05063483119010925293,-0.14816477894783020020,-0.28527238965034484863,-0.30306237936019897461,-0.28378197550773620605,-0.22409258782863616943,-0.26292738318443298340,-0.09241744875907897949,0.06109837815165519714,0.09689544141292572021,0.17370964586734771729,0.03473196551203727722,0.04730789363384246826,0.02231479436159133911,-0.12773688137531280518,-0.21866334974765777588,-0.20044793188571929932,-0.15320315957069396973,-0.19931741058826446533,-0.21600192785263061523,-0.14085802435874938965,0.02810401096940040588,-0.08272824436426162720,0.04761688038706779480,0.04762330278754234314,0.04438706487417221069,0.22114637494087219238,0.04895421117544174194,0.13242578506469726562,0.00776436366140842438,-0.14473684132099151611,-0.22426734864711761475,-0.14604732394218444824,-0.15988281369209289551,-0.28367531299591064453,-0.11263118684291839600,-0.01136541459709405899,0.06624720990657806396,0.06290239095687866211,0.03806236386299133301,0.01245376747101545334,-0.11374969780445098877,-0.09434433281421661377,-0.02942298538982868195,-0.05088467895984649658,-0.10756461322307586670,-0.12528236210346221924,-0.31332904100418090820,-0.07771553099155426025,-0.01902836561203002930,-0.03696886822581291199,0.05428518354892730713,-0.08063394576311111450,0.00419848132878541946,0.13561077415943145752,0.10724660009145736694,0.16808491945266723633,0.19192658364772796631,0.14309315383434295654,-0.05557343363761901855,-0.14205411076545715332,-0.20257663726806640625,-0.21421259641647338867,-0.33153733611106872559,-0.18723246455192565918,-0.05397600308060646057,-0.01424119062721729279,-0.01318925619125366211,0.00513235386461019516,-0.08673663437366485596,0.03544614836573600769,-0.09656600654125213623,-0.08746821433305740356,-0.05784700438380241394,-0.17022305727005004883,-0.26580515503883361816,-0.03715544566512107849,0.03871751204133033752,-0.05099481344223022461,-0.05242994427680969238,-0.07621229439973831177,0.02153552882373332977,0.05099681019783020020,0.18991754949092864990,0.24971611797809600830,0.18648435175418853760,0.18796221911907196045,0.15305301547050476074,-0.06849732995033264160,-0.19190829992294311523,-0.24541993439197540283,-0.30528476834297180176,-0.19616074860095977783,-0.12693904340267181396,-0.09001942723989486694,0.01463417243212461472,0.12940470874309539795,0.14759416878223419189,0.09338534623384475708,-0.07145412266254425049,0.01576165668666362762,0.01105070207267999649,-0.29897662997245788574,-0.10802969336509704590,0.08926425874233245850,-0.04038297757506370544,0.00619769422337412834,0.01280181296169757843,0.08124149590730667114,-0.04824896156787872314,0.05454047024250030518,0.18539477884769439697,0.25236460566520690918,0.24650862812995910645,0.22345262765884399414,0.23977443575859069824,0.00749774463474750519,-0.00764900632202625275,-0.07295293360948562622,-0.07891221344470977783,-0.16187199950218200684,-0.14448249340057373047,-0.03710820898413658142,0.01940665766596794128,0.14672011137008666992,0.24845720827579498291,0.01845417357981204987,0.00349145964719355106,-0.18878719210624694824,-0.16316017508506774902,-0.32984614372253417969,-0.12243221700191497803,0.01217403635382652283,0.02073957398533821106,-0.03442868217825889587,-0.02713953517377376556,0.06929586082696914673,-0.07492156326770782471,0.02702847681939601898,-0.10726140439510345459,0.20116105675697326660,0.15276192128658294678,0.24100682139396667480,0.13991849124431610107,0.19713801145553588867,0.12201718240976333618,0.07724252343177795410,-0.11602157354354858398,-0.14276033639907836914,-0.08557981252670288086,-0.13032054901123046875,-0.06126245856285095215,0.07040493935346603394,0.19325453042984008789,0.18065001070499420166,-0.08427148312330245972,-0.31526622176170349121,-0.29406386613845825195,-0.35633376240730285645,-0.13310852646827697754,-0.08825553208589553833,0.06722538918256759644,0.02555394917726516724,-0.02646294422447681427,0.06691002100706100464,-0.02710697986185550690,-0.05547300726175308228,-0.10905745625495910645,0.08829568326473236084,0.13092404603958129883,0.10091754049062728882,0.10035417228937149048,0.09733208268880844116,0.02197761274874210358,0.04606086388230323792,-0.02856531180441379547,-0.08221008628606796265,-0.00239794515073299408,-0.09195444732904434204,-0.09982953965663909912,-0.04708860069513320923,0.17237403988838195801,0.15028801560401916504,-0.17591004073619842529,-0.22670836746692657471,-0.31057175993919372559,-0.27863967418670654297,-0.29669436812400817871,-0.21317644417285919189,-0.13917730748653411865,0.09782281517982482910,0.03851791843771934509,-0.00358037557452917099,-0.00124136486556380987,-0.14516453444957733154,-0.06770729273557662964,0.06838739663362503052,0.01889894716441631317,0.11022096872329711914,-0.00059022824279963970,-0.06440918892621994019,0.02637930400669574738,0.10562232881784439087,0.05541191622614860535,-0.02817138098180294037,0.00069854932371526957,-0.07568836212158203125,0.04443288594484329224,-0.02412028796970844269,0.13154941797256469727,0.04548155888915061951,-0.23459906876087188721,-0.40770879387855529785,-0.43766495585441589355,-0.27718108892440795898,-0.18221166729927062988,-0.18098886311054229736,-0.08314466476440429688,-0.03462244942784309387,0.05115262418985366821,0.09313796460628509521,-0.00998350139707326889,-0.15660288929939270020,-0.07364913076162338257,-0.01716852933168411255,-0.03550745546817779541,-0.02675017341971397400,-0.02455571293830871582,0.01686260476708412170,-0.04880519956350326538,0.08424279838800430298,0.03500207513570785522,0.00149126979522407055,-0.07578305155038833618,-0.05906827002763748169,0.03574865311384201050,0.05336745083332061768,0.12303978949785232544,-0.14214339852333068848,-0.48956036567687988281,-0.45752352476119995117,-0.28886282444000244141,-0.36791446805000305176,-0.13427674770355224609,-0.00086053094128146768,-0.02674243040382862091,-0.02857009507715702057,-0.04534115642309188843,0.03600199520587921143,0.06964073330163955688,0.00503769330680370331,0.01156729459762573242,0.08243932574987411499,-0.09723720699548721313,-0.11838498711585998535,-0.08555375784635543823,-0.10332745313644409180,-0.06825589388608932495,-0.01258306764066219330,0.07035952061414718628,0.13058742880821228027,-0.02069279365241527557,0.04010505974292755127,-0.02445998787879943848,0.09274300187826156616,-0.13176015019416809082,-0.32456710934638977051,-0.45378664135932922363,-0.24083946645259857178,-0.19453169405460357666,-0.12150567770004272461,-0.20380665361881256104,0.10713613778352737427,-0.07216775417327880859,-0.05333019793033599854,0.04562253504991531372,-0.00043008476495742798,-0.07195245474576950073,0.05712270364165306091,0.15604664385318756104,-0.22719937562942504883,-0.16898752748966217041,-0.10158912837505340576,-0.04212216287851333618,-0.12382378429174423218,0.10500252246856689453,0.00149767356924712658,0.12259525805711746216,0.01740852184593677521,-0.11177600920200347900,-0.08999358862638473511,0.02559294924139976501,0.08325228095054626465,-0.06058109179139137268,-0.20193593204021453857,-0.33039408922195434570,-0.21737228333950042725,-0.19200068712234497070,-0.05923186987638473511,0.03776616230607032776,-0.05158924311399459839,-0.03946696221828460693,-0.10928674042224884033,-0.00564726442098617554,-0.07239960134029388428,0.05926271528005599976,0.04002004861831665039,-0.10736440122127532959,-0.07573397457599639893,-0.04934890195727348328,0.00295996037311851978,0.07792433351278305054,0.13511076569557189941,0.05502870678901672363,0.14067804813385009766,0.02898455038666725159,0.05021972954273223877,0.02062525600194931030,0.02785511687397956848,0.02663275972008705139,0.06413644552230834961,-0.00068352255038917065,-0.08293602615594863892,-0.14232254028320312500,-0.03975727409124374390,-0.07020629942417144775,0.02615801617503166199,0.06219568476080894470,0.01295969076454639435,0.04268599301576614380,-0.07790902256965637207,0.01825506240129470825,0.06906872242689132690,-0.07295031100511550903,0.05339058488607406616,0.05701738223433494568,0.07208052277565002441,-0.05327957868576049805,0.00408580945804715157,0.10211735963821411133,0.15110038220882415771,0.12660324573516845703,0.20307102799415588379,0.08372482657432556152,0.03759051859378814697,0.00633045332506299019,0.08789244294166564941,0.13598123192787170410,0.03592248260974884033,0.03788925334811210632,0.18486675620079040527,0.06863068789243698120,0.05474789440631866455,0.03236503899097442627,0.14373610913753509521,0.09433790296316146851,-0.06560445576906204224,-0.03961628675460815430,-0.04120753705501556396,-0.03621581941843032837,0.06893103569746017456,0.02835626900196075439,-0.03476268425583839417,-0.06746271997690200806,0.01253976207226514816,0.01353234145790338516,-0.10296993702650070190,-0.14758795499801635742,-0.09375766664743423462,-0.20426066219806671143,-0.09328432381153106689,-0.03860342875123023987,-0.08125034719705581665,-0.11857491731643676758,0.02731707878410816193,0.12108445167541503906,0.05731222406029701233,-0.12407800555229187012,-0.04490136355161666870,-0.06929842382669448853,0.03618173301219940186,-0.03728037327527999878,-0.03735515475273132324,0.00692458450794219971,0.01491247862577438354,-0.07790321856737136841,-0.06555908173322677612,-0.01313913613557815552,},

	{-0.06106992810964584351,0.07164654880762100220,0.07305046170949935913,0.07058011740446090698,-0.00475851446390151978,-0.03847279399633407593,0.04286777228116989136,0.04457239061594009399,-0.06097538024187088013,0.03037142008543014526,0.04608748108148574829,0.02735437452793121338,0.03603165596723556519,0.06355321407318115234,0.06918803602457046509,0.09248014539480209351,-0.00353460013866424561,-0.06773160398006439209,0.02454432845115661621,0.02379829436540603638,0.00316216051578521729,-0.01955792307853698730,-0.01692683249711990356,-0.07252573966979980469,0.02773813903331756592,-0.00731896609067916870,-0.05202611908316612244,-0.00239209085702896118,-0.05204156786203384399,0.02163308113813400269,-0.08012944459915161133,0.00815900415182113647,0.05239670723676681519,0.03473645821213722229,-0.03106661699712276459,0.04167326912283897400,0.10424926877021789551,-0.01582314260303974152,0.04265730082988739014,0.05095585435628890991,0.01211956515908241272,0.11682809889316558838,0.02150421403348445892,-0.07912006229162216187,0.18605941534042358398,0.11467959731817245483,0.06473935395479202271,-0.10102252662181854248,-0.01479717809706926346,-0.14787949621677398682,0.07943966984748840332,-0.03618424013257026672,0.04043075442314147949,0.00775328278541564941,-0.08097756654024124146,0.06819162517786026001,0.05825041979551315308,-0.03273983672261238098,-0.01831787452101707458,-0.03495219722390174866,-0.02925205789506435394,0.07095188647508621216,0.10570626705884933472,0.07640108466148376465,0.20776401460170745850,0.08372914046049118042,0.10954483598470687866,0.06409000605344772339,0.31301727890968322754,0.13538210093975067139,0.04531350359320640564,-0.05945430696010589600,-0.05752727389335632324,-0.05520366877317428589,-0.24698299169540405273,-0.18445949256420135498,-0.09271422028541564941,-0.02574622817337512970,-0.00713262800127267838,-0.00104516628198325634,0.00216271635144948959,-0.01409752666950225830,0.03817336261272430420,0.01207479834556579590,0.00096359103918075562,0.04176104068756103516,-0.00035462257801555097,-0.03733858466148376465,0.06000459194183349609,0.18677970767021179199,0.24260593950748443604,0.28667575120925903320,0.28127035498619079590,0.31000658869743347168,0.24834643304347991943,0.19895067811012268066,0.34686267375946044922,0.28569808602333068848,0.22343869507312774658,0.10943104326725006104,0.10818441212177276611,-0.01397970318794250488,0.03933567181229591370,-0.08249778300523757935,-0.08545436710119247437,-0.15803943574428558350,0.03625682741403579712,0.06255384534597396851,0.01219072565436363220,0.06711485981941223145,0.05425833910703659058,-0.01590128242969512939,0.03375308960676193237,0.02599854208528995514,0.05751255527138710022,0.08888174593448638916,0.11605256795883178711,0.05519545078277587891,0.16713294386863708496,0.31454721093177795410,0.25002342462539672852,0.25871366262435913086,0.34109234809875488281,0.29841396212577819824,0.16587451100349426270,0.08327768743038177490,0.12956382334232330322,0.16084127128124237061,0.15488395094871520996,0.09881902486085891724,-0.00724638206884264946,0.01923966594040393829,-0.02811857499182224274,-0.03951769694685935974,-0.16249924898147583008,-0.17386674880981445312,-0.02823860943317413330,-0.04520139470696449280,0.13513073325157165527,0.00054441590327769518,0.03218296915292739868,-0.06219301745295524597,0.07809627056121826172,0.08149363845586776733,0.16442865133285522461,-0.08499623090028762817,0.13813050091266632080,0.10771954804658889771,0.07191659510135650635,0.02914243564009666443,0.00649473303928971291,-0.02077427133917808533,-0.08787307888269424438,0.03719015792012214661,0.01157749257981777191,0.07863073050975799561,0.12944874167442321777,0.12228110432624816895,0.14596831798553466797,0.07494454085826873779,0.04661566019058227539,0.02250843122601509094,-0.06200225651264190674,-0.17567715048789978027,-0.22247213125228881836,0.02809994667768478394,0.04108306765556335449,0.07561067491769790649,0.04952517896890640259,-0.02039363607764244080,0.02348283492028713226,0.02326530404388904572,-0.01312861405313014984,-0.04738231748342514038,-0.00835892278701066971,0.04863438382744789124,0.00421012099832296371,-0.01798194460570812225,-0.15339425206184387207,-0.10246101766824722290,-0.12344209104776382446,0.01522251032292842865,-0.03656695410609245300,0.07055892795324325562,0.09674881398677825928,0.17249891161918640137,0.03912976011633872986,-0.01731226406991481781,0.07371526211500167847,0.00059368851361796260,-0.08912616968154907227,-0.07184262573719024658,-0.20341610908508300781,-0.14879670739173889160,-0.06770928949117660522,0.10331122577190399170,0.04949890077114105225,0.13439267873764038086,-0.10238773375749588013,-0.13859787583351135254,0.04851242899894714355,-0.06644999980926513672,-0.01345027051866054535,-0.01459060795605182648,-0.09949952363967895508,-0.12259061634540557861,-0.11714883893728256226,-0.04277934879064559937,0.03024897724390029907,0.11562658846378326416,0.13023312389850616455,0.10808658599853515625,0.04197279363870620728,-0.05446270108222961426,0.02842104062438011169,0.01305140741169452667,-0.16024917364120483398,0.00909117981791496277,-0.13182561099529266357,-0.20172305405139923096,-0.29974740743637084961,-0.15228781104087829590,0.13585521280765533447,0.09363313019275665283,0.07176262140274047852,0.09291820973157882690,-0.04280630126595497131,-0.07770051062107086182,0.05758800730109214783,-0.06723126769065856934,-0.12875644862651824951,-0.02441936545073986053,-0.20719626545906066895,-0.09723868221044540405,-0.04178695008158683777,0.04988915845751762390,0.04306517541408538818,0.11933561414480209351,-0.02735707908868789673,0.05102987959980964661,-0.02542669326066970825,-0.02918945439159870148,0.06988757103681564331,0.11091548949480056763,-0.06051155179738998413,0.05731514841318130493,-0.02506618387997150421,-0.20139236748218536377,-0.30111163854598999023,-0.02813156507909297943,0.20751255750656127930,0.07398954033851623535,0.06994721293449401855,-0.12508569657802581787,0.09281957149505615234,0.08428031951189041138,-0.01558772101998329163,-0.11771543323993682861,-0.12888334691524505615,-0.15980961918830871582,-0.10384562611579895020,-0.04087872430682182312,-0.02617920935153961182,-0.14031589031219482422,-0.14316393435001373291,-0.13033790886402130127,-0.12414222210645675659,-0.11620810627937316895,0.02432293631136417389,-0.01002952083945274353,0.05080009996891021729,0.15811839699745178223,0.08235514909029006958,0.07920584082603454590,0.01969259046018123627,0.04275811836123466492,-0.25317952036857604980,0.05659164860844612122,0.05189404636621475220,0.01257680356502532959,-0.02524274215102195740,0.04279786720871925354,-0.02865828387439250946,0.13498748838901519775,-0.01078658457845449448,-0.12961208820343017578,0.00050403864588588476,-0.07345074415206909180,-0.01863015070557594299,-0.14666326344013214111,-0.11805921047925949097,-0.06750230491161346436,-0.16524007916450500488,-0.14875335991382598877,-0.19315251708030700684,-0.19405128061771392822,0.03994869440793991089,0.03428251668810844421,0.21037147939205169678,0.21359978616237640381,0.15706962347030639648,0.03305010125041007996,0.04972827434539794922,-0.14820258319377899170,-0.40789192914962768555,-0.18081709742546081543,0.04955342784523963928,-0.04339063912630081177,-0.09586426615715026855,-0.02411947399377822876,-0.17792880535125732422,-0.02654245868325233459,-0.01007826067507266998,-0.12410392612218856812,-0.17829278111457824707,-0.08372686058282852173,-0.05615753307938575745,0.01095838565379381180,0.01656711101531982422,-0.05724434927105903625,-0.16866749525070190430,-0.17966565489768981934,-0.01054089795798063278,0.08160515129566192627,0.00272569735534489155,0.05688961967825889587,0.21627655625343322754,0.23922710120677947998,0.17501844465732574463,0.10897202789783477783,-0.07247564941644668579,-0.34655278921127319336,-0.39221653342247009277,-0.24598956108093261719,-0.08748008310794830322,-0.08733035624027252197,0.02670237980782985687,-0.07721072435379028320,-0.06596108525991439819,-0.09274064004421234131,0.04300595819950103760,-0.17728886008262634277,-0.17763903737068176270,-0.02957734651863574982,0.01375264674425125122,-0.03275866433978080750,-0.07289800047874450684,-0.05644411966204643250,-0.08460561931133270264,0.12241362780332565308,0.11707598716020584106,0.12011338025331497192,0.11017517000436782837,0.10058577358722686768,0.16935549676418304443,0.22421006858348846436,0.14305630326271057129,-0.09000452607870101929,-0.26031070947647094727,-0.37078732252120971680,-0.22360609471797943115,-0.12770220637321472168,-0.08031032234430313110,-0.07945472002029418945,-0.00430426048114895821,-0.08534099161624908447,-0.17468626797199249268,-0.18847636878490447998,-0.14319363236427307129,-0.03367007523775100708,-0.08281959593296051025,-0.03171687200665473938,-0.02938608266413211823,-0.02199354767799377441,-0.11498932540416717529,-0.12065201997756958008,-0.08439611643552780151,0.08069208264350891113,0.17609108984470367432,0.04404737055301666260,0.05593525618314743042,0.03822762891650199890,0.00574403489008545876,0.05141321569681167603,-0.14520761370658874512,-0.28959172964096069336,-0.36310356855392456055,-0.32074573636054992676,-0.18508881330490112305,-0.14440149068832397461,0.01887017674744129181,-0.00805606227368116379,-0.02740948647260665894,-0.01701093837618827820,-0.06991557031869888306,-0.12970143556594848633,-0.09341170638799667358,-0.13946332037448883057,-0.08465223014354705811,0.02464034594595432281,0.00537089630961418152,-0.00708483951166272163,-0.12267285585403442383,-0.06932585686445236206,-0.00471512135118246078,0.16419333219528198242,0.06693691760301589966,0.09925466775894165039,0.02819981798529624939,-0.04888270050287246704,-0.05743675306439399719,-0.20054319500923156738,-0.24286049604415893555,-0.21380077302455902100,-0.24073684215545654297,-0.19158506393432617188,-0.13793694972991943359,-0.03178248554468154907,-0.03794967755675315857,0.06924623996019363403,-0.00963567662984132767,0.12345691025257110596,0.01275408081710338593,-0.17931704223155975342,0.03555628657341003418,0.01348601374775171280,-0.01884073577821254730,0.02671818993985652924,0.02349773794412612915,-0.06627213209867477417,-0.07334365695714950562,0.08795654773712158203,-0.00624799448996782303,0.08196668326854705811,0.08728428184986114502,-0.02474977262318134308,-0.04462366923689842224,-0.21505403518676757812,-0.15674300491809844971,-0.25523027777671813965,-0.11655987054109573364,-0.11871643364429473877,-0.00697480747476220131,0.07343712449073791504,-0.05143739283084869385,-0.02889472432434558868,-0.01680269278585910797,0.02491056174039840698,0.07150856405496597290,0.16583353281021118164,0.08919472992420196533,0.04677459597587585449,0.11255685985088348389,-0.00909399613738059998,0.09904714673757553101,-0.04610023275017738342,-0.10181232541799545288,0.01737178862094879150,0.13217446208000183105,0.06188955157995223999,0.03636404126882553101,0.14925023913383483887,-0.01257959753274917603,0.02255883254110813141,-0.11009091883897781372,-0.07396080344915390015,-0.20529511570930480957,-0.11775480210781097412,-0.15402892231941223145,-0.09046697616577148438,0.22256253659725189209,0.05097016692161560059,-0.01985876075923442841,-0.08634664863348007202,0.03436445072293281555,0.05892380326986312866,0.04082365334033966064,-0.02690908312797546387,0.07468721270561218262,0.19891497492790222168,0.29547241330146789551,0.16963346302509307861,-0.00929995905607938766,0.06096571311354637146,0.14921773970127105713,0.03155512362718582153,0.11296662688255310059,0.09759410470724105835,0.09989794343709945679,0.10443515330553054810,-0.03112026676535606384,-0.11502824723720550537,-0.15710943937301635742,-0.13541623950004577637,-0.08871962130069732666,-0.02617552876472473145,-0.11805607378482818604,-0.09032610803842544556,0.04895886033773422241,0.06017679348587989807,-0.01617958582937717438,-0.01638757437467575073,0.00059536861954256892,0.16408680379390716553,-0.07383068650960922241,0.08618027716875076294,0.10689536482095718384,0.32110092043876647949,0.14867947995662689209,0.20173673331737518311,0.18612229824066162109,0.02044558897614479065,0.13620369136333465576,0.00450884830206632614,0.08292832225561141968,0.03721739724278450012,0.00098025496117770672,-0.08960785716772079468,-0.09032109379768371582,-0.07648000866174697876,-0.01867152750492095947,-0.05234800651669502258,-0.17913737893104553223,0.03900286555290222168,-0.01286894269287586212,0.00263203447684645653,0.06848308444023132324,0.23525603115558624268,0.20481443405151367188,0.07716698944568634033,0.00744340382516384125,-0.12151327729225158691,0.02673738636076450348,0.09303760528564453125,-0.10115560144186019897,0.12319317460060119629,0.13103462755680084229,0.28006494045257568359,0.13477963209152221680,0.08890748769044876099,0.00394513271749019623,0.03975006192922592163,-0.03921927139163017273,-0.12342345714569091797,-0.07735893875360488892,-0.12778395414352416992,-0.12301962822675704956,-0.11149316281080245972,0.09272480756044387817,-0.01431392226368188858,0.03744795173406600952,0.01452189497649669647,-0.11344545334577560425,0.05959577113389968872,0.09175322204828262329,0.19154660403728485107,0.17314618825912475586,0.08646514266729354858,0.11927028745412826538,-0.00467950385063886642,-0.07132902741432189941,-0.06855856627225875854,-0.07631320506334304810,0.22253280878067016602,0.33824029564857482910,0.11397792398929595947,0.13039900362491607666,0.18563540279865264893,0.07621622830629348755,0.08081143349409103394,0.03281239420175552368,-0.11934959888458251953,-0.24118573963642120361,-0.07345823198556900024,0.05044120922684669495,0.06635916233062744141,-0.01728291809558868408,0.01928211562335491180,0.07556880265474319458,0.03602081164717674255,0.01379224844276905060,-0.01325642596930265427,0.09537491202354431152,0.12989863753318786621,0.14762222766876220703,-0.04163646325469017029,0.14410187304019927979,0.01185691077262163162,-0.00049473199760541320,0.01320916600525379181,0.07029864192008972168,0.14148811995983123779,0.24965460598468780518,-0.00921473093330860138,0.03900342062115669250,0.09072671830654144287,-0.04809698089957237244,0.03897783160209655762,-0.02215193212032318115,-0.08594977110624313354,0.00094592449022457004,0.00712461164221167564,-0.01261408906430006027,-0.03677336871623992920,0.02484768629074096680,0.09199106693267822266,0.07984136790037155151,-0.02644717507064342499,-0.06217929720878601074,0.00669815763831138611,0.09185069799423217773,0.09438501298427581787,-0.01232793089002370834,0.14974176883697509766,0.19112826883792877197,-0.00777097837999463081,0.09490571171045303345,-0.00665620993822813034,0.06642937660217285156,0.06015481054782867432,0.08667951077222824097,-0.09045242518186569214,-0.14995947480201721191,0.04447937756776809692,-0.07870539277791976929,-0.00210146210156381130,0.00005111045902594924,0.03836176171898841858,-0.03337038308382034302,0.07195416092872619629,0.06320098787546157837,0.04086981341242790222,-0.00433788169175386429,0.12604437768459320068,0.04559377953410148621,-0.03159418702125549316,0.04749131202697753906,-0.03875924274325370789,0.02424076758325099945,0.01514539495110511780,0.00352749950252473354,-0.02745933644473552704,-0.12365818768739700317,-0.03788764402270317078,0.01608271896839141846,0.06231861561536788940,0.11510629951953887939,0.12989842891693115234,0.03027926012873649597,-0.06302635371685028076,-0.17180147767066955566,-0.07075447589159011841,-0.01981237344443798065,-0.04234430193901062012,0.02129315771162509918,-0.01569030247628688812,0.08196984976530075073,0.02935715392231941223,-0.05887173861265182495,0.03325262665748596191,0.05073428899049758911,0.14603559672832489014,0.14068479835987091064,0.11101092398166656494,-0.02796860039234161377,0.08468539267778396606,0.13720668852329254150,0.03574005514383316040,-0.05307143181562423706,-0.20585638284683227539,-0.10726784914731979370,-0.05968248099088668823,0.07211377471685409546,-0.05708584934473037720,-0.02272573672235012054,-0.01895350217819213867,-0.03884365037083625793,-0.14575093984603881836,-0.02705093473196029663,-0.12497299909591674805,0.01480568200349807739,-0.03864329308271408081,0.01647601276636123657,0.03405644744634628296,0.00572919705882668495,0.08570287376642227173,0.02983070537447929382,0.14744515717029571533,0.18676052987575531006,0.16016459465026855469,0.18343034386634826660,-0.01966229081153869629,-0.04292086511850357056,0.17335046827793121338,0.13666263222694396973,0.13369752466678619385,0.02266121841967105865,0.11652691662311553955,-0.01988367177546024323,-0.04391702637076377869,0.02891185879707336426,-0.03962814062833786011,0.02666891552507877350,-0.16028693318367004395,-0.12794704735279083252,-0.05405998229980468750,0.02323051542043685913,0.00956473685801029205,0.10394103080034255981,0.11031481623649597168,0.08363737910985946655,0.06819812208414077759,0.10720151662826538086,0.13449107110500335693,0.03272585198283195496,0.09194312989711761475,0.15799459815025329590,0.17489036917686462402,0.18607425689697265625,0.16816429793834686279,0.22069099545478820801,0.15647053718566894531,-0.00291818217374384403,-0.04957453906536102295,0.04076330736279487610,0.00912802945822477341,-0.07586935907602310181,-0.05578691512346267700,0.04261807352304458618,-0.05511835217475891113,0.00988949090242385864,0.06868428736925125122,0.03583649545907974243,-0.05219292268157005310,-0.16080197691917419434,-0.06351809948682785034,-0.03207970410585403442,0.14635427296161651611,0.27963402867317199707,0.22782745957374572754,0.15529140830039978027,0.13360162079334259033,0.19696374237537384033,0.06449153274297714233,0.05395357310771942139,0.23207147419452667236,0.06964985281229019165,0.00658834073692560196,0.10971997678279876709,0.08269849419593811035,-0.00365687045268714428,0.12564313411712646484,0.09353360533714294434,-0.06457174569368362427,-0.01451209932565689087,-0.07013502717018127441,0.07448240369558334351,-0.02209014073014259338,0.01298449188470840454,0.02275005728006362915,-0.10763470083475112915,-0.09461132436990737915,-0.01531173661351203918,-0.08350162208080291748,-0.00573224481195211411,0.05524531379342079163,0.08902905881404876709,0.13610108196735382080,0.16776855289936065674,-0.00407253485172986984,0.09491530060768127441,0.03710569068789482117,-0.01394371967762708664,0.06566742062568664551,0.12437184154987335205,0.02628796920180320740,0.13391828536987304688,0.00531090656295418739,-0.05577863007783889771,-0.04696429520845413208,0.01195435971021652222,0.05378527194261550903,-0.03397002443671226501,0.04223502427339553833,},

